{"learner":{"attributes":{"best_iteration":"499","best_ntree_limit":"500","best_score":"859.9392418126969"},"feature_names":["V_210254","V_210454","V_210554","V_210654","V_210754","V_210854","V_210954","V_211054","V_211154","V_211254","V_211354","V_211454","V_211554","V_211654","V_211754","V_211854","V_211954","V_212054","V_212154","V_212254","V_212354","V_212454","V_212554","V_212654","V_212754","V_212854","V_212954","V_213054","V_213154","V_213254","V_213354","V_213454","V_213554","V_213754","V_218193","V_220034","V_220254","V_228193","V_230034","V_230035","V_230254","V_238193","V_248193","V_1100254","V_1100454","V_1100554","V_1100754","V_1100854","V_1100954","V_1101054","V_1101154","V_1101254","V_1101354","V_1108193","V_1110034","V_1110035","V_1110036","V_1110037","V_1110038","V_1130654","V_1130754","V_1130854","V_1130954","V_1131054","V_1131154","V_1131254","V_1131354","V_1131454","V_1131554","V_1131654","V_1131754","V_1131854","V_1131954","V_1132054","V_1132154","V_1132254","V_1132354","V_1132454","V_1151354","V_1151454","V_1160754","V_1200254","V_1210654","V_1210754","V_1210854","V_1210954","V_1211054","V_1211254","V_1211354","V_1211454","V_1211554","V_1220654","V_1220754","V_1220854","V_1220954","V_1221054","V_1221154","V_1221254","V_1221354","V_1221554","V_1221654","V_1221754","V_1320254","V_1410254","V_1410354","V_1470254","V_1510254","V_1510454","V_1610254","year","month","day","hour"],"feature_types":["float","float","float","float","float","float","float","float","float","float","float","float","float","float","float","float","float","float","float","float","float","float","float","float","float","float","float","float","float","float","float","float","float","float","float","float","float","float","float","float","float","float","float","float","float","float","float","float","float","float","float","float","float","float","float","float","float","float","float","float","float","float","float","float","float","float","float","float","float","float","float","float","float","float","float","float","float","float","float","float","float","float","float","float","float","float","float","float","float","float","float","float","float","float","float","float","float","float","float","float","float","float","float","float","float","float","float","float","float","c","c","c","c"],"gradient_booster":{"model":{"gbtree_model_param":{"num_parallel_tree":"1","num_trees":"500","size_leaf_vector":"0"},"tree_info":[0,0,0,0,0,0,0,0,0,0,0,0,0,0,0,0,0,0,0,0,0,0,0,0,0,0,0,0,0,0,0,0,0,0,0,0,0,0,0,0,0,0,0,0,0,0,0,0,0,0,0,0,0,0,0,0,0,0,0,0,0,0,0,0,0,0,0,0,0,0,0,0,0,0,0,0,0,0,0,0,0,0,0,0,0,0,0,0,0,0,0,0,0,0,0,0,0,0,0,0,0,0,0,0,0,0,0,0,0,0,0,0,0,0,0,0,0,0,0,0,0,0,0,0,0,0,0,0,0,0,0,0,0,0,0,0,0,0,0,0,0,0,0,0,0,0,0,0,0,0,0,0,0,0,0,0,0,0,0,0,0,0,0,0,0,0,0,0,0,0,0,0,0,0,0,0,0,0,0,0,0,0,0,0,0,0,0,0,0,0,0,0,0,0,0,0,0,0,0,0,0,0,0,0,0,0,0,0,0,0,0,0,0,0,0,0,0,0,0,0,0,0,0,0,0,0,0,0,0,0,0,0,0,0,0,0,0,0,0,0,0,0,0,0,0,0,0,0,0,0,0,0,0,0,0,0,0,0,0,0,0,0,0,0,0,0,0,0,0,0,0,0,0,0,0,0,0,0,0,0,0,0,0,0,0,0,0,0,0,0,0,0,0,0,0,0,0,0,0,0,0,0,0,0,0,0,0,0,0,0,0,0,0,0,0,0,0,0,0,0,0,0,0,0,0,0,0,0,0,0,0,0,0,0,0,0,0,0,0,0,0,0,0,0,0,0,0,0,0,0,0,0,0,0,0,0,0,0,0,0,0,0,0,0,0,0,0,0,0,0,0,0,0,0,0,0,0,0,0,0,0,0,0,0,0,0,0,0,0,0,0,0,0,0,0,0,0,0,0,0,0,0,0,0,0,0,0,0,0,0,0,0,0,0,0,0,0,0,0,0,0,0,0,0,0,0,0,0,0,0,0,0,0,0,0,0,0,0,0,0,0,0,0,0,0,0,0,0,0,0,0,0,0,0,0,0,0,0,0,0,0,0,0,0,0,0,0,0,0,0,0,0,0,0,0,0,0,0,0,0,0,0,0,0,0,0,0,0,0,0,0,0,0,0,0,0,0,0,0,0],"trees":[{"base_weights":[1.8906534E3,1.6218153E3,4.6089585E3,1.9258933E3,1.0605214E3,3.859809E3,6.6639404E3,1.3795116E3,2.4994705E3,8.18449E2,1.5831595E3,2.596804E3,4.4406436E3,7.6171465E3,3.9027976E3,1.0006485E3,1.7911509E3,2.9375408E3,1.6305891E3,7.458739E2,1.4090956E3,1.3648121E3,1.9562025E3,3.0823933E3,1.9654525E3,5.6395254E3,2.6706777E3,8.499988E3,3.9531152E3,3.1306072E3,6.2184395E3,2.0277257E3,8.510782E2,1.0721895E3,1.9920106E3,3.3377703E3,1.9220083E3,2.2216907E3,1.0764528E3,6.3434705E2,1.0863737E3,1.1319076E3,1.6158948E3,1.7038993E3,1.01369684E3,1.7566406E3,2.5706726E3,4.475511E3,2.3634443E3,1.4121729E3,2.681631E3,4.74919E3,7.873933E3,3.2546902E3,1.6093015E3,4.539144E3,9.810116E3,3.279578E3,5.3660874E3,3.8656045E3,2.0861838E3,7.484145E3,3.693504E3,1.637954E3,3.7172012E3,1.8608402E3,8.1137854E2,7.371229E2,2.2502642E3,1.3105862E3,2.5083015E3,6.105948E3,3.1986047E3,1.5883367E3,2.7002783E3,1.8179812E3,3.3910728E3,1.7854901E3,9.507367E2,6.165934E2,1.526314E3,9.7307574E2,1.4169551E3,1.6013303E3,9.904642E2,1.1477339E3,1.7378063E3,1.6763953E3,4.4238887E3,6.4920764E2,1.2281653E3,1.6368652E3,2.4302166E3,2.3862017E3,3.7305447E3,3.7556172E3,5.6270586E3,1.7742861E3,3.0658367E3,1.328308E3,4.245996E3,3.1639302E3,1.9224113E3,5.4988E3,2.9783E3,6.7304536E3,1.0837871E4,2.7552214E3,3.7108635E3,1.4029359E3,2.224893E3,2.5870632E3,5.3375376E3,8.56786E3,1.2622882E4,2.3539182E3,4.0262065E3,6.9945884E3,2.447925E3,3.0602554E3,5.003162E3,1.8146096E3,3.8831584E3,8.451834E3,4.394633E3,2.0168699E3,4.9597485E3],"categories":[],"categories_nodes":[],"categories_segments":[],"categories_sizes":[],"default_left":[1,1,1,1,1,1,1,1,1,1,1,1,1,1,1,1,1,1,1,1,1,1,1,1,1,1,1,1,1,1,1,1,1,1,1,1,1,1,1,1,1,1,1,1,1,1,1,1,1,1,1,1,1,1,1,1,1,1,1,1,1,1,1,0,0,0,0,0,0,0,0,0,0,0,0,0,0,0,0,0,0,0,0,0,0,0,0,0,0,0,0,0,0,0,0,0,0,0,0,0,0,0,0,0,0,0,0,0,0,0,0,0,0,0,0,0,0,0,0,0,0,0,0,0,0,0,0],"id":0,"left_children":[1,3,5,7,9,11,13,15,17,19,21,23,25,27,29,31,33,35,37,39,41,43,45,47,49,51,53,55,57,59,61,63,65,67,69,71,73,75,77,79,81,83,85,87,89,91,93,95,97,99,101,103,105,107,109,111,113,115,117,119,121,123,125,-1,-1,-1,-1,-1,-1,-1,-1,-1,-1,-1,-1,-1,-1,-1,-1,-1,-1,-1,-1,-1,-1,-1,-1,-1,-1,-1,-1,-1,-1,-1,-1,-1,-1,-1,-1,-1,-1,-1,-1,-1,-1,-1,-1,-1,-1,-1,-1,-1,-1,-1,-1,-1,-1,-1,-1,-1,-1,-1,-1,-1,-1,-1,-1],"loss_changes":[2.1587927E10,4.587979E9,4.0677827E9,5.462733E9,1.194536E9,1.4197166E9,1.8363146E9,1.3916662E9,3.23362E9,2.759506E8,2.409554E8,1.830999E8,2.8177818E9,1.667883E9,3.09546E8,7.1337626E8,6.160845E8,2.2920397E9,9.3243904E8,2.1793203E8,3.8640384E7,2.232937E8,1.3061709E8,3.36971E8,1.0359603E8,1.5441551E9,3.3010483E8,2.1505085E9,8.137715E7,9.940634E7,1.1616934E8,3.8309094E8,1.614446E8,3.6820646E8,1.1735286E9,1.5425946E9,4.114693E8,6.453207E8,1.297801E8,6.776998E7,5.1768576E7,1.866496E7,2.0949248E7,6.4401664E7,7.198029E7,6.338816E7,4.844032E7,7.585869E7,9.015283E7,3.1197056E7,3.6759616E7,7.4161254E8,6.896261E8,6.906547E7,2.1523776E7,1.5295386E8,9.995018E8,4.097472E7,1.3494912E8,5.8895744E7,2.2234288E7,4.9558144E7,2.6088304E7,0E0,0E0,0E0,0E0,0E0,0E0,0E0,0E0,0E0,0E0,0E0,0E0,0E0,0E0,0E0,0E0,0E0,0E0,0E0,0E0,0E0,0E0,0E0,0E0,0E0,0E0,0E0,0E0,0E0,0E0,0E0,0E0,0E0,0E0,0E0,0E0,0E0,0E0,0E0,0E0,0E0,0E0,0E0,0E0,0E0,0E0,0E0,0E0,0E0,0E0,0E0,0E0,0E0,0E0,0E0,0E0,0E0,0E0,0E0,0E0,0E0,0E0,0E0,0E0],"parents":[2147483647,0,0,1,1,2,2,3,3,4,4,5,5,6,6,7,7,8,8,9,9,10,10,11,11,12,12,13,13,14,14,15,15,16,16,17,17,18,18,19,19,20,20,21,21,22,22,23,23,24,24,25,25,26,26,27,27,28,28,29,29,30,30,31,31,32,32,33,33,34,34,35,35,36,36,37,37,38,38,39,39,40,40,41,41,42,42,43,43,44,44,45,45,46,46,47,47,48,48,49,49,50,50,51,51,52,52,53,53,54,54,55,55,56,56,57,57,58,58,59,59,60,60,61,61,62,62],"right_children":[2,4,6,8,10,12,14,16,18,20,22,24,26,28,30,32,34,36,38,40,42,44,46,48,50,52,54,56,58,60,62,64,66,68,70,72,74,76,78,80,82,84,86,88,90,92,94,96,98,100,102,104,106,108,110,112,114,116,118,120,122,124,126,-1,-1,-1,-1,-1,-1,-1,-1,-1,-1,-1,-1,-1,-1,-1,-1,-1,-1,-1,-1,-1,-1,-1,-1,-1,-1,-1,-1,-1,-1,-1,-1,-1,-1,-1,-1,-1,-1,-1,-1,-1,-1,-1,-1,-1,-1,-1,-1,-1,-1,-1,-1,-1,-1,-1,-1,-1,-1,-1,-1,-1,-1,-1,-1],"split_conditions":[6.775E-1,7.5E0,1.8815E0,3.5E0,1.005814E0,3.5E0,3.0194893E-2,1.5E0,5.4899807E-4,1.0066667E0,5.1020406E-2,4.347826E-2,6.5E0,6.5E0,1.21E0,9.9888146E-1,7.48279E-4,6.5E0,3.5E0,1.75E1,9.5E0,9.5E0,1.0042647E-1,2.5E0,1.031746E0,5.697857E-1,2.5E0,3.5E0,2.411654E0,2.129634E0,1.8011162E0,6.9444445E-3,5.7471264E-3,8.7243176E-1,1.5E0,7.236993E-1,1.050906E0,4.464286E-2,1.258578E-1,1.9963899E0,7.526046E-1,1.5E0,4E-1,4.295E0,8.5E0,2.0263157E0,2.1929824E0,1.2808585E0,4.5E0,3.2269914E0,1.5192308E0,1.715619E-2,4.5E0,1.1981982E0,2.9866667E0,1.0446242E0,6.9444445E-3,1.7736169E0,1.3611112E0,5E-1,2.9451835E0,1.8204594E0,1.1666667E0,3.275908E1,7.4344025E1,3.7216805E1,1.622757E1,1.4742458E1,4.5005283E1,2.6211723E1,5.016603E1,1.22118965E2,6.397209E1,3.1766733E1,5.4005566E1,3.6359623E1,6.782146E1,3.57098E1,1.9014734E1,1.2331867E1,3.052628E1,1.9461514E1,2.8339102E1,3.2026608E1,1.9809282E1,2.2954678E1,3.4756126E1,3.3527905E1,8.847777E1,1.2984153E1,2.4563305E1,3.2737305E1,4.860433E1,4.7724033E1,7.461089E1,7.511234E1,1.1254117E2,3.548572E1,6.131673E1,2.6566158E1,8.491992E1,6.3278603E1,3.8448223E1,1.0997599E2,5.9565998E1,1.3460907E2,2.1675742E2,5.5104427E1,7.421727E1,2.8058718E1,4.449786E1,5.1741264E1,1.0675075E2,1.7135721E2,2.5245763E2,4.707836E1,8.052413E1,1.3989177E2,4.89585E1,6.1205105E1,1.0006324E2,3.629219E1,7.766317E1,1.6903668E2,8.7892654E1,4.0337395E1,9.919497E1],"split_indices":[53,110,53,110,103,110,33,110,33,14,7,96,110,110,57,26,103,110,109,112,112,110,53,109,16,57,109,110,21,33,33,60,21,33,109,26,94,106,33,83,33,112,100,57,112,13,93,103,109,1,85,33,109,93,21,103,81,103,72,74,33,103,11,0,0,0,0,0,0,0,0,0,0,0,0,0,0,0,0,0,0,0,0,0,0,0,0,0,0,0,0,0,0,0,0,0,0,0,0,0,0,0,0,0,0,0,0,0,0,0,0,0,0,0,0,0,0,0,0,0,0,0,0,0,0,0,0],"split_type":[0,0,0,0,0,0,0,0,0,0,0,0,0,0,0,0,0,0,0,0,0,0,0,0,0,0,0,0,0,0,0,0,0,0,0,0,0,0,0,0,0,0,0,0,0,0,0,0,0,0,0,0,0,0,0,0,0,0,0,0,0,0,0,0,0,0,0,0,0,0,0,0,0,0,0,0,0,0,0,0,0,0,0,0,0,0,0,0,0,0,0,0,0,0,0,0,0,0,0,0,0,0,0,0,0,0,0,0,0,0,0,0,0,0,0,0,0,0,0,0,0,0,0,0,0,0,0],"sum_hessian":[2.955E4,2.6892E4,2.658E3,1.7441E4,9.451E3,1.95E3,7.08E2,8.934E3,8.507E3,6.461E3,2.99E3,6.16E2,1.334E3,5.25E2,1.83E2,4.654E3,4.28E3,5.654E3,2.853E3,5.756E3,7.05E2,1.889E3,1.101E3,3.46E2,2.7E2,7.94E2,5.4E2,4.22E2,1.03E2,1.39E2,4.4E1,5.9E2,4.064E3,9.36E2,3.344E3,4.054E3,1.6E3,1.379E3,1.474E3,4.338E3,1.418E3,3.04E2,4.01E2,9.59E2,9.3E2,8.34E2,2.67E2,1.16E2,2.3E2,1.54E2,1.16E2,5.7E2,2.24E2,3.47E2,1.93E2,1.06E2,3.16E2,7.2E1,3.1E1,8E1,5.9E1,2.8E1,1.6E1,4.81E2,1.09E2,1.52E2,3.912E3,7.3E2,2.06E2,1.443E3,1.901E3,1.92E2,3.862E3,1.122E3,4.78E2,1.027E3,3.52E2,2.2E2,1.254E3,4.255E3,8.3E1,1.059E3,3.59E2,6.8E1,2.36E2,8.5E1,3.16E2,9.51E2,8E0,3.46E2,5.84E2,7.11E2,1.23E2,2.33E2,3.4E1,7.4E1,4.2E1,1.27E2,1.03E2,1.51E2,3E0,6.9E1,4.7E1,3.99E2,1.71E2,1.64E2,6E1,1.69E2,1.78E2,1.47E2,4.6E1,3.2E1,7.4E1,2.22E2,9.4E1,3.4E1,3.8E1,1.9E1,1.2E1,4.9E1,3.1E1,5.3E1,6E0,2E1,8E0,8E0,8E0],"tree_param":{"num_deleted":"0","num_feature":"113","num_nodes":"127","size_leaf_vector":"0"}},{"base_weights":[1.853013E3,1.5666483E3,4.3385825E3,1.0730302E3,1.8919886E3,3.6407422E3,6.645918E3,9.796945E2,3.0019346E3,1.6759127E3,2.5752004E3,3.4258923E3,6.993412E3,5.2696357E3,8.315682E3,7.978396E2,1.7046177E3,1.802049E3,5.3979424E3,2.0365325E3,1.3384108E3,2.426384E3,3.626971E3,2.7963557E3,4.2620664E3,1.2456238E4,4.157431E3,4.9140474E3,1.1898184E4,1.3402939E4,7.733153E3,6.8429724E2,1.1605028E3,1.9382611E3,1.17471E3,1.4023544E3,2.528897E3,9.072787E3,4.868224E3,2.5699797E3,1.4515831E3,1.01008356E3,1.815143E3,2.3066697E3,3.3872751E3,6.3767344E3,3.34866E3,1.940685E3,3.2332366E3,1.002567E4,3.9668545E3,7.623194E3,1.4483504E4,3.450628E3,1.1235887E4,3.5940425E3,5.975756E3,1.2308571E4,2.2555957E3,1.5924624E4,7.370365E3,6.0190757E3,8.72971E3,6.299205E2,9.4064404E2,1.0500189E3,1.5583785E3,1.6520745E3,2.864825E3,1.1115201E3,2.5585906E3,2.1117925E3,9.6714246E2,2.6511013E3,1.0050835E3,9.429137E3,1.3292483E3,3.8239783E3,6.7721196E3,2.247363E3,3.2079346E3,1.3330674E3,3.1420708E3,1.5853508E3,9.301052E2,1.5549209E3,2.197724E3,2.0158094E3,2.6887378E3,3.1843635E3,7.377552E3,4.238376E3,1.201771E4,3.229108E3,6.6533345E3,1.6512098E3,2.9025063E3,2.950218E3,5.0297056E3,3.5598367E3,1.420438E4,3.7348079E3,6.2163066E3,4.8543926E3,8.799035E3,1.5385403E4,6.536162E3,1.3972025E3,4.6415986E3,2.763849E3,1.3599258E4,2.3568442E3,4.132977E3,3.654054E3,6.751083E3,8.699395E3,9.2648846E2,5.10686E3,7.5650815E3,4.9705E3,9.368969E3],"categories":[],"categories_nodes":[],"categories_segments":[],"categories_sizes":[],"default_left":[1,1,1,1,1,1,1,1,1,1,1,1,1,1,1,1,1,1,1,1,1,1,1,1,1,1,1,1,1,1,1,1,1,1,1,1,1,1,1,1,1,1,1,1,1,1,1,1,1,1,1,1,1,1,1,1,1,0,0,0,1,1,1,0,0,0,0,0,0,0,0,0,0,0,0,0,0,0,0,0,0,0,0,0,0,0,0,0,0,0,0,0,0,0,0,0,0,0,0,0,0,0,0,0,0,0,0,0,0,0,0,0,0,0,0,0,0,0,0,0,0],"id":1,"left_children":[1,3,5,7,9,11,13,15,17,19,21,23,25,27,29,31,33,35,37,39,41,43,45,47,49,51,53,55,57,59,61,63,65,67,69,71,73,75,77,79,81,83,85,87,89,91,93,95,97,99,101,103,105,107,109,111,113,-1,-1,-1,115,117,119,-1,-1,-1,-1,-1,-1,-1,-1,-1,-1,-1,-1,-1,-1,-1,-1,-1,-1,-1,-1,-1,-1,-1,-1,-1,-1,-1,-1,-1,-1,-1,-1,-1,-1,-1,-1,-1,-1,-1,-1,-1,-1,-1,-1,-1,-1,-1,-1,-1,-1,-1,-1,-1,-1,-1,-1,-1,-1],"loss_changes":[2.0831953E10,4.2142065E9,4.8449044E9,1.8751887E9,2.331562E9,1.6500695E9,1.5671235E9,1.3106207E9,1.3731159E9,1.4607155E9,5.8597786E8,1.1387945E9,2.1016684E9,8.537037E8,8.298455E8,3.2689766E8,2.447232E8,9.000013E7,2.6729318E8,1.8095309E9,9.708083E8,3.7547418E8,3.3756672E8,4.6100685E8,1.5545211E9,3.500892E8,4.2651507E8,4.9566208E8,4.7423744E7,3.5420877E8,4.3428557E8,8.392141E7,8.170982E7,3.6199782E8,5.076115E7,6.279635E7,1.837792E7,3.989517E7,2.5641882E8,6.180557E8,5.515807E8,1.6793011E8,2.4875776E8,3.241861E8,2.736571E8,4.556864E8,1.4761062E8,1.1353741E8,4.051282E8,1.1652828E9,4.4290867E8,9.376704E6,1.2880486E8,2.0383366E8,1.2259424E8,1.0160947E8,3.4074726E8,0E0,0E0,0E0,8.614528E7,1.1367757E8,3.8118502E8,0E0,0E0,0E0,0E0,0E0,0E0,0E0,0E0,0E0,0E0,0E0,0E0,0E0,0E0,0E0,0E0,0E0,0E0,0E0,0E0,0E0,0E0,0E0,0E0,0E0,0E0,0E0,0E0,0E0,0E0,0E0,0E0,0E0,0E0,0E0,0E0,0E0,0E0,0E0,0E0,0E0,0E0,0E0,0E0,0E0,0E0,0E0,0E0,0E0,0E0,0E0,0E0,0E0,0E0,0E0,0E0,0E0,0E0],"parents":[2147483647,0,0,1,1,2,2,3,3,4,4,5,5,6,6,7,7,8,8,9,9,10,10,11,11,12,12,13,13,14,14,15,15,16,16,17,17,18,18,19,19,20,20,21,21,22,22,23,23,24,24,25,25,26,26,27,27,28,28,29,29,30,30,31,31,32,32,33,33,34,34,35,35,36,36,37,37,38,38,39,39,40,40,41,41,42,42,43,43,44,44,45,45,46,46,47,47,48,48,49,49,50,50,51,51,52,52,53,53,54,54,55,55,56,56,60,60,61,61,62,62],"right_children":[2,4,6,8,10,12,14,16,18,20,22,24,26,28,30,32,34,36,38,40,42,44,46,48,50,52,54,56,58,60,62,64,66,68,70,72,74,76,78,80,82,84,86,88,90,92,94,96,98,100,102,104,106,108,110,112,114,-1,-1,-1,116,118,120,-1,-1,-1,-1,-1,-1,-1,-1,-1,-1,-1,-1,-1,-1,-1,-1,-1,-1,-1,-1,-1,-1,-1,-1,-1,-1,-1,-1,-1,-1,-1,-1,-1,-1,-1,-1,-1,-1,-1,-1,-1,-1,-1,-1,-1,-1,-1,-1,-1,-1,-1,-1,-1,-1,-1,-1,-1,-1],"split_conditions":[5.6350005E-1,7.48279E-4,1.8815E0,5.5714287E-2,7.594144E-2,1.8116009E0,1.5E0,7.5735295E-1,1.6768978E0,3.4965035E-3,9.690467E-1,1.0392308E0,1.9656765E0,1.8458745E0,6.6981137E-1,1.75E1,3.5E0,3.3863635E0,9.53125E-1,1.6160746E0,1.0185249E0,4.5E0,8.3345646E-1,3.8208383E-1,7.216981E-1,1.880198E0,2.915E0,1.2334366E0,7.5E0,5E-1,2.875E0,1.0105611E0,9.0148515E-1,9.736842E-2,1.5E0,3.5E0,7.5424833E0,5E-1,6.2528734E0,1.2814314E0,4.5E0,9.622642E-1,1.2593007E0,1.0736771E0,1.5E0,1.8647058E0,1.0403334E1,9.736842E-1,4.5E0,3.2885554E-1,2.511857E0,2.9411765E-2,3E0,4.5E0,4.482979E0,7.630209E-1,4.498147E-1,2.4617142E2,4.511191E1,3.1849246E2,1.05E0,3.9642859E0,1.5476191E-1,1.2598409E1,1.881288E1,2.1000378E1,3.116757E1,3.304149E1,5.7296497E1,2.2230402E1,5.117181E1,4.2235847E1,1.9342848E1,5.3022026E1,2.010167E1,1.8858273E2,2.6584965E1,7.647956E1,1.3544238E2,4.4947258E1,6.415869E1,2.6661346E1,6.2841415E1,3.1707016E1,1.8602104E1,3.1098417E1,4.3954483E1,4.031619E1,5.3774754E1,6.3687267E1,1.4755103E2,8.476752E1,2.4035419E2,6.458215E1,1.3306668E2,3.3024197E1,5.8050125E1,5.900436E1,1.0059411E2,7.119673E1,2.840876E2,7.469616E1,1.2432613E2,9.708785E1,1.759807E2,3.0770807E2,1.3072324E2,2.794405E1,9.283197E1,5.527698E1,2.7198514E2,4.7136883E1,8.265954E1,7.308108E1,1.3502165E2,1.7398788E2,1.8529768E1,1.0213719E2,1.5130162E2,9.9409996E1,1.8737936E2],"split_indices":[53,103,53,108,53,31,69,16,31,71,57,16,31,31,26,112,109,20,21,103,88,109,26,103,26,31,55,21,0,5,55,31,31,106,4,109,20,2,20,103,109,27,93,16,69,16,26,16,109,26,57,14,97,109,31,103,103,0,0,0,14,71,17,0,0,0,0,0,0,0,0,0,0,0,0,0,0,0,0,0,0,0,0,0,0,0,0,0,0,0,0,0,0,0,0,0,0,0,0,0,0,0,0,0,0,0,0,0,0,0,0,0,0,0,0,0,0,0,0,0,0],"split_type":[0,0,0,0,0,0,0,0,0,0,0,0,0,0,0,0,0,0,0,0,0,0,0,0,0,0,0,0,0,0,0,0,0,0,0,0,0,0,0,0,0,0,0,0,0,0,0,0,0,0,0,0,0,0,0,0,0,0,0,0,0,0,0,0,0,0,0,0,0,0,0,0,0,0,0,0,0,0,0,0,0,0,0,0,0,0,0,0,0,0,0,0,0,0,0,0,0,0,0,0,0,0,0,0,0,0,0,0,0,0,0,0,0,0,0,0,0,0,0,0,0],"sum_hessian":[2.9276E4,2.6253E4,3.023E3,1.0431E4,1.5822E4,2.323E3,7E2,9.951E3,4.8E2,1.2023E4,3.799E3,2.185E3,1.38E2,3.86E2,3.14E2,7.957E3,1.994E3,3.21E2,1.59E2,5.81E3,6.213E3,3.331E3,4.68E2,1.249E3,9.36E2,4.6E1,9.2E1,3.68E2,1.8E1,3E1,2.84E2,6.062E3,1.895E3,1.382E3,6.12E2,2.09E2,1.12E2,1.8E1,1.41E2,3.037E3,2.773E3,3.681E3,2.532E3,2.965E3,3.66E2,4.1E1,4.27E2,4.24E2,8.25E2,4.4E1,8.92E2,1.5E1,3.1E1,8.5E1,7E0,1.66E2,2.02E2,1.7E1,1E0,2E1,1E1,1.07E2,1.77E2,5.004E3,1.058E3,1.486E3,4.09E2,1.058E3,3.24E2,5.87E2,2.5E1,7.8E1,1.31E2,1.03E2,9E0,1.7E1,1E0,9.3E1,4.8E1,2.02E3,1.017E3,2.593E3,1.8E2,4.47E2,3.234E3,1.51E3,1.022E3,1.687E3,1.278E3,3.5E2,1.6E1,3.1E1,1E1,4.14E2,1.3E1,3.28E2,9.6E1,7.15E2,1.1E2,1.8E1,2.6E1,8.11E2,8.1E1,6E0,9E0,2.7E1,4E0,3.2E1,5.3E1,2E0,5E0,5.2E1,1.14E2,5.2E1,1.5E2,8E0,2E0,7E1,3.7E1,2.7E1,1.5E2],"tree_param":{"num_deleted":"0","num_feature":"113","num_nodes":"121","size_leaf_vector":"0"}},{"base_weights":[1.8273435E3,1.543418E3,4.1980605E3,1.838804E3,1.00553186E3,3.4072751E3,6.0161963E3,9.5949133E2,2.1557468E3,8.573921E2,1.4740718E3,3.175161E3,6.7505737E3,5.643754E3,1.1894443E4,1.9660532E3,8.035572E2,2.5229592E3,1.4485625E3,9.514898E2,5.4197974E2,1.1514398E3,1.8191958E3,2.5589443E3,3.9871821E3,8.819433E3,1.9422192E3,4.8128164E3,8.015536E3,5.9579863E3,1.3550629E4,1.8082578E3,4.5582637E3,9.117606E2,6.238979E2,2.2302244E3,3.1351138E3,9.246333E2,1.8169701E3,1.2454994E3,8.465681E2,4.293808E2,7.383997E2,1.3709237E3,5.7708124E2,1.6588827E3,2.3993994E3,3.0090156E3,1.8359635E3,8.937703E3,3.7672568E3,7.6746714E3,1.2957506E4,1.5035192E3,4.470066E3,5.5511904E3,3.3310864E3,8.842719E3,4.9821616E3,3.0203062E3,8.464194E3,1.398183E4,3.1406675E3,1.1785233E3,2.2203833E3,3.36661E3,5.135639E3,8.0377313E2,1.6386323E3,9.034354E2,5.8716284E2,2.6073357E3,1.7833778E3,2.3067322E3,3.4623833E3,9.007098E2,2.4330117E3,2.115205E3,1.537095E3,1.0204437E3,1.5168374E3,7.064765E2,1.0702953E3,4.17364E2,2.4327192E3,6.590961E2,1.01096924E3,1.2629304E3,1.7891152E3,2.3883916E3,4.8111353E2,1.8045408E3,1.2250035E3,1.9358899E3,2.773972E3,1.9854517E3,3.6681633E3,1.4135999E3,2.3491523E3,3.6204316E3,1.3276362E4,3.511133E3,5.496782E3,3.8176028E3,8.506032E3,3.9910818E3,1.494967E4,2.0369392E3,1.3357936E2,3.747577E3,7.0350684E3,3.6864329E3,1.4259087E3,4.753497E3,1.0121348E4,2.9099907E3,5.531063E3,3.2303066E3,7.751515E2,9.187679E3,2.0616445E3],"categories":[],"categories_nodes":[],"categories_segments":[],"categories_sizes":[],"default_left":[1,1,1,1,1,1,1,1,1,1,1,1,1,1,1,1,1,1,1,1,1,1,1,1,1,1,1,1,1,1,1,1,1,1,1,1,1,1,1,1,1,1,1,1,1,1,1,1,1,1,1,1,1,1,0,1,1,1,1,1,1,0,0,0,0,0,0,0,0,0,0,0,0,0,0,0,0,0,0,0,0,0,0,0,0,0,0,0,0,0,0,0,0,0,0,0,0,0,0,0,0,0,0,0,0,0,0,0,0,0,0,0,0,0,0,0,0,0,0,0,0],"id":2,"left_children":[1,3,5,7,9,11,13,15,17,19,21,23,25,27,29,31,33,35,37,39,41,43,45,47,49,51,53,55,57,59,61,63,65,67,69,71,73,75,77,79,81,83,85,87,89,91,93,95,97,99,101,103,105,107,-1,109,111,113,115,117,119,-1,-1,-1,-1,-1,-1,-1,-1,-1,-1,-1,-1,-1,-1,-1,-1,-1,-1,-1,-1,-1,-1,-1,-1,-1,-1,-1,-1,-1,-1,-1,-1,-1,-1,-1,-1,-1,-1,-1,-1,-1,-1,-1,-1,-1,-1,-1,-1,-1,-1,-1,-1,-1,-1,-1,-1,-1,-1,-1,-1],"loss_changes":[1.985287E10,4.184744E9,4.515623E9,4.737929E9,6.472274E8,1.6866038E9,2.0236575E9,7.05984E8,3.2426844E9,2.1023898E8,2.47659E8,1.02057984E9,1.3954591E9,1.7351455E9,4.698501E8,2.3881702E8,7.534336E7,1.4672773E9,8.2347725E8,1.6762266E8,3.582157E7,1.4569331E8,9.666099E7,3.7648742E8,9.3204685E8,3.6952883E8,4.207368E7,7.134433E8,5.38068E8,7.750973E7,1.4910566E8,1.4557478E8,6.103424E6,1.8981363E8,1.4574976E7,9.337897E8,7.128801E8,6.157197E7,2.0617165E8,8.614323E7,1.2564736E8,2.4045424E7,1.2173408E7,3.5676544E7,5.4997104E7,5.1570944E7,3.490931E7,4.7983565E8,9.486797E7,8.055176E8,3.5766886E8,2.2405632E8,2.9758643E8,2.8227288E7,0E0,1.1646075E9,1.4706842E8,8.982651E8,4.3050496E7,1.267896E6,1.3483264E7,0E0,0E0,0E0,0E0,0E0,0E0,0E0,0E0,0E0,0E0,0E0,0E0,0E0,0E0,0E0,0E0,0E0,0E0,0E0,0E0,0E0,0E0,0E0,0E0,0E0,0E0,0E0,0E0,0E0,0E0,0E0,0E0,0E0,0E0,0E0,0E0,0E0,0E0,0E0,0E0,0E0,0E0,0E0,0E0,0E0,0E0,0E0,0E0,0E0,0E0,0E0,0E0,0E0,0E0,0E0,0E0,0E0,0E0,0E0,0E0],"parents":[2147483647,0,0,1,1,2,2,3,3,4,4,5,5,6,6,7,7,8,8,9,9,10,10,11,11,12,12,13,13,14,14,15,15,16,16,17,17,18,18,19,19,20,20,21,21,22,22,23,23,24,24,25,25,26,26,27,27,28,28,29,29,30,30,31,31,32,32,33,33,34,34,35,35,36,36,37,37,38,38,39,39,40,40,41,41,42,42,43,43,44,44,45,45,46,46,47,47,48,48,49,49,50,50,51,51,52,52,53,53,55,55,56,56,57,57,58,58,59,59,60,60],"right_children":[2,4,6,8,10,12,14,16,18,20,22,24,26,28,30,32,34,36,38,40,42,44,46,48,50,52,54,56,58,60,62,64,66,68,70,72,74,76,78,80,82,84,86,88,90,92,94,96,98,100,102,104,106,108,-1,110,112,114,116,118,120,-1,-1,-1,-1,-1,-1,-1,-1,-1,-1,-1,-1,-1,-1,-1,-1,-1,-1,-1,-1,-1,-1,-1,-1,-1,-1,-1,-1,-1,-1,-1,-1,-1,-1,-1,-1,-1,-1,-1,-1,-1,-1,-1,-1,-1,-1,-1,-1,-1,-1,-1,-1,-1,-1,-1,-1,-1,-1,-1,-1],"split_conditions":[5.485E-1,7.5E0,1.5885E0,1.5E0,4.8469387E-2,3.1904762E0,1.8735663E0,9.996271E-1,2.7449903E-4,5E0,1.007243E0,1.0392308E0,6.5E0,2.5E0,1.665E0,2.65E1,9.791666E-1,5.9763886E-2,5.169736E-1,8.5E0,3.7722772E-1,2.50179E0,9.164706E-2,1.05270386E-1,7.232704E-1,4.0769234E0,1.7903225E0,5.5E0,5.5E0,9.5E0,2.5E0,7.4571214E-4,1.4520547E0,1.0461977E0,8.5974026E-1,7.083334E-1,3.5E0,5.8076925E0,1.9194105E0,1.1791667E-2,1.8994889E-1,6.5E0,9.0049505E-1,1.0074999E0,2.5E0,3.5977917E0,1.4764152E0,3.5E0,5.1E-1,3.1784925E-1,1.6952474E0,4.5E0,5.4499996E-1,8.5E0,8.940131E1,3.5E0,1.7009616E0,3.5E0,1.2E1,1.0136364E1,6.375E-1,2.796366E2,6.2813347E1,2.3570465E1,4.4407665E1,6.73322E1,1.0271278E2,1.6075462E1,3.2772644E1,1.8068708E1,1.1743257E1,5.2146713E1,3.5667557E1,4.6134644E1,6.9247665E1,1.8014194E1,4.8660233E1,4.23041E1,3.07419E1,2.0408875E1,3.0336748E1,1.412953E1,2.1405905E1,8.3472805E0,4.8654385E1,1.3181922E1,2.0219385E1,2.5258608E1,3.5782303E1,4.776783E1,9.622271E0,3.6090816E1,2.450007E1,3.8717796E1,5.547944E1,3.9709034E1,7.3363266E1,2.8271996E1,4.6983047E1,7.240863E1,2.6552725E2,7.022266E1,1.0993564E2,7.635205E1,1.7012064E2,7.982163E1,2.9899338E2,4.0738785E1,2.6715872E0,7.495154E1,1.4070137E2,7.372865E1,2.8518173E1,9.506994E1,2.0242696E2,5.8199814E1,1.10621254E2,6.460613E1,1.550303E1,1.8375357E2,4.123289E1],"split_indices":[53,110,53,110,7,104,31,26,33,104,25,16,110,69,56,111,82,53,16,110,31,68,53,33,26,84,3,110,110,111,26,26,25,25,1,68,110,46,33,53,33,104,31,16,111,84,29,110,16,26,57,111,56,110,0,110,33,110,111,8,8,0,0,0,0,0,0,0,0,0,0,0,0,0,0,0,0,0,0,0,0,0,0,0,0,0,0,0,0,0,0,0,0,0,0,0,0,0,0,0,0,0,0,0,0,0,0,0,0,0,0,0,0,0,0,0,0,0,0,0,0],"split_type":[0,0,0,0,0,0,0,0,0,0,0,0,0,0,0,0,0,0,0,0,0,0,0,0,0,0,0,0,0,0,0,0,0,0,0,0,0,0,0,0,0,0,0,0,0,0,0,0,0,0,0,0,0,0,0,0,0,0,0,0,0,0,0,0,0,0,0,0,0,0,0,0,0,0,0,0,0,0,0,0,0,0,0,0,0,0,0,0,0,0,0,0,0,0,0,0,0,0,0,0,0,0,0,0,0,0,0,0,0,0,0,0,0,0,0,0,0,0,0,0,0],"sum_hessian":[2.9503E4,2.6349E4,3.154E3,1.7007E4,9.342E3,2.2E3,9.54E2,4.507E3,1.25E4,7.1E3,2.242E3,2.059E3,1.41E2,8.99E2,5.5E1,6.03E2,3.904E3,8.226E3,4.274E3,5.467E3,1.633E3,1.161E3,1.081E3,1.173E3,8.86E2,9.8E1,4.3E1,6.68E2,2.31E2,1.3E1,4.2E1,5.7E2,3.3E1,2.434E3,1.47E3,5.568E3,2.658E3,1.766E3,2.508E3,1.435E3,4.032E3,1.04E3,5.93E2,8.39E2,3.22E2,8.5E2,2.31E2,7.21E2,4.52E2,3.6E1,8.5E2,7.9E1,1.9E1,3.8E1,5E0,4.44E2,2.24E2,1.8E2,5.1E1,7E0,6E0,4E1,2E0,2.27E2,3.43E2,1.3E1,2E1,2.121E3,3.13E2,1.68E2,1.302E3,3.017E3,2.551E3,7.55E2,1.903E3,1.74E3,2.6E1,1.211E3,1.297E3,7.87E2,6.48E2,2.482E3,1.55E3,1.035E3,5E0,4.62E2,1.31E2,6.7E2,1.69E2,1.5E1,3.07E2,6.34E2,2.16E2,1.06E2,1.25E2,2.84E2,4.37E2,2.5E2,2.02E2,1.7E1,1.9E1,7.43E2,1.07E2,1.5E1,6.4E1,4E0,1.5E1,2.7E1,1.1E1,2.02E2,2.42E2,1.88E2,3.6E1,4.4E1,1.36E2,1.2E1,3.9E1,6E0,1E0,5E0,1E0],"tree_param":{"num_deleted":"0","num_feature":"113","num_nodes":"121","size_leaf_vector":"0"}},{"base_weights":[1.7870575E3,1.5258347E3,3.5233267E3,1.3151345E3,2.2593103E3,3.0549265E3,6.266135E3,1.2382881E3,2.5904773E3,2.217073E3,5.4314014E3,5.6080757E3,2.9002532E3,1.3866362E4,5.5399565E3,1.1942013E3,2.3976401E3,2.098995E3,5.057742E3,3.8379426E3,2.1598647E3,2.6732102E3,6.0873276E3,4.4113066E3,1.064524E4,2.6752573E3,4.221155E3,1.4397164E4,1.1052723E3,4.358997E3,7.632829E3,1.00934534E3,1.3864712E3,2.149367E3,5.193389E3,1.9583875E3,4.9145713E3,8.459945E3,4.241066E3,3.527748E3,1.0453901E4,2.0710154E3,3.2672026E3,3.6078752E3,1.7516237E3,3.0893677E3,6.4970205E3,2.7890706E3,9.95939E3,1.1672879E4,2.144838E3,2.2405215E3,3.163101E3,3.5289355E3,5.2708975E3,1.4771323E4,4.110449E3,3.371092E3,6.2429644E3,8.855269E3,5.9841367E3,1.3483159E3,8.994048E2,1.6034788E3,1.2349467E3,2.105414E3,6.3622485E3,2.6719915E3,6.7933516E3,1.6427104E3,2.8925056E3,8.1423877E3,2.7793052E3,8.919891E3,2.6653948E3,4.7508047E3,2.7451667E3,4.7151787E3,2.4950288E3,2.1203542E3,1.2645317E3,3.426963E3,1.9271669E3,2.8005157E2,1.8840148E3,9.1682306E2,3.2463328E3,6.874592E3,2.5194675E3,1.8565444E3,4.0388254E3,1.1737844E4,3.7150347E3,7.4022255E1,2.6440361E3,2.190091E3,9.036357E3,2.837143E3,3.9485486E3,3.1182434E3,6.634395E3,5.8962646E3,3.0679495E3,1.5103979E4,5.190371E3,3.8754934E3,2.5203147E3,5.3907324E3,9.893694E3,4.993446E3,9.783376E3,6.5361084E3,4.0958328E3],"categories":[],"categories_nodes":[],"categories_segments":[],"categories_sizes":[],"default_left":[1,1,1,1,1,1,1,1,1,1,1,1,1,1,1,1,1,1,1,1,1,1,1,1,1,1,1,1,0,1,1,1,1,1,1,1,1,1,1,1,0,1,1,0,1,1,1,1,1,0,1,1,1,1,1,1,0,1,1,1,1,0,0,0,0,0,0,0,0,0,0,0,0,0,0,0,0,0,0,0,0,0,0,0,0,0,0,0,0,0,0,0,0,0,0,0,0,0,0,0,0,0,0,0,0,0,0,0,0,0,0,0,0],"id":3,"left_children":[1,3,5,7,9,11,13,15,17,19,21,23,25,27,29,31,33,35,37,39,41,43,45,47,49,51,53,55,-1,57,59,61,63,65,67,69,71,73,75,77,-1,79,81,-1,83,85,87,89,91,-1,93,95,97,99,101,103,-1,105,107,109,111,-1,-1,-1,-1,-1,-1,-1,-1,-1,-1,-1,-1,-1,-1,-1,-1,-1,-1,-1,-1,-1,-1,-1,-1,-1,-1,-1,-1,-1,-1,-1,-1,-1,-1,-1,-1,-1,-1,-1,-1,-1,-1,-1,-1,-1,-1,-1,-1,-1,-1,-1,-1],"loss_changes":[1.3287358E10,3.934335E9,4.903944E9,1.9367158E9,7.4950246E8,1.2770488E9,3.0028493E9,9.514496E8,1.3523656E9,5.120041E8,1.1760589E8,1.0743086E9,9.0704486E8,3.0922035E8,1.2297155E9,6.379704E8,4.629143E8,3.6211738E8,4.809216E8,3.5304576E8,5.2668416E8,7.462352E6,5.2394496E7,1.3402685E9,2.8070067E8,5.534495E8,3.069394E8,1.163305E8,0E0,5.912832E8,3.158313E8,3.4070835E8,2.8787302E8,1.0307584E8,2.0372608E8,2.594606E8,2.8062874E8,6.950605E7,1.0286106E8,2.1264512E8,0E0,1.9714867E8,7.924352E7,0E0,1.420614E6,9.2808E4,5.927219E7,1.3118778E8,3.3397376E8,0E0,4.973022E6,4.6035456E8,3.070341E8,3.2749286E8,2.2437683E8,6.1840384E7,0E0,8.378368E7,2.9512755E8,3.2031898E8,5.765453E7,0E0,0E0,0E0,0E0,0E0,0E0,0E0,0E0,0E0,0E0,0E0,0E0,0E0,0E0,0E0,0E0,0E0,0E0,0E0,0E0,0E0,0E0,0E0,0E0,0E0,0E0,0E0,0E0,0E0,0E0,0E0,0E0,0E0,0E0,0E0,0E0,0E0,0E0,0E0,0E0,0E0,0E0,0E0,0E0,0E0,0E0,0E0,0E0,0E0,0E0,0E0,0E0],"parents":[2147483647,0,0,1,1,2,2,3,3,4,4,5,5,6,6,7,7,8,8,9,9,10,10,11,11,12,12,13,13,14,14,15,15,16,16,17,17,18,18,19,19,20,20,21,21,22,22,23,23,24,24,25,25,26,26,27,27,29,29,30,30,31,31,32,32,33,33,34,34,35,35,36,36,37,37,38,38,39,39,41,41,42,42,44,44,45,45,46,46,47,47,48,48,50,50,51,51,52,52,53,53,54,54,55,55,57,57,58,58,59,59,60,60],"right_children":[2,4,6,8,10,12,14,16,18,20,22,24,26,28,30,32,34,36,38,40,42,44,46,48,50,52,54,56,-1,58,60,62,64,66,68,70,72,74,76,78,-1,80,82,-1,84,86,88,90,92,-1,94,96,98,100,102,104,-1,106,108,110,112,-1,-1,-1,-1,-1,-1,-1,-1,-1,-1,-1,-1,-1,-1,-1,-1,-1,-1,-1,-1,-1,-1,-1,-1,-1,-1,-1,-1,-1,-1,-1,-1,-1,-1,-1,-1,-1,-1,-1,-1,-1,-1,-1,-1,-1,-1,-1,-1,-1,-1,-1,-1],"split_conditions":[4.9761766E-1,1.0114005E0,2.9004784E0,3.750334E-2,3.71E0,8.0861163E-1,5.738474E-1,1.4141414E-1,1.6887789E0,7.2641504E-1,4.5090908E-1,1.8653466E0,1.1685E0,1.6556154E-1,2.5E0,1.15E1,1.9909091E0,1.4585E0,8.1666666E-1,5E-1,4.744898E-1,2.5376344E0,4.423077E-1,1.9176471E0,1.9660065E0,1.2338915E0,1.8267007E0,5.605E0,2.2105446E1,8.3333336E-2,1.1599071E0,2.5E0,2.5E0,4.9E0,6.665E-1,4.5E0,2.5E-1,2.7380952E-1,1.8640264E0,2.4747476E-1,2.0907802E2,8.845238E0,2.1767509E-1,7.21575E1,5E-1,1.1838236E0,2.6772728E0,7.5E-1,2.5E-1,2.3345757E2,5E-1,1.2423077E1,9.9753696E-1,4.5E0,3.0202951E0,1.5E0,8.2208984E1,1.0327868E0,4.5E0,4E-2,3.2563453E0,2.6966318E1,1.7988096E1,3.2069576E1,2.4698933E1,4.210828E1,1.27244965E2,5.3439827E1,1.3586703E2,3.285421E1,5.7850113E1,1.6284775E2,5.55861E1,1.7839781E2,5.3307896E1,9.501609E1,5.4903336E1,9.430357E1,4.9900574E1,4.2407085E1,2.5290634E1,6.853925E1,3.8543335E1,5.6010313E0,3.7680294E1,1.833646E1,6.492665E1,1.3749184E2,5.038935E1,3.7130886E1,8.0776505E1,2.3475687E2,7.430069E1,1.480445E0,5.2880722E1,4.380182E1,1.8072714E2,5.674286E1,7.897097E1,6.236487E1,1.326879E2,1.1792529E2,6.135899E1,3.0207956E2,1.0380742E2,7.7509865E1,5.0406292E1,1.07814644E2,1.9787389E2,9.986891E1,1.9566751E2,1.3072217E2,8.191666E1],"split_indices":[55,16,55,108,54,26,26,81,31,26,57,31,57,44,69,112,8,57,26,70,52,18,23,16,31,26,26,54,0,74,16,112,109,11,54,109,27,10,31,8,0,99,44,0,5,16,99,18,84,0,10,22,69,109,106,5,0,36,109,57,26,0,0,0,0,0,0,0,0,0,0,0,0,0,0,0,0,0,0,0,0,0,0,0,0,0,0,0,0,0,0,0,0,0,0,0,0,0,0,0,0,0,0,0,0,0,0,0,0,0,0,0,0],"split_type":[0,0,0,0,0,0,0,0,0,0,0,0,0,0,0,0,0,0,0,0,0,0,0,0,0,0,0,0,0,0,0,0,0,0,0,0,0,0,0,0,0,0,0,0,0,0,0,0,0,0,0,0,0,0,0,0,0,0,0,0,0,0,0,0,0,0,0,0,0,0,0,0,0,0,0,0,0,0,0,0,0,0,0,0,0,0,0,0,0,0,0,0,0,0,0,0,0,0,0,0,0,0,0,0,0,0,0,0,0,0,0,0,0],"sum_hessian":[2.9307E4,2.5476E4,3.831E3,1.9793E4,5.683E3,3.274E3,5.57E2,1.867E4,1.123E3,5.61E3,7.3E1,1.85E2,3.089E3,4.7E1,5.1E2,1.7988E4,6.82E2,9.38E2,1.85E2,1.89E2,5.421E3,1.5E1,5.8E1,1.51E2,3.4E1,2.642E3,4.47E2,4.5E1,2E0,3.28E2,1.82E2,9.174E3,8.814E3,6.28E2,5.4E1,8.95E2,4.3E1,3.4E1,1.51E2,1.82E2,7E0,5.021E3,4E2,6E0,9E0,8E0,5E1,1.18E2,3.3E1,3E1,4E0,1.4E3,1.242E3,2.72E2,1.75E2,4.3E1,2E0,2.17E2,1.11E2,1.02E2,8E1,2.244E3,6.93E3,3.62E3,5.194E3,6.23E2,5E0,2.2E1,3.2E1,6.71E2,2.24E2,1.6E1,2.7E1,3.1E1,3E0,1.11E2,4E1,8.3E1,9.9E1,4.73E3,2.91E2,3.56E2,4.4E1,1E0,8E0,1E0,7E0,4.5E1,5E0,6.9E1,4.9E1,2.5E1,8E0,1E0,3E0,1.391E3,9E0,8.81E2,3.61E2,2.42E2,3E1,1.35E2,4E1,4.1E1,2E0,1.34E2,8.3E1,9.2E1,1.9E1,2.1E1,8.1E1,6E1,2E1],"tree_param":{"num_deleted":"0","num_feature":"113","num_nodes":"113","size_leaf_vector":"0"}},{"base_weights":[1.7484434E3,1.480319E3,4.0464072E3,9.9735376E2,1.7938684E3,3.7357644E3,8.357671E3,9.1096796E2,2.8098904E3,1.591564E3,2.4564646E3,3.3801016E3,5.798351E3,4.5373027E3,9.250909E3,1.1964442E3,7.8372107E2,1.7676185E3,5.0796777E3,1.9564773E3,1.2770591E3,2.3249338E3,3.5425176E3,3.7763845E3,1.4648629E3,4.4711826E3,9.249345E3,3.4095374E3,1.1975306E4,1.3068901E4,7.9351265E3,1.8540996E3,6.655705E2,6.941067E2,1.0055419E3,1.4843774E3,2.6308203E3,1.5924048E3,5.4321357E3,2.4815466E3,1.3475474E3,9.469565E2,1.7182659E3,2.2038396E3,3.2816108E3,4.7226235E3,2.7589954E3,3.356713E3,4.900343E3,1.0493593E3,1.8274539E3,3.688457E3,7.9761934E3,7.9894785E3,1.4269249E4,1.998303E3,5.3461274E3,1.4211637E4,4.0343394E3,5.963975E3,9.528697E3,1.5724218E3,2.9689045E3,9.333515E2,5.1100836E2,6.316774E2,9.091343E2,9.303715E2,1.212566E3,2.1914773E3,1.0356267E3,2.6592046E3,2.084216E2,2.3406733E3,4.0285892E2,4.122018E3,7.0777725E3,2.1591316E3,3.1173235E3,1.2075345E3,2.9965413E3,8.816006E2,1.7519724E3,1.4534832E3,2.0572458E3,2.3027537E3,1.4698481E3,3.1301262E3,9.801837E3,3.4832378E3,5.564734E3,2.438753E3,4.285104E3,3.1944377E3,5.8020986E3,4.50731E3,6.3478394E3,1.3938041E3,9.0472485E2,1.5972743E3,2.7592039E3,3.163972E3,8.125751E3,8.405141E3,3.834108E3,9.625732E3,3.7303818E3,4.6753936E3,1.5537994E4,1.1194175E3,3.0289124E3,5.8875317E3,1.2180006E3,9.946234E2,1.4560848E4,4.4166357E3,1.0614287E3,5.294857E3,1.0992043E4,1.1317119E4,6.5696255E3],"categories":[],"categories_nodes":[],"categories_segments":[],"categories_sizes":[],"default_left":[1,1,1,1,1,1,1,1,1,1,1,1,1,1,1,1,1,1,1,1,1,1,1,1,1,1,1,1,0,1,1,1,1,1,1,1,1,1,1,1,1,1,1,1,1,1,1,1,1,1,1,1,1,1,1,1,1,1,1,1,1,0,0,0,0,0,0,0,0,0,0,0,0,0,0,0,0,0,0,0,0,0,0,0,0,0,0,0,0,0,0,0,0,0,0,0,0,0,0,0,0,0,0,0,0,0,0,0,0,0,0,0,0,0,0,0,0,0,0,0,0],"id":4,"left_children":[1,3,5,7,9,11,13,15,17,19,21,23,25,27,29,31,33,35,37,39,41,43,45,47,49,51,53,55,-1,57,59,61,63,65,67,69,71,73,75,77,79,81,83,85,87,89,91,93,95,97,99,101,103,105,107,109,111,113,115,117,119,-1,-1,-1,-1,-1,-1,-1,-1,-1,-1,-1,-1,-1,-1,-1,-1,-1,-1,-1,-1,-1,-1,-1,-1,-1,-1,-1,-1,-1,-1,-1,-1,-1,-1,-1,-1,-1,-1,-1,-1,-1,-1,-1,-1,-1,-1,-1,-1,-1,-1,-1,-1,-1,-1,-1,-1,-1,-1,-1,-1],"loss_changes":[1.8141798E10,3.9927276E9,4.0896922E9,1.6236524E9,2.1398856E9,2.087256E9,6.610002E8,3.5923405E8,1.1076483E9,1.4039716E9,5.258793E8,1.8554778E9,1.886846E9,3.0309094E8,7.302226E8,1.0653645E9,1.3568742E8,7.555552E7,1.7325926E8,1.8098463E9,9.574359E8,3.7946778E8,3.5867546E8,9.415598E8,6.166003E7,8.100792E8,6.196275E8,9.043718E7,0E0,3.6595456E8,3.3895782E8,4.236498E8,6.955283E7,6.5069056E7,2.956032E7,7.610643E7,4.877632E6,1.2408536E7,2.5972634E8,6.172385E8,6.031355E8,1.9675213E8,2.4985293E8,2.1195366E8,3.377367E8,1.465646E8,1.0879846E8,5.695611E8,2.842921E8,8.65288E6,4.363392E7,5.607688E8,6.549427E7,6.261432E8,1.9514112E8,1.7442496E7,2.635376E7,1.516759E8,2.131264E6,1.4029683E8,2.8551117E8,0E0,0E0,0E0,0E0,0E0,0E0,0E0,0E0,0E0,0E0,0E0,0E0,0E0,0E0,0E0,0E0,0E0,0E0,0E0,0E0,0E0,0E0,0E0,0E0,0E0,0E0,0E0,0E0,0E0,0E0,0E0,0E0,0E0,0E0,0E0,0E0,0E0,0E0,0E0,0E0,0E0,0E0,0E0,0E0,0E0,0E0,0E0,0E0,0E0,0E0,0E0,0E0,0E0,0E0,0E0,0E0,0E0,0E0,0E0,0E0],"parents":[2147483647,0,0,1,1,2,2,3,3,4,4,5,5,6,6,7,7,8,8,9,9,10,10,11,11,12,12,13,13,14,14,15,15,16,16,17,17,18,18,19,19,20,20,21,21,22,22,23,23,24,24,25,25,26,26,27,27,29,29,30,30,31,31,32,32,33,33,34,34,35,35,36,36,37,37,38,38,39,39,40,40,41,41,42,42,43,43,44,44,45,45,46,46,47,47,48,48,49,49,50,50,51,51,52,52,53,53,54,54,55,55,56,56,57,57,58,58,59,59,60,60],"right_children":[2,4,6,8,10,12,14,16,18,20,22,24,26,28,30,32,34,36,38,40,42,44,46,48,50,52,54,56,-1,58,60,62,64,66,68,70,72,74,76,78,80,82,84,86,88,90,92,94,96,98,100,102,104,106,108,110,112,114,116,118,120,-1,-1,-1,-1,-1,-1,-1,-1,-1,-1,-1,-1,-1,-1,-1,-1,-1,-1,-1,-1,-1,-1,-1,-1,-1,-1,-1,-1,-1,-1,-1,-1,-1,-1,-1,-1,-1,-1,-1,-1,-1,-1,-1,-1,-1,-1,-1,-1,-1,-1,-1,-1,-1,-1,-1,-1,-1,-1,-1,-1],"split_conditions":[5.645E-1,7.48279E-4,4.3450003E0,5.5714287E-2,7.908334E-2,4.5E0,4.385965E-3,3.5E0,1.6891088E0,7.27714E-2,1.0815E0,3.5E0,1.8116009E0,1.7643564E0,9.166666E-1,2.767302E-1,4.2572465E-2,1.4363036E0,4.5E0,1.610843E0,1.0045044E0,4.5E0,9.350649E-2,1.5885E0,1.8695652E-1,2.9587913E0,5E-1,8.75E-1,2.395061E2,3.5E0,6.25E-1,9.736842E-2,5.3118527E-1,9.0016496E-1,1.0267327E0,3.5E0,4.0909094E-1,2.1084337E-2,1.7960396E0,1.2813663E0,4.5E0,2.0161247E0,1.1536672E0,2.5E0,1.2916667E0,1.2042015E0,4.0531974E0,2.375E0,2.5E0,2.1000001E-1,1.125E0,3.625E0,1.25E0,5.4385966E-1,4.8499998E-1,1.7857143E-1,9.3E0,4.375E0,5E-1,5E-1,1.0357143E0,3.1448435E1,5.937809E1,1.866703E1,1.0220167E1,1.2633549E1,1.8182686E1,1.860743E1,2.425132E1,4.3829544E1,2.0712534E1,5.318409E1,4.1684318E0,4.6813465E1,8.0571785E0,8.244036E1,1.4155545E2,4.3182632E1,6.234647E1,2.415069E1,5.9930824E1,1.7632011E1,3.5039448E1,2.9069662E1,4.1144917E1,4.6055073E1,2.9396963E1,6.2602524E1,1.9603673E2,6.966476E1,1.1129468E2,4.877506E1,8.570208E1,6.3888752E1,1.1604197E2,9.01462E1,1.2695679E2,2.7876081E1,1.8094496E1,3.1945486E1,5.5184074E1,6.3279438E1,1.6251501E2,1.6810281E2,7.668216E1,1.9251465E2,7.4607635E1,9.3507866E1,3.107599E2,2.238835E1,6.0578247E1,1.1775063E2,2.4360012E1,1.9892467E1,2.9121695E2,8.833271E1,2.1228573E1,1.0589713E2,2.1984085E2,2.2634238E2,1.313925E2],"split_indices":[53,103,56,108,53,109,103,109,31,1,57,109,31,31,19,44,19,31,109,103,88,109,1,53,22,103,6,57,0,86,74,106,44,31,31,109,14,64,31,103,109,13,93,109,81,103,11,57,69,55,57,22,90,103,56,22,15,56,6,51,1,0,0,0,0,0,0,0,0,0,0,0,0,0,0,0,0,0,0,0,0,0,0,0,0,0,0,0,0,0,0,0,0,0,0,0,0,0,0,0,0,0,0,0,0,0,0,0,0,0,0,0,0,0,0,0,0,0,0,0,0],"split_type":[0,0,0,0,0,0,0,0,0,0,0,0,0,0,0,0,0,0,0,0,0,0,0,0,0,0,0,0,0,0,0,0,0,0,0,0,0,0,0,0,0,0,0,0,0,0,0,0,0,0,0,0,0,0,0,0,0,0,0,0,0,0,0,0,0,0,0,0,0,0,0,0,0,0,0,0,0,0,0,0,0,0,0,0,0,0,0,0,0,0,0,0,0,0,0,0,0,0,0,0,0,0,0,0,0,0,0,0,0,0,0,0,0,0,0,0,0,0,0,0,0],"sum_hessian":[2.9453E4,2.6377E4,3.076E3,1.0385E4,1.5992E4,2.871E3,2.05E2,9.914E3,4.71E2,1.2254E4,3.738E3,2.451E3,4.2E2,4E1,1.65E2,3.054E3,6.86E3,3.24E2,1.47E2,5.67E3,6.584E3,3.337E3,4.01E2,2.03E3,4.21E2,3.05E2,1.15E2,3.6E1,4E0,4E1,1.25E2,1.363E3,1.691E3,4.889E3,1.971E3,2.46E2,7.8E1,1.4E1,1.33E2,3.043E3,2.627E3,3.768E3,2.816E3,2.965E3,3.72E2,1.58E2,2.43E2,1.481E3,5.49E2,1.98E2,2.23E2,2.51E2,5.4E1,9.4E1,2.1E1,2.2E1,1.4E1,3.5E1,5E0,5.8E1,6.7E1,1.09E3,2.73E2,6.17E2,1.074E3,3.792E3,1.097E3,1.45E3,5.21E2,9.4E1,1.52E2,7.7E1,1E0,8E0,6E0,7.6E1,5.7E1,2.022E3,1.021E3,2.423E3,2.04E2,3.487E3,2.81E2,1.584E3,1.232E3,2.611E3,3.54E2,3.65E2,7E0,6.6E1,9.2E1,2.03E2,4E1,1.391E3,9E1,4.35E2,1.14E2,5.6E1,1.42E2,1.81E2,4.2E1,2.26E2,2.5E1,4.8E1,6E0,6.7E1,2.7E1,3E0,1.8E1,1.3E1,9E0,1.2E1,2E0,1E0,3.4E1,4E0,1E0,5.3E1,5E0,4E1,2.7E1],"tree_param":{"num_deleted":"0","num_feature":"113","num_nodes":"121","size_leaf_vector":"0"}},{"base_weights":[1.705635E3,1.5323004E3,5.0437817E3,1.2774517E3,2.2766062E3,4.4287983E3,8.0016484E3,1.1236359E3,1.880715E3,1.9737571E3,2.8323508E3,5.162972E3,2.733094E3,6.673471E3,1.1715886E4,1.022376E3,1.7686556E3,2.4021377E3,1.7180869E3,1.8225695E3,3.041605E3,6.3574673E3,2.7359175E3,4.4030635E3,7.454467E3,1.3415275E3,3.3517666E3,5.4896436E3,8.933489E3,1.9569127E3,1.1999128E4,1.2506993E3,8.659482E2,1.2709478E3,2.8729292E3,3.0761782E3,1.7286816E3,1.5718739E3,2.1878584E3,1.5764948E3,2.3839148E3,2.1898005E3,3.8394211E3,3.5330117E3,9.629047E3,2.6657502E3,5.343256E3,3.731908E3,5.657446E3,6.004778E3,1.0089233E4,1.5663279E3,8.313664E2,4.3159775E3,2.0261898E3,4.4888345E3,7.7215767E3,1.4262667E4,7.369234E3,1.4773552E4,1.0528374E4,8.437938E2,1.7852972E3,7.7926843E2,1.551565E3,1.059322E3,1.8606958E3,2.450079E3,3.8032104E3,3.4169385E3,2.0511406E3,1.3558151E3,2.300973E3,1.4933561E3,2.4237473E3,2.015927E3,3.3189143E3,1.5347126E3,3.7638428E3,2.323795E3,7.828676E3,1.8039735E3,3.2485752E3,3.5310564E3,7.665333E3,7.235265E3,3.1147327E3,3.8134053E3,1.1233225E4,2.7859094E3,1.3126212E3,6.0915693E3,2.7643618E3,3.37445E3,6.3257393E3,3.6090532E3,6.601895E3,5.4937827E3,9.049426E3,1.29473955E4,5.4048066E3,1.7736841E3,6.519669E2,1.0236087E3,2.099513E2,2.9033506E3,5.560292E3,1.8389658E3,2.9202144E3,3.5682239E3,6.0664663E3,8.308868E3,3.302426E3,3.229832E2,1.5397392E4,6.02493E3,1.1124118E4,1.245611E4,7.5922847E3],"categories":[],"categories_nodes":[],"categories_segments":[],"categories_sizes":[],"default_left":[1,1,1,1,1,1,1,1,1,1,1,1,1,1,1,1,1,1,1,1,1,1,1,1,1,1,1,1,1,0,1,1,1,1,1,1,1,1,1,1,1,1,1,1,1,1,1,1,1,1,1,1,1,1,1,1,1,1,1,0,1,0,0,0,0,0,0,0,0,0,0,0,0,0,0,0,0,0,0,0,0,0,0,0,0,0,0,0,0,0,0,0,0,0,0,0,0,0,0,0,0,0,0,0,0,0,0,0,0,0,0,0,0,0,0,0,0,0,0],"id":5,"left_children":[1,3,5,7,9,11,13,15,17,19,21,23,25,27,29,31,33,35,37,39,41,43,45,47,49,51,53,55,57,-1,59,61,63,65,67,69,71,73,75,77,79,81,83,85,87,89,91,93,95,97,99,101,103,105,107,109,111,113,115,-1,117,-1,-1,-1,-1,-1,-1,-1,-1,-1,-1,-1,-1,-1,-1,-1,-1,-1,-1,-1,-1,-1,-1,-1,-1,-1,-1,-1,-1,-1,-1,-1,-1,-1,-1,-1,-1,-1,-1,-1,-1,-1,-1,-1,-1,-1,-1,-1,-1,-1,-1,-1,-1,-1,-1,-1,-1,-1,-1],"loss_changes":[1.6970621E10,5.2885586E9,2.598527E9,1.9263713E9,1.1917435E9,1.4810624E9,1.1452385E9,1.0799964E9,3.538043E8,7.3839616E8,8.348324E8,1.4246687E9,3.097408E8,4.4592077E8,1.534249E8,5.103012E8,1.2307635E9,4.4907315E8,2.178007E8,5.541601E8,3.7895475E8,5.7584896E8,4.325212E8,5.1011686E8,7.3007206E8,1.1771824E7,3.1334502E8,2.4232269E8,4.1173914E8,0E0,9.744896E7,1.2643062E9,5.0393805E8,1.9147776E8,2.6486016E8,1.672878E8,1.0421466E8,1.6092314E8,1.4149094E8,2.5112576E8,3.841065E8,1.0770355E8,3.1860787E8,3.4761344E7,2.3704269E8,3.8330982E8,1.0473933E8,3.625093E8,3.9791667E8,1.618734E8,8.940191E8,1.363232E7,4.205198E6,2.3873075E8,1.27072E7,1.061632E8,6.858778E7,2.0065715E8,1.8536346E8,0E0,1.5446989E8,0E0,0E0,0E0,0E0,0E0,0E0,0E0,0E0,0E0,0E0,0E0,0E0,0E0,0E0,0E0,0E0,0E0,0E0,0E0,0E0,0E0,0E0,0E0,0E0,0E0,0E0,0E0,0E0,0E0,0E0,0E0,0E0,0E0,0E0,0E0,0E0,0E0,0E0,0E0,0E0,0E0,0E0,0E0,0E0,0E0,0E0,0E0,0E0,0E0,0E0,0E0,0E0,0E0,0E0,0E0,0E0,0E0,0E0],"parents":[2147483647,0,0,1,1,2,2,3,3,4,4,5,5,6,6,7,7,8,8,9,9,10,10,11,11,12,12,13,13,14,14,15,15,16,16,17,17,18,18,19,19,20,20,21,21,22,22,23,23,24,24,25,25,26,26,27,27,28,28,30,30,31,31,32,32,33,33,34,34,35,35,36,36,37,37,38,38,39,39,40,40,41,41,42,42,43,43,44,44,45,45,46,46,47,47,48,48,49,49,50,50,51,51,52,52,53,53,54,54,55,55,56,56,57,57,58,58,60,60],"right_children":[2,4,6,8,10,12,14,16,18,20,22,24,26,28,30,32,34,36,38,40,42,44,46,48,50,52,54,56,58,-1,60,62,64,66,68,70,72,74,76,78,80,82,84,86,88,90,92,94,96,98,100,102,104,106,108,110,112,114,116,-1,118,-1,-1,-1,-1,-1,-1,-1,-1,-1,-1,-1,-1,-1,-1,-1,-1,-1,-1,-1,-1,-1,-1,-1,-1,-1,-1,-1,-1,-1,-1,-1,-1,-1,-1,-1,-1,-1,-1,-1,-1,-1,-1,-1,-1,-1,-1,-1,-1,-1,-1,-1,-1,-1,-1,-1,-1,-1,-1],"split_conditions":[1.1885E0,7.59E-2,4.5E0,1.0069255E0,1.0128734E0,2.5E0,1.8735663E0,1.5859259E0,9.71539E-1,2.950563E0,7.295598E-1,2.685E0,5.7916665E-1,7.1428575E-2,1.245E0,2.5E0,4.5E0,2.5E0,2.180091E0,2.4879584E-1,4.5E0,4.0754718E-1,3.8734999E0,1.5E0,1.8627322E0,9.2857146E-1,1.9997547E0,2.5E0,4.9877453E-1,3.9138252E1,3.1666666E-1,1.5E0,9.9375E-1,1.0170213E0,1.6716173E0,2.5E-2,1.4160719E0,4.038137E0,9.4E-1,3.0119047E0,1.8285713E1,1.2720706E0,2.045E0,4.5454547E-1,1.6499999E-1,2.0061748E0,1.810606E0,4.0102043E0,8.75E-1,7.681818E0,1.1166667E0,8.3333336E-2,1.6666667E-1,1.6037302E0,2.9815838E0,9.782609E-1,3.5E0,2.5E-1,3.25E0,2.9547104E2,1.9617162E0,1.6875875E1,3.5705944E1,1.5585368E1,3.1031298E1,2.118644E1,3.7213917E1,4.900158E1,7.606421E1,6.833877E1,4.102281E1,2.71163E1,4.601946E1,2.986712E1,4.8474945E1,4.031854E1,6.637829E1,3.0694252E1,7.5276855E1,4.64759E1,1.5657352E2,3.6079468E1,6.4971504E1,7.0621124E1,1.5330666E2,1.447053E2,6.229465E1,7.6268105E1,2.2466449E2,5.5718185E1,2.6252424E1,1.2183138E2,5.5287235E1,6.7489E1,1.26514786E2,7.218106E1,1.320379E2,1.0987565E2,1.8098851E2,2.589479E2,1.0809613E2,3.5473682E1,1.3039338E1,2.0472174E1,4.1990256E0,5.806701E1,1.1120584E2,3.6779316E1,5.8404285E1,7.136448E1,1.2132932E2,1.6617735E2,6.6048515E1,6.4596634E0,3.079478E2,1.20498604E2,2.2248236E2,2.4912221E2,1.5184569E2],"split_indices":[53,53,109,16,16,109,31,20,12,20,26,53,16,98,53,109,109,109,95,57,109,26,54,109,98,20,33,66,20,0,20,109,16,3,31,20,33,91,37,13,101,71,54,12,53,33,71,27,16,26,12,31,27,33,33,11,99,11,63,0,31,0,0,0,0,0,0,0,0,0,0,0,0,0,0,0,0,0,0,0,0,0,0,0,0,0,0,0,0,0,0,0,0,0,0,0,0,0,0,0,0,0,0,0,0,0,0,0,0,0,0,0,0,0,0,0,0,0,0],"split_type":[0,0,0,0,0,0,0,0,0,0,0,0,0,0,0,0,0,0,0,0,0,0,0,0,0,0,0,0,0,0,0,0,0,0,0,0,0,0,0,0,0,0,0,0,0,0,0,0,0,0,0,0,0,0,0,0,0,0,0,0,0,0,0,0,0,0,0,0,0,0,0,0,0,0,0,0,0,0,0,0,0,0,0,0,0,0,0,0,0,0,0,0,0,0,0,0,0,0,0,0,0,0,0,0,0,0,0,0,0,0,0,0,0,0,0,0,0,0,0],"sum_hessian":[2.9342E4,2.7895E4,1.447E3,2.0782E4,7.113E3,1.2E3,2.47E2,1.6562E4,4.22E3,4.607E3,2.506E3,8.36E2,3.64E2,1.84E2,6.3E1,1.4317E4,2.245E3,1E3,3.22E3,4.038E3,5.69E2,6.5E1,2.441E3,6.3E2,2.06E2,1.13E2,2.51E2,1.23E2,6.1E1,2E0,6.1E1,5.818E3,8.499E3,1.549E3,6.96E2,4.98E2,5.02E2,2.459E3,7.61E2,2.81E3,1.228E3,2.77E2,2.92E2,3.6E1,2.9E1,2.379E3,6.2E1,4.13E2,2.17E2,1.35E2,7.1E1,7.7E1,3.6E1,1.44E2,1.07E2,8.7E1,3.6E1,1.2E1,4.9E1,1.8E1,4.3E1,3.305E3,2.513E3,7.547E3,9.52E2,1.142E3,4.07E2,4.81E2,2.15E2,3.72E2,1.26E2,3.06E2,1.96E2,2.254E3,2.05E2,6.63E2,9.8E1,2.759E3,5.1E1,1.216E3,1.2E1,2.05E2,7.2E1,2.72E2,2E1,2E0,3.4E1,7E0,2.2E1,2.184E3,1.95E2,4.7E1,1.5E1,3.65E2,4.8E1,7E1,1.47E2,1.18E2,1.7E1,4.3E1,2.8E1,6.2E1,1.5E1,2.7E1,9E0,6.9E1,7.5E1,9.1E1,1.6E1,5.7E1,3E1,3.1E1,5E0,1E0,1.1E1,3.8E1,1.1E1,2.4E1,1.9E1],"tree_param":{"num_deleted":"0","num_feature":"113","num_nodes":"119","size_leaf_vector":"0"}},{"base_weights":[1.6867942E3,1.5633945E3,5.5270786E3,1.3262825E3,2.2944812E3,5.1297876E3,1.152254E4,9.4411127E2,1.6502417E3,2.1349722E3,3.594609E3,4.350502E3,7.010725E3,2.7860237E3,1.2324434E4,8.532789E2,2.6360198E3,1.4682443E3,2.97477E3,2.0200132E3,3.3654954E3,3.3687554E3,5.8075938E3,4.036663E3,7.324471E3,4.9200254E3,8.515545E3,3.0922917E3,6.273418E2,1.372656E4,7.6383477E3,7.45312E2,1.6909415E3,1.5588185E3,4.9931895E3,1.3397981E3,2.3104187E3,2.7552256E3,5.001439E3,1.9883362E3,4.2411064E3,2.9929617E3,4.7573022E3,4.099294E3,2.805812E3,7.223036E3,4.0445952E3,3.6052542E3,6.1363853E3,4.35583E3,9.351487E3,4.2432827E3,7.8310835E3,6.8106465E3,1.1400931E4,1.3951718E4,2.6978555E3,5.959E2,9.504843E3,6.739778E2,1.0860924E3,1.1442112E3,1.9425178E3,9.303708E2,2.283574E3,4.410758E3,1.0212828E4,1.0418188E3,1.6462593E3,2.1549985E3,4.1741553E3,4.564647E3,2.5085967E3,4.2719316E3,8.587435E3,2.06363E3,1.1400261E3,5.5102866E3,2.572078E3,2.163784E3,3.3490264E3,4.3176733E3,9.822861E3,4.65456E3,1.7616923E3,2.474559E3,4.204817E3,7.5714756E3,2.4555413E3,4.7565664E3,2.5833652E3,2.9412502E3,4.515491E3,5.2970513E3,1.0494268E4,2.722837E3,7.485586E3,1.0735867E4,5.0938276E3,2.9165137E3,5.947196E3,9.409878E3,3.780309E3,4.4010464E3,8.062575E3,1.34949375E4,6.2959204E3,6.7416614E2,1.805508E2],"categories":[],"categories_nodes":[],"categories_segments":[],"categories_sizes":[],"default_left":[1,1,1,1,1,1,1,1,1,1,1,1,1,1,1,1,1,1,1,1,1,1,1,1,1,1,1,0,0,1,1,1,1,1,1,1,1,1,1,1,1,1,1,1,1,1,1,1,1,1,1,1,1,1,1,0,0,1,0,0,0,0,0,0,0,0,0,0,0,0,0,0,0,0,0,0,0,0,0,0,0,0,0,0,0,0,0,0,0,0,0,0,0,0,0,0,0,0,0,0,0,0,0,0,0,0,0,0,0],"id":6,"left_children":[1,3,5,7,9,11,13,15,17,19,21,23,25,27,29,31,33,35,37,39,41,43,45,47,49,51,53,-1,-1,55,57,59,61,63,65,67,69,71,73,75,77,79,81,83,85,87,89,91,93,95,97,99,101,103,105,-1,-1,107,-1,-1,-1,-1,-1,-1,-1,-1,-1,-1,-1,-1,-1,-1,-1,-1,-1,-1,-1,-1,-1,-1,-1,-1,-1,-1,-1,-1,-1,-1,-1,-1,-1,-1,-1,-1,-1,-1,-1,-1,-1,-1,-1,-1,-1,-1,-1,-1,-1,-1,-1],"loss_changes":[1.3909975E10,4.930134E9,2.1179884E9,2.659197E9,1.4373642E9,1.2286075E9,3.579858E8,1.513344E9,2.7991716E9,8.715264E8,3.6029133E8,5.39776E8,7.446354E8,2.026892E6,2.302464E8,8.453463E8,1.266868E9,1.1031982E9,6.1092045E8,3.9126835E8,2.6004531E8,2.730844E8,1.4296986E8,4.7971123E8,3.0226304E8,1.7756467E8,6.307297E8,0E0,0E0,5.672192E7,1.783618E8,2.0088986E8,1.4467482E8,1.5546842E8,4.3224704E8,8.0883405E8,3.8262886E8,5.548472E8,3.1909248E8,3.555246E8,1.531726E8,1.1675469E8,2.0255437E8,3.798994E8,1.7218406E8,4.287181E7,2.2043712E7,2.6595174E8,2.845796E8,1.073897E8,1.398226E8,1.8385728E8,8.59392E7,2.450642E8,4.7091302E8,0E0,0E0,8.30975E3,0E0,0E0,0E0,0E0,0E0,0E0,0E0,0E0,0E0,0E0,0E0,0E0,0E0,0E0,0E0,0E0,0E0,0E0,0E0,0E0,0E0,0E0,0E0,0E0,0E0,0E0,0E0,0E0,0E0,0E0,0E0,0E0,0E0,0E0,0E0,0E0,0E0,0E0,0E0,0E0,0E0,0E0,0E0,0E0,0E0,0E0,0E0,0E0,0E0,0E0,0E0],"parents":[2147483647,0,0,1,1,2,2,3,3,4,4,5,5,6,6,7,7,8,8,9,9,10,10,11,11,12,12,13,13,14,14,15,15,16,16,17,17,18,18,19,19,20,20,21,21,22,22,23,23,24,24,25,25,26,26,29,29,30,30,31,31,32,32,33,33,34,34,35,35,36,36,37,37,38,38,39,39,40,40,41,41,42,42,43,43,44,44,45,45,46,46,47,47,48,48,49,49,50,50,51,51,52,52,53,53,54,54,57,57],"right_children":[2,4,6,8,10,12,14,16,18,20,22,24,26,28,30,32,34,36,38,40,42,44,46,48,50,52,54,-1,-1,56,58,60,62,64,66,68,70,72,74,76,78,80,82,84,86,88,90,92,94,96,98,100,102,104,106,-1,-1,108,-1,-1,-1,-1,-1,-1,-1,-1,-1,-1,-1,-1,-1,-1,-1,-1,-1,-1,-1,-1,-1,-1,-1,-1,-1,-1,-1,-1,-1,-1,-1,-1,-1,-1,-1,-1,-1,-1,-1,-1,-1,-1,-1,-1,-1,-1,-1,-1,-1,-1,-1],"split_conditions":[1.8895E0,1.0026317E0,1.8765366E0,8.8547816E-4,9.069264E-1,3.21E0,4.5E0,4.08477E0,4.5E0,4.744898E-1,3.625E0,4.291667E0,1.2741388E0,9.52381E-2,9.5E0,9.9358976E-1,1.6768978E0,3.2980162E-1,7.1000004E-1,2.9185E0,1.1685E0,6.103896E-2,2.15E1,3.6519608E-1,1.3371708E0,2.494681E0,1.9075904E0,6.1845833E1,1.2546836E1,1.175E1,3.5952382E0,4.2572465E-2,1.4588994E0,4.5E0,1.5E0,1.5E0,5.204023E0,1.4907408E-1,2.9166665E0,2.1137462E0,1.1097724E0,8.5E0,1.3829787E-1,1.7692839E0,4.238866E0,1.4059741E0,1.5647249E0,1.7638888E0,6.5517244E0,1.14999995E-1,1.5530303E0,3.986E0,1.6302094E0,1.1153846E0,2.55E0,2.7903436E2,5.3957108E1,3.7727273E-1,1.9009685E2,1.3479555E1,2.1721848E1,2.2884224E1,3.8850357E1,1.8607416E1,4.567148E1,8.821516E1,2.0425656E2,2.0836376E1,3.2925186E1,4.3099968E1,8.34831E1,9.129294E1,5.0171932E1,8.543863E1,1.7174869E2,4.12726E1,2.2800522E1,1.1020573E2,5.1441555E1,4.3275677E1,6.698052E1,8.635346E1,1.9645723E2,9.30912E1,3.5233845E1,4.949118E1,8.409634E1,1.514295E2,4.9110825E1,9.5131325E1,5.1667305E1,5.8825005E1,9.030982E1,1.05941025E2,2.0988535E2,5.4456738E1,1.4971172E2,2.1471735E2,1.0187655E2,5.8330273E1,1.1894392E2,1.8819756E2,7.560618E1,8.802093E1,1.612515E2,2.6989874E2,1.259184E2,1.3483322E1,3.6110158E0],"split_indices":[56,16,31,103,74,55,111,20,109,52,54,74,103,23,111,16,31,55,54,54,55,1,111,104,103,14,98,0,0,28,31,25,33,109,87,109,100,106,106,33,91,111,31,33,11,33,99,21,20,41,6,56,33,21,10,0,0,10,0,0,0,0,0,0,0,0,0,0,0,0,0,0,0,0,0,0,0,0,0,0,0,0,0,0,0,0,0,0,0,0,0,0,0,0,0,0,0,0,0,0,0,0,0,0,0,0,0,0,0],"split_type":[0,0,0,0,0,0,0,0,0,0,0,0,0,0,0,0,0,0,0,0,0,0,0,0,0,0,0,0,0,0,0,0,0,0,0,0,0,0,0,0,0,0,0,0,0,0,0,0,0,0,0,0,0,0,0,0,0,0,0,0,0,0,0,0,0,0,0,0,0,0,0,0,0,0,0,0,0,0,0,0,0,0,0,0,0,0,0,0,0,0,0,0,0,0,0,0,0,0,0,0,0,0,0,0,0,0,0,0,0],"sum_hessian":[2.937E4,2.8457E4,9.13E2,2.149E4,6.967E3,8.58E2,5.5E1,9.861E3,1.1629E4,6.208E3,7.59E2,6.09E2,2.49E2,5E0,5E1,9.36E3,5.01E2,1.0226E4,1.403E3,5.68E3,5.28E2,6.91E2,6.8E1,5.53E2,5.6E1,1.06E2,1.43E2,4E0,1E0,3.7E1,1.3E1,8.293E3,1.067E3,3.45E2,1.56E2,8.875E3,1.351E3,1.268E3,1.35E2,5.602E3,7.8E1,4.19E2,1.09E2,2.98E2,3.93E2,3.6E1,3.2E1,4.61E2,9.2E1,2.4E1,3.2E1,8.8E1,1.8E1,9.2E1,5.1E1,3.6E1,1E0,3E0,1E1,6.86E3,1.433E3,3.38E2,7.29E2,1.86E2,1.59E2,1.42E2,1.4E1,4.502E3,4.373E3,1.249E3,1.02E2,1.5E2,1.118E3,1.14E2,2.1E1,5.144E3,4.58E2,4.3E1,3.5E1,1.28E2,2.91E2,1.02E2,7E0,2.4E2,5.8E1,3.2E2,7.3E1,3.3E1,3E0,2E1,1.2E1,2.69E2,1.92E2,7.9E1,1.3E1,1.7E1,7E0,2.3E1,9E0,5.1E1,3.7E1,1.2E1,6E0,3.3E1,5.9E1,3.5E1,1.6E1,2E0,1E0],"tree_param":{"num_deleted":"0","num_feature":"113","num_nodes":"109","size_leaf_vector":"0"}},{"base_weights":[1.6367794E3,1.4596512E3,4.700827E3,1.2132439E3,2.1786638E3,4.2540938E3,7.8698633E3,1.4510176E3,8.2286414E2,2.530463E3,1.5402592E3,4.7813594E3,2.5837961E3,9.198861E3,3.176385E3,7.6859906E2,1.736712E3,6.8151843E2,1.2371831E3,1.6007197E3,3.3841064E3,9.1528E2,1.8332539E3,2.8085225E3,6.0388203E3,2.102103E3,3.472218E3,1.1747718E4,7.4281177E3,1.8745469E3,4.8591875E3,1.6049485E3,6.4229205E2,2.0464257E3,1.194938E3,5.749867E2,1.0141837E3,9.835491E2,1.4223541E3,1.5161249E3,3.7268835E3,3.0888052E3,5.227743E3,1.2441747E3,6.575375E2,1.6072578E3,2.2948694E3,2.2494756E3,3.3729326E3,6.875751E3,3.6444375E3,2.3870574E3,1.0942755E3,2.534008E3,4.5008223E3,7.097208E3,1.3843156E4,6.228429E3,1.0130007E4,1.3929896E3,3.0514265E3,1.343193E3,5.434487E3,1.5228909E3,2.480445E3,4.4685495E2,8.3289166E2,2.38177E3,1.6304238E3,7.635101E2,1.4995137E3,5.360671E2,1.1814922E3,1.0936259E3,6.106289E2,8.3647266E2,1.2402396E3,1.3377094E3,1.9256515E3,1.105996E3,1.8104203E3,6.110598E3,3.1112024E3,3.4779902E3,2.196081E3,4.930347E3,9.546255E3,1.3627871E3,5.907695E2,6.044256E2,1.5447607E3,1.843919E3,1.2884626E3,2.1307925E3,3.8273276E3,1.8305919E3,2.8709688E3,2.9239326E3,5.006957E3,6.1809893E3,9.715335E3,2.348823E3,5.1235225E3,2.0007993E3,2.9682893E3,7.483926E2,1.3114471E3,1.7029202E3,3.0230918E3,4.9454136E3,2.272875E3,3.008039E3,9.913415E3,1.4123471E4,1.3152993E3,7.143232E3,3.5413901E3,1.1167875E4,4.636157E3,7.540198E2,1.7282002E3,1.6381799E3,2.2911606E2],"categories":[],"categories_nodes":[],"categories_segments":[],"categories_sizes":[],"default_left":[1,1,1,1,1,1,1,1,1,1,1,1,1,1,1,1,1,1,1,1,1,1,1,1,1,1,1,1,1,1,1,1,1,1,1,1,1,1,1,1,1,1,1,1,1,1,1,1,1,1,1,1,1,1,1,1,1,1,1,1,0,1,0,0,0,0,0,0,0,0,0,0,0,0,0,0,0,0,0,0,0,0,0,0,0,0,0,0,0,0,0,0,0,0,0,0,0,0,0,0,0,0,0,0,0,0,0,0,0,0,0,0,0,0,0,0,0,0,0,0,0,0,0],"id":7,"left_children":[1,3,5,7,9,11,13,15,17,19,21,23,25,27,29,31,33,35,37,39,41,43,45,47,49,51,53,55,57,59,61,63,65,67,69,71,73,75,77,79,81,83,85,87,89,91,93,95,97,99,101,103,105,107,109,111,113,115,117,119,-1,121,-1,-1,-1,-1,-1,-1,-1,-1,-1,-1,-1,-1,-1,-1,-1,-1,-1,-1,-1,-1,-1,-1,-1,-1,-1,-1,-1,-1,-1,-1,-1,-1,-1,-1,-1,-1,-1,-1,-1,-1,-1,-1,-1,-1,-1,-1,-1,-1,-1,-1,-1,-1,-1,-1,-1,-1,-1,-1,-1,-1,-1],"loss_changes":[1.5927124E10,4.9148887E9,2.2373294E9,1.9178066E9,1.5868744E9,1.2276593E9,1.1995924E9,2.5033585E9,4.5758208E8,3.6176814E9,4.5959014E8,2.6349773E9,1.3820314E8,6.032824E8,8.947437E7,3.9964954E8,1.5169352E9,2.0634752E8,9.206272E7,3.8770893E8,1.2790477E9,6.750669E7,1.751214E8,1.243049E8,1.2815073E9,6.143008E7,1.0247027E8,4.9618995E8,2.3835904E8,1.105124E7,3.1132704E7,3.192768E7,1.2244186E8,7.9966E8,4.319575E8,1.0381862E8,4.4696064E7,3.078848E7,4.6330624E7,2.5206886E8,1.0280026E8,7.056466E8,3.729029E8,2.6553152E7,2.0459744E7,8.468915E7,1.3290317E8,5.0195456E7,1.364974E8,8.908554E8,3.1565696E8,3.2900416E7,2.849436E6,2.086608E7,4.3238656E7,2.1201472E8,1.2540365E8,1.393961E8,1.0217498E8,3.19488E6,0E0,9.392195E5,0E0,0E0,0E0,0E0,0E0,0E0,0E0,0E0,0E0,0E0,0E0,0E0,0E0,0E0,0E0,0E0,0E0,0E0,0E0,0E0,0E0,0E0,0E0,0E0,0E0,0E0,0E0,0E0,0E0,0E0,0E0,0E0,0E0,0E0,0E0,0E0,0E0,0E0,0E0,0E0,0E0,0E0,0E0,0E0,0E0,0E0,0E0,0E0,0E0,0E0,0E0,0E0,0E0,0E0,0E0,0E0,0E0,0E0,0E0,0E0,0E0],"parents":[2147483647,0,0,1,1,2,2,3,3,4,4,5,5,6,6,7,7,8,8,9,9,10,10,11,11,12,12,13,13,14,14,15,15,16,16,17,17,18,18,19,19,20,20,21,21,22,22,23,23,24,24,25,25,26,26,27,27,28,28,29,29,30,30,31,31,32,32,33,33,34,34,35,35,36,36,37,37,38,38,39,39,40,40,41,41,42,42,43,43,44,44,45,45,46,46,47,47,48,48,49,49,50,50,51,51,52,52,53,53,54,54,55,55,56,56,57,57,58,58,59,59,61,61],"right_children":[2,4,6,8,10,12,14,16,18,20,22,24,26,28,30,32,34,36,38,40,42,44,46,48,50,52,54,56,58,60,62,64,66,68,70,72,74,76,78,80,82,84,86,88,90,92,94,96,98,100,102,104,106,108,110,112,114,116,118,120,-1,122,-1,-1,-1,-1,-1,-1,-1,-1,-1,-1,-1,-1,-1,-1,-1,-1,-1,-1,-1,-1,-1,-1,-1,-1,-1,-1,-1,-1,-1,-1,-1,-1,-1,-1,-1,-1,-1,-1,-1,-1,-1,-1,-1,-1,-1,-1,-1,-1,-1,-1,-1,-1,-1,-1,-1,-1,-1,-1,-1,-1,-1],"split_conditions":[1.0975001E0,6.994186E-2,4.3894997E0,7.5E0,6.5E0,6.5E0,4.32336E-2,1.5E0,1.0065789E0,3.5E0,9.393382E-1,3.5E0,1.4944444E0,5E-1,8.75E-1,3.993766E-2,6.7252265E-3,1.75E1,9.5E0,5.596774E0,1E-1,8.5E0,3.6465096E-1,1.5875001E0,2.9508647E-2,1.8304214E0,1.75E0,7.1428575E-2,1.8333333E0,8E0,3.4848487E-1,2.7884614E-1,1.15E1,7.5E-1,4.0422535E-1,1.9976304E0,5.720058E-1,1.0251572E0,1.936228E0,1.5E0,1.25E-1,2.1959923E-3,5.5E0,2.5151467E0,3.7275133E0,8.5E0,1.375E0,1.02E0,2.75E0,1.7E0,1.25E-1,4.8737374E-1,1.48E0,1.1111112E0,1.9545455E0,6.25E-1,2.3E1,1.4522728E0,2.0584416E0,1.5E0,6.102853E1,2.6666668E-1,1.08689735E2,3.0457817E1,4.9608902E1,8.9370985E0,1.6657833E1,4.76354E1,3.2608475E1,1.5270201E1,2.9990273E1,1.0721341E1,2.3629843E1,2.1872517E1,1.2212578E1,1.6729452E1,2.4804792E1,2.6754187E1,3.8513027E1,2.2119919E1,3.6208405E1,1.2221196E2,6.2224045E1,6.955981E1,4.392162E1,9.860694E1,1.909251E2,2.7255741E1,1.1815389E1,1.2088511E1,3.0895214E1,3.687838E1,2.5769253E1,4.261585E1,7.6546555E1,3.661184E1,5.7419373E1,5.847865E1,1.0013914E2,1.2361978E2,1.943067E2,4.697646E1,1.0247044E2,4.0015984E1,5.9365784E1,1.4967852E1,2.6228943E1,3.4058403E1,6.0461834E1,9.890827E1,4.54575E1,6.0160778E1,1.982683E2,2.8246942E2,2.6305986E1,1.4286464E2,7.0827805E1,2.233575E2,9.2723145E1,1.5080395E1,3.4564003E1,3.27636E1,4.582321E0],"split_indices":[53,53,56,110,110,110,33,110,19,110,19,110,9,89,57,21,33,112,112,82,104,110,53,53,33,33,56,98,74,71,11,92,112,71,16,83,44,25,83,110,9,33,74,33,95,110,57,16,66,74,57,48,53,21,98,57,11,91,102,64,0,11,0,0,0,0,0,0,0,0,0,0,0,0,0,0,0,0,0,0,0,0,0,0,0,0,0,0,0,0,0,0,0,0,0,0,0,0,0,0,0,0,0,0,0,0,0,0,0,0,0,0,0,0,0,0,0,0,0,0,0,0,0],"split_type":[0,0,0,0,0,0,0,0,0,0,0,0,0,0,0,0,0,0,0,0,0,0,0,0,0,0,0,0,0,0,0,0,0,0,0,0,0,0,0,0,0,0,0,0,0,0,0,0,0,0,0,0,0,0,0,0,0,0,0,0,0,0,0,0,0,0,0,0,0,0,0,0,0,0,0,0,0,0,0,0,0,0,0,0,0,0,0,0,0,0,0,0,0,0,0,0,0,0,0,0,0,0,0,0,0,0,0,0,0,0,0,0,0,0,0,0,0,0,0,0,0,0,0],"sum_hessian":[2.9358E4,2.7755E4,1.603E3,2.0673E4,7.082E3,1.407E3,1.96E2,1.2846E4,7.827E3,4.564E3,2.518E3,1.068E3,3.39E2,1.52E2,4.4E1,3.792E3,9.054E3,5.838E3,1.989E3,2.186E3,2.378E3,8.05E2,1.713E3,4.17E2,6.51E2,2.22E2,1.17E2,6E1,9.2E1,2.6E1,1.8E1,4.96E2,3.296E3,5.759E3,3.295E3,4.424E3,1.414E3,8.42E2,1.147E3,2.104E3,8.2E1,2.052E3,3.26E2,3.52E2,4.53E2,1.153E3,5.6E2,2.12E2,2.05E2,4.81E2,1.7E2,1.72E2,5E1,6.3E1,5.4E1,2E1,4E1,6.6E1,2.6E1,2E1,6E0,3E0,1.5E1,4.56E2,4E1,1.629E3,1.667E3,3.186E3,2.573E3,1.365E3,1.93E3,4.159E3,2.65E2,1.18E3,2.34E2,5.38E2,3.04E2,9.85E2,1.62E2,8.81E2,1.223E3,1.5E1,6.7E1,1.427E3,6.25E2,3.07E2,1.9E1,2.97E2,5.5E1,4.29E2,2.4E1,6.59E2,4.94E2,5.08E2,5.2E1,1.29E2,8.3E1,1.63E2,4.2E1,3.89E2,9.2E1,9.2E1,7.8E1,1.06E2,6.6E1,2.1E1,2.9E1,2.5E1,3.8E1,4.4E1,1E1,9E0,1.1E1,3.9E1,1E0,4.8E1,1.8E1,2.1E1,5E0,8E0,1.2E1,2E0,1E0],"tree_param":{"num_deleted":"0","num_feature":"113","num_nodes":"123","size_leaf_vector":"0"}},{"base_weights":[1.6181069E3,1.4898914E3,5.1334575E3,1.792882E3,9.06722E2,4.7663853E3,1.1143585E4,1.2265192E3,2.364825E3,6.7793304E2,1.37804E3,2.7493022E3,5.4682993E3,1.7500765E3,1.1980945E4,8.5126886E2,1.6022266E3,2.1749255E3,4.4269966E3,6.2367035E2,1.2456964E3,1.3126072E3,2.5585662E3,2.5542817E3,5.6993467E3,7.1973516E3,3.0715698E3,5.1234683E3,1.2893262E4,1.8506418E3,7.0139905E2,1.128169E3,1.8404856E3,2.5810554E3,1.3874843E3,9.051104E3,4.140206E3,6.0239404E2,1.4889579E3,1.7174684E3,1.1538524E3,1.1249613E3,1.6333456E3,2.2371716E3,4.366935E3,4.2295977E3,2.3407979E3,2.787406E3,6.8765767E3,1.378383E4,6.7289155E3,1.9046671E3,3.4224773E3,5.8064604E3,1.7126135E2,1.311126E4,1.4326663E3,1.4537206E3,3.3463452E3,1.593787E3,6.6499115E2,1.0737144E3,3.2467102E3,3.0791064E3,1.4306901E3,2.9486636E3,1.661117E3,1.9416564E3,9.083955E2,6.952373E3,1.4906057E4,4.4658125E3,2.347364E3,8.419438E2,5.408455E2,7.1403937E2,1.6392437E3,2.138221E3,1.3754531E3,1.2997664E3,9.3873425E2,1.4591333E3,7.599099E2,1.5018495E3,2.4055388E3,1.8507509E3,2.8217947E3,4.5772256E3,1.3691627E3,2.2159353E3,5.7973125E3,1.6980873E3,3.1264978E3,1.8647832E3,7.226244E3,1.6332619E4,5.688878E3,7.5827466E3,4.298499E3,1.5464077E3,3.304017E3,3.5816917E3,1.0293259E3],"categories":[],"categories_nodes":[],"categories_segments":[],"categories_sizes":[],"default_left":[1,1,1,1,1,1,1,1,1,1,1,1,1,0,1,1,1,1,1,1,1,1,1,1,1,1,1,1,1,1,1,1,1,1,1,1,1,1,1,1,1,1,1,1,1,1,1,0,1,1,1,1,1,0,0,0,0,0,0,0,0,0,0,0,0,0,0,0,0,0,0,0,0,0,0,0,0,0,0,0,0,0,0,0,0,0,0,0,0,0,0,0,0,0,0,0,0,0,0,0,0,0,0],"id":8,"left_children":[1,3,5,7,9,11,13,15,17,19,21,23,25,-1,27,29,31,33,35,37,39,41,43,45,47,49,51,53,55,57,59,61,63,65,67,69,71,73,75,77,79,81,83,85,87,89,91,-1,93,95,97,99,101,-1,-1,-1,-1,-1,-1,-1,-1,-1,-1,-1,-1,-1,-1,-1,-1,-1,-1,-1,-1,-1,-1,-1,-1,-1,-1,-1,-1,-1,-1,-1,-1,-1,-1,-1,-1,-1,-1,-1,-1,-1,-1,-1,-1,-1,-1,-1,-1,-1,-1],"loss_changes":[1.3292724E10,5.0292285E9,2.2368707E9,6.0662006E9,1.0490296E9,1.3724672E9,4.4311245E8,1.3261445E9,3.6405207E9,2.0123366E8,2.4235878E8,1.3214874E8,2.9864878E9,0E0,2.7177574E8,7.0459546E8,5.292329E8,2.7265843E9,1.0035538E9,1.0932403E8,2.275936E7,1.796818E8,8.670963E7,7.629363E7,3.2252544E7,1.2061798E9,1.1878067E8,2.6064128E7,9.863987E7,3.5965274E8,1.3214899E8,1.783282E8,1.5838157E9,1.8993766E9,7.700383E8,4.4932582E8,4.220836E8,8.572275E7,1.54832E7,1.0154208E7,1.3877888E7,2.3140403E8,1.0919834E8,2.7082752E7,8.862656E6,6.923158E7,1.0376614E8,0E0,4.049248E6,4.6415872E8,7.8709555E8,3.1487744E7,8.547302E7,0E0,0E0,0E0,0E0,0E0,0E0,0E0,0E0,0E0,0E0,0E0,0E0,0E0,0E0,0E0,0E0,0E0,0E0,0E0,0E0,0E0,0E0,0E0,0E0,0E0,0E0,0E0,0E0,0E0,0E0,0E0,0E0,0E0,0E0,0E0,0E0,0E0,0E0,0E0,0E0,0E0,0E0,0E0,0E0,0E0,0E0,0E0,0E0,0E0,0E0],"parents":[2147483647,0,0,1,1,2,2,3,3,4,4,5,5,6,6,7,7,8,8,9,9,10,10,11,11,12,12,14,14,15,15,16,16,17,17,18,18,19,19,20,20,21,21,22,22,23,23,24,24,25,25,26,26,27,27,28,28,29,29,30,30,31,31,32,32,33,33,34,34,35,35,36,36,37,37,38,38,39,39,40,40,41,41,42,42,43,43,44,44,45,45,46,46,48,48,49,49,50,50,51,51,52,52],"right_children":[2,4,6,8,10,12,14,16,18,20,22,24,26,-1,28,30,32,34,36,38,40,42,44,46,48,50,52,54,56,58,60,62,64,66,68,70,72,74,76,78,80,82,84,86,88,90,92,-1,94,96,98,100,102,-1,-1,-1,-1,-1,-1,-1,-1,-1,-1,-1,-1,-1,-1,-1,-1,-1,-1,-1,-1,-1,-1,-1,-1,-1,-1,-1,-1,-1,-1,-1,-1,-1,-1,-1,-1,-1,-1,-1,-1,-1,-1,-1,-1,-1,-1,-1,-1,-1,-1],"split_conditions":[1.7435E0,7.5E0,1.8161716E0,3.5E0,1.0085227E0,3.5E0,4.5E0,1.5E0,1.2237763E-1,1.0060976E0,9.3028843E-1,7.7264585E0,5.5E0,3.500153E1,2.5E-1,9.996271E-1,1.5E0,6.862476E-4,9E-1,1.9927797E0,1.4369035E0,4.8469387E-2,2.7727273E0,7.0432514E-1,2.887E0,5.5358905E-1,2.5E-1,9.60446E-1,2.5E0,1.6254126E-1,5.7471264E-3,4.902732E0,2.5E0,6.5E0,3.5E0,1.5E0,6.5E0,8.5E0,4.8058254E-1,1.8032129E0,1.7947772E0,9.5E0,2.0843434E0,8.076923E-1,1.7333333E0,2.523514E-1,1.0243902E0,5.574812E1,1.1111112E0,5E-1,4.227285E-2,8.571429E-2,1.4559917E1,1.161292E2,3.425227E0,2.622252E2,2.8653324E1,2.9074411E1,6.69269E1,3.1875738E1,1.3299823E1,2.1474287E1,6.4934204E1,6.1582127E1,2.86138E1,5.897327E1,3.322234E1,3.8833126E1,1.816791E1,1.3904745E2,2.9812112E2,8.9316246E1,4.694728E1,1.6838875E1,1.081691E1,1.4280787E1,3.2784874E1,4.276442E1,2.7509062E1,2.5995327E1,1.8774685E1,2.9182665E1,1.5198198E1,3.003699E1,4.8110775E1,3.7015015E1,5.6435894E1,9.154451E1,2.7383253E1,4.4318707E1,1.1594625E2,3.3961746E1,6.2529953E1,3.7295662E1,1.4452489E2,3.2665237E2,1.1377756E2,1.5165492E2,8.596998E1,3.0928154E1,6.608034E1,7.1633835E1,2.0586517E1],"split_indices":[56,110,31,110,103,110,110,110,74,36,104,26,110,0,92,26,109,33,26,83,36,7,36,26,56,26,99,33,26,60,21,17,109,110,109,91,110,110,2,1,28,110,13,48,1,26,16,0,8,19,33,108,8,0,0,0,0,0,0,0,0,0,0,0,0,0,0,0,0,0,0,0,0,0,0,0,0,0,0,0,0,0,0,0,0,0,0,0,0,0,0,0,0,0,0,0,0,0,0,0,0,0,0],"split_type":[0,0,0,0,0,0,0,0,0,0,0,0,0,0,0,0,0,0,0,0,0,0,0,0,0,0,0,0,0,0,0,0,0,0,0,0,0,0,0,0,0,0,0,0,0,0,0,0,0,0,0,0,0,0,0,0,0,0,0,0,0,0,0,0,0,0,0,0,0,0,0,0,0,0,0,0,0,0,0,0,0,0,0,0,0,0,0,0,0,0,0,0,0,0,0,0,0,0,0,0,0,0,0],"sum_hessian":[2.9508E4,2.8471E4,1.037E3,1.8735E4,9.736E3,9.79E2,5.8E1,9.415E3,9.32E3,6.556E3,3.18E3,2.54E2,7.25E2,5E0,5.3E1,4.712E3,4.703E3,8.536E3,7.84E2,5.986E3,5.7E2,3.015E3,1.65E2,2.4E2,1.4E1,4.2E2,3.05E2,7E0,4.6E1,6.13E2,4.099E3,1.575E3,3.128E3,5.63E3,2.906E3,4.4E1,7.4E2,5.844E3,1.42E2,9E1,4.8E2,1.905E3,1.11E3,1.42E2,2.3E1,2.5E1,2.15E2,5E0,9E0,2.6E1,3.94E2,7.2E1,2.33E2,6E0,1E0,4.5E1,1E0,4.86E2,1.27E2,1.59E2,3.94E3,1.537E3,3.8E1,7.76E2,2.352E3,4.021E3,1.609E3,1.346E3,1.56E3,3.4E1,1E1,6.25E2,1.15E2,1.192E3,4.652E3,2.4E1,1.18E2,3.8E1,5.2E1,2.83E2,1.97E2,9.93E2,9.12E2,9.51E2,1.59E2,8.8E1,5.4E1,2.1E1,2E0,1.2E1,1.3E1,1.2E2,9.5E1,1E0,8E0,1.9E1,7E0,2.9E2,1.04E2,5.9E1,1.3E1,2.18E2,1.5E1],"tree_param":{"num_deleted":"0","num_feature":"113","num_nodes":"103","size_leaf_vector":"0"}},{"base_weights":[1.5793333E3,1.4661099E3,5.26175E3,1.7636201E3,8.958943E2,9.919999E3,4.8694575E3,1.1983046E3,2.333236E3,6.253924E2,1.2370568E3,1.3217489E4,4.211744E3,2.8244858E3,5.567937E3,8.3296E2,1.5716515E3,2.159482E3,4.6093013E3,5.1081985E2,9.598338E2,1.3907876E3,7.7784143E2,5.8770103E3,1.4277652E4,2.086754E3,6.517004E3,2.1238674E3,4.1464697E3,6.9380757E3,3.472403E3,1.7859636E3,6.859636E2,1.7404934E3,1.0728275E3,2.003641E3,3.5577617E3,3.7246196E3,5.9908906E3,4.8105243E2,1.089005E3,9.2757007E2,1.4902203E3,1.3087693E3,2.0336492E3,1.2424545E3,4.9820172E2,7.4843936E3,1.2390349E3,9.573744E3,1.5964422E4,1.2694847E3,2.6431787E3,1.864695E3,3.748089E3,1.3680724E3,4.9298564E3,3.9013125E3,7.742025E3,3.1003713E3,1.0282639E4,1.3861387E3,3.4029614E3,4.878385E2,8.8365936E2,1.5264839E3,2.546675E3,2.0456523E3,8.997378E2,2.4889734E3,1.5852761E3,3.101374E3,5.6179556E3,4.0800825E3,1.4828445E3,5.4064224E3,1.117512E4,3.9260925E2,6.150756E2,9.055219E2,1.6756116E3,8.6619354E2,1.2747054E3,1.2434163E3,1.8061445E3,1.083399E3,1.4793091E3,1.7049314E3,2.591761E3,1.8782532E3,1.0787185E3,4.5667514E2,1.9166691E3,1.0093986E4,1.9255426E3,2.8908284E3,4.5481555E2,2.2542766E3,1.2033479E3,4.064016E3,1.6263397E3,5.528281E2,2.7705488E3,6.052731E3,2.4837407E3,1.3934899E3,4.990095E3,6.8813486E3,1.0803841E4,1.9719786E3,3.6371084E3,1.0959544E4,1.4183396E3],"categories":[],"categories_nodes":[],"categories_segments":[],"categories_sizes":[],"default_left":[1,1,1,1,1,1,1,1,1,1,1,1,1,1,1,1,1,1,1,1,1,1,1,1,1,1,0,1,1,1,1,1,1,1,1,1,1,1,1,1,1,1,1,1,1,1,1,0,0,1,0,0,1,1,1,1,1,1,1,1,1,0,0,0,0,0,0,0,0,0,0,0,0,0,0,0,0,0,0,0,0,0,0,0,0,0,0,0,0,0,0,0,0,0,0,0,0,0,0,0,0,0,0,0,0,0,0,0,0,0,0,0,0],"id":9,"left_children":[1,3,5,7,9,11,13,15,17,19,21,23,25,27,29,31,33,35,37,39,41,43,45,47,49,51,-1,53,55,57,59,61,63,65,67,69,71,73,75,77,79,81,83,85,87,89,91,-1,-1,93,-1,-1,95,97,99,101,103,105,107,109,111,-1,-1,-1,-1,-1,-1,-1,-1,-1,-1,-1,-1,-1,-1,-1,-1,-1,-1,-1,-1,-1,-1,-1,-1,-1,-1,-1,-1,-1,-1,-1,-1,-1,-1,-1,-1,-1,-1,-1,-1,-1,-1,-1,-1,-1,-1,-1,-1,-1,-1,-1,-1],"loss_changes":[1.2227674E10,4.828549E9,1.5506657E9,6.0217426E9,9.0029926E8,1.2054671E9,1.1398246E9,1.2797614E9,3.6750868E9,2.0826522E8,3.0367846E8,2.4293837E8,1.1376566E8,1.8384435E8,1.7043558E9,6.640535E8,3.8926234E8,1.8797486E9,7.84383E8,6.935302E7,2.2386688E7,1.6780288E8,1.4034886E8,4.2911616E7,1.3279898E8,3.465748E6,0E0,5.110253E7,1.4779136E8,8.5602304E8,5.7618944E8,4.0517414E8,1.6078643E8,5.9444736E8,1.9634982E8,1.5783895E9,7.977718E8,3.166812E8,7.152671E8,4.554835E7,1.979392E7,2.684928E7,3.835984E6,1.0870477E8,6.236109E7,4.034381E7,3.912061E7,0E0,0E0,2.8310528E7,0E0,0E0,3.020788E6,2.8462784E7,5.456272E6,1.7905498E7,1.3603392E8,2.060233E8,6.7933184E8,1.3152154E8,5.6459264E7,0E0,0E0,0E0,0E0,0E0,0E0,0E0,0E0,0E0,0E0,0E0,0E0,0E0,0E0,0E0,0E0,0E0,0E0,0E0,0E0,0E0,0E0,0E0,0E0,0E0,0E0,0E0,0E0,0E0,0E0,0E0,0E0,0E0,0E0,0E0,0E0,0E0,0E0,0E0,0E0,0E0,0E0,0E0,0E0,0E0,0E0,0E0,0E0,0E0,0E0,0E0,0E0],"parents":[2147483647,0,0,1,1,2,2,3,3,4,4,5,5,6,6,7,7,8,8,9,9,10,10,11,11,12,12,13,13,14,14,15,15,16,16,17,17,18,18,19,19,20,20,21,21,22,22,23,23,24,24,25,25,27,27,28,28,29,29,30,30,31,31,32,32,33,33,34,34,35,35,36,36,37,37,38,38,39,39,40,40,41,41,42,42,43,43,44,44,45,45,46,46,49,49,52,52,53,53,54,54,55,55,56,56,57,57,58,58,59,59,60,60],"right_children":[2,4,6,8,10,12,14,16,18,20,22,24,26,28,30,32,34,36,38,40,42,44,46,48,50,52,-1,54,56,58,60,62,64,66,68,70,72,74,76,78,80,82,84,86,88,90,92,-1,-1,94,-1,-1,96,98,100,102,104,106,108,110,112,-1,-1,-1,-1,-1,-1,-1,-1,-1,-1,-1,-1,-1,-1,-1,-1,-1,-1,-1,-1,-1,-1,-1,-1,-1,-1,-1,-1,-1,-1,-1,-1,-1,-1,-1,-1,-1,-1,-1,-1,-1,-1,-1,-1,-1,-1,-1,-1,-1,-1,-1,-1],"split_conditions":[1.961475E0,7.5E0,5.5772126E-1,3.5E0,9.768119E-1,1.05E1,3.5E0,1.5E0,3.125E-2,1.75E1,3.059698E0,5E-1,1.869863E0,2.1237373E0,5.5E0,9.996271E-1,1.0030864E0,5.2987013E-2,2.7899998E-1,6.377551E-2,2.5510205E-2,3.8734114E-1,9.5E0,2.5E-1,6.5E0,7.631579E-1,1.3034007E2,4.3E0,8.333334E-1,5.5E0,1.8026402E0,6.9444445E-3,1.15E1,2.0833334E-2,6.666667E-1,5.5E0,1.7729373E0,6.5E0,1.4752476E0,1.05E1,5.580808E-1,7.6247054E-1,4.7887325E-1,9.5E0,1.3239344E0,1.4849739E0,3.3607523E0,1.4968787E2,2.4780697E1,5E-1,3.1928842E2,2.5389694E1,2.4736843E0,2.5E-1,1.1666667E0,1.6E1,1.225E0,4.5E0,4.8465004E0,8.397436E-1,2.4333334E0,2.7722773E1,6.805923E1,9.75677E0,1.7673187E1,3.0529676E1,5.09335E1,4.0913048E1,1.7994755E1,4.977947E1,3.1705523E1,6.2027477E1,1.1235911E2,8.160165E1,2.9656889E1,1.0812845E2,2.235024E2,7.852185E0,1.2301512E1,1.8110437E1,3.351223E1,1.732387E1,2.5494108E1,2.4868324E1,3.612289E1,2.166798E1,2.9586182E1,3.409863E1,5.183522E1,3.7565063E1,2.157437E1,9.133503E0,3.833338E1,2.0187971E2,3.8510853E1,5.7816566E1,9.096311E0,4.508553E1,2.4066957E1,8.128032E1,3.2526794E1,1.1056562E1,5.5410976E1,1.2105462E2,4.9674812E1,2.7869797E1,9.98019E1,1.3762697E2,2.1607681E2,3.943957E1,7.2742165E1,2.1919087E2,2.836679E1],"split_indices":[56,110,26,110,19,111,110,110,81,112,106,65,25,26,110,26,96,108,56,7,7,56,110,89,111,19,0,9,24,111,31,60,112,7,99,110,31,110,31,112,48,31,62,112,98,21,82,0,0,14,0,0,5,96,82,111,83,110,56,14,26,0,0,0,0,0,0,0,0,0,0,0,0,0,0,0,0,0,0,0,0,0,0,0,0,0,0,0,0,0,0,0,0,0,0,0,0,0,0,0,0,0,0,0,0,0,0,0,0,0,0,0,0],"split_type":[0,0,0,0,0,0,0,0,0,0,0,0,0,0,0,0,0,0,0,0,0,0,0,0,0,0,0,0,0,0,0,0,0,0,0,0,0,0,0,0,0,0,0,0,0,0,0,0,0,0,0,0,0,0,0,0,0,0,0,0,0,0,0,0,0,0,0,0,0,0,0,0,0,0,0,0,0,0,0,0,0,0,0,0,0,0,0,0,0,0,0,0,0,0,0,0,0,0,0,0,0,0,0,0,0,0,0,0,0,0,0,0,0],"sum_hessian":[2.9345E4,2.8471E4,8.74E2,1.8708E4,9.763E3,6.6E1,8.08E2,9.391E3,9.317E3,5.447E3,4.316E3,4.1E1,2.5E1,2.07E2,6.01E2,4.748E3,4.643E3,8.658E3,6.59E2,4.059E3,1.388E3,3.232E3,1.084E3,6E0,3.5E1,1.4E1,1.1E1,1.37E2,7E1,3.62E2,2.39E2,6.33E2,4.115E3,3.467E3,1.176E3,7.792E3,8.66E2,4.04E2,2.55E2,3.862E3,1.97E2,1.311E3,7.7E1,2.869E3,3.63E2,4.06E2,6.78E2,4E0,2E0,1.1E1,2.4E1,7E0,7E0,1.2E2,1.7E1,1.6E1,5.4E1,7.7E1,2.85E2,2.28E2,1.1E1,5.09E2,1.24E2,2.057E3,2.058E3,2.742E3,7.25E2,1.76E2,1E3,3.605E3,4.187E3,7.11E2,1.55E2,3.48E2,5.6E1,2.31E2,2.4E1,2.329E3,1.533E3,1.52E2,4.5E1,1.117E3,1.94E2,4.6E1,3.1E1,1.239E3,1.63E3,2.31E2,1.32E2,8.1E1,3.25E2,6.6E2,1.8E1,1E1,1E0,6E0,1E0,7.4E1,4.6E1,1.4E1,3E0,1.1E1,5E0,3.6E1,1.8E1,2.4E1,5.3E1,2.25E2,6E1,7.5E1,1.53E2,1E1,1E0],"tree_param":{"num_deleted":"0","num_feature":"113","num_nodes":"113","size_leaf_vector":"0"}},{"base_weights":[1.5456207E3,1.3837266E3,3.6214783E3,9.062166E2,1.6914454E3,3.3621497E3,8.656029E3,8.3450055E2,1.8034233E3,1.5934552E3,2.9491685E3,2.847433E3,5.1978193E3,1.0230779E4,4.617719E3,8.209062E2,5.1560186E3,1.7429839E3,1.0992167E4,1.5201731E3,2.8013447E3,2.7522864E3,4.9401055E3,2.6363025E3,4.8420073E3,4.4382E3,8.017046E3,9.116679E3,1.36996045E4,2.5699038E3,1.2721967E4,6.5922943E2,1.0393356E3,5.5241313E3,1.2902231E3,1.6183376E3,4.742602E3,4.945335E3,1.3374942E4,1.3833477E3,1.9633779E3,5.4855244E3,2.602495E3,2.4899514E3,3.7143787E3,4.2808555E3,7.7681646E3,2.406281E3,4.1460938E3,3.905357E3,8.489653E3,4.10466E3,8.0116084E3,9.846973E3,4.846135E3,9.4451455E3,2.238976E3,1.4095046E4,3.8839878E3,2.6554949E3,2.1506445E2,5.60535E2,2.9524346E3,1.4274901E3,8.3916864E2,1.2118351E3,2.3558132E3,3.5510803E3,1.1897603E4,1.814382E3,1.1575638E3,1.8568779E3,2.7514163E3,3.2971655E3,9.392612E3,2.373234E3,4.6206807E3,3.517667E3,2.1816018E3,5.0848774E3,3.0946252E3,4.773922E3,1.7328699E3,9.998247E3,5.2373545E3,1.860476E3,2.8993286E3,3.6478062E3,7.9586885E3,3.5031648E3,6.7577544E3,5.565513E3,1.2412071E4,3.137591E3,5.322047E3,9.741284E3,3.0855186E3,7.8707554E3,1.3208248E4,6.4593247E3,3.5259539E3,9.731596E3,1.1406589E3,2.7456365E3,2.46047E2],"categories":[],"categories_nodes":[],"categories_segments":[],"categories_sizes":[],"default_left":[1,1,1,1,1,1,1,1,1,1,1,1,1,1,1,1,1,1,1,1,1,1,1,1,1,1,1,1,1,1,0,1,1,0,0,1,1,0,0,1,1,1,1,1,1,1,1,1,1,1,1,1,1,1,1,1,0,0,0,1,0,0,0,0,0,0,0,0,0,0,0,0,0,0,0,0,0,0,0,0,0,0,0,0,0,0,0,0,0,0,0,0,0,0,0,0,0,0,0,0,0,0,0,0,0],"id":10,"left_children":[1,3,5,7,9,11,13,15,17,19,21,23,25,27,29,31,33,35,37,39,41,43,45,47,49,51,53,55,57,59,-1,61,63,-1,-1,65,67,-1,-1,69,71,73,75,77,79,81,83,85,87,89,91,93,95,97,99,101,-1,-1,-1,103,-1,-1,-1,-1,-1,-1,-1,-1,-1,-1,-1,-1,-1,-1,-1,-1,-1,-1,-1,-1,-1,-1,-1,-1,-1,-1,-1,-1,-1,-1,-1,-1,-1,-1,-1,-1,-1,-1,-1,-1,-1,-1,-1,-1,-1],"loss_changes":[9.920127E9,4.0242954E9,2.7596636E9,6.894879E8,2.048553E9,1.9060797E9,6.141271E8,5.8007706E8,4.217984E8,1.3640335E9,4.579543E8,6.5680794E8,9.1526246E8,1.6108749E8,4.8178195E8,3.4949888E8,3.69872E7,2.876987E8,5.897664E6,8.8119706E8,4.570235E8,2.6762445E8,1.662359E8,4.9011405E8,4.8274688E8,3.8665523E8,4.919168E8,1.1213875E8,7.358976E6,4.66928E6,0E0,1.2886326E9,3.2636672E8,0E0,0E0,2.249824E8,2.220361E8,0E0,0E0,1.0821489E9,2.8326093E8,4.8203763E8,3.7029222E8,2.664402E8,1.821678E8,1.0354048E8,5.487027E7,3.315282E8,3.300247E8,1.1628634E8,2.7501133E8,3.6474573E8,2.1703885E8,2.8131226E8,5.389408E7,1.2211405E8,0E0,0E0,0E0,4.754224E6,0E0,0E0,0E0,0E0,0E0,0E0,0E0,0E0,0E0,0E0,0E0,0E0,0E0,0E0,0E0,0E0,0E0,0E0,0E0,0E0,0E0,0E0,0E0,0E0,0E0,0E0,0E0,0E0,0E0,0E0,0E0,0E0,0E0,0E0,0E0,0E0,0E0,0E0,0E0,0E0,0E0,0E0,0E0,0E0,0E0],"parents":[2147483647,0,0,1,1,2,2,3,3,4,4,5,5,6,6,7,7,8,8,9,9,10,10,11,11,12,12,13,13,14,14,15,15,16,16,17,17,18,18,19,19,20,20,21,21,22,22,23,23,24,24,25,25,26,26,27,27,28,28,29,29,31,31,32,32,35,35,36,36,39,39,40,40,41,41,42,42,43,43,44,44,45,45,46,46,47,47,48,48,49,49,50,50,51,51,52,52,53,53,54,54,55,55,59,59],"right_children":[2,4,6,8,10,12,14,16,18,20,22,24,26,28,30,32,34,36,38,40,42,44,46,48,50,52,54,56,58,60,-1,62,64,-1,-1,66,68,-1,-1,70,72,74,76,78,80,82,84,86,88,90,92,94,96,98,100,102,-1,-1,-1,104,-1,-1,-1,-1,-1,-1,-1,-1,-1,-1,-1,-1,-1,-1,-1,-1,-1,-1,-1,-1,-1,-1,-1,-1,-1,-1,-1,-1,-1,-1,-1,-1,-1,-1,-1,-1,-1,-1,-1,-1,-1,-1,-1,-1,-1],"split_conditions":[9.3103445E-1,1.3282172E-3,1.8042904E0,1.1513158E-1,8.009901E-1,2.9797297E0,5.526316E-1,2.6142857E1,1.45E1,5.9027776E-2,2.5E0,3.066731E0,4.9885845E0,2.125E0,2.5E0,1.0041445E0,1.6666667E-1,2.5E0,1E0,2E-2,5.685764E-1,2.3093083E0,5.205882E0,3.205357E0,1.5E0,3.9082494E0,1.0353535E0,4.8258357E0,6.5E0,8E0,2.5443933E2,1.5508251E0,9.083333E-1,1.1048263E2,2.5804462E1,1.2298877E0,1.639329E0,9.89067E1,2.6749884E2,9.010309E-1,3.253866E0,4.1721904E-1,6.541353E0,6.8333334E-1,1.005814E0,4.597859E-2,1.4594595E0,1.0343163E0,6.89011E0,1.3333333E0,6.9444445E-3,1.277466E0,1.796146E0,1.36E0,1.3136227E0,5.088155E-1,4.4779522E1,2.819009E2,7.7679756E1,5.5E0,4.301289E0,1.1210699E1,5.904869E1,2.85498E1,1.6783373E1,2.4236702E1,4.7116264E1,7.102161E1,2.3795204E2,3.628764E1,2.3151276E1,3.7137558E1,5.5028324E1,6.5943306E1,1.8785225E2,4.7464676E1,9.241361E1,7.035334E1,4.3632034E1,1.0169755E2,6.18925E1,9.547843E1,3.46574E1,1.9996494E2,1.04747086E2,3.720952E1,5.7986572E1,7.295612E1,1.5917377E2,7.006329E1,1.3515509E2,1.11310265E2,2.4824142E2,6.275182E1,1.0644093E2,1.9482568E2,6.171037E1,1.574151E2,2.6416495E2,1.291865E2,7.051907E1,1.9463191E2,2.2813179E1,5.4912727E1,4.92094E0],"split_indices":[69,103,31,86,60,66,103,21,107,81,70,22,71,84,13,33,12,64,2,37,103,8,21,87,70,22,2,31,39,48,0,31,12,0,0,21,31,0,0,12,102,103,19,12,101,33,12,103,19,81,81,103,5,24,91,33,0,0,0,10,0,0,0,0,0,0,0,0,0,0,0,0,0,0,0,0,0,0,0,0,0,0,0,0,0,0,0,0,0,0,0,0,0,0,0,0,0,0,0,0,0,0,0,0,0],"split_type":[0,0,0,0,0,0,0,0,0,0,0,0,0,0,0,0,0,0,0,0,0,0,0,0,0,0,0,0,0,0,0,0,0,0,0,0,0,0,0,0,0,0,0,0,0,0,0,0,0,0,0,0,0,0,0,0,0,0,0,0,0,0,0,0,0,0,0,0,0,0,0,0,0,0,0,0,0,0,0,0,0,0,0,0,0,0,0,0,0,0,0,0,0,0,0,0,0,0,0,0,0,0,0,0,0],"sum_hessian":[2.9532E4,2.7397E4,2.135E3,1.0738E4,1.6659E4,2.032E3,1.03E2,9.945E3,7.93E2,1.5457E4,1.202E3,1.589E3,4.43E2,7.3E1,3E1,9.915E3,3E1,7.89E2,4E0,1.4575E4,8.82E2,1.096E3,1.06E2,1.439E3,1.5E2,3.51E2,9.2E1,5.8E1,1.5E1,2.5E1,5E0,5.7E3,4.215E3,2.7E1,3E0,7.59E2,3E1,2E0,2E0,1.114E4,3.435E3,5.9E1,8.23E2,8.64E2,2.32E2,8.8E1,1.8E1,1.251E3,1.88E2,1.21E2,2.9E1,3.23E2,2.8E1,5.7E1,3.5E1,5.5E1,3E0,1.4E1,1E0,2.4E1,1E0,5.466E3,2.34E2,1.432E3,2.783E3,4.91E2,2.68E2,2.7E1,3E0,3.827E3,7.313E3,3.029E3,4.06E2,3.9E1,2E1,7.41E2,8.2E1,1.97E2,6.67E2,7E1,1.62E2,7.3E1,1.5E1,8E0,1E1,5.96E2,6.55E2,1.68E2,2E1,1.08E2,1.3E1,1.8E1,1.1E1,1.82E2,1.41E2,2E1,8E0,3.8E1,1.9E1,1.4E1,2.1E1,5.3E1,2E0,2.3E1,1E0],"tree_param":{"num_deleted":"0","num_feature":"113","num_nodes":"105","size_leaf_vector":"0"}},{"base_weights":[1.5204576E3,1.3810999E3,3.9740774E3,1.1878838E3,1.9616582E3,8.961535E3,3.6538477E3,1.1387257E3,2.641371E3,1.7735345E3,3.1173296E3,1.2160801E4,3.3804927E3,3.1004292E3,5.8889043E3,9.874667E2,1.4947029E3,2.0574922E3,5.7417476E3,1.556862E3,2.1829363E3,2.879734E3,5.366432E3,7.089718E3,1.4709597E4,2.0262657E3,6.274075E3,2.8020264E3,5.353714E3,4.826568E3,8.635983E3,1.1914504E3,8.02446E2,1.4180555E3,2.6564336E3,1.876344E3,4.5129424E3,8.533368E3,4.104391E3,1.6512826E3,7.8514233E2,2.098356E3,3.9037876E3,2.66429E3,4.2557144E3,4.6038833E3,9.286067E3,3.1026746E3,9.611311E3,1.5059959E4,6.9791956E2,2.2439028E3,2.6828656E2,2.36494E3,4.0721497E3,4.9909966E3,1.2562109E4,3.8340317E3,6.039939E3,9.947852E3,6.199169E3,1.4016552E3,5.808672E2,6.893861E2,1.2817517E3,1.324E3,1.9730894E3,2.2454814E3,3.711886E3,1.5781556E3,2.6854023E3,2.8619138E3,6.707426E3,9.960854E3,4.491457E3,4.7718E3,1.3391068E3,2.0299598E3,1.4746467E3,4.3639056E2,1.223374E3,2.1932683E3,1.1375742E3,2.0150405E3,4.3138184E3,2.2844468E3,3.4642642E3,3.9596135E3,8.38537E3,4.013495E3,8.276214E3,1.23869375E4,4.415635E3,3.4498909E3,-1.1135986E1,2.6631582E3,1.1249043E3,4.292444E2,-1.0729349E2,1.7917843E3,3.0056938E3,3.3126018E3,5.6053896E3,3.9721025E3,7.1282856E3,3.2711892E3,8.673918E3,4.5318955E3,7.4221504E3,2.7235327E3,1.06738955E4,4.7539956E3,7.834487E3],"categories":[],"categories_nodes":[],"categories_segments":[],"categories_sizes":[],"default_left":[1,1,1,1,1,1,1,1,1,1,1,1,1,1,1,1,1,1,1,1,1,1,1,1,1,1,0,1,1,1,1,1,1,1,1,1,1,1,1,1,1,1,1,1,1,1,1,1,0,0,0,1,1,1,1,1,0,1,1,1,1,0,0,0,0,0,0,0,0,0,0,0,0,0,0,0,0,0,0,0,0,0,0,0,0,0,0,0,0,0,0,0,0,0,0,0,0,0,0,0,0,0,0,0,0,0,0,0,0,0,0,0,0],"id":11,"left_children":[1,3,5,7,9,11,13,15,17,19,21,23,25,27,29,31,33,35,37,39,41,43,45,47,49,51,-1,53,55,57,59,61,63,65,67,69,71,73,75,77,79,81,83,85,87,89,91,93,-1,-1,-1,95,97,99,101,103,-1,105,107,109,111,-1,-1,-1,-1,-1,-1,-1,-1,-1,-1,-1,-1,-1,-1,-1,-1,-1,-1,-1,-1,-1,-1,-1,-1,-1,-1,-1,-1,-1,-1,-1,-1,-1,-1,-1,-1,-1,-1,-1,-1,-1,-1,-1,-1,-1,-1,-1,-1,-1,-1,-1,-1],"loss_changes":[1.0088317E10,3.131224E9,2.500307E9,1.494741E9,1.5106826E9,1.6551373E9,1.8272276E9,1.090388E9,1.228204E9,5.2883866E8,5.0556416E8,6.712228E8,1.2835549E8,7.9051776E8,8.1922355E8,5.362514E8,5.3450035E8,2.4862694E8,4.586304E8,2.8484813E8,2.9368115E8,2.5072026E8,2.3222784E8,1.9136064E8,1.809454E8,9.345624E6,0E0,5.788324E8,3.007332E8,2.3577037E8,1.9727053E8,8.67841E8,4.037545E8,2.9354086E8,1.5345024E8,1.2603802E8,1.2210694E8,1.8028211E8,1.2280013E8,2.309806E8,6.518477E7,1.7796915E8,6.5654144E7,2.2515046E8,1.1108685E8,1.3806349E8,1.5673997E8,1.085008E7,0E0,0E0,0E0,7.794568E6,2.878653E5,2.8511027E8,2.9586483E8,2.6349363E8,0E0,3.0124134E8,1.6438451E8,2.3843328E8,3.6017664E7,0E0,0E0,0E0,0E0,0E0,0E0,0E0,0E0,0E0,0E0,0E0,0E0,0E0,0E0,0E0,0E0,0E0,0E0,0E0,0E0,0E0,0E0,0E0,0E0,0E0,0E0,0E0,0E0,0E0,0E0,0E0,0E0,0E0,0E0,0E0,0E0,0E0,0E0,0E0,0E0,0E0,0E0,0E0,0E0,0E0,0E0,0E0,0E0,0E0,0E0,0E0,0E0],"parents":[2147483647,0,0,1,1,2,2,3,3,4,4,5,5,6,6,7,7,8,8,9,9,10,10,11,11,12,12,13,13,14,14,15,15,16,16,17,17,18,18,19,19,20,20,21,21,22,22,23,23,24,24,25,25,27,27,28,28,29,29,30,30,31,31,32,32,33,33,34,34,35,35,36,36,37,37,38,38,39,39,40,40,41,41,42,42,43,43,44,44,45,45,46,46,47,47,51,51,52,52,53,53,54,54,55,55,57,57,58,58,59,59,60,60],"right_children":[2,4,6,8,10,12,14,16,18,20,22,24,26,28,30,32,34,36,38,40,42,44,46,48,50,52,-1,54,56,58,60,62,64,66,68,70,72,74,76,78,80,82,84,86,88,90,92,94,-1,-1,-1,96,98,100,102,104,-1,106,108,110,112,-1,-1,-1,-1,-1,-1,-1,-1,-1,-1,-1,-1,-1,-1,-1,-1,-1,-1,-1,-1,-1,-1,-1,-1,-1,-1,-1,-1,-1,-1,-1,-1,-1,-1,-1,-1,-1,-1,-1,-1,-1,-1,-1,-1,-1,-1,-1,-1,-1,-1,-1,-1],"split_conditions":[1.4169E0,1.5E-2,5.738474E-1,6.632826E-2,7.497333E-1,1.05E1,1.7083333E0,1.0166852E0,1.7683169E0,1.1126984E0,4.8292685E0,6.5E0,2.75E1,3.2352942E-1,3.625E0,9.0526056E-1,4.7058824E-1,1.3335E0,8.2857144E-1,3.1496063E-1,1.7466667E0,1.45E0,4.166667E0,3.5E0,1E0,5E-1,1.254815E2,3.29E0,5.5E0,1.8210948E0,1.0254238E0,4.5E0,1.101503E0,3.0037036E0,2.9402852E0,1.0208333E0,5E-1,3.9195652E0,1.9838283E0,9.511905E-1,9.998964E-1,2.6616246E-1,9.655173E-1,1.9959786E0,1.7709571E0,3.2777777E0,8.75E-1,1.6111112E0,1.9222621E2,3.0119916E2,1.3958391E1,2.947467E-1,1.75E0,1.0108695E0,1.5E0,1.5E0,2.5124219E2,3.5E0,1.55E1,6.666667E-1,2.125E0,2.8033102E1,1.1617344E1,1.3787722E1,2.5635033E1,2.648E1,3.9461784E1,4.4909626E1,7.423772E1,3.1563112E1,5.3708046E1,5.7238274E1,1.3414851E2,1.9921707E2,8.982914E1,9.5436E1,2.6782135E1,4.0599197E1,2.9492933E1,8.727811E0,2.446748E1,4.3865364E1,2.2751484E1,4.0300808E1,8.627637E1,4.5688934E1,6.928528E1,7.919227E1,1.677074E2,8.02699E1,1.6552428E2,2.4773874E2,8.831269E1,6.899782E1,-2.2271973E-1,5.3263165E1,2.2498085E1,8.5848875E0,-2.1458697E0,3.5835686E1,6.0113876E1,6.625204E1,1.1210779E2,7.944205E1,1.425657E2,6.542378E1,1.7347836E2,9.063791E1,1.4844301E2,5.4470654E1,2.134779E2,9.507991E1,1.5668973E2],"split_indices":[55,41,26,108,57,111,74,19,31,17,74,111,111,104,55,12,52,57,26,44,70,104,11,104,1,1,0,55,12,26,2,104,17,6,17,104,48,21,31,12,44,44,23,8,31,14,14,9,0,0,0,26,1,86,70,70,0,22,111,21,88,0,0,0,0,0,0,0,0,0,0,0,0,0,0,0,0,0,0,0,0,0,0,0,0,0,0,0,0,0,0,0,0,0,0,0,0,0,0,0,0,0,0,0,0,0,0,0,0,0,0,0,0],"split_type":[0,0,0,0,0,0,0,0,0,0,0,0,0,0,0,0,0,0,0,0,0,0,0,0,0,0,0,0,0,0,0,0,0,0,0,0,0,0,0,0,0,0,0,0,0,0,0,0,0,0,0,0,0,0,0,0,0,0,0,0,0,0,0,0,0,0,0,0,0,0,0,0,0,0,0,0,0,0,0,0,0,0,0,0,0,0,0,0,0,0,0,0,0,0,0,0,0,0,0,0,0,0,0,0,0,0,0,0,0,0,0,0,0],"sum_hessian":[2.9519E4,2.7934E4,1.585E3,2.0961E4,6.973E3,9.4E1,1.491E3,2.0277E4,6.84E2,5.999E3,9.74E2,5.9E1,3.5E1,1.197E3,2.94E2,1.4233E4,6.044E3,5.77E2,1.07E2,3.926E3,2.073E3,8.83E2,9.1E1,2.1E1,3.8E1,2.5E1,1E1,1.059E3,1.38E2,2.14E2,8E1,6.767E3,7.466E3,5.672E3,3.72E2,5.39E2,3.8E1,3.8E1,6.9E1,3.497E3,4.29E2,1.978E3,9.5E1,7.66E2,1.17E2,7.8E1,1.3E1,9E0,1.2E1,3.7E1,1E0,2.2E1,3E0,7.9E2,2.69E2,1.33E2,5E0,1.2E2,9.4E1,5E1,3E1,5.033E3,1.734E3,6.043E3,1.423E3,4.853E3,8.19E2,2.7E2,1.02E2,3.96E2,1.43E2,2.3E1,1.5E1,2.7E1,1.1E1,5.5E1,1.4E1,1.109E3,2.388E3,2.4E2,1.89E2,1.799E3,1.79E2,1.8E1,7.7E1,5.22E2,2.44E2,1.11E2,6E0,6.9E1,9E0,7E0,6E0,8E0,1E0,1.5E1,7E0,2E0,1E0,4.19E2,3.71E2,1.82E2,8.7E1,9.2E1,4.1E1,1.09E2,1.1E1,4.7E1,4.7E1,5E0,4.5E1,1.8E1,1.2E1],"tree_param":{"num_deleted":"0","num_feature":"113","num_nodes":"113","size_leaf_vector":"0"}},{"base_weights":[1.4956489E3,1.2706975E3,3.790304E3,1.5294406E3,7.9354803E2,3.2549963E3,6.034271E3,9.44228E2,1.9037617E3,1.0700513E3,5.2054724E2,3.023069E3,6.353617E3,5.2355625E3,9.177268E3,7.5429724E2,1.3463599E3,2.2553933E3,1.1944565E3,6.0733527E2,1.3200834E3,4.2864862E2,7.176501E2,2.7957405E3,4.91356E3,4.9097524E3,1.100794E4,6.149417E3,3.1150583E3,4.536308E3,1.1167745E4,1.6473917E3,6.1381256E2,1.1892979E3,2.1375447E3,2.0829692E3,3.6212883E3,1.7534779E3,6.8951215E2,4.4793115E2,1.1208665E3,1.2399506E3,2.1055361E3,6.805236E2,3.4783298E2,9.069503E2,6.120258E2,1.9616349E3,3.1971526E3,3.0543857E3,5.9163813E3,6.2618896E3,2.148927E3,1.2853022E4,3.4047976E3,3.3282212E3,7.411979E3,2.0876936E3,3.5447346E3,2.1811887E3,6.486049E3,8.243219E3,1.2423509E4,4.2952826E2,1.9657238E3,1.4758003E3,5.813451E2,1.3403389E3,6.126823E2,1.8777211E3,3.0963733E3,1.8096179E3,2.6448638E3,7.4920977E3,3.2942205E3,1.4549778E3,2.782366E3,5.850184E2,1.2779104E3,4.0343826E2,6.8105896E2,9.9719037E2,1.4636536E3,1.1876394E3,2.1000176E3,2.2396455E3,7.0924976E2,6.3580774E2,1.0898984E3,4.4606464E2,3.0078214E2,7.406242E2,1.602205E3,4.605782E2,8.9817535E2,2.5281802E3,1.5268889E3,4.4157383E3,2.1176787E3,3.6803142E3,1.2397961E3,6.9728984E3,3.4691956E3,4.863575E3,8.360414E3,1.0756974E3,3.341267E3,4.0685962E3,1.1535142E3,8.605696E3,4.07387E3,9.7701056E2,2.5451448E3,3.112791E3,4.5925454E3,9.8005664E2,2.8038625E3,8.708953E3,2.0800896E3],"categories":[],"categories_nodes":[],"categories_segments":[],"categories_sizes":[],"default_left":[1,1,1,1,1,1,1,1,1,1,1,1,1,1,1,1,1,1,1,1,1,1,1,1,1,1,1,1,1,1,1,1,1,1,1,1,1,1,1,1,1,1,1,1,1,1,1,1,1,1,1,1,1,0,0,1,1,1,1,1,0,1,0,0,0,0,0,0,0,0,0,0,0,0,0,0,0,0,0,0,0,0,0,0,0,0,0,0,0,0,0,0,0,0,0,0,0,0,0,0,0,0,0,0,0,0,0,0,0,0,0,0,0,0,0,0,0,0,0],"id":12,"left_children":[1,3,5,7,9,11,13,15,17,19,21,23,25,27,29,31,33,35,37,39,41,43,45,47,49,51,53,55,57,59,61,63,65,67,69,71,73,75,77,79,81,83,85,87,89,91,93,95,97,99,101,103,105,-1,-1,107,109,111,113,115,-1,117,-1,-1,-1,-1,-1,-1,-1,-1,-1,-1,-1,-1,-1,-1,-1,-1,-1,-1,-1,-1,-1,-1,-1,-1,-1,-1,-1,-1,-1,-1,-1,-1,-1,-1,-1,-1,-1,-1,-1,-1,-1,-1,-1,-1,-1,-1,-1,-1,-1,-1,-1,-1,-1,-1,-1,-1,-1],"loss_changes":[1.519222E10,3.3092198E9,3.1371428E9,3.8065152E9,7.1127245E8,1.5072154E9,1.219672E9,5.1712717E8,2.6415964E9,5.411077E8,8.567706E7,8.363336E8,9.3382554E8,7.656663E8,8.8234906E8,5.7738726E8,2.6773402E8,1.6615383E9,9.9126886E8,1.3415597E8,1.8872883E8,6.5714944E7,2.9596928E7,5.856901E8,3.753216E8,4.1210726E8,4.3320397E8,9.79798E8,4.73376E7,1.3279258E8,1.5466598E8,2.4184653E8,1.1066867E8,1.5742592E8,8.362214E7,9.6209306E8,9.7927066E8,5.082332E8,1.1293626E8,1.276352E7,1.5031936E7,1.2172672E8,5.084301E7,1.36952E7,1.1212544E7,6.10272E7,4.166621E7,1.382569E8,1.5586427E9,8.175821E7,3.274373E8,1.8235264E8,4.6312336E7,0E0,0E0,1.3860557E8,7.379835E8,1.732864E7,2.4627456E7,9.218672E6,0E0,5.077389E7,0E0,0E0,0E0,0E0,0E0,0E0,0E0,0E0,0E0,0E0,0E0,0E0,0E0,0E0,0E0,0E0,0E0,0E0,0E0,0E0,0E0,0E0,0E0,0E0,0E0,0E0,0E0,0E0,0E0,0E0,0E0,0E0,0E0,0E0,0E0,0E0,0E0,0E0,0E0,0E0,0E0,0E0,0E0,0E0,0E0,0E0,0E0,0E0,0E0,0E0,0E0,0E0,0E0,0E0,0E0,0E0,0E0],"parents":[2147483647,0,0,1,1,2,2,3,3,4,4,5,5,6,6,7,7,8,8,9,9,10,10,11,11,12,12,13,13,14,14,15,15,16,16,17,17,18,18,19,19,20,20,21,21,22,22,23,23,24,24,25,25,26,26,27,27,28,28,29,29,30,30,31,31,32,32,33,33,34,34,35,35,36,36,37,37,38,38,39,39,40,40,41,41,42,42,43,43,44,44,45,45,46,46,47,47,48,48,49,49,50,50,51,51,52,52,55,55,56,56,57,57,58,58,59,59,61,61],"right_children":[2,4,6,8,10,12,14,16,18,20,22,24,26,28,30,32,34,36,38,40,42,44,46,48,50,52,54,56,58,60,62,64,66,68,70,72,74,76,78,80,82,84,86,88,90,92,94,96,98,100,102,104,106,-1,-1,108,110,112,114,116,-1,118,-1,-1,-1,-1,-1,-1,-1,-1,-1,-1,-1,-1,-1,-1,-1,-1,-1,-1,-1,-1,-1,-1,-1,-1,-1,-1,-1,-1,-1,-1,-1,-1,-1,-1,-1,-1,-1,-1,-1,-1,-1,-1,-1,-1,-1,-1,-1,-1,-1,-1,-1,-1,-1,-1,-1,-1,-1],"split_conditions":[6.7649996E-1,7.5E0,2.218E0,2.5E0,2.5E0,2.9411764E0,4.5E0,1.5E0,2.7449903E-4,5E-1,1.5427152E0,1.8218846E0,1.8762376E0,5.5E0,4.5E0,9.996271E-1,4.5E0,9.1379315E-2,3.5E0,3.2164063E0,1.996875E0,8.5E0,1.8599133E0,3.5E0,3.5E0,6.5E0,1.960726E0,3.5E0,1.655E-1,4.3421054E-1,7.5E-1,1E0,5.7471264E-3,3.5E0,5E-1,5.9674606E-2,8.0880505E-1,1.3392857E-1,2.8116684E0,4.835492E0,7.5035973E0,4.8893163E-1,1.1913935E1,6.5E-2,9.5E0,1.7816958E0,2.2351336E0,1.8333334E-1,5.5E0,1.0053476E0,5.5E0,5.415E-1,5E-1,2.5706046E2,6.809595E1,2.5E0,3.0057644E-2,1.5716753E0,1.6168281E0,7.428571E-1,1.2972098E2,1.5E0,2.4847017E2,8.590565E0,3.9314476E1,2.9516005E1,1.1626902E1,2.6806776E1,1.2253646E1,3.755442E1,6.1927464E1,3.6192356E1,5.2897274E1,1.4984195E2,6.588441E1,2.9099554E1,5.564732E1,1.1700367E1,2.5558207E1,8.068765E0,1.3621179E1,1.9943808E1,2.9273071E1,2.3752787E1,4.200035E1,4.4792908E1,1.4184995E1,1.2716154E1,2.1797968E1,8.921292E0,6.0156426E0,1.4812484E1,3.2044098E1,9.211563E0,1.7963507E1,5.0563602E1,3.0537777E1,8.8314766E1,4.2353573E1,7.3606285E1,2.4795923E1,1.3945796E2,6.938391E1,9.72715E1,1.6720828E2,2.1513947E1,6.682534E1,8.1371925E1,2.3070282E1,1.7211392E2,8.14774E1,1.954021E1,5.0902893E1,6.2255817E1,9.185091E1,1.9601131E1,5.607725E1,1.7417906E2,4.160179E1],"split_indices":[53,110,53,110,109,104,109,110,33,109,33,57,31,110,110,26,109,108,109,101,40,110,33,110,110,110,31,110,54,10,61,109,21,109,33,53,26,106,33,2,95,54,24,53,110,33,33,28,110,96,110,57,72,0,0,109,33,106,22,22,0,90,0,0,0,0,0,0,0,0,0,0,0,0,0,0,0,0,0,0,0,0,0,0,0,0,0,0,0,0,0,0,0,0,0,0,0,0,0,0,0,0,0,0,0,0,0,0,0,0,0,0,0,0,0,0,0,0,0],"split_type":[0,0,0,0,0,0,0,0,0,0,0,0,0,0,0,0,0,0,0,0,0,0,0,0,0,0,0,0,0,0,0,0,0,0,0,0,0,0,0,0,0,0,0,0,0,0,0,0,0,0,0,0,0,0,0,0,0,0,0,0,0,0,0,0,0,0,0,0,0,0,0,0,0,0,0,0,0,0,0,0,0,0,0,0,0,0,0,0,0,0,0,0,0,0,0,0,0,0,0,0,0,0,0,0,0,0,0,0,0,0,0,0,0,0,0,0,0,0,0],"sum_hessian":[2.944E4,2.6813E4,2.627E3,1.7384E4,9.429E3,2.123E3,5.04E2,6.783E3,1.0601E4,4.683E3,4.746E3,1.977E3,1.46E2,4.04E2,1E2,4.609E3,2.174E3,7.086E3,3.515E3,1.644E3,3.039E3,3.239E3,1.507E3,1.767E3,2.1E2,1.13E2,3.3E1,2.81E2,1.23E2,3.1E1,6.9E1,6.25E2,3.984E3,1.816E3,3.58E2,6.294E3,7.92E2,1.667E3,1.848E3,1.256E3,3.88E2,2.76E3,2.79E2,7.85E2,2.454E3,5.37E2,9.7E2,5.76E2,1.191E3,7.5E1,1.35E2,7.5E1,3.8E1,2.6E1,7E0,8.8E1,1.93E2,3.8E1,8.5E1,1.5E1,1.6E1,2.3E1,4.6E1,1.3E2,4.95E2,1.43E2,3.841E3,1.438E3,3.78E2,2.84E2,7.4E1,4.237E3,2.057E3,6E1,7.32E2,1.294E3,3.73E2,1.571E3,2.77E2,1.057E3,1.99E2,2.88E2,1E2,2.604E3,1.56E2,2.54E2,2.5E1,7.1E2,7.5E1,7.92E2,1.662E3,4.35E2,1.02E2,6.36E2,3.34E2,2.48E2,3.28E2,5.58E2,6.33E2,5.5E1,2E1,9.3E1,4.2E1,4.7E1,2.8E1,2.1E1,1.7E1,6.5E1,2.3E1,1.41E2,5.2E1,1.2E1,2.6E1,6.3E1,2.2E1,6E0,9E0,2.1E1,2E0],"tree_param":{"num_deleted":"0","num_feature":"113","num_nodes":"119","size_leaf_vector":"0"}},{"base_weights":[1.4579144E3,1.3270508E3,4.1833555E3,8.7534045E2,1.6099525E3,8.813121E3,3.8496025E3,7.5895966E2,1.4118668E3,1.5267355E3,3.1848997E3,6.5929995E3,1.3493641E4,3.2510342E3,5.556383E3,6.816665E2,1.2384388E3,1.2003625E3,2.7247178E3,1.8393478E3,1.2601556E3,2.7576177E3,4.7890864E3,3.9375386E3,1.074406E4,1.5391501E4,1.6851836E3,2.907106E3,5.092105E3,4.4296064E3,6.88163E3,5.985701E2,9.9884283E2,7.383223E2,2.0564966E3,9.7255176E2,1.6612667E3,1.5872926E3,7.7527056E3,2.3249727E3,1.2155907E3,9.3602045E2,1.646036E3,5.9655903E3,2.6122627E3,3.5053872E3,5.4613203E3,1.5139548E3,5.3311304E3,1.1099293E4,1.2868425E3,3.6438104E2,3.4841968E3,2.7671008E3,5.9428936E3,4.5044126E3,8.375775E3,2.3111628E3,4.96532E3,6.118924E3,9.169254E3,5.533594E2,8.9042725E2,9.46708E2,1.7130615E3,2.5720295E3,7.008635E2,1.4845227E3,4.2574316E3,7.6315546E2,1.2830731E3,1.9000171E3,8.2764667E2,1.3191428E3,5.146188E3,5.823047E3,1.0259559E4,1.9774036E3,3.0723135E3,1.117108E3,3.1354856E3,8.153896E2,1.7631667E3,1.5024407E3,2.4513306E3,3.159517E3,1.2936594E4,2.3676562E3,4.075485E3,2.5603467E3,5.0131504E3,5.0078716E3,7.8340845E3,1.7805889E3,2.6890558E2,6.377591E3,3.4194912E3,4.9214844E2,-9.460571E0,2.578342E3,4.529742E3,1.8180736E3,7.836587E3,4.1098037E3,9.811167E3,8.997581E3,1.6457471E3,1.7011241E3,4.3861675E3,5.708928E3,2.9942617E3,5.192442E3,8.655425E3,1.1710007E4,5.4202334E3],"categories":[],"categories_nodes":[],"categories_segments":[],"categories_sizes":[],"default_left":[1,1,1,1,1,1,1,1,1,1,1,1,1,1,1,1,1,1,1,1,1,1,1,1,1,0,1,1,1,1,1,1,1,1,1,1,1,1,1,1,1,1,1,1,1,1,1,1,1,0,0,1,0,1,1,1,1,1,1,1,1,0,0,0,0,0,0,0,0,0,0,0,0,0,0,0,0,0,0,0,0,0,0,0,0,0,0,0,0,0,0,0,0,0,0,0,0,0,0,0,0,0,0,0,0,0,0,0,0,0,0,0,0,0,0],"id":13,"left_children":[1,3,5,7,9,11,13,15,17,19,21,23,25,27,29,31,33,35,37,39,41,43,45,47,49,-1,51,53,55,57,59,61,63,65,67,69,71,73,75,77,79,81,83,85,87,89,91,93,95,-1,-1,97,-1,99,101,103,105,107,109,111,113,-1,-1,-1,-1,-1,-1,-1,-1,-1,-1,-1,-1,-1,-1,-1,-1,-1,-1,-1,-1,-1,-1,-1,-1,-1,-1,-1,-1,-1,-1,-1,-1,-1,-1,-1,-1,-1,-1,-1,-1,-1,-1,-1,-1,-1,-1,-1,-1,-1,-1,-1,-1,-1,-1],"loss_changes":[1.0507391E10,3.5929334E9,2.0520899E9,6.754186E8,2.2617293E9,8.462551E8,1.2702044E9,3.2917914E8,5.3263974E8,1.3667287E9,5.810698E8,6.521426E8,6.015647E8,5.778688E8,4.5631898E8,2.015808E8,5.0375E8,1.731026E8,1.5146565E9,2.286887E9,1.1078963E9,3.0476032E8,1.3704909E8,1.2702842E8,6.634547E7,0E0,1.061113E7,3.1975066E8,2.4402125E8,1.9166771E8,2.0212224E8,7.974656E7,5.762035E7,5.095005E7,5.828343E8,7.158534E7,1.0769331E8,2.0220691E8,1.7728922E8,1.0976113E9,6.22529E8,4.79798E8,4.644137E8,5.263998E8,2.2621594E8,7.978291E7,8.665165E7,4.832748E6,2.82032E7,0E0,0E0,1.9571506E5,0E0,2.4051814E8,2.5133133E8,2.2353331E8,7.307251E7,4.064024E7,1.9103462E8,2.2295962E8,2.6991565E8,0E0,0E0,0E0,0E0,0E0,0E0,0E0,0E0,0E0,0E0,0E0,0E0,0E0,0E0,0E0,0E0,0E0,0E0,0E0,0E0,0E0,0E0,0E0,0E0,0E0,0E0,0E0,0E0,0E0,0E0,0E0,0E0,0E0,0E0,0E0,0E0,0E0,0E0,0E0,0E0,0E0,0E0,0E0,0E0,0E0,0E0,0E0,0E0,0E0,0E0,0E0,0E0,0E0,0E0],"parents":[2147483647,0,0,1,1,2,2,3,3,4,4,5,5,6,6,7,7,8,8,9,9,10,10,11,11,12,12,13,13,14,14,15,15,16,16,17,17,18,18,19,19,20,20,21,21,22,22,23,23,24,24,26,26,27,27,28,28,29,29,30,30,31,31,32,32,33,33,34,34,35,35,36,36,37,37,38,38,39,39,40,40,41,41,42,42,43,43,44,44,45,45,46,46,47,47,48,48,51,51,53,53,54,54,55,55,56,56,57,57,58,58,59,59,60,60],"right_children":[2,4,6,8,10,12,14,16,18,20,22,24,26,28,30,32,34,36,38,40,42,44,46,48,50,-1,52,54,56,58,60,62,64,66,68,70,72,74,76,78,80,82,84,86,88,90,92,94,96,-1,-1,98,-1,100,102,104,106,108,110,112,114,-1,-1,-1,-1,-1,-1,-1,-1,-1,-1,-1,-1,-1,-1,-1,-1,-1,-1,-1,-1,-1,-1,-1,-1,-1,-1,-1,-1,-1,-1,-1,-1,-1,-1,-1,-1,-1,-1,-1,-1,-1,-1,-1,-1,-1,-1,-1,-1,-1,-1,-1,-1,-1,-1],"split_conditions":[1.3895E0,4.4273908E-4,5.7227504E-1,4E-2,1.3269179E0,4.0872765E-1,3.457E0,1.20033E0,7.083334E-1,1.2476359E-2,3.79E0,9.4026405E-1,3.0232558E-1,6.862745E-1,4.1666668E-2,3.7561882E-1,3E0,6.8688726E-1,1.7966996E0,1.6006002E0,1.019434E0,4.7597894E-1,2.5E-1,1.0505227E0,1.9679868E0,3.0783002E2,5E-1,7.5E0,2.8734999E0,2.5535125E-1,5.7349997E0,4.9444444E-2,6.25E-2,8.75E-1,1.6887789E0,9.9456525E-1,1.5923567E-2,2.0721093E-4,8.391608E-2,1.2790595E0,1.0208333E0,1.9981413E0,3.807747E0,4.2069128E-1,2.6685E0,3.181818E-1,4.6368423E0,1.3333333E0,1.5E0,2.2198586E2,2.573685E1,6.428572E-1,6.968394E1,3.71E0,1.5088889E-1,6.5E0,4E0,3E0,2.755E0,5E-1,1.175E0,1.1067187E1,1.7808544E1,1.893416E1,3.426123E1,5.144059E1,1.401727E1,2.9690453E1,8.514863E1,1.5263109E1,2.566146E1,3.800034E1,1.6552933E1,2.6382856E1,1.0292376E2,1.1646094E2,2.0519116E2,3.954807E1,6.144627E1,2.234216E1,6.270971E1,1.630779E1,3.5263332E1,3.0048813E1,4.902661E1,6.3190342E1,2.5873187E2,4.7353123E1,8.15097E1,5.1206932E1,1.0026301E2,1.0015743E2,1.5668169E2,3.561178E1,5.3781114E0,1.2755181E2,6.8389824E1,9.842969E0,-1.8921143E-1,5.156684E1,9.059484E1,3.6361473E1,1.5673174E2,8.2196075E1,1.9622334E2,1.7995161E2,3.291494E1,3.4022484E1,8.772335E1,1.1417856E2,5.9885235E1,1.0384884E2,1.7310849E2,2.3420013E2,1.0840466E2],"split_indices":[56,103,26,55,54,26,56,31,104,1,54,31,31,104,74,8,104,8,31,103,88,103,81,103,31,0,2,66,57,103,56,17,86,26,31,106,31,44,19,103,104,26,100,103,57,74,95,17,92,0,0,9,0,55,57,52,30,104,26,78,8,0,0,0,0,0,0,0,0,0,0,0,0,0,0,0,0,0,0,0,0,0,0,0,0,0,0,0,0,0,0,0,0,0,0,0,0,0,0,0,0,0,0,0,0,0,0,0,0,0,0,0,0,0,0],"split_type":[0,0,0,0,0,0,0,0,0,0,0,0,0,0,0,0,0,0,0,0,0,0,0,0,0,0,0,0,0,0,0,0,0,0,0,0,0,0,0,0,0,0,0,0,0,0,0,0,0,0,0,0,0,0,0,0,0,0,0,0,0,0,0,0,0,0,0,0,0,0,0,0,0,0,0,0,0,0,0,0,0,0,0,0,0,0,0,0,0,0,0,0,0,0,0,0,0,0,0,0,0,0,0,0,0,0,0,0,0,0,0,0,0,0,0],"sum_hessian":[2.9475E4,2.8126E4,1.349E3,1.0833E4,1.7293E4,8.9E1,1.26E3,8.904E3,1.929E3,1.6427E4,8.66E2,6.2E1,2.7E1,9.35E2,3.25E2,7.67E3,1.234E3,1.663E3,2.66E2,7.558E3,8.869E3,6.86E2,1.8E2,3.9E1,2.3E1,2.3E1,4E0,7.9E2,1.45E2,1.78E2,1.47E2,6.08E3,1.59E3,7.67E2,4.67E2,1.115E3,5.48E2,2.18E2,4.8E1,4.248E3,3.31E3,4.822E3,4.047E3,2.8E1,6.58E2,6.4E1,1.16E2,1.5E1,2.4E1,2.2E1,1E0,3E0,1E0,7.57E2,3.3E1,1.25E2,2E1,3.7E1,1.41E2,1.13E2,3.4E1,5.267E3,8.13E2,1.484E3,1.06E2,1.4E1,7.53E2,3.72E2,9.5E1,6.68E2,4.47E2,4.25E2,1.23E2,2.04E2,1.4E1,2.9E1,1.9E1,2.902E3,1.346E3,3.15E3,1.6E2,4.21E3,6.12E2,3.437E3,6.1E2,2.1E1,7E0,5.66E2,9.2E1,4.1E1,2.3E1,1E2,1.6E1,1.2E1,3E0,1.4E1,1E1,2E0,1E0,6.86E2,7.1E1,1.1E1,2.2E1,1.18E2,7E0,1.8E1,2E0,3E1,7E0,1.01E2,4E1,8.5E1,2.8E1,1.9E1,1.5E1],"tree_param":{"num_deleted":"0","num_feature":"113","num_nodes":"115","size_leaf_vector":"0"}},{"base_weights":[1.4323102E3,1.2697606E3,4.5250767E3,1.0590203E3,2.0005327E3,8.369622E3,4.137245E3,9.2071454E2,1.5923412E3,1.723196E3,2.4852686E3,1.1443101E4,4.5039316E3,4.780098E3,2.5243606E3,8.740635E2,1.828324E3,2.1015574E3,1.4370084E3,1.5694641E3,2.799255E3,6.0672324E3,2.3956892E3,1.3265025E4,7.569356E3,3.0125881E3,5.8499873E3,5.92387E3,3.7993264E3,3.2436704E3,1.4290038E3,7.092677E2,1.0488531E3,1.4042305E3,4.0649072E3,2.3632285E3,9.191997E2,1.3033362E3,1.9099517E3,1.46972E3,2.805625E3,2.2494487E3,5.9190977E3,9.240976E3,2.1718652E3,2.084283E3,2.93369E3,9.235433E3,1.4322313E4,8.351814E3,1.1778816E3,1.913803E3,4.210127E3,3.7831328E3,7.1325415E3,4.819267E3,7.7007417E3,2.7738694E3,5.143434E3,1.1495392E3,4.0221272E3,1.2948616E3,2.3139688E3,1.02187463E3,6.0921063E2,9.525475E2,1.40866E3,1.3768423E3,5.900879E3,8.938674E3,3.5563699E3,9.3027344E2,2.598184E3,6.238049E2,1.3212623E3,1.3753013E3,5.818901E2,1.44141E3,2.2802375E3,1.3193718E3,1.9247435E3,2.4934412E3,5.9140645E3,2.0265627E3,4.0417805E3,8.294941E3,1.946412E3,1.0928703E4,3.2336372E3,3.1910872E3,1.2116965E3,2.158075E3,1.1240967E3,3.1201743E3,1.0817736E3,1.4540125E4,3.2405432E3,3.291958E3,9.243786E3,2.2019211E3,7.243118E2,4.506867E3,1.7625137E2,1.6857294E3,4.453521E3,4.312914E3,7.850488E3,1.2193808E4,7.006489E3,2.4500686E3,5.3686616E3,7.025605E3,3.6653706E3,4.6368558E2,3.1781199E3,3.0206008E3,4.79733E3,1.3925144E3,1.6973987E2,2.7510413E3,-1.2813225E1],"categories":[],"categories_nodes":[],"categories_segments":[],"categories_sizes":[],"default_left":[1,1,1,1,1,1,1,1,1,1,1,1,1,1,1,1,1,1,1,1,1,1,1,1,1,1,1,1,1,1,1,1,1,1,1,1,1,1,1,1,1,1,1,1,1,1,1,0,1,1,0,1,1,1,0,1,1,1,1,1,1,1,1,0,0,0,0,0,0,0,0,0,0,0,0,0,0,0,0,0,0,0,0,0,0,0,0,0,0,0,0,0,0,0,0,0,0,0,0,0,0,0,0,0,0,0,0,0,0,0,0,0,0,0,0,0,0,0,0,0,0],"id":14,"left_children":[1,3,5,7,9,11,13,15,17,19,21,23,25,27,29,31,33,35,37,39,41,43,45,47,49,51,53,55,57,59,61,63,65,67,69,71,73,75,77,79,81,83,85,87,89,91,93,-1,95,97,-1,99,101,103,-1,105,107,109,111,113,115,117,119,-1,-1,-1,-1,-1,-1,-1,-1,-1,-1,-1,-1,-1,-1,-1,-1,-1,-1,-1,-1,-1,-1,-1,-1,-1,-1,-1,-1,-1,-1,-1,-1,-1,-1,-1,-1,-1,-1,-1,-1,-1,-1,-1,-1,-1,-1,-1,-1,-1,-1,-1,-1,-1,-1,-1,-1,-1,-1],"loss_changes":[1.4828241E10,4.3153613E9,2.161668E9,1.6037274E9,8.391639E8,1.5405322E9,1.3773087E9,7.301816E8,3.5133952E8,6.563123E8,7.1736934E8,4.2185933E8,1.048297E8,1.0510377E9,2.9791846E8,4.7280333E8,7.9484314E8,3.211392E8,2.1473229E8,4.270551E8,8.4090906E8,6.5988915E8,3.669893E8,7.648973E7,1.2018995E8,3.2733632E7,5.519309E7,8.264929E8,6.997048E8,3.719506E8,1.5285216E7,2.6415027E8,2.750382E8,7.943872E7,3.003287E8,2.8544512E8,2.1860336E7,1.3844685E8,1.277015E8,2.189783E8,2.3755878E8,1.6159053E8,6.823022E8,2.6882304E8,2.1577616E7,9.776179E7,2.777426E8,0E0,4.2190336E7,7.337459E7,0E0,4.573968E6,1.5963856E7,1.2177616E7,0E0,3.8669517E8,4.354908E8,2.3554432E8,5.946271E8,8.757016E7,1.1594214E8,1.4706128E7,1.935772E7,0E0,0E0,0E0,0E0,0E0,0E0,0E0,0E0,0E0,0E0,0E0,0E0,0E0,0E0,0E0,0E0,0E0,0E0,0E0,0E0,0E0,0E0,0E0,0E0,0E0,0E0,0E0,0E0,0E0,0E0,0E0,0E0,0E0,0E0,0E0,0E0,0E0,0E0,0E0,0E0,0E0,0E0,0E0,0E0,0E0,0E0,0E0,0E0,0E0,0E0,0E0,0E0,0E0,0E0,0E0,0E0,0E0,0E0],"parents":[2147483647,0,0,1,1,2,2,3,3,4,4,5,5,6,6,7,7,8,8,9,9,10,10,11,11,12,12,13,13,14,14,15,15,16,16,17,17,18,18,19,19,20,20,21,21,22,22,23,23,24,24,25,25,26,26,27,27,28,28,29,29,30,30,31,31,32,32,33,33,34,34,35,35,36,36,37,37,38,38,39,39,40,40,41,41,42,42,43,43,44,44,45,45,46,46,48,48,49,49,51,51,52,52,53,53,55,55,56,56,57,57,58,58,59,59,60,60,61,61,62,62],"right_children":[2,4,6,8,10,12,14,16,18,20,22,24,26,28,30,32,34,36,38,40,42,44,46,48,50,52,54,56,58,60,62,64,66,68,70,72,74,76,78,80,82,84,86,88,90,92,94,-1,96,98,-1,100,102,104,-1,106,108,110,112,114,116,118,120,-1,-1,-1,-1,-1,-1,-1,-1,-1,-1,-1,-1,-1,-1,-1,-1,-1,-1,-1,-1,-1,-1,-1,-1,-1,-1,-1,-1,-1,-1,-1,-1,-1,-1,-1,-1,-1,-1,-1,-1,-1,-1,-1,-1,-1,-1,-1,-1,-1,-1,-1,-1,-1,-1,-1,-1,-1,-1],"split_conditions":[1.1915E0,9.99058E-2,7.240566E-1,1.0127139E0,1.0440516E0,1.05E1,9.127093E-2,4.1904427E-2,9.2582417E-1,6.917293E-2,7.248428E-1,5E-1,1.7915E0,8.051948E-2,1.9301922E0,1.15E1,1.6716173E0,8.4852874E-2,3.77749E0,2.1229582E0,1.7877889E0,3.3333335E-2,4.845E-1,6.5E0,5.046482E-1,1.0333333E0,5E-1,6.9444445E-3,1.9828417E0,8.927753E-1,2.9822044E0,2.5E0,1.005102E0,6.5E0,6.614584E-1,9.9769586E-1,1.05E1,9.934299E0,1.9074953E0,1.3294574E0,8.2E0,3.9864864E0,1.9663366E0,5E-1,1.2E0,1.445401E0,1.8415842E0,1.8470865E2,6.4736843E0,3E0,2.355763E1,7.5E-1,5E-1,4E-1,1.4265083E2,1.1666667E0,9.431819E-1,4.916667E0,1.0416667E0,4.5463657E0,1.45E1,4.5E0,5E-1,2.0437492E1,1.2184213E1,1.905095E1,2.81732E1,2.7536844E1,1.1801758E2,1.7877347E2,7.1127396E1,1.8605469E1,5.196368E1,1.2476097E1,2.6425245E1,2.7506025E1,1.1637801E1,2.88282E1,4.560475E1,2.6387436E1,3.849487E1,4.9868824E1,1.1828129E2,4.0531254E1,8.083561E1,1.6589882E2,3.8928238E1,2.1857405E2,6.4672745E1,6.3821743E1,2.423393E1,4.31615E1,2.2481934E1,6.2403484E1,2.1635471E1,2.908025E2,6.481086E1,6.583916E1,1.8487572E2,4.403842E1,1.4486237E1,9.0137344E1,3.5250273E0,3.371459E1,8.907042E1,8.625828E1,1.5700975E2,2.4387614E2,1.4012978E2,4.900137E1,1.0737323E2,1.405121E2,7.330741E1,9.273711E0,6.3562397E1,6.0412014E1,9.59466E1,2.7850288E1,3.3947973E0,5.5020824E1,-2.5626448E-1],"split_indices":[53,53,26,16,16,111,33,108,12,108,26,89,53,1,33,112,31,44,17,102,31,19,53,111,33,29,81,81,26,33,33,112,19,48,21,21,112,106,9,19,26,84,31,30,12,55,33,0,14,111,0,102,1,29,0,75,81,30,12,19,111,59,27,0,0,0,0,0,0,0,0,0,0,0,0,0,0,0,0,0,0,0,0,0,0,0,0,0,0,0,0,0,0,0,0,0,0,0,0,0,0,0,0,0,0,0,0,0,0,0,0,0,0,0,0,0,0,0,0,0,0],"split_type":[0,0,0,0,0,0,0,0,0,0,0,0,0,0,0,0,0,0,0,0,0,0,0,0,0,0,0,0,0,0,0,0,0,0,0,0,0,0,0,0,0,0,0,0,0,0,0,0,0,0,0,0,0,0,0,0,0,0,0,0,0,0,0,0,0,0,0,0,0,0,0,0,0,0,0,0,0,0,0,0,0,0,0,0,0,0,0,0,0,0,0,0,0,0,0,0,0,0,0,0,0,0,0,0,0,0,0,0,0,0,0,0,0,0,0,0,0,0,0,0,0],"sum_hessian":[2.9506E4,2.8034E4,1.472E3,2.1761E4,6.273E3,1.33E2,1.339E3,1.7282E4,4.479E3,3.993E3,2.28E3,7.3E1,6E1,9.56E2,3.83E2,1.6439E4,8.43E2,1.044E3,3.435E3,3.496E3,4.97E2,5.4E1,2.226E3,4.8E1,2.5E1,3E1,3E1,4.39E2,5.17E2,2.3E2,1.53E2,8.464E3,7.975E3,7.1E2,1.33E2,8.54E2,1.9E2,2.681E3,7.54E2,3.237E3,2.59E2,4.24E2,7.3E1,2.9E1,2.5E1,1.413E3,8.13E2,1.2E1,3.6E1,2.2E1,3E0,1.7E1,1.3E1,1.3E1,1.7E1,2.73E2,1.66E2,2.95E2,2.22E2,6.3E1,1.67E2,1.35E2,1.8E1,2.05E3,6.414E3,6.294E3,1.681E3,7.07E2,3E0,1.1E1,1.22E2,1.21E2,7.33E2,1.11E2,7.9E1,2.437E3,2.44E2,3.35E2,4.19E2,2.436E3,8.01E2,2.37E2,2.2E1,3.79E2,4.5E1,4.5E1,2.8E1,2.2E1,7E0,1.1E1,1.4E1,1.311E3,1.02E2,7.38E2,7.5E1,3.5E1,1E0,4E0,1.8E1,1.3E1,4E0,1.2E1,1E0,4E0,9E0,2.36E2,3.7E1,2E1,1.46E2,2.64E2,3.1E1,9.6E1,1.26E2,4.8E1,1.5E1,