{"learner":{"attributes":{"best_iteration":"499","best_ntree_limit":"500","best_score":"867.0502722871126"},"feature_names":["V_210254","V_210554","V_210654","V_210754","V_210854","V_210954","V_211054","V_211154","V_211254","V_211354","V_211454","V_211554","V_211654","V_211754","V_211854","V_211954","V_212054","V_212154","V_212254","V_212354","V_212454","V_212554","V_212654","V_212754","V_212854","V_212954","V_213054","V_213154","V_213254","V_213354","V_213454","V_213554","V_213754","V_218193","V_220034","V_220254","V_228193","V_230034","V_230035","V_230254","V_238193","V_248193","V_1100254","V_1100454","V_1100754","V_1100854","V_1100954","V_1101054","V_1101154","V_1101254","V_1101354","V_1108193","V_1110034","V_1110035","V_1110036","V_1110037","V_1110038","V_1130654","V_1130754","V_1130854","V_1130954","V_1131054","V_1131154","V_1131254","V_1131354","V_1131454","V_1131554","V_1131654","V_1131754","V_1131854","V_1131954","V_1132054","V_1132154","V_1132254","V_1132354","V_1132454","V_1151354","V_1151454","V_1160754","V_1200254","V_1210654","V_1210754","V_1210854","V_1210954","V_1211054","V_1211254","V_1211354","V_1211454","V_1211554","V_1220654","V_1220754","V_1220854","V_1220954","V_1221054","V_1221154","V_1221254","V_1221354","V_1221554","V_1221654","V_1221754","V_1320254","V_1410254","V_1470254","V_1510254","V_1510454","V_1610254","year","month","day","hour"],"feature_types":["float","float","float","float","float","float","float","float","float","float","float","float","float","float","float","float","float","float","float","float","float","float","float","float","float","float","float","float","float","float","float","float","float","float","float","float","float","float","float","float","float","float","float","float","float","float","float","float","float","float","float","float","float","float","float","float","float","float","float","float","float","float","float","float","float","float","float","float","float","float","float","float","float","float","float","float","float","float","float","float","float","float","float","float","float","float","float","float","float","float","float","float","float","float","float","float","float","float","float","float","float","float","float","float","float","float","c","c","c","c"],"gradient_booster":{"model":{"gbtree_model_param":{"num_parallel_tree":"1","num_trees":"500","size_leaf_vector":"0"},"tree_info":[0,0,0,0,0,0,0,0,0,0,0,0,0,0,0,0,0,0,0,0,0,0,0,0,0,0,0,0,0,0,0,0,0,0,0,0,0,0,0,0,0,0,0,0,0,0,0,0,0,0,0,0,0,0,0,0,0,0,0,0,0,0,0,0,0,0,0,0,0,0,0,0,0,0,0,0,0,0,0,0,0,0,0,0,0,0,0,0,0,0,0,0,0,0,0,0,0,0,0,0,0,0,0,0,0,0,0,0,0,0,0,0,0,0,0,0,0,0,0,0,0,0,0,0,0,0,0,0,0,0,0,0,0,0,0,0,0,0,0,0,0,0,0,0,0,0,0,0,0,0,0,0,0,0,0,0,0,0,0,0,0,0,0,0,0,0,0,0,0,0,0,0,0,0,0,0,0,0,0,0,0,0,0,0,0,0,0,0,0,0,0,0,0,0,0,0,0,0,0,0,0,0,0,0,0,0,0,0,0,0,0,0,0,0,0,0,0,0,0,0,0,0,0,0,0,0,0,0,0,0,0,0,0,0,0,0,0,0,0,0,0,0,0,0,0,0,0,0,0,0,0,0,0,0,0,0,0,0,0,0,0,0,0,0,0,0,0,0,0,0,0,0,0,0,0,0,0,0,0,0,0,0,0,0,0,0,0,0,0,0,0,0,0,0,0,0,0,0,0,0,0,0,0,0,0,0,0,0,0,0,0,0,0,0,0,0,0,0,0,0,0,0,0,0,0,0,0,0,0,0,0,0,0,0,0,0,0,0,0,0,0,0,0,0,0,0,0,0,0,0,0,0,0,0,0,0,0,0,0,0,0,0,0,0,0,0,0,0,0,0,0,0,0,0,0,0,0,0,0,0,0,0,0,0,0,0,0,0,0,0,0,0,0,0,0,0,0,0,0,0,0,0,0,0,0,0,0,0,0,0,0,0,0,0,0,0,0,0,0,0,0,0,0,0,0,0,0,0,0,0,0,0,0,0,0,0,0,0,0,0,0,0,0,0,0,0,0,0,0,0,0,0,0,0,0,0,0,0,0,0,0,0,0,0,0,0,0,0,0,0,0,0,0,0,0,0,0,0,0,0,0,0,0,0,0,0,0,0,0,0,0,0,0,0,0,0,0,0,0,0],"trees":[{"base_weights":[1.8844497E3,1.729905E3,5.798729E3,2.0573574E3,1.102231E3,4.740606E3,8.424323E3,1.2873314E3,2.532513E3,8.3212396E2,1.6657024E3,5.402513E3,2.9650042E3,4.367626E3,9.192281E3,1.0383794E3,1.783858E3,2.3635105E3,4.4557363E3,7.570338E2,1.4473088E3,1.5750464E3,2.7467207E3,3.019669E3,6.9025215E3,1.6423671E3,3.5459053E3,2.3562322E3,5.0995913E3,1.0168833E4,5.0205093E3,2.2454854E3,9.229656E2,1.6227133E3,2.6019487E3,1.7098386E3,2.7457996E3,3.5513638E3,5.676234E3,6.4911786E2,1.0921759E3,1.1122701E3,1.6599203E3,1.4503353E3,2.03454E3,2.3952432E3,4.0229656E3,2.2226821E3,3.629716E3,5.982984E3,8.737616E3,1.4312733E3,3.3075872E3,3.8303076E3,1.3534924E3,1.1062592E3,2.99559E3,2.5965676E3,6.297301E3,1.1660087E4,7.76169E3,3.3218232E3,6.790165E3,9.970842E2,2.4181338E3,8.606E2,1.902082E3,8.668491E2,1.8163811E3,3.4544988E3,2.2284075E3,1.4884133E3,2.7804275E3,3.0545925E3,2.293679E3,3.4115574E3,7.6353423E3,5.4429595E3,1.0542986E4,6.2959326E2,1.6810054E3,1.3974702E3,1.01596466E3,1.3403491E3,7.5614777E2,1.0648264E3,1.7594397E3,1.1611687E3,1.6570958E3,1.9270188E3,3.2217432E3,2.0113313E3,2.794849E3,2.5256602E3,5.162693E3,1.96089E3,3.400897E3,4.4305845E3,1.709024E3,4.824122E3,6.8422217E3,1.2344846E4,7.772312E3,1.1727297E3,2.432356E3,3.1081912E3,4.6691147E3,9.32173E2,2.1109888E3,1.23791664E2,1.4744878E3,3.1864253E3,6.390375E2,1.2208989E3,3.797822E3,2.4299202E3,6.7142197E3,1.4032493E4,1.0183197E4,6.0304263E3,1.1744756E4,1.5821721E3,3.7068552E3,4.0618794E3,8.070958E3],"categories":[],"categories_nodes":[],"categories_segments":[],"categories_sizes":[],"default_left":[1,1,0,1,0,1,1,1,0,0,0,1,0,0,1,0,1,0,0,1,1,0,0,0,0,0,0,1,0,1,0,0,1,0,0,1,0,0,0,0,1,0,0,1,0,0,1,0,0,0,0,0,0,0,0,0,0,0,1,0,0,0,0,0,0,0,0,0,0,0,0,0,0,0,0,0,0,0,0,0,0,0,0,0,0,0,0,0,0,0,0,0,0,0,0,0,0,0,0,0,0,0,0,0,0,0,0,0,0,0,0,0,0,0,0,0,0,0,0,0,0,0,0,0,0],"id":0,"left_children":[1,3,5,7,9,11,13,15,17,19,21,23,25,27,29,31,33,35,37,39,41,43,45,47,49,51,53,55,57,59,61,63,65,67,69,71,73,75,77,79,81,83,85,87,89,91,93,95,97,99,101,103,-1,105,107,109,111,113,115,117,119,121,123,-1,-1,-1,-1,-1,-1,-1,-1,-1,-1,-1,-1,-1,-1,-1,-1,-1,-1,-1,-1,-1,-1,-1,-1,-1,-1,-1,-1,-1,-1,-1,-1,-1,-1,-1,-1,-1,-1,-1,-1,-1,-1,-1,-1,-1,-1,-1,-1,-1,-1,-1,-1,-1,-1,-1,-1,-1,-1,-1,-1,-1,-1],"loss_changes":[1.7866293E10,5.8410435E9,3.077206E9,6.8321526E9,1.4823885E9,9.265582E8,9.598853E8,8.796201E8,3.744211E9,3.0341683E8,3.051602E8,2.0629658E9,1.6320704E8,6.601459E7,1.04484045E9,6.599608E8,3.0953574E8,2.6493993E9,1.0085704E9,2.1184563E8,4.9156736E7,1.641472E8,9.936704E7,1.0229978E8,5.501399E8,1.9520672E7,8.959194E7,9.472976E6,9.756864E7,6.884557E8,1.3676685E8,8.682022E7,2.6331648E8,2.898811E8,1.1650227E8,9.255936E8,9.2839526E8,2.8113152E8,3.910533E8,8.855629E7,3.1851904E7,2.1810432E7,2.3947904E7,1.3540966E8,7.293466E7,2.3987456E7,7.399334E7,2.4484448E7,1.8778202E8,2.0696474E8,3.114537E8,1.3453392E7,0E0,6.665357E7,4.096E6,2.349879E6,2.46088E6,1.849864E7,2.3994624E7,3.196027E8,5.2220774E8,1.3559936E7,5.457613E7,0E0,0E0,0E0,0E0,0E0,0E0,0E0,0E0,0E0,0E0,0E0,0E0,0E0,0E0,0E0,0E0,0E0,0E0,0E0,0E0,0E0,0E0,0E0,0E0,0E0,0E0,0E0,0E0,0E0,0E0,0E0,0E0,0E0,0E0,0E0,0E0,0E0,0E0,0E0,0E0,0E0,0E0,0E0,0E0,0E0,0E0,0E0,0E0,0E0,0E0,0E0,0E0,0E0,0E0,0E0,0E0,0E0,0E0,0E0,0E0,0E0,0E0],"parents":[2147483647,0,0,1,1,2,2,3,3,4,4,5,5,6,6,7,7,8,8,9,9,10,10,11,11,12,12,13,13,14,14,15,15,16,16,17,17,18,18,19,19,20,20,21,21,22,22,23,23,24,24,25,25,26,26,27,27,28,28,29,29,30,30,31,31,32,32,33,33,34,34,35,35,36,36,37,37,38,38,39,39,40,40,41,41,42,42,43,43,44,44,45,45,46,46,47,47,48,48,49,49,50,50,51,51,53,53,54,54,55,55,56,56,57,57,58,58,59,59,60,60,61,61,62,62],"right_children":[2,4,6,8,10,12,14,16,18,20,22,24,26,28,30,32,34,36,38,40,42,44,46,48,50,52,54,56,58,60,62,64,66,68,70,72,74,76,78,80,82,84,86,88,90,92,94,96,98,100,102,104,-1,106,108,110,112,114,116,118,120,122,124,-1,-1,-1,-1,-1,-1,-1,-1,-1,-1,-1,-1,-1,-1,-1,-1,-1,-1,-1,-1,-1,-1,-1,-1,-1,-1,-1,-1,-1,-1,-1,-1,-1,-1,-1,-1,-1,-1,-1,-1,-1,-1,-1,-1,-1,-1,-1,-1,-1,-1,-1,-1,-1,-1,-1,-1,-1,-1,-1,-1,-1,-1],"split_conditions":[1.6095254E0,7.5E0,3.04E0,2.5E0,1.0233063E0,6.5E0,3.5E0,1.5E0,9.736842E-1,1.0066667E0,8.1621444E-1,3.5E0,6.806723E-1,2.821E0,6.5E0,2.0273973E-1,4.5E0,7.48279E-4,6.688729E-1,1.75E1,9.5E0,1.0148634E0,1.6264999E0,1.0533142E0,9.6153843E-1,1.76768E0,5.768788E0,9.5E0,7.695652E-1,1.25E1,1.6227273E0,2.000001E0,3E-1,1.8E1,1.1821133E-1,4.5E0,1.2008164E0,3.165E0,1.3895E0,1.5374999E0,8.5E0,2.0246253E0,1.1428572E-1,9.5E0,2.5E-1,1.0020492E0,1.5E0,1.4906526E0,1.0652174E0,5E-1,6.666667E-2,3.8035715E0,6.615174E1,1.41875E0,2.4537816E0,9.192857E-2,4E0,4E-2,4.5E0,8.75E-1,3E-1,8.1499994E-2,1.5E0,1.9941685E1,4.8362675E1,1.7212E1,3.804164E1,1.7336983E1,3.632762E1,6.908997E1,4.456815E1,2.9768267E1,5.5608547E1,6.109185E1,4.5873577E1,6.823115E1,1.5270685E2,1.08859184E2,2.1085973E2,1.2591865E1,3.3620106E1,2.7949404E1,2.0319292E1,2.6806982E1,1.5122955E1,2.1296528E1,3.5188793E1,2.3223373E1,3.3141914E1,3.8540375E1,6.443486E1,4.0226624E1,5.589698E1,5.0513203E1,1.0325385E2,3.92178E1,6.801794E1,8.861169E1,3.418048E1,9.648244E1,1.3684444E2,2.4689691E2,1.5544624E2,2.3454594E1,4.8647118E1,6.2163822E1,9.338229E1,1.864346E1,4.2219776E1,2.4758332E0,2.9489756E1,6.3728504E1,1.2780749E1,2.4417978E1,7.5956436E1,4.8598404E1,1.342844E2,2.8064987E2,2.0366394E2,1.2060852E2,2.3489511E2,3.1643442E1,7.41371E1,8.123759E1,1.6141916E2],"split_indices":[54,107,53,107,101,107,107,107,72,13,72,107,13,54,107,11,106,101,55,109,109,96,52,101,72,101,0,109,23,109,8,43,37,49,101,106,26,53,54,4,107,88,14,109,61,24,106,55,94,68,10,103,0,8,88,52,4,55,109,84,72,55,57,0,0,0,0,0,0,0,0,0,0,0,0,0,0,0,0,0,0,0,0,0,0,0,0,0,0,0,0,0,0,0,0,0,0,0,0,0,0,0,0,0,0,0,0,0,0,0,0,0,0,0,0,0,0,0,0,0,0,0,0,0,0],"split_type":[0,0,0,0,0,0,0,0,0,0,0,0,0,0,0,0,0,0,0,0,0,0,0,0,0,0,0,0,0,0,0,0,0,0,0,0,0,0,0,0,0,0,0,0,0,0,0,0,0,0,0,0,0,0,0,0,0,0,0,0,0,0,0,0,0,0,0,0,0,0,0,0,0,0,0,0,0,0,0,0,0,0,0,0,0,0,0,0,0,0,0,0,0,0,0,0,0,0,0,0,0,0,0,0,0,0,0,0,0,0,0,0,0,0,0,0,0,0,0,0,0,0,0,0,0],"sum_hessian":[2.955E4,2.8429E4,1.121E3,1.8681E4,9.748E3,8.01E2,3.2E2,7.13E3,1.1551E4,6.591E3,3.157E3,5.82E2,2.19E2,5.2E1,2.68E2,4.751E3,2.379E3,1.062E4,9.31E2,5.876E3,7.15E2,2.915E3,2.42E2,2.26E2,3.56E2,6.8E1,1.51E2,1.5E1,3.7E1,2.16E2,5.2E1,4.13E2,4.338E3,1.99E3,3.89E2,3.921E3,6.699E3,5.37E2,3.94E2,4.447E3,1.429E3,2.8E2,4.35E2,2.296E3,6.19E2,1.92E2,5E1,1E2,1.26E2,2.4E2,1.16E2,6.2E1,6E0,1.33E2,1.8E1,6E0,9E0,1.3E1,2.4E1,1.31E2,8.5E1,2.8E1,2.4E1,5.1E1,3.62E2,4.08E3,2.58E2,4.07E2,1.583E3,1.16E2,2.73E2,3.251E3,6.7E2,3.977E3,2.722E3,5.21E2,1.6E1,3.78E2,1.6E1,4.366E3,8.1E1,2.82E2,1.147E3,1.69E2,1.11E2,6.4E1,3.71E2,9.6E2,1.336E3,5.7E2,4.9E1,1.01E2,9.1E1,2.3E1,2.7E1,8.4E1,1.6E1,8.8E1,3.8E1,1.05E2,1.35E2,2.2E1,9.4E1,5.1E1,1.1E1,7.4E1,5.9E1,1.3E1,5E0,2E0,4E0,8E0,1E0,7E0,6E0,3E0,2.1E1,4.7E1,8.4E1,6.1E1,2.4E1,6E0,2.2E1,9E0,1.5E1],"tree_param":{"num_deleted":"0","num_feature":"110","num_nodes":"125","size_leaf_vector":"0"}},{"base_weights":[1.8502528E3,1.6852809E3,4.8002466E3,1.1290187E3,2.038174E3,4.0110432E3,7.607662E3,1.110807E3,5.865402E3,1.9206862E3,3.417785E3,3.5372183E3,5.829342E3,5.3644976E3,9.559321E3,9.3706067E2,1.6273839E3,6.4750024E3,1.9794838E3,2.270498E3,1.634194E3,7.21345E3,3.149585E3,3.247287E3,5.853384E3,6.1173213E3,1.7937559E3,4.5354185E3,1.0636238E4,1.2426429E4,8.231938E3,7.462878E2,1.1975786E3,1.3802749E3,2.2140093E3,1.8480135E3,3.2882346E3,1.2402152E3,2.0939038E3,4.2890815E3,1.1237165E4,2.5465776E3,4.269146E3,2.4532527E3,3.997849E3,3.626686E3,7.3751255E3,9.069302E3,5.66769E3,7.0279755E2,2.5962427E3,3.9099373E3,7.2562334E3,1.1168877E4,-8.2745E0,1.4914298E4,5.4301035E3,7.4378506E3,1.1000051E4,6.027227E2,1.082253E3,1.8795836E3,9.538577E2,1.3206978E3,2.5373872E3,1.8830085E3,3.6313792E3,1.4476407E3,2.9079539E3,2.311024E3,4.1755376E3,1.144514E3,2.4887068E3,1.8151976E3,2.7396636E3,1.32591E4,3.2653489E3,1.315205E4,1.4252076E3,2.4790388E3,5.96536E3,5.2421875E3,3.0383623E3,2.7936494E3,9.006589E2,2.9340747E3,5.3950625E3,3.1954453E3,6.437524E3,1.0381588E4,5.6962964E3,6.207741E3,1.2605868E4,3.9671729E3,6.253428E3,9.163356E2,2.067911E2,2.731745E3,6.8836066E2,2.8388174E3,4.862336E3,1.9678682E3,7.887926E3,1.2633836E4,4.2472344E3,1.6240259E4,2.3845227E3,5.817683E3,1.8113639E3,7.711091E3,2.6670437E3,5.692837E3,1.4512485E4],"categories":[],"categories_nodes":[],"categories_segments":[],"categories_sizes":[],"default_left":[1,1,0,1,0,0,0,1,0,0,0,1,1,1,1,1,0,0,0,0,0,0,0,0,0,0,0,0,0,0,0,1,1,0,1,1,0,0,0,0,1,0,0,0,0,0,0,0,1,0,0,0,0,1,0,1,0,0,1,0,0,0,0,0,0,0,0,0,0,0,0,0,0,0,0,0,0,0,0,0,0,0,0,0,0,0,0,0,0,0,0,0,0,0,0,0,0,0,0,0,0,0,0,0,0,0,0,0,0,0,0,0,0],"id":1,"left_children":[1,3,5,7,9,11,13,15,17,19,21,23,25,27,29,31,33,-1,-1,35,37,39,41,43,45,47,49,51,53,55,57,59,61,63,65,67,69,71,73,75,77,79,81,83,85,87,89,91,93,95,97,99,101,103,-1,105,107,109,111,-1,-1,-1,-1,-1,-1,-1,-1,-1,-1,-1,-1,-1,-1,-1,-1,-1,-1,-1,-1,-1,-1,-1,-1,-1,-1,-1,-1,-1,-1,-1,-1,-1,-1,-1,-1,-1,-1,-1,-1,-1,-1,-1,-1,-1,-1,-1,-1,-1,-1,-1,-1,-1,-1],"loss_changes":[1.4240023E10,5.4407414E9,3.4036982E9,9.220485E8,2.743083E9,1.02358426E9,1.4328238E9,9.610793E8,8.430605E7,1.5632056E9,1.3312174E9,6.2834586E8,2.7840563E8,6.5107046E8,5.82741E8,3.980964E8,3.8804685E8,0E0,0E0,3.0196777E9,1.5548191E9,9.755167E8,8.289567E8,5.021317E8,3.324293E8,2.5653248E8,1.3934E7,2.0988314E8,1.1915597E8,8.7634125E8,1.9514675E8,2.2300365E8,5.620214E8,1.2769894E8,3.6754432E8,2.1070367E9,1.7791406E9,5.507128E8,7.089971E8,4.342153E8,6.576517E8,1.724713E8,5.0383258E8,2.1945293E8,6.3815066E8,3.397587E7,2.537984E8,2.1522893E8,1.7838746E8,7.63756E5,7.04808E5,1.045321E8,6.799309E7,1.4913946E8,0E0,6.2583296E8,1.1902816E7,1.1109581E8,4.020549E8,0E0,0E0,0E0,0E0,0E0,0E0,0E0,0E0,0E0,0E0,0E0,0E0,0E0,0E0,0E0,0E0,0E0,0E0,0E0,0E0,0E0,0E0,0E0,0E0,0E0,0E0,0E0,0E0,0E0,0E0,0E0,0E0,0E0,0E0,0E0,0E0,0E0,0E0,0E0,0E0,0E0,0E0,0E0,0E0,0E0,0E0,0E0,0E0,0E0,0E0,0E0,0E0,0E0,0E0],"parents":[2147483647,0,0,1,1,2,2,3,3,4,4,5,5,6,6,7,7,8,8,9,9,10,10,11,11,12,12,13,13,14,14,15,15,16,16,19,19,20,20,21,21,22,22,23,23,24,24,25,25,26,26,27,27,28,28,29,29,30,30,31,31,32,32,33,33,34,34,35,35,36,36,37,37,38,38,39,39,40,40,41,41,42,42,43,43,44,44,45,45,46,46,47,47,48,48,49,49,50,50,51,51,52,52,53,53,55,55,56,56,57,57,58,58],"right_children":[2,4,6,8,10,12,14,16,18,20,22,24,26,28,30,32,34,-1,-1,36,38,40,42,44,46,48,50,52,54,56,58,60,62,64,66,68,70,72,74,76,78,80,82,84,86,88,90,92,94,96,98,100,102,104,-1,106,108,110,112,-1,-1,-1,-1,-1,-1,-1,-1,-1,-1,-1,-1,-1,-1,-1,-1,-1,-1,-1,-1,-1,-1,-1,-1,-1,-1,-1,-1,-1,-1,-1,-1,-1,-1,-1,-1,-1,-1,-1,-1,-1,-1,-1,-1,-1,-1,-1,-1,-1,-1,-1,-1,-1,-1],"split_conditions":[1.41675E0,8.6805556E-4,3.639706E0,2.547752E1,5.997475E-3,1.0815E0,5E-1,4.6536796E-2,3.75E-1,6.69E0,5.409913E-1,4.5E0,1.9994543E0,4.5E0,9.5E0,1.0151969E0,4E-2,1.2950005E2,3.9589676E1,5.998159E0,1.0397367E0,4.1201073E-1,1.1685E0,2.5E-1,2.5E-2,6.985294E-2,2.085E0,2.2915E0,6.0226E-1,1.9833333E0,6.77162E0,1.0073171E0,3.5E0,1.9375E0,4.5E0,4.5E0,1.2770094E0,2.9986613E0,1E-1,1.25E-1,1.5E1,1.05E1,5.950001E0,2.089765E1,1.2644124E0,4.1500002E-1,6.013329E-1,9.89899E-1,8.5E0,8.333334E-1,3.5E0,5E-1,6.515151E-1,1.85E1,-1.6549E-1,1.41916E-1,2.0263157E0,1.8E1,1.65E1,1.2054454E1,2.1645061E1,3.759167E1,1.9077154E1,2.6413954E1,5.074774E1,3.766017E1,7.262758E1,2.8952814E1,5.8159077E1,4.6220478E1,8.351075E1,2.289028E1,4.9774136E1,3.630395E1,5.479327E1,2.6518198E2,6.530698E1,2.63041E2,2.8504152E1,4.9580776E1,1.193072E2,1.0484375E2,6.0767246E1,5.5872986E1,1.8013178E1,5.868149E1,1.07901245E2,6.3908905E1,1.2875047E2,2.0763176E2,1.1392593E2,1.2415482E2,2.5211736E2,7.934345E1,1.25068565E2,1.8326712E1,4.135822E0,5.4634903E1,1.3767213E1,5.677635E1,9.724672E1,3.935736E1,1.5775851E2,2.5267671E2,8.494469E1,3.2480518E2,4.7690453E1,1.1635366E2,3.6227276E1,1.5422182E2,5.3340874E1,1.13856735E2,2.902497E2],"split_indices":[53,101,53,20,79,55,68,16,18,41,101,106,32,106,108,32,53,0,0,32,86,101,55,65,82,10,53,52,32,14,18,20,106,82,106,106,101,16,37,20,108,85,41,103,101,38,101,9,108,9,35,62,23,109,0,32,18,91,108,0,0,0,0,0,0,0,0,0,0,0,0,0,0,0,0,0,0,0,0,0,0,0,0,0,0,0,0,0,0,0,0,0,0,0,0,0,0,0,0,0,0,0,0,0,0,0,0,0,0,0,0,0,0],"split_type":[0,0,0,0,0,0,0,0,0,0,0,0,0,0,0,0,0,0,0,0,0,0,0,0,0,0,0,0,0,0,0,0,0,0,0,0,0,0,0,0,0,0,0,0,0,0,0,0,0,0,0,0,0,0,0,0,0,0,0,0,0,0,0,0,0,0,0,0,0,0,0,0,0,0,0,0,0,0,0,0,0,0,0,0,0,0,0,0,0,0,0,0,0,0,0,0,0,0,0,0,0,0,0,0,0,0,0,0,0,0,0,0,0],"sum_hessian":[2.9276E4,2.7727E4,1.549E3,1.0764E4,1.6963E4,1.211E3,3.38E2,1.0724E4,4E1,1.5634E4,1.329E3,9.63E2,2.48E2,1.59E2,1.79E2,8.027E3,2.697E3,3.4E1,6E0,7.036E3,8.598E3,8.6E1,1.243E3,8.58E2,1.05E2,2.31E2,1.7E1,1.39E2,2E1,5.4E1,1.25E2,4.636E3,3.391E3,1.9E3,7.97E2,4.974E3,2.062E3,4.632E3,3.966E3,5.1E1,3.5E1,8.1E2,4.33E2,4.19E2,4.39E2,4.4E1,6.1E1,2.8E1,2.03E2,8E0,9E0,1.15E2,2.4E1,1.9E1,1E0,3.9E1,1.5E1,1E2,2.5E1,3.25E3,1.386E3,8.91E2,2.5E3,1.809E3,9.1E1,6.48E2,1.49E2,3.612E3,1.362E3,9.83E2,1.079E3,4.304E3,3.28E2,2.773E3,1.193E3,4E0,4.7E1,2.9E1,6E0,7.96E2,1.4E1,2.4E2,1.93E2,3.43E2,7.6E1,2.51E2,1.88E2,4E1,4E0,2E1,4.1E1,1.7E1,1.1E1,5.4E1,1.49E2,5E0,3E0,8E0,1E0,5.6E1,5.9E1,3E0,2.1E1,1.5E1,4E0,3.5E1,4E0,1.3E1,2E0,9.4E1,6E0,1.1E1,1.4E1],"tree_param":{"num_deleted":"0","num_feature":"110","num_nodes":"113","size_leaf_vector":"0"}},{"base_weights":[1.8253915E3,1.5338112E3,4.0725505E3,1.0446447E3,1.8450029E3,3.2864893E3,6.1282515E3,9.491206E2,2.9435417E3,1.6550293E3,2.5236204E3,3.7643647E3,2.1643738E3,1.055925E4,5.5974673E3,7.800067E2,1.6887836E3,1.737202E3,5.3454976E3,2.0004666E3,1.335347E3,2.370145E3,3.4877666E3,3.561926E3,7.3057344E3,1.3320192E3,3.2337283E3,7.663958E3,1.4817034E4,6.2623364E3,3.5793708E3,7.148195E2,1.0778287E3,1.1200017E3,1.8896693E3,9.868648E2,2.2387861E3,8.441858E3,4.7724175E3,2.5121294E3,1.430004E3,1.0208079E3,1.8220297E3,2.825628E3,1.9273944E3,7.189945E3,3.258395E3,2.9496821E3,4.1919116E3,1.0361042E4,3.421772E3,7.823345E2,1.5477783E3,4.327628E3,1.8929059E3,6.344394E3,1.3759295E4,4.862309E3,1.5511531E4,5.672578E3,8.61843E3,4.376615E3,2.1454731E3,6.269415E2,9.3577576E2,1.5618485E3,8.0910376E2,1.0762964E3,2.8538054E3,1.430349E3,2.201638E3,5.614232E2,1.3127322E3,1.8141833E3,2.7509128E3,5.1040293E3,1.4470243E3,2.179832E3,3.125826E3,2.6623496E3,1.3202183E3,9.4772864E2,1.8278256E3,1.5823054E3,2.5520608E3,2.2824438E3,3.9770842E3,1.5058414E3,2.2949246E3,1.221322E4,3.9997957E3,2.9229915E3,4.0218362E3,2.524924E3,3.82455E3,9.884976E3,3.895033E3,8.449894E3,1.2688878E4,1.0339952E4,2.6244773E3,9.066797E2,2.5235625E2,3.5779175E3,1.3147487E3,2.6545442E3,5.515409E3,2.1232378E3,6.931693E2,9.61697E3,4.8856304E3,1.460267E4,3.0844587E3,1.6108209E4,3.5786697E3,5.4022866E3,1.2700356E4,1.0177125E4,6.5439937E3,2.740546E3,5.2875195E3,1.8689768E3,3.362918E3],"categories":[],"categories_nodes":[],"categories_segments":[],"categories_sizes":[],"default_left":[1,1,0,1,1,1,0,1,1,0,0,1,0,0,1,1,0,0,0,0,0,0,0,0,0,0,0,0,0,0,0,0,0,0,1,0,1,0,0,0,0,1,0,0,0,1,0,0,0,0,0,0,0,0,0,0,0,0,0,1,0,0,0,0,0,0,0,0,0,0,0,0,0,0,0,0,0,0,0,0,0,0,0,0,0,0,0,0,0,0,0,0,0,0,0,0,0,0,0,0,0,0,0,0,0,0,0,0,0,0,0,0,0,0,0,0,0,0,0,0,0,0,0],"id":2,"left_children":[1,3,5,7,9,11,13,15,17,19,21,23,25,27,29,31,33,35,37,39,41,43,45,47,49,51,53,55,57,59,61,63,65,67,69,71,73,-1,75,77,79,81,83,85,87,89,91,93,95,97,99,101,103,105,107,109,111,-1,113,115,117,119,121,-1,-1,-1,-1,-1,-1,-1,-1,-1,-1,-1,-1,-1,-1,-1,-1,-1,-1,-1,-1,-1,-1,-1,-1,-1,-1,-1,-1,-1,-1,-1,-1,-1,-1,-1,-1,-1,-1,-1,-1,-1,-1,-1,-1,-1,-1,-1,-1,-1,-1,-1,-1,-1,-1,-1,-1,-1,-1,-1,-1],"loss_changes":[1.9325583E10,3.973722E9,5.454553E9,1.8395873E9,2.053505E9,1.3072282E9,2.1422776E9,1.2085279E9,1.398935E9,1.3747241E9,5.0801254E8,1.2063478E9,6.499031E8,1.1068682E9,1.1019899E9,1.5209677E8,2.0343808E8,1.2010675E8,2.4717466E8,1.7456701E9,9.902561E8,6.021724E8,3.8162893E8,6.1556326E8,1.05628314E9,4.800787E7,4.6262707E8,4.0333978E8,1.942057E8,8.251228E8,2.3067494E8,1.2490701E8,1.823927E8,3.2694912E7,1.871447E8,1.7563152E7,3.719475E7,0E0,1.4589517E8,6.371963E8,3.8017894E8,2.305751E8,4.41003E8,9.184686E8,2.3374746E8,3.838244E8,1.0372762E8,2.984059E8,1.3136159E9,1.1967181E8,2.045278E8,7.613328E6,1.3580147E8,3.3511654E8,3.8873536E7,2.012585E8,4.498752E7,0E0,1.986775E8,8.925614E8,3.343442E8,1.8520986E8,1.9634464E7,0E0,0E0,0E0,0E0,0E0,0E0,0E0,0E0,0E0,0E0,0E0,0E0,0E0,0E0,0E0,0E0,0E0,0E0,0E0,0E0,0E0,0E0,0E0,0E0,0E0,0E0,0E0,0E0,0E0,0E0,0E0,0E0,0E0,0E0,0E0,0E0,0E0,0E0,0E0,0E0,0E0,0E0,0E0,0E0,0E0,0E0,0E0,0E0,0E0,0E0,0E0,0E0,0E0,0E0,0E0,0E0,0E0,0E0,0E0,0E0],"parents":[2147483647,0,0,1,1,2,2,3,3,4,4,5,5,6,6,7,7,8,8,9,9,10,10,11,11,12,12,13,13,14,14,15,15,16,16,17,17,18,18,19,19,20,20,21,21,22,22,23,23,24,24,25,25,26,26,27,27,28,28,29,29,30,30,31,31,32,32,33,33,34,34,35,35,36,36,38,38,39,39,40,40,41,41,42,42,43,43,44,44,45,45,46,46,47,47,48,48,49,49,50,50,51,51,52,52,53,53,54,54,55,55,56,56,58,58,59,59,60,60,61,61,62,62],"right_children":[2,4,6,8,10,12,14,16,18,20,22,24,26,28,30,32,34,36,38,40,42,44,46,48,50,52,54,56,58,60,62,64,66,68,70,72,74,-1,76,78,80,82,84,86,88,90,92,94,96,98,100,102,104,106,108,110,112,-1,114,116,118,120,122,-1,-1,-1,-1,-1,-1,-1,-1,-1,-1,-1,-1,-1,-1,-1,-1,-1,-1,-1,-1,-1,-1,-1,-1,-1,-1,-1,-1,-1,-1,-1,-1,-1,-1,-1,-1,-1,-1,-1,-1,-1,-1,-1,-1,-1,-1,-1,-1,-1,-1,-1,-1,-1,-1,-1,-1,-1,-1,-1,-1],"split_conditions":[4.855E-1,7.48279E-4,1.5885E0,3E-2,7.986232E-2,9.5662914E-2,7.35849E-1,9.5416665E-1,1.6768978E0,1.7482517E-3,2.9317322E0,1.811931E0,4.4E1,3.6665E0,9.2643425E-2,1.0105611E0,5.4E1,9.267677E-1,1.6666667E-1,1.6128001E0,1.159955E0,2.365E0,4.989362E0,1.1933057E0,5.526316E-1,9.6911883E-1,1.9560211E0,4.0652175E0,9.475247E-1,3.5E0,2.0174994E0,1.0039144E0,1.1314313E0,2.9668217E0,1.4699516E0,5E-3,2.6530612E0,1.6883716E2,1.8992374E0,1.2812496E0,2.2407408E0,2.0099602E0,1.3E0,5.9917116E0,1.1367521E0,1E0,4.8E0,1.0392308E0,7.3360765E-1,5E-1,1.9226602E0,7.1726596E-1,1.110755E0,1.5823164E0,1.3910506E0,5.041673E-1,3.5E0,9.724618E1,1.5E0,1.849505E0,1.0254238E0,1.0907197E0,2.976118E0,1.2538831E1,1.8715515E1,3.1236969E1,1.6182076E1,2.1525927E1,5.7076107E1,2.860698E1,4.4032757E1,1.1228464E1,2.6254642E1,3.6283665E1,5.5018257E1,1.0208058E2,2.8940485E1,4.359664E1,6.2516518E1,5.324699E1,2.6404366E1,1.8954573E1,3.655651E1,3.1646109E1,5.1041214E1,4.5648876E1,7.954168E1,3.0116827E1,4.589849E1,2.4426439E2,7.999591E1,5.8459827E1,8.043672E1,5.049848E1,7.6491E1,1.9769951E2,7.790066E1,1.6899786E2,2.5377756E2,2.0679904E2,5.2489544E1,1.8133593E1,5.047125E0,7.155835E1,2.6294973E1,5.309088E1,1.1030818E2,4.2464756E1,1.3863386E1,1.9233939E2,9.771261E1,2.920534E2,6.1689175E1,3.2216418E2,7.1573395E1,1.0804573E2,2.5400713E2,2.035425E2,1.3087987E2,5.4810917E1,1.0575039E2,3.7379536E1,6.7258354E1],"split_indices":[51,101,51,105,51,32,25,15,30,69,100,30,30,53,32,30,30,30,25,101,86,41,30,20,101,32,32,20,30,67,32,32,32,32,32,51,20,0,30,101,30,96,37,32,16,48,37,15,25,104,30,32,32,32,101,32,0,0,87,30,1,32,32,0,0,0,0,0,0,0,0,0,0,0,0,0,0,0,0,0,0,0,0,0,0,0,0,0,0,0,0,0,0,0,0,0,0,0,0,0,0,0,0,0,0,0,0,0,0,0,0,0,0,0,0,0,0,0,0,0,0,0,0],"split_type":[0,0,0,0,0,0,0,0,0,0,0,0,0,0,0,0,0,0,0,0,0,0,0,0,0,0,0,0,0,0,0,0,0,0,0,0,0,0,0,0,0,0,0,0,0,0,0,0,0,0,0,0,0,0,0,0,0,0,0,0,0,0,0,0,0,0,0,0,0,0,0,0,0,0,0,0,0,0,0,0,0,0,0,0,0,0,0,0,0,0,0,0,0,0,0,0,0,0,0,0,0,0,0,0,0,0,0,0,0,0,0,0,0,0,0,0,0,0,0,0,0,0,0],"sum_hessian":[2.9503E4,2.6116E4,3.387E3,1.0156E4,1.596E4,2.452E3,9.35E2,9.671E3,4.85E2,1.2472E4,3.488E3,1.718E3,7.34E2,9.8E1,8.37E2,7.873E3,1.798E3,3.24E2,1.61E2,5.992E3,6.48E3,3.012E3,4.76E2,1.627E3,9.1E1,4.14E2,3.2E2,6E1,3.8E1,6.28E2,2.09E2,6.462E3,1.411E3,4.71E2,1.327E3,1.31E2,1.93E2,2.3E1,1.38E2,3.157E3,2.835E3,3.938E3,2.542E3,1.482E3,1.53E3,2.6E1,4.5E2,8.28E2,7.99E2,5E1,4.1E1,1.18E2,2.96E2,1.75E2,1.45E2,5.1E1,9E0,3E0,3.5E1,5.05E2,1.23E2,1.33E2,7.6E1,4.626E3,1.836E3,5.02E2,9.09E2,4.61E2,1E1,5.39E2,7.88E2,5.8E1,7.3E1,1.08E2,8.5E1,1.25E2,1.3E1,2.051E3,1.106E3,2.3E2,2.605E3,3.613E3,3.25E2,1.916E3,6.26E2,1.009E3,4.73E2,7.15E2,8.15E2,9E0,1.7E1,3.16E2,1.34E2,5.6E2,2.68E2,3.8E1,7.61E2,3E1,2E1,3E0,3.8E1,9.5E1,2.3E1,2.9E1,2.67E2,7.4E1,1.01E2,1.21E2,2.4E1,1.4E1,3.7E1,8E0,1E0,3.3E1,2E0,4.88E2,1.7E1,6.8E1,5.5E1,4.9E1,8.4E1,6.4E1,1.2E1],"tree_param":{"num_deleted":"0","num_feature":"110","num_nodes":"123","size_leaf_vector":"0"}},{"base_weights":[1.7901028E3,1.506108E3,4.0225308E3,1.7924794E3,9.87288E2,3.3819531E3,6.4785986E3,9.130421E2,2.1073916E3,1.3113492E3,6.637833E2,2.2356572E3,3.9163677E3,7.319083E3,3.4942812E3,2.1976543E3,8.061084E2,2.4445947E3,1.4324723E3,1.5829515E3,8.1545874E2,5.166844E2,9.230716E2,1.3689285E3,2.4777847E3,5.133251E3,2.306648E3,3.9035054E3,8.65006E3,2.6677563E3,5.666879E3,1.9659166E3,3.2215417E3,6.07351E2,1.0066226E3,2.1722595E3,3.0479985E3,1.9485364E3,9.583247E2,1.1993416E3,1.7842483E3,6.135312E2,1.4617109E3,9.1282776E2,4.570312E2,8.0459875E2,1.1760978E3,8.414829E2,2.1487253E3,3.5854822E3,1.940885E3,4.4406943E3,7.5134214E3,2.8932568E3,1.3587274E3,3.5157803E3,8.1016733E3,9.6231455E3,4.670655E3,1.8898596E3,3.3104355E3,6.87627E3,3.1121836E3,5.235759E2,2.0120554E3,3.2733164E3,5.7535088E1,5.6335345E2,1.258855E3,7.1019135E2,1.1849507E3,2.5179797E3,1.7434132E3,2.5670198E3,3.7004153E3,1.7263387E3,2.4243494E3,8.8408514E2,3.3977312E3,8.2172845E2,1.4133744E3,1.6305193E3,2.1830327E3,3.9426764E2,7.7513934E2,1.1990032E3,1.7142803E3,7.3610156E2,1.2937892E3,5.291181E2,3.139136E2,1.1867877E3,6.868892E2,1.4338855E3,1.0263062E3,7.1790356E2,1.9109021E3,2.2062668E3,5.901825E2,4.0289045E3,1.5780432E3,1.7570298E3,3.2860103E3,5.092679E3,2.8669846E3,1.1084684E4,6.286239E3,2.5331E3,3.9289807E3,2.0463721E3,1.2245519E3,1.4383269E3,3.9994343E3,8.756684E3,4.4827985E2,1.1046457E4,7.713771E3,2.6016865E3,6.0084014E3,1.2753484E3,2.434376E3,3.4517927E3,1.0651481E3,7.0856143E3,7.166571E2,3.2158074E3,8.307266E2],"categories":[],"categories_nodes":[],"categories_segments":[],"categories_sizes":[],"default_left":[1,1,0,1,1,1,1,0,1,0,1,0,1,1,0,0,1,0,1,0,0,1,0,1,0,0,1,0,1,0,0,0,0,1,1,0,1,0,1,1,0,1,1,0,1,1,0,0,0,1,0,1,0,0,1,0,0,0,0,0,0,0,0,0,0,0,0,0,0,0,0,0,0,0,0,0,0,0,0,0,0,0,0,0,0,0,0,0,0,0,0,0,0,0,0,0,0,0,0,0,0,0,0,0,0,0,0,0,0,0,0,0,0,0,0,0,0,0,0,0,0,0,0,0,0,0,0],"id":3,"left_children":[1,3,5,7,9,11,13,15,17,19,21,23,25,27,29,31,33,35,37,39,41,43,45,47,49,51,53,55,57,59,61,63,65,67,69,71,73,75,77,79,81,83,85,87,89,91,93,95,97,99,101,103,105,107,109,111,113,115,117,119,121,123,125,-1,-1,-1,-1,-1,-1,-1,-1,-1,-1,-1,-1,-1,-1,-1,-1,-1,-1,-1,-1,-1,-1,-1,-1,-1,-1,-1,-1,-1,-1,-1,-1,-1,-1,-1,-1,-1,-1,-1,-1,-1,-1,-1,-1,-1,-1,-1,-1,-1,-1,-1,-1,-1,-1,-1,-1,-1,-1,-1,-1,-1,-1,-1,-1],"loss_changes":[1.8575147E10,3.8614794E9,5.1810017E9,4.637741E9,9.688566E8,1.5993098E9,1.6875766E9,6.05259E8,2.8037612E9,6.209536E8,1.7615424E8,1.722601E8,3.492526E9,2.3847342E9,2.578295E8,7.410253E7,1.6203162E8,1.344811E9,1.0043008E9,2.2828288E8,2.1272538E8,6.946035E7,4.926464E7,7.428246E7,3.8139443E8,1.6447078E9,4.253458E8,2.1730458E8,1.4342697E9,4.973683E7,1.0527437E8,1.7513472E7,9.804416E6,5.8110656E7,1.0646835E8,8.362496E8,7.9225856E8,2.0388096E8,3.8545664E8,8.208486E7,1.1629158E8,4.3952416E7,2.3755456E7,2.5035456E7,2.6369024E7,5.065024E7,1.907136E7,1.3429864E7,5.334272E6,1.823529E8,1.0353651E8,7.969915E8,9.295493E8,1.6760653E8,2.4896832E7,1.349152E8,5.6231104E7,7.4638746E8,1.9748518E8,1.4629744E7,1.5366528E7,2.9737856E7,8.7472E5,0E0,0E0,0E0,0E0,0E0,0E0,0E0,0E0,0E0,0E0,0E0,0E0,0E0,0E0,0E0,0E0,0E0,0E0,0E0,0E0,0E0,0E0,0E0,0E0,0E0,0E0,0E0,0E0,0E0,0E0,0E0,0E0,0E0,0E0,0E0,0E0,0E0,0E0,0E0,0E0,0E0,0E0,0E0,0E0,0E0,0E0,0E0,0E0,0E0,0E0,0E0,0E0,0E0,0E0,0E0,0E0,0E0,0E0,0E0,0E0,0E0,0E0,0E0,0E0],"parents":[2147483647,0,0,1,1,2,2,3,3,4,4,5,5,6,6,7,7,8,8,9,9,10,10,11,11,12,12,13,13,14,14,15,15,16,16,17,17,18,18,19,19,20,20,21,21,22,22,23,23,24,24,25,25,26,26,27,27,28,28,29,29,30,30,31,31,32,32,33,33,34,34,35,35,36,36,37,37,38,38,39,39,40,40,41,41,42,42,43,43,44,44,45,45,46,46,47,47,48,48,49,49,50,50,51,51,52,52,53,53,54,54,55,55,56,56,57,57,58,58,59,59,60,60,61,61,62,62],"right_children":[2,4,6,8,10,12,14,16,18,20,22,24,26,28,30,32,34,36,38,40,42,44,46,48,50,52,54,56,58,60,62,64,66,68,70,72,74,76,78,80,82,84,86,88,90,92,94,96,98,100,102,104,106,108,110,112,114,116,118,120,122,124,126,-1,-1,-1,-1,-1,-1,-1,-1,-1,-1,-1,-1,-1,-1,-1,-1,-1,-1,-1,-1,-1,-1,-1,-1,-1,-1,-1,-1,-1,-1,-1,-1,-1,-1,-1,-1,-1,-1,-1,-1,-1,-1,-1,-1,-1,-1,-1,-1,-1,-1,-1,-1,-1,-1,-1,-1,-1,-1,-1,-1,-1,-1,-1,-1],"split_conditions":[4.9950945E-1,7.5E0,1.8435E0,1.5E0,2.5E0,3.5E0,6.5E0,7.083334E-2,4.1174854E-4,1.383E1,1.45E1,9.9158454E-1,6.5E0,3.5E0,1.8810345E0,4.5E-1,1.15E1,5.9763886E-2,3.5E0,2.204861E-1,3.8856027E0,1.5E0,1.5411124E0,4.5E0,3.3988765E-1,7.499286E-1,2.5E0,4.132E0,3.0057644E-2,5E-1,1.280303E0,2.000001E0,1.25E0,3.15E-1,1.5E0,7.5E-1,1.5E0,2.4999999E-2,4.5E0,8.5E0,4.690909E-2,9.5E0,1.15E1,1.543196E0,4.5E0,8.5E0,1.8599133E0,1.835E0,4.5E0,1.1093123E0,2.4211822E0,1.6744442E-2,2.9234149E-2,1.1428571E0,2.5E0,8.7034905E-1,2.1875E0,1.010582E0,8.5E-1,8.1499994E-2,2.5315933E0,2.0435E0,4.598485E0,1.04715185E1,4.0241108E1,6.5466324E1,1.1507018E0,1.1267069E1,2.51771E1,1.4203827E1,2.3699013E1,5.0359592E1,3.4868263E1,5.1340393E1,7.40083E1,3.4526775E1,4.8486988E1,1.7681702E1,6.795462E1,1.6434568E1,2.8267487E1,3.2610386E1,4.3660652E1,7.8853526E0,1.5502787E1,2.3980062E1,3.4285606E1,1.4722031E1,2.5875784E1,1.0582362E1,6.278272E0,2.3735754E1,1.3737784E1,2.867771E1,2.0526123E1,1.4358071E1,3.821804E1,4.4125336E1,1.180365E1,8.057809E1,3.1560863E1,3.5140594E1,6.572021E1,1.01853584E2,5.733969E1,2.2169366E2,1.2572477E2,5.0662003E1,7.857961E1,4.092744E1,2.4491037E1,2.8766537E1,7.9988686E1,1.7513367E2,8.965597E0,2.2092914E2,1.5427542E2,5.203373E1,1.2016802E2,2.5506968E1,4.868752E1,6.903585E1,2.1302961E1,1.4171228E2,1.4333141E1,6.431615E1,1.6614532E1],"split_indices":[51,107,51,107,106,107,107,11,32,38,109,32,107,107,8,90,109,51,106,23,99,109,32,106,99,55,106,51,32,67,96,31,61,38,106,69,106,51,106,109,51,109,109,32,106,107,32,55,62,32,5,32,32,62,108,32,11,7,23,52,81,55,8,0,0,0,0,0,0,0,0,0,0,0,0,0,0,0,0,0,0,0,0,0,0,0,0,0,0,0,0,0,0,0,0,0,0,0,0,0,0,0,0,0,0,0,0,0,0,0,0,0,0,0,0,0,0,0,0,0,0,0,0,0,0,0,0],"split_type":[0,0,0,0,0,0,0,0,0,0,0,0,0,0,0,0,0,0,0,0,0,0,0,0,0,0,0,0,0,0,0,0,0,0,0,0,0,0,0,0,0,0,0,0,0,0,0,0,0,0,0,0,0,0,0,0,0,0,0,0,0,0,0,0,0,0,0,0,0,0,0,0,0,0,0,0,0,0,0,0,0,0,0,0,0,0,0,0,0,0,0,0,0,0,0,0,0,0,0,0,0,0,0,0,0,0,0,0,0,0,0,0,0,0,0,0,0,0,0,0,0,0,0,0,0,0,0],"sum_hessian":[2.9307E4,2.6001E4,3.306E3,1.6752E4,9.249E3,2.624E3,6.82E2,4.418E3,1.2334E4,4.619E3,4.63E3,8.36E2,1.788E3,5.31E2,1.51E2,3.38E2,4.08E3,8.223E3,4.111E3,2.983E3,1.636E3,2.956E3,1.674E3,1.84E2,6.52E2,1.017E3,7.71E2,1.5E2,3.81E2,1.11E2,4E1,2.78E2,6E1,2.051E3,2.029E3,5.669E3,2.554E3,1.967E3,2.144E3,1.029E3,1.954E3,1.248E3,3.88E2,3.85E2,2.571E3,1.143E3,5.31E2,1.11E2,7.3E1,2.11E2,4.41E2,7.9E2,2.27E2,4.75E2,2.96E2,1.39E2,1.1E1,3.05E2,7.6E1,5.2E1,5.9E1,2.6E1,1.4E1,9E0,2.69E2,5.9E1,1E0,1.923E3,1.28E2,7.64E2,1.265E3,3.136E3,2.533E3,1.473E3,1.081E3,1.344E3,6.23E2,2.082E3,6.2E1,3.74E2,6.55E2,1.414E3,5.4E2,5.31E2,7.17E2,1.93E2,1.95E2,2.65E2,1.2E2,1.708E3,8.63E2,2.67E2,8.76E2,1.92E2,3.39E2,1.01E2,1E1,7E1,3E0,1.72E2,3.9E1,3.9E2,5.1E1,5.57E2,2.33E2,5.6E1,1.71E2,3.55E2,1.2E2,4.6E1,2.5E2,2.7E1,1.12E2,1E1,1E0,1.72E2,1.33E2,3.1E1,4.5E1,2.6E1,2.6E1,5.5E1,4E0,2.5E1,1E0,1.3E1,1E0],"tree_param":{"num_deleted":"0","num_feature":"110","num_nodes":"127","size_leaf_vector":"0"}},{"base_weights":[1.7483092E3,1.5926912E3,5.7581284E3,1.3209869E3,2.4606309E3,1.012766E4,5.2327285E3,9.170307E2,1.601804E3,2.3356968E3,4.312442E3,1.4771524E4,7.0200854E3,4.706278E3,7.639541E3,8.434969E2,2.7238225E3,1.9458186E3,1.279909E3,1.624319E3,2.627491E3,9.990498E3,3.8878792E3,1.6134319E4,2.9971743E3,9.140583E3,4.9914443E3,4.2891675E3,7.321624E3,4.1950986E3,8.35192E3,7.025354E2,1.47637E3,1.5795613E3,4.8118145E3,2.4455728E3,1.3907827E3,9.801059E2,1.7459923E3,1.4689521E3,4.7096665E3,2.4921084E3,3.7403047E3,1.3047441E4,4.57254E3,3.6094429E3,6.3583696E3,1.749478E4,1.1858346E4,3.7911655E3,9.394614E2,1.1039827E4,5.638819E3,3.2985322E3,6.14967E3,4.734464E3,1.8272422E3,5.9951226E3,1.1825124E4,2.974851E3,5.379722E3,6.963448E3,1.0234236E4,6.006512E2,1.0421349E3,1.6511194E3,1.0275204E3,8.1597894E2,2.1113582E3,6.0956587E3,3.512727E3,2.122186E3,3.0577312E3,1.2663171E3,3.0324092E3,9.0238086E2,1.7512809E3,1.5261621E3,2.3990469E3,1.1212787E3,2.2245132E3,2.7793918E3,7.842567E3,2.1161296E3,2.9153088E3,3.2397422E3,5.683958E3,1.3686143E4,1.0947637E3,2.0000273E3,6.811715E3,3.3014954E3,6.6627324E3,4.830071E3,9.809486E3,1.5001096E3,1.1441808E4,2.2434585E3,6.772617E3,1.885739E3,4.828806E3,6.3595435E3,8.711623E2,3.6140657E3,5.540544E3,1.3801846E3,2.6262131E3,4.829909E3,8.8525625E3,1.3632933E4,4.129543E3,3.224644E3,1.294414E3,5.8223115E3,1.668594E3,3.0285193E3,7.384044E3,1.1770027E4,7.3186494E3],"categories":[],"categories_nodes":[],"categories_segments":[],"categories_sizes":[],"default_left":[1,1,0,1,0,0,0,1,0,0,0,1,0,1,1,1,1,0,0,1,1,0,0,1,0,0,0,1,0,0,0,1,1,0,1,0,1,1,0,0,1,0,0,0,0,0,0,0,0,0,0,0,0,0,0,0,0,0,0,0,0,0,0,0,0,0,0,0,0,0,0,0,0,0,0,0,0,0,0,0,0,0,0,0,0,0,0,0,0,0,0,0,0,0,0,0,0,0,0,0,0,0,0,0,0,0,0,0,0,0,0,0,0,0,0,0,0,0,0],"id":4,"left_children":[1,3,5,7,9,11,13,15,17,19,21,23,25,27,29,31,33,35,37,39,41,43,45,47,49,51,53,55,57,59,61,63,65,67,69,71,73,75,77,79,81,83,85,87,89,91,93,-1,-1,-1,-1,95,97,99,101,103,105,107,109,111,113,115,117,-1,-1,-1,-1,-1,-1,-1,-1,-1,-1,-1,-1,-1,-1,-1,-1,-1,-1,-1,-1,-1,-1,-1,-1,-1,-1,-1,-1,-1,-1,-1,-1,-1,-1,-1,-1,-1,-1,-1,-1,-1,-1,-1,-1,-1,-1,-1,-1,-1,-1,-1,-1,-1,-1,-1,-1],"loss_changes":[1.8370126E10,6.6835005E9,2.472325E9,2.4484495E9,1.5536497E9,1.5847475E9,1.2108411E9,1.1747113E9,1.4081843E9,1.3105193E9,9.881134E8,6.897592E8,2.6409984E8,8.522158E8,3.94368E8,7.585034E8,8.1906534E8,1.7041572E9,9.1829146E8,8.7750195E8,6.6712166E8,4.2064947E8,2.5082317E8,3.1049728E7,6.241184E6,1.6387226E8,5.6185344E7,7.598459E8,5.862359E8,3.0253248E7,3.0508544E8,2.4036173E8,1.1987942E8,8.964307E7,1.820626E8,6.345175E8,5.925878E8,2.387177E8,3.661527E8,4.593124E8,5.1036992E8,6.3124275E8,4.5345178E8,1.2243226E8,5.5500064E7,3.1649382E8,1.5831872E8,0E0,0E0,0E0,0E0,6.33664E7,3.870109E7,2.9809424E7,1.8831872E7,5.1553178E8,3.530861E7,2.4691174E8,2.775936E8,3.38168E6,1.4922496E7,1.1996851E8,1.7804544E8,0E0,0E0,0E0,0E0,0E0,0E0,0E0,0E0,0E0,0E0,0E0,0E0,0E0,0E0,0E0,0E0,0E0,0E0,0E0,0E0,0E0,0E0,0E0,0E0,0E0,0E0,0E0,0E0,0E0,0E0,0E0,0E0,0E0,0E0,0E0,0E0,0E0,0E0,0E0,0E0,0E0,0E0,0E0,0E0,0E0,0E0,0E0,0E0,0E0,0E0,0E0,0E0,0E0,0E0,0E0,0E0],"parents":[2147483647,0,0,1,1,2,2,3,3,4,4,5,5,6,6,7,7,8,8,9,9,10,10,11,11,12,12,13,13,14,14,15,15,16,16,17,17,18,18,19,19,20,20,21,21,22,22,23,23,24,24,25,25,26,26,27,27,28,28,29,29,30,30,31,31,32,32,33,33,34,34,35,35,36,36,37,37,38,38,39,39,40,40,41,41,42,42,43,43,44,44,45,45,46,46,51,51,52,52,53,53,54,54,55,55,56,56,57,57,58,58,59,59,60,60,61,61,62,62],"right_children":[2,4,6,8,10,12,14,16,18,20,22,24,26,28,30,32,34,36,38,40,42,44,46,48,50,52,54,56,58,60,62,64,66,68,70,72,74,76,78,80,82,84,86,88,90,92,94,-1,-1,-1,-1,96,98,100,102,104,106,108,110,112,114,116,118,-1,-1,-1,-1,-1,-1,-1,-1,-1,-1,-1,-1,-1,-1,-1,-1,-1,-1,-1,-1,-1,-1,-1,-1,-1,-1,-1,-1,-1,-1,-1,-1,-1,-1,-1,-1,-1,-1,-1,-1,-1,-1,-1,-1,-1,-1,-1,-1,-1,-1,-1,-1,-1,-1,-1,-1],"split_conditions":[1.4245E0,9.0219304E-2,8.514168E-1,7.48279E-4,2.3205128E0,9.583334E-1,3.5E0,3.4285717E-2,1.7482517E-3,4.4273908E-4,6.737486E-1,1.2E1,2.6785713E-1,4.5E0,6.5E0,7.633053E-1,1.6712872E0,1.6128654E0,1.1272523E0,1.0014286E0,4.5E0,1.3347223E-1,6.952647E0,1.9330033E0,1.4565217E0,1E0,1.25E0,3.5E0,7.0000005E-1,3.0291793E-1,9.6000004E-1,1.75E1,3.5E0,8.293651E-1,1.65E1,1.2812496E0,4.5E0,1.9879789E0,1.7E0,9.75E-1,1.7930694E0,1.0152895E0,3.4722222E-3,3.5E0,1.0463204E0,6.424466E0,6.8E-1,3.4989557E2,2.3716692E2,7.582331E1,1.8789228E1,4.15E-1,3.6309522E-1,1.04619E0,6.611111E0,1.329932E0,2.1375E0,1.5E0,2.3863635E0,5E-1,6.5E0,1.5525E0,1.0353535E0,1.2013023E1,2.0842697E1,3.302239E1,2.0550407E1,1.6319578E1,4.222716E1,1.2191317E2,7.025454E1,4.2443718E1,6.115462E1,2.5326342E1,6.0648182E1,1.8047617E1,3.5025616E1,3.0523241E1,4.7980938E1,2.2425573E1,4.449026E1,5.5587837E1,1.5685133E2,4.2322594E1,5.8306175E1,6.4794846E1,1.1367916E2,2.7372284E2,2.1895273E1,4.0000546E1,1.362343E2,6.602991E1,1.3325464E2,9.660142E1,1.9618973E2,3.0002192E1,2.2883615E2,4.4869167E1,1.3545235E2,3.771478E1,9.657612E1,1.27190865E2,1.7423246E1,7.228131E1,1.10810875E2,2.7603691E1,5.252426E1,9.659818E1,1.7705124E2,2.7265866E2,8.259086E1,6.449288E1,2.5888279E1,1.1644623E2,3.337188E1,6.0570385E1,1.4768088E2,2.3540054E2,1.4637299E2],"split_indices":[51,51,25,101,72,14,67,105,69,101,25,108,96,106,108,15,30,101,86,105,106,56,18,30,9,50,96,106,37,56,55,109,106,30,108,101,106,96,37,15,30,15,79,64,101,19,51,0,0,0,0,53,11,101,7,25,25,72,25,0,14,51,1,0,0,0,0,0,0,0,0,0,0,0,0,0,0,0,0,0,0,0,0,0,0,0,0,0,0,0,0,0,0,0,0,0,0,0,0,0,0,0,0,0,0,0,0,0,0,0,0,0,0,0,0,0,0,0,0],"split_type":[0,0,0,0,0,0,0,0,0,0,0,0,0,0,0,0,0,0,0,0,0,0,0,0,0,0,0,0,0,0,0,0,0,0,0,0,0,0,0,0,0,0,0,0,0,0,0,0,0,0,0,0,0,0,0,0,0,0,0,0,0,0,0,0,0,0,0,0,0,0,0,0,0,0,0,0,0,0,0,0,0,0,0,0,0,0,0,0,0,0,0,0,0,0,0,0,0,0,0,0,0,0,0,0,0,0,0,0,0,0,0,0,0,0,0,0,0,0,0],"sum_hessian":[2.9453E4,2.8354E4,1.099E3,2.1596E4,6.758E3,1.16E2,9.83E2,8.858E3,1.2738E4,6.333E3,4.25E2,4.5E1,7.1E1,8.09E2,1.74E2,8.513E3,3.45E2,6.155E3,6.583E3,1.844E3,4.489E3,2.8E1,3.97E2,4E1,5E0,3.3E1,3.8E1,7E2,1.09E2,3.1E1,1.43E2,6.964E3,1.549E3,2.24E2,1.21E2,3.237E3,2.918E3,4.008E3,2.575E3,1.757E3,8.7E1,4.005E3,4.84E2,1.7E1,1.1E1,3.59E2,3.8E1,2.8E1,1.2E1,3E0,2E0,2E1,1.3E1,1.7E1,2.1E1,5.92E2,1.08E2,8.6E1,2.3E1,1.7E1,1.4E1,8.5E1,5.8E1,5.359E3,1.605E3,1.113E3,4.36E2,9.3E1,1.31E2,5.9E1,6.2E1,2.121E3,1.116E3,2.714E3,2.04E2,3.643E3,3.65E2,1.929E3,6.46E2,1.205E3,5.52E2,5.5E1,3.2E1,2.124E3,1.881E3,3.87E2,9.7E1,1.6E1,1E0,6E0,5E0,3.28E2,3.1E1,2.8E1,1E1,1E0,1.9E1,4E0,9E0,1E1,7E0,2E1,1E0,2.5E2,3.42E2,7.1E1,3.7E1,6.3E1,2.3E1,1.8E1,5E0,1.4E1,3E0,1.2E1,2E0,9E0,7.6E1,3.6E1,2.2E1],"tree_param":{"num_deleted":"0","num_feature":"110","num_nodes":"119","size_leaf_vector":"0"}},{"base_weights":[1.7053674E3,1.4528767E3,3.9723953E3,1.730724E3,9.422839E2,3.2707424E3,6.084388E3,1.0882336E3,2.1348474E3,7.123667E2,1.4282727E3,3.1177317E3,7.3037686E3,6.867207E3,3.4760334E3,1.7591792E3,9.41039E2,2.5034888E3,1.3916582E3,5.988E2,1.0593926E3,1.1630896E3,1.6222909E3,2.165373E3,3.5883777E3,1.8200403E3,8.340611E3,7.6767153E3,3.5461772E3,4.2451206E3,1.7310645E3,9.7798486E2,2.0414747E3,7.665447E2,1.4611356E3,2.3362798E3,3.856368E3,8.605999E2,1.963395E3,5.49333E2,1.1400651E3,8.391284E2,1.2700001E3,6.011197E2,1.2774783E3,1.5703239E3,2.558739E3,2.6271208E3,1.6563752E3,4.6589043E3,2.1603928E3,2.2125144E3,2.8572647E2,9.541989E3,3.5396997E3,3.9543694E3,8.894853E3,3.0756409E3,6.892905E3,3.1153586E3,5.1496797E3,1.3757919E3,3.1566846E3,1.7031515E3,7.177005E2,1.888659E3,2.97307E3,5.722656E2,9.6044617E2,1.3744624E3,2.5755059E3,2.6828027E3,1.8725115E3,3.453813E3,5.7584253E3,8.157599E2,2.8210156E3,1.6994031E3,2.7389102E3,5.3267487E2,1.6104888E3,1.5135507E3,8.77276E2,1.1519893E3,7.42828E2,1.4338835E3,8.8112164E2,5.339524E2,1.2326619E3,1.2028381E3,2.168387E3,1.4863698E3,2.0792896E3,2.293222E3,3.9345908E3,1.9074523E3,4.0166543E3,1.4737869E3,3.5573625E3,5.361112E3,3.0280925E3,1.2312505E3,2.7283582E3,2.7332249E3,1.041017E3,2.1274124E1,5.3954175E2,1.2331549E4,6.808162E3,4.700084E3,1.5421053E3,2.0668252E3,4.6117124E3,1.0299514E4,6.6690674E3,2.091445E3,3.8115903E3,7.3422783E3,7.502097E2,1.5743934E3,3.822466E3,5.560645E3,2.0203749E3,9.1176324E2,1.9102394E3],"categories":[],"categories_nodes":[],"categories_segments":[],"categories_sizes":[],"default_left":[1,1,0,1,0,0,1,0,1,1,1,1,1,1,0,0,1,1,0,0,0,0,0,0,1,0,1,1,0,0,0,0,0,1,1,1,1,0,0,0,0,1,0,1,0,0,0,0,0,1,0,0,0,0,0,0,0,0,0,0,1,0,0,0,0,0,0,0,0,0,0,0,0,0,0,0,0,0,0,0,0,0,0,0,0,0,0,0,0,0,0,0,0,0,0,0,0,0,0,0,0,0,0,0,0,0,0,0,0,0,0,0,0,0,0,0,0,0,0,0,0,0,0,0,0],"id":5,"left_children":[1,3,5,7,9,11,13,15,17,19,21,23,25,27,29,31,33,35,37,39,41,43,45,47,49,51,53,55,57,59,61,63,65,67,69,71,73,75,77,79,81,83,85,87,89,91,93,95,97,99,101,103,105,107,109,111,113,115,117,119,121,123,-1,-1,-1,-1,-1,-1,-1,-1,-1,-1,-1,-1,-1,-1,-1,-1,-1,-1,-1,-1,-1,-1,-1,-1,-1,-1,-1,-1,-1,-1,-1,-1,-1,-1,-1,-1,-1,-1,-1,-1,-1,-1,-1,-1,-1,-1,-1,-1,-1,-1,-1,-1,-1,-1,-1,-1,-1,-1,-1,-1,-1,-1,-1],"loss_changes":[1.6790266E10,3.7442232E9,4.336845E9,4.4370944E9,1.0389197E9,1.3403914E9,1.4707773E9,6.5055334E8,2.8718326E9,2.4844032E8,1.5184742E8,9.469481E8,4.3968077E8,1.4836593E9,2.2213914E8,2.5976986E8,4.9058458E8,1.5776563E9,1.0555341E9,1.2692851E8,7.116237E7,8.06144E7,7.983104E7,1.618135E8,2.1667983E9,7.798328E6,3.5266048E8,2.0098089E9,1.5517274E8,1.0454528E8,2.3007184E7,5.8611264E7,1.1838259E8,1.5235686E8,1.2781722E8,9.985884E8,5.69686E8,1.5654323E8,3.3847245E8,7.633728E7,3.773507E7,2.2162496E7,4.933888E7,8.504312E6,6.728051E7,6.677248E7,2.348992E7,3.6133965E8,1.1242355E8,9.1478835E8,3.1960576E8,3.864784E6,2.570099E5,3.2023245E8,2.7521632E7,1.3067469E8,9.9118694E8,6.446003E7,3.0376512E7,5.391149E7,7.107187E7,9.418272E6,0E0,0E0,0E0,0E0,0E0,0E0,0E0,0E0,0E0,0E0,0E0,0E0,0E0,0E0,0E0,0E0,0E0,0E0,0E0,0E0,0E0,0E0,0E0,0E0,0E0,0E0,0E0,0E0,0E0,0E0,0E0,0E0,0E0,0E0,0E0,0E0,0E0,0E0,0E0,0E0,0E0,0E0,0E0,0E0,0E0,0E0,0E0,0E0,0E0,0E0,0E0,0E0,0E0,0E0,0E0,0E0,0E0,0E0,0E0,0E0,0E0,0E0,0E0],"parents":[2147483647,0,0,1,1,2,2,3,3,4,4,5,5,6,6,7,7,8,8,9,9,10,10,11,11,12,12,13,13,14,14,15,15,16,16,17,17,18,18,19,19,20,20,21,21,22,22,23,23,24,24,25,25,26,26,27,27,28,28,29,29,30,30,31,31,32,32,33,33,34,34,35,35,36,36,37,37,38,38,39,39,40,40,41,41,42,42,43,43,44,44,45,45,46,46,47,47,48,48,49,49,50,50,51,51,52,52,53,53,54,54,55,55,56,56,57,57,58,58,59,59,60,60,61,61],"right_children":[2,4,6,8,10,12,14,16,18,20,22,24,26,28,30,32,34,36,38,40,42,44,46,48,50,52,54,56,58,60,62,64,66,68,70,72,74,76,78,80,82,84,86,88,90,92,94,96,98,100,102,104,106,108,110,112,114,116,118,120,122,124,-1,-1,-1,-1,-1,-1,-1,-1,-1,-1,-1,-1,-1,-1,-1,-1,-1,-1,-1,-1,-1,-1,-1,-1,-1,-1,-1,-1,-1,-1,-1,-1,-1,-1,-1,-1,-1,-1,-1,-1,-1,-1,-1,-1,-1,-1,-1,-1,-1,-1,-1,-1,-1,-1,-1,-1,-1,-1,-1,-1,-1,-1,-1],"split_conditions":[5.6949997E-1,7.5E0,1.8165E0,2.5E0,1.0242434E0,5.875E0,2.9920395E-2,2.9611254E-1,4.1174854E-4,1.75E1,9.5E0,3.5E0,3.5E0,6.5E0,2.1291733E0,2.4057071E-1,1.5E0,1.4E-1,2.45E1,1.0102041E0,7.526046E-1,5.0136614E-1,8.2E-1,5.5555556E-2,6.5E0,2.3294349E0,2.9645896E-2,3.5E0,4.5583334E0,9.6153843E-1,2.9414968E0,5.378809E-1,5.748075E-2,1.15E1,4.1941458E-1,5.5E0,1.7735974E0,2.9616926E0,5.5E-2,1.6923077E0,2.001608E0,8.5E0,1.004451E0,8.5E0,3E-1,2.2219512E0,2.993827E0,1.2000001E1,4.9792747E0,1.701894E-2,1.15E1,1.3397436E0,1.5E0,5E-1,1E-1,1.037857E0,1.03125E0,1.7519572E0,1.3152174E1,8.537188E-1,8.5E0,1.25E-1,6.313369E1,3.406303E1,1.435401E1,3.7773182E1,5.94614E1,1.14453125E1,1.9208923E1,2.7489248E1,5.1510117E1,5.365605E1,3.745023E1,6.9076256E1,1.151685E2,1.6315197E1,5.642031E1,3.398806E1,5.4778202E1,1.0653497E1,3.2209774E1,3.0271013E1,1.7545519E1,2.3039785E1,1.485656E1,2.867767E1,1.7622433E1,1.0679048E1,2.4653236E1,2.4056763E1,4.3367737E1,2.9727394E1,4.158579E1,4.5864437E1,7.869182E1,3.8149044E1,8.0333084E1,2.9475737E1,7.114725E1,1.0722224E2,6.0561848E1,2.462501E1,5.456716E1,5.4664497E1,2.082034E1,4.2548248E-1,1.0790834E1,2.4663097E2,1.3616324E2,9.400168E1,3.0842106E1,4.1336502E1,9.2234245E1,2.0599026E2,1.3338135E2,4.18289E1,7.6231804E1,1.4684557E2,1.5004194E1,3.1487867E1,7.644932E1,1.112129E2,4.0407497E1,1.8235264E1,3.820479E1],"split_indices":[51,107,51,107,101,72,32,11,32,109,109,107,107,107,32,30,107,105,30,35,32,18,72,26,107,20,32,107,9,23,32,32,58,109,30,107,30,32,51,4,44,107,66,109,58,12,3,31,16,32,49,94,3,4,37,101,42,101,3,32,107,52,0,0,0,0,0,0,0,0,0,0,0,0,0,0,0,0,0,0,0,0,0,0,0,0,0,0,0,0,0,0,0,0,0,0,0,0,0,0,0,0,0,0,0,0,0,0,0,0,0,0,0,0,0,0,0,0,0,0,0,0,0,0,0],"split_type":[0,0,0,0,0,0,0,0,0,0,0,0,0,0,0,0,0,0,0,0,0,0,0,0,0,0,0,0,0,0,0,0,0,0,0,0,0,0,0,0,0,0,0,0,0,0,0,0,0,0,0,0,0,0,0,0,0,0,0,0,0,0,0,0,0,0,0,0,0,0,0,0,0,0,0,0,0,0,0,0,0,0,0,0,0,0,0,0,0,0,0,0,0,0,0,0,0,0,0,0,0,0,0,0,0,0,0,0,0,0,0,0,0,0,0,0,0,0,0,0,0,0,0,0,0],"sum_hessian":[2.9342E4,2.6403E4,2.939E3,1.7097E4,9.306E3,2.208E3,7.31E2,6.603E3,1.0494E4,6.319E3,2.987E3,2.129E3,7.9E1,5.61E2,1.7E2,1.186E3,5.417E3,7.013E3,3.481E3,4.763E3,1.556E3,1.265E3,1.722E3,7.06E2,1.423E3,1.3E1,6.6E1,4.5E2,1.11E2,1.17E2,5.3E1,3.16E2,8.7E2,4.058E3,1.359E3,6.244E3,7.69E2,1.806E3,1.675E3,4.366E3,3.97E2,7.63E2,7.93E2,2.15E2,1.05E3,1.634E3,8.8E1,3.68E2,3.38E2,8.12E2,6.11E2,1E1,3E0,5.2E1,1.4E1,1.12E2,3.38E2,9.9E1,1.2E1,5.4E1,6.3E1,4.4E1,9E0,8.2E1,2.34E2,7.5E2,1.2E2,2.029E3,2.029E3,1.263E3,9.6E1,3.571E3,2.673E3,6.37E2,1.32E2,1.767E3,3.9E1,1.252E3,4.23E2,4.3E3,6.6E1,1.62E2,2.35E2,1.77E2,5.86E2,5.56E2,2.37E2,1.96E2,1.9E1,9.71E2,7.9E1,1.406E3,2.28E2,7.6E1,1.2E1,2.44E2,1.24E2,3.1E2,2.8E1,5.66E2,2.46E2,2.33E2,3.78E2,6E0,4E0,2E0,1E0,2.4E1,2.8E1,8E0,6E0,3E1,8.2E1,2.05E2,1.33E2,4.4E1,5.5E1,1.1E1,1E0,1.8E1,3.6E1,5.5E1,8E0,2.5E1,1.9E1],"tree_param":{"num_deleted":"0","num_feature":"110","num_nodes":"125","size_leaf_vector":"0"}},{"base_weights":[1.6816637E3,1.5020854E3,4.9688105E3,1.2501721E3,2.239285E3,9.135594E3,4.5062627E3,8.797363E2,1.5129188E3,2.5909788E3,1.5918577E3,6.744669E3,1.4446517E4,4.0581377E3,7.1879897E3,8.125493E2,2.5030117E3,1.8610765E3,1.2357235E3,1.651806E3,3.479309E3,1.02032007E3,1.9945537E3,4.727837E3,1.1936678E4,5.6018247E3,1.5388508E4,3.2177231E3,5.4038657E3,3.8283604E3,1.0031211E4,9.647488E2,5.455378E2,1.3930884E3,4.571245E3,2.3344956E3,1.2756074E3,6.120387E2,1.3992712E3,1.5606508E3,3.8322373E3,7.2933823E3,3.3055532E3,1.3113322E3,6.8888586E2,1.8428099E3,2.844909E3,1.9333615E3,6.2540757E3,1.5961464E4,2.8105786E3,3.637265E3,1.333951E3,6.4821216E3,3.4589592E3,3.087273E3,6.872665E3,7.735273E3,1.2137882E4,1.4021882E3,7.837678E2,4.9616415E2,8.30183E2,1.00343365E3,2.3308062E3,8.260271E3,4.2669287E3,1.8934156E3,2.7085234E3,1.1564862E3,2.8174592E3,5.0813977E2,1.1555961E3,1.645826E3,9.897313E2,1.0576613E3,1.8228109E3,3.1810254E3,7.093656E3,3.1468423E3,8.977401E3,3.032337E3,5.1501406E3,1.0658362E3,1.5547302E3,6.3575024E2,1.3990278E3,2.1156372E3,1.0086521E3,3.6258682E3,1.6765695E3,2.2284207E3,1.1499067E3,6.8921904E3,1.3496306E3,1.6243728E4,2.6177266E3,1.7929456E3,3.971696E3,8.2359436E2,1.7366243E3,3.780393E3,7.704732E3,2.0467017E3,3.9967126E3,2.315669E3,4.630445E3,7.148718E3,1.2279114E3,8.87645E3,3.9222468E3,1.357403E4,8.298152E3],"categories":[],"categories_nodes":[],"categories_segments":[],"categories_sizes":[],"default_left":[1,1,0,1,1,0,1,1,0,1,0,1,0,0,1,1,1,0,1,0,0,1,0,0,0,0,1,1,1,0,0,1,1,1,0,0,1,1,1,1,0,0,0,0,0,0,0,1,0,0,0,1,1,1,0,0,0,0,0,0,0,0,0,0,0,0,0,0,0,0,0,0,0,0,0,0,0,0,0,0,0,0,0,0,0,0,0,0,0,0,0,0,0,0,0,0,0,0,0,0,0,0,0,0,0,0,0,0,0,0,0,0,0],"id":6,"left_children":[1,3,5,7,9,11,13,15,17,19,21,23,25,27,29,31,33,35,37,39,41,43,45,47,-1,-1,49,51,53,55,57,59,61,63,65,67,69,71,73,75,77,79,81,83,85,87,89,91,93,95,-1,97,99,101,103,105,107,109,111,-1,-1,-1,-1,-1,-1,-1,-1,-1,-1,-1,-1,-1,-1,-1,-1,-1,-1,-1,-1,-1,-1,-1,-1,-1,-1,-1,-1,-1,-1,-1,-1,-1,-1,-1,-1,-1,-1,-1,-1,-1,-1,-1,-1,-1,-1,-1,-1,-1,-1,-1,-1,-1,-1],"loss_changes":[1.7330233E10,5.1694223E9,2.8903137E9,2.0192563E9,1.6106947E9,1.8199644E9,1.6184259E9,9.377618E8,1.1696886E9,3.8270095E9,5.731241E8,1.0535347E9,2.9705114E8,1.3137613E9,1.8242703E9,3.3580237E8,7.7872026E8,1.4884864E9,6.8908646E8,4.382423E8,1.5399055E9,9.89239E7,1.8379571E8,3.205815E8,0E0,0E0,2.5060966E8,5.697116E8,9.233746E8,1.8408691E8,4.139735E8,4.1611776E8,4.184832E7,7.950771E7,9.834726E7,4.8551117E8,4.390126E8,7.887315E7,5.3938995E8,2.8118323E8,1.6645978E8,6.8399974E8,1.1228549E9,3.1207232E7,1.7449216E7,2.8143155E8,1.946546E8,4.141328E6,1.4717798E8,1.0437018E8,0E0,3.592571E8,2.6107664E7,9.254861E8,1.1560973E8,7.858118E7,1.7712256E7,1.9580544E8,1.7962496E8,0E0,0E0,0E0,0E0,0E0,0E0,0E0,0E0,0E0,0E0,0E0,0E0,0E0,0E0,0E0,0E0,0E0,0E0,0E0,0E0,0E0,0E0,0E0,0E0,0E0,0E0,0E0,0E0,0E0,0E0,0E0,0E0,0E0,0E0,0E0,0E0,0E0,0E0,0E0,0E0,0E0,0E0,0E0,0E0,0E0,0E0,0E0,0E0,0E0,0E0,0E0,0E0,0E0,0E0],"parents":[2147483647,0,0,1,1,2,2,3,3,4,4,5,5,6,6,7,7,8,8,9,9,10,10,11,11,12,12,13,13,14,14,15,15,16,16,17,17,18,18,19,19,20,20,21,21,22,22,23,23,26,26,27,27,28,28,29,29,30,30,31,31,32,32,33,33,34,34,35,35,36,36,37,37,38,38,39,39,40,40,41,41,42,42,43,43,44,44,45,45,46,46,47,47,48,48,49,49,51,51,52,52,53,53,54,54,55,55,56,56,57,57,58,58],"right_children":[2,4,6,8,10,12,14,16,18,20,22,24,26,28,30,32,34,36,38,40,42,44,46,48,-1,-1,50,52,54,56,58,60,62,64,66,68,70,72,74,76,78,80,82,84,86,88,90,92,94,96,-1,98,100,102,104,106,108,110,112,-1,-1,-1,-1,-1,-1,-1,-1,-1,-1,-1,-1,-1,-1,-1,-1,-1,-1,-1,-1,-1,-1,-1,-1,-1,-1,-1,-1,-1,-1,-1,-1,-1,-1,-1,-1,-1,-1,-1,-1,-1,-1,-1,-1,-1,-1,-1,-1,-1,-1,-1,-1,-1,-1],"split_conditions":[1.1194999E0,6.994186E-2,8.514168E-1,8.6805556E-4,6.5E0,2.021739E0,4.5E0,4.285714E-3,1.6316527E-1,3.5E0,2E1,1.3653005E0,4.2000002E-1,2.0514998E0,4.5E0,8.5E0,1.6719472E0,1.6107124E0,1.5E0,5.5856504E0,7.124888E-1,8.5E0,4.9939575E0,1.054606E0,2.3873355E2,1.1203649E2,1.9330033E0,3.5E0,5.5E0,2.4945054E0,3.4722222E-3,3.5E0,7.57095E-1,1.1489649E0,8.4375E-1,4.4E1,4.5E0,1.5E0,8.5E0,1.5E0,4.960567E0,1.859406E0,3.4722224E-2,1.1561056E0,1.25E0,2.466E1,1.3343499E1,5.5E0,5.1702127E0,1.05E1,5.621157E1,2.5E0,4.5E0,3.5E0,1.3583332E-1,1.95E0,4.25E0,1.859375E0,5.590278E-1,2.8043764E1,1.5675356E1,9.923283E0,1.6603659E1,2.0068672E1,4.6616123E1,1.6520543E2,8.533857E1,3.7868313E1,5.4170467E1,2.3129725E1,5.6349182E1,1.0162795E1,2.3111921E1,3.291652E1,1.9794626E1,2.1153225E1,3.645622E1,6.3620506E1,1.4187311E2,6.2936844E1,1.7954802E2,6.0646736E1,1.0300281E2,2.1316723E1,3.1094604E1,1.2715005E1,2.7980556E1,4.2312744E1,2.0173042E1,7.2517365E1,3.3531387E1,4.4568413E1,2.2998135E1,1.3784381E2,2.699261E1,3.2487454E2,5.235453E1,3.585891E1,7.943392E1,1.6471888E1,3.4732483E1,7.560786E1,1.5409464E2,4.0934032E1,7.993425E1,4.6313377E1,9.2608894E1,1.4297435E2,2.4558228E1,1.77529E2,7.844493E1,2.714806E2,1.6596304E2],"split_indices":[51,51,25,101,107,20,106,105,91,107,49,30,54,51,107,107,30,101,107,80,25,107,92,101,0,0,30,106,107,101,79,106,30,30,20,31,106,106,107,106,25,30,79,30,97,38,92,107,74,87,0,107,107,107,52,11,11,25,101,0,0,0,0,0,0,0,0,0,0,0,0,0,0,0,0,0,0,0,0,0,0,0,0,0,0,0,0,0,0,0,0,0,0,0,0,0,0,0,0,0,0,0,0,0,0,0,0,0,0,0,0,0,0],"split_type":[0,0,0,0,0,0,0,0,0,0,0,0,0,0,0,0,0,0,0,0,0,0,0,0,0,0,0,0,0,0,0,0,0,0,0,0,0,0,0,0,0,0,0,0,0,0,0,0,0,0,0,0,0,0,0,0,0,0,0,0,0,0,0,0,0,0,0,0,0,0,0,0,0,0,0,0,0,0,0,0,0,0,0,0,0,0,0,0,0,0,0,0,0,0,0,0,0,0,0,0,0,0,0,0,0,0,0,0,0,0,0,0,0],"sum_hessian":[2.937E4,2.785E4,1.52E3,2.0759E4,7.091E3,1.5E2,1.37E3,8.616E3,1.2143E4,4.593E3,2.498E3,1.05E2,4.5E1,1.176E3,1.94E2,8.275E3,3.41E2,5.38E3,6.763E3,2.234E3,2.359E3,1.034E3,1.464E3,7.7E1,2.8E1,5E0,4E1,7.26E2,4.5E2,9E1,1.04E2,5.269E3,3.006E3,2.23E2,1.18E2,2.973E3,2.407E3,1.406E3,5.357E3,2.146E3,8.8E1,1.01E2,2.258E3,5.49E2,4.85E2,1.245E3,2.19E2,2.8E1,4.9E1,3.8E1,2E0,5.93E2,1.33E2,2.88E2,1.62E2,7.4E1,1.6E1,5.2E1,5.2E1,1.54E3,3.729E3,2.564E3,4.42E2,1.59E2,6.4E1,7E0,1.11E2,1.367E3,1.606E3,2.236E3,1.71E2,1.182E3,2.24E2,3.342E3,2.015E3,7.37E2,1.409E3,7.5E1,1.3E1,3E1,7.1E1,1.969E3,2.89E2,2.76E2,2.73E2,4.53E2,3.2E1,9.37E2,3.08E2,1.3E2,8.9E1,1.9E1,9E0,4.3E1,6E0,3.7E1,1E0,9.2E1,5.01E2,6E1,7.3E1,9.1E1,1.97E2,4.6E1,1.16E2,5.1E1,2.3E1,1.5E1,1E0,3.9E1,1.3E1,3.6E1,1.6E1],"tree_param":{"num_deleted":"0","num_feature":"110","num_nodes":"113","size_leaf_vector":"0"}},{"base_weights":[1.6355685E3,1.4026877E3,3.852775E3,1.2226595E3,2.0568003E3,3.3136023E3,6.3397666E3,1.0857756E3,1.6751307E3,1.9196527E3,2.9955747E3,3.097778E3,5.5712417E3,1.1129684E4,5.8017183E3,1.2920023E3,9.120823E2,1.5500242E3,2.4675244E3,1.6958462E3,2.3704277E3,7.898322E3,2.824666E3,5.6105586E3,2.9261252E3,4.4073315E3,7.849919E3,6.385567E3,1.3678346E4,5.1078296E3,8.747762E3,1.1543705E3,1.8350392E3,8.371383E2,1.7280304E3,1.4162E3,2.026816E3,1.9694199E3,3.491772E3,2.076681E3,1.4591222E3,2.2223901E3,3.1799634E3,8.764935E3,1.3740228E3,2.5185842E3,4.055096E3,9.501303E3,3.2278477E3,2.6883948E3,3.796872E3,9.646712E3,3.9529224E3,8.220675E3,2.7722505E3,8.843133E3,4.2150586E3,1.4901331E4,4.338554E3,4.6819126E3,7.7590107E3,9.959654E3,5.968274E3,1.1354276E3,3.4638071E3,1.9195863E3,1.0511223E3,7.894247E2,1.3900759E3,1.638657E3,6.1817944E3,1.7210645E3,1.3103573E3,1.842271E3,2.9186057E3,2.0456434E3,1.0466135E3,4.3528755E3,2.638066E3,2.0120515E3,4.195249E3,1.2906333E3,2.1993884E3,2.0313549E3,2.8934045E3,1.0865262E4,2.9820044E3,1.0399363E4,6.333694E3,2.4329521E3,6.633506E3,8.830705E3,3.5757021E3,7.135408E3,1.4082865E4,2.502079E3,5.043926E3,2.5564856E3,3.85653E3,3.226272E3,4.8872236E3,4.917252E3,2.2479233E3,2.8804834E3,8.64604E3,3.0912117E3,5.887224E2,2.532105E3,5.475995E3,1.2262423E3,6.004681E3,4.0018862E3,5.874156E3,6.4806006E3,1.0800717E4,4.2901777E3,1.0667578E4,4.5856743E3,7.688139E3],"categories":[],"categories_nodes":[],"categories_segments":[],"categories_sizes":[],"default_left":[1,1,0,1,1,0,0,0,1,0,0,0,0,0,0,0,1,0,0,0,0,0,0,1,0,0,0,0,1,0,0,1,0,1,1,0,0,0,1,0,0,0,0,0,0,0,0,0,0,0,0,0,0,1,0,0,1,0,0,0,0,1,0,0,0,0,0,0,0,0,0,0,0,0,0,0,0,0,0,0,0,0,0,0,0,0,0,0,0,0,0,0,0,0,0,0,0,0,0,0,0,0,0,0,0,0,0,0,0,0,0,0,0,0,0,0,0,0,0],"id":7,"left_children":[1,3,5,7,9,11,13,15,17,19,21,23,25,27,29,31,33,35,37,39,41,43,45,47,49,51,53,55,57,59,61,63,65,67,69,71,73,75,77,79,81,83,85,87,-1,89,91,93,95,97,99,-1,101,103,105,-1,107,-1,109,111,113,115,117,-1,-1,-1,-1,-1,-1,-1,-1,-1,-1,-1,-1,-1,-1,-1,-1,-1,-1,-1,-1,-1,-1,-1,-1,-1,-1,-1,-1,-1,-1,-1,-1,-1,-1,-1,-1,-1,-1,-1,-1,-1,-1,-1,-1,-1,-1,-1,-1,-1,-1,-1,-1,-1,-1,-1,-1],"loss_changes":[1.5153955E10,3.1263334E9,3.7201551E9,1.2888044E9,7.3237504E8,1.1009864E9,1.2137247E9,5.719798E8,4.7578317E8,5.0091827E8,5.885348E8,8.8807424E8,4.9318605E8,5.051223E8,8.7113114E8,5.4444954E8,5.2988928E8,2.6390323E8,3.2882355E8,2.9880115E8,1.9163034E8,1.2365363E8,2.556754E8,1.2023101E9,3.965532E8,2.8089728E8,1.0146022E8,6.4074816E7,2.8944538E8,3.758254E8,2.2350694E8,2.5141965E8,9.587456E7,2.089088E8,2.804452E8,1.0319565E8,1.4504525E8,2.9160064E7,1.458345E8,1.6695603E8,2.550958E8,1.7422592E8,3.540288E8,1.7581312E7,0E0,1.8400666E8,2.8665037E8,4.4148787E8,9.809613E7,2.2851482E8,2.4491571E8,0E0,1.9446912E8,1.1365862E8,2.3589E6,0E0,1.1599376E7,0E0,1.8564336E7,2.335017E8,1.2054349E8,1.8300672E8,3.132544E7,0E0,0E0,0E0,0E0,0E0,0E0,0E0,0E0,0E0,0E0,0E0,0E0,0E0,0E0,0E0,0E0,0E0,0E0,0E0,0E0,0E0,0E0,0E0,0E0,0E0,0E0,0E0,0E0,0E0,0E0,0E0,0E0,0E0,0E0,0E0,0E0,0E0,0E0,0E0,0E0,0E0,0E0,0E0,0E0,0E0,0E0,0E0,0E0,0E0,0E0,0E0,0E0,0E0,0E0,0E0,0E0],"parents":[2147483647,0,0,1,1,2,2,3,3,4,4,5,5,6,6,7,7,8,8,9,9,10,10,11,11,12,12,13,13,14,14,15,15,16,16,17,17,18,18,19,19,20,20,21,21,22,22,23,23,24,24,25,25,26,26,27,27,28,28,29,29,30,30,31,31,32,32,33,33,34,34,35,35,36,36,37,37,38,38,39,39,40,40,41,41,42,42,43,43,45,45,46,46,47,47,48,48,49,49,50,50,52,52,53,53,54,54,56,56,58,58,59,59,60,60,61,61,62,62],"right_children":[2,4,6,8,10,12,14,16,18,20,22,24,26,28,30,32,34,36,38,40,42,44,46,48,50,52,54,56,58,60,62,64,66,68,70,72,74,76,78,80,82,84,86,88,-1,90,92,94,96,98,100,-1,102,104,106,-1,108,-1,110,112,114,116,118,-1,-1,-1,-1,-1,-1,-1,-1,-1,-1,-1,-1,-1,-1,-1,-1,-1,-1,-1,-1,-1,-1,-1,-1,-1,-1,-1,-1,-1,-1,-1,-1,-1,-1,-1,-1,-1,-1,-1,-1,-1,-1,-1,-1,-1,-1,-1,-1,-1,-1,-1,-1,-1,-1,-1,-1],"split_conditions":[6.0150003E-1,7.596154E-2,2.1995E0,1.0643094E0,3.3847548E-2,2.1685E0,5.990566E-1,9.594816E-1,3.0793652E-2,1.0779352E0,1.2677107E-2,6.060047E-1,1.1409091E0,2.04E0,5.25E0,3.8690478E-2,1.747433E0,1.5E-1,5.0517244E0,9.486842E-1,9.166319E-1,8.5714287E-1,8.3315384E-1,1.05E1,1.515E0,8.736842E-1,8E0,8.333334E-1,1.25E1,4.5E0,1.1738095E0,1.15325674E-1,5.092592E-1,1.2E-1,7.7110763E0,8.840336E-1,2.7762127E0,4.4879127E0,1.75E1,1.8E0,1.3174307E0,2.6626017E0,5.160861E-1,4.7727275E-1,2.7480455E1,2.75E0,2.6785713E-1,4.251157E-1,1.9857142E0,1.21E0,1.2631242E0,1.9293423E2,2.459722E0,2.5E0,2.596774E0,1.7686266E2,2.15E1,2.980266E2,5E-1,1.5227273E0,2.5835E0,4.5E0,6.625E0,2.2708551E1,6.927614E1,3.8391724E1,2.1022446E1,1.5788493E1,2.7801517E1,3.277314E1,1.2363589E2,3.4421288E1,2.6207146E1,3.684542E1,5.8372112E1,4.091287E1,2.093227E1,8.705751E1,5.276132E1,4.0241028E1,8.3904976E1,2.5812666E1,4.3987766E1,4.0627098E1,5.7868088E1,2.1730524E2,5.9640087E1,2.0798726E2,1.26673874E2,4.8659042E1,1.3267012E2,1.766141E2,7.151404E1,1.4270816E2,2.816573E2,5.004158E1,1.0087852E2,5.112971E1,7.71306E1,6.452544E1,9.774447E1,9.834504E1,4.4958466E1,5.7609665E1,1.7292079E2,6.182423E1,1.1774448E1,5.0642097E1,1.095199E2,2.4524845E1,1.2009362E2,8.003772E1,1.17483116E2,1.2961201E2,2.1601433E2,8.580355E1,2.1335156E2,9.1713486E1,1.5376279E2],"split_indices":[51,51,51,19,105,55,25,11,105,16,25,25,9,53,63,13,86,37,19,11,55,9,55,108,51,25,92,91,108,67,28,105,66,34,90,11,98,95,108,35,22,77,25,14,0,50,21,25,19,52,21,0,17,108,9,0,108,0,3,16,55,108,98,0,0,0,0,0,0,0,0,0,0,0,0,0,0,0,0,0,0,0,0,0,0,0,0,0,0,0,0,0,0,0,0,0,0,0,0,0,0,0,0,0,0,0,0,0,0,0,0,0,0,0,0,0,0,0,0],"split_type":[0,0,0,0,0,0,0,0,0,0,0,0,0,0,0,0,0,0,0,0,0,0,0,0,0,0,0,0,0,0,0,0,0,0,0,0,0,0,0,0,0,0,0,0,0,0,0,0,0,0,0,0,0,0,0,0,0,0,0,0,0,0,0,0,0,0,0,0,0,0,0,0,0,0,0,0,0,0,0,0,0,0,0,0,0,0,0,0,0,0,0,0,0,0,0,0,0,0,0,0,0,0,0,0,0,0,0,0,0,0,0,0,0,0,0,0,0,0,0],"sum_hessian":[2.9358E4,2.6569E4,2.789E3,2.0837E4,5.732E3,2.294E3,4.95E2,1.6E4,4.837E3,5.004E3,7.28E2,2.096E3,1.98E2,4.8E1,4.47E2,7.312E3,8.688E3,4.18E3,6.57E2,3.347E3,1.657E3,2.3E1,7.05E2,1.32E2,1.964E3,1.33E2,6.5E1,1.8E1,3E1,3.64E2,8.3E1,5.836E3,1.476E3,7.959E3,7.29E2,3.267E3,9.13E2,4.44E2,2.13E2,1.28E3,2.067E3,1.404E3,2.53E2,2E1,3E0,5.67E2,1.38E2,4.9E1,8.3E1,1.546E3,4.18E2,9E0,1.24E2,6E1,5E0,7E0,1.1E1,2.6E1,4E0,3.16E2,4.8E1,5.6E1,2.7E1,5.79E3,4.6E1,1.331E3,1.45E2,7.329E3,6.3E2,7.16E2,1.3E1,8.38E2,2.429E3,7.59E2,1.54E2,4.09E2,3.5E1,1.04E2,1.09E2,1.244E3,3.6E1,1.686E3,3.81E2,1.096E3,3.08E2,5E0,2.48E2,1E1,1E1,5.57E2,1E1,1.1E1,1.27E2,3.4E1,1.5E1,6.1E1,2.2E1,1.392E3,1.54E2,2.77E2,1.41E2,7.8E1,4.6E1,5E0,5.5E1,4E0,1E0,6E0,5E0,2E0,2E0,2.04E2,1.12E2,3.6E1,1.2E1,7E0,4.9E1,1.7E1,1E1],"tree_param":{"num_deleted":"0","num_feature":"110","num_nodes":"119","size_leaf_vector":"0"}},{"base_weights":[1.6133007E3,1.3903833E3,4.0390667E3,1.6550059E3,9.004056E2,3.173527E3,5.483496E3,1.1654341E3,2.1669312E3,6.178237E2,1.2203566E3,2.0573347E3,3.6912856E3,5.139884E3,1.1421399E4,1.9333528E3,9.690741E2,2.5558667E3,1.3753658E3,5.195755E2,9.994382E2,1.5295875E3,7.0952716E2,2.8443542E3,1.7573209E3,4.7787476E3,2.2211848E3,4.4887183E3,7.647257E3,1.2215787E4,1.8287487E3,1.6947075E3,3.3578167E3,7.085129E2,1.3198503E3,2.9256125E3,1.6114373E3,9.115521E2,1.9045474E3,4.4194696E2,6.5498926E2,8.818079E2,1.2867822E3,1.3697079E3,1.9170739E3,5.2123505E2,1.25651E3,1.6202432E3,3.7181245E3,1.6273274E3,3.3051172E3,4.2819526E3,8.312577E3,1.279715E3,2.7612693E3,5.2163633E3,2.9056213E3,8.57446E3,3.8319998E3,1.2401512E4,1.9290837E3,2.033624E3,5.0462372E2,1.1965414E3,1.9191124E3,1.8877545E3,3.6718594E3,2.4019087E3,6.560144E2,1.122461E3,1.8470117E3,5.4219297E3,2.8012266E3,1.271711E3,2.4061838E3,8.653463E2,2.6774292E3,1.5432019E3,3.057319E3,8.097166E2,3.6925568E2,4.8673672E2,7.920053E2,9.6002936E2,6.575705E2,1.5403214E3,1.0856381E3,1.0925084E3,1.5535017E3,1.710248E3,2.5740771E3,3.0258295E2,6.760611E2,1.1194944E3,1.6686392E3,6.063267E2,2.1379275E3,2.8639827E3,4.587201E3,1.816775E3,8.124407E2,3.796526E3,1.9004635E3,7.518613E3,3.9986765E3,3.394857E3,9.505305E3,1.1323933E3,2.0712063E3,1.7781895E3,3.1069368E3,3.330334E3,6.663955E3,2.489365E3,4.4114023E3,1.3008441E4,7.5336367E3,2.2179094E3,5.4125444E3],"categories":[],"categories_nodes":[],"categories_segments":[],"categories_sizes":[],"default_left":[1,1,0,1,0,1,1,0,1,1,0,0,1,0,0,0,1,1,0,1,0,0,0,0,0,0,0,1,1,0,0,0,0,0,1,0,0,0,0,1,0,0,0,1,0,1,1,0,1,0,0,0,0,0,1,1,0,0,0,0,0,0,0,0,0,0,0,0,0,0,0,0,0,0,0,0,0,0,0,0,0,0,0,0,0,0,0,0,0,0,0,0,0,0,0,0,0,0,0,0,0,0,0,0,0,0,0,0,0,0,0,0,0,0,0,0,0,0,0],"id":8,"left_children":[1,3,5,7,9,11,13,15,17,19,21,23,25,27,29,31,33,35,37,39,41,43,45,47,49,51,53,55,57,59,61,63,65,67,69,71,73,75,77,79,81,83,85,87,89,91,93,95,97,99,101,103,105,107,109,111,113,115,117,-1,-1,-1,-1,-1,-1,-1,-1,-1,-1,-1,-1,-1,-1,-1,-1,-1,-1,-1,-1,-1,-1,-1,-1,-1,-1,-1,-1,-1,-1,-1,-1,-1,-1,-1,-1,-1,-1,-1,-1,-1,-1,-1,-1,-1,-1,-1,-1,-1,-1,-1,-1,-1,-1,-1,-1,-1,-1,-1,-1],"loss_changes":[1.5951241E10,3.502805E9,3.0868726E9,4.39543E9,8.563543E8,8.9106944E8,1.8367693E9,1.3510011E9,2.6370662E9,1.8829517E8,7.010657E8,1.1187942E8,1.6855839E9,1.4024622E9,3.5867443E8,6.1504205E8,6.522911E8,2.0031775E9,6.923725E8,4.1832064E7,3.3679616E7,1.6885504E8,1.721666E8,1.3837056E8,6.725594E7,1.03355904E9,2.2680474E8,7.923487E8,6.038958E8,6.395955E7,3.30188E5,1.7276826E8,1.1356262E8,3.631835E8,3.147771E8,1.2675154E9,4.3433395E8,1.2080794E8,5.451269E8,6.787181E7,3.322624E7,1.22432E7,1.3474144E7,9.83127E7,1.0512128E8,4.211171E7,2.23568E7,2.9147264E7,4.476288E7,5.0240704E7,1.1421856E7,4.613765E8,4.0177818E8,1.7127424E7,9.200333E7,1.2855726E9,1.287927E8,5.665587E8,8.238778E7,0E0,0E0,0E0,0E0,0E0,0E0,0E0,0E0,0E0,0E0,0E0,0E0,0E0,0E0,0E0,0E0,0E0,0E0,0E0,0E0,0E0,0E0,0E0,0E0,0E0,0E0,0E0,0E0,0E0,0E0,0E0,0E0,0E0,0E0,0E0,0E0,0E0,0E0,0E0,0E0,0E0,0E0,0E0,0E0,0E0,0E0,0E0,0E0,0E0,0E0,0E0,0E0,0E0,0E0,0E0,0E0,0E0,0E0,0E0,0E0],"parents":[2147483647,0,0,1,1,2,2,3,3,4,4,5,5,6,6,7,7,8,8,9,9,10,10,11,11,12,12,13,13,14,14,15,15,16,16,17,17,18,18,19,19,20,20,21,21,22,22,23,23,24,24,25,25,26,26,27,27,28,28,29,29,30,30,31,31,32,32,33,33,34,34,35,35,36,36,37,37,38,38,39,39,40,40,41,41,42,42,43,43,44,44,45,45,46,46,47,47,48,48,49,49,50,50,51,51,52,52,53,53,54,54,55,55,56,56,57,57,58,58],"right_children":[2,4,6,8,10,12,14,16,18,20,22,24,26,28,30,32,34,36,38,40,42,44,46,48,50,52,54,56,58,60,62,64,66,68,70,72,74,76,78,80,82,84,86,88,90,92,94,96,98,100,102,104,106,108,110,112,114,116,118,-1,-1,-1,-1,-1,-1,-1,-1,-1,-1,-1,-1,-1,-1,-1,-1,-1,-1,-1,-1,-1,-1,-1,-1,-1,-1,-1,-1,-1,-1,-1,-1,-1,-1,-1,-1,-1,-1,-1,-1,-1,-1,-1,-1,-1,-1,-1,-1,-1,-1,-1,-1,-1,-1,-1,-1,-1,-1,-1,-1],"split_conditions":[7.075E-1,7.5E0,1.5885E0,3.5E0,8.752729E-2,3.5E0,1.8471947E0,2.649123E-1,5.4899807E-4,1.85E1,2.7E1,3.229167E-1,6.5E0,3.5E0,2.1666665E0,9.722222E-1,1.5E0,6.5E0,5.4E1,1.15E1,7.526046E-1,4.690909E-2,3.2952008E0,1.0000001E1,4.948187E0,2.3333335E0,1.31106E0,5.5E0,8.866319E-2,9.1497034E-1,2.75E0,6.9351006E-1,2.6267557E0,5.535823E-1,4.4999998E-2,7.179947E-1,1.2593144E0,2.966982E0,5.9294872E-2,1.5E0,7.409241E-1,5.848529E-1,1.8669658E0,9.5E0,1.6742424E0,9.5E0,1.75E1,1.0155934E0,2.5E0,1.1927754E0,1.8939637E0,5.435262E-1,1.0638298E-1,9.6000004E-1,8.5E0,3.5E0,2.128788E0,3.2352942E-1,7.380952E-1,2.4803023E2,3.8581673E1,4.0672478E1,1.0092474E1,2.3930826E1,3.8382248E1,3.775509E1,7.343719E1,4.8038174E1,1.3120288E1,2.244922E1,3.6940235E1,1.0843859E2,5.602453E1,2.5434221E1,4.8123676E1,1.7306927E1,5.3548584E1,3.0864037E1,6.114638E1,1.6194332E1,7.3851132E0,9.734735E0,1.5840106E1,1.9200586E1,1.3151409E1,3.0806427E1,2.171276E1,2.1850168E1,3.1070034E1,3.420496E1,5.148154E1,6.0516586E0,1.3521221E1,2.2389887E1,3.3372784E1,1.2126534E1,4.275855E1,5.727965E1,9.174402E1,3.63355E1,1.6248814E1,7.593052E1,3.800927E1,1.5037225E2,7.9973526E1,6.789714E1,1.901061E2,2.2647865E1,4.1424126E1,3.556379E1,6.2138733E1,6.660668E1,1.332791E2,4.97873E1,8.822804E1,2.6016882E2,1.5067273E2,4.435819E1,1.08250885E2],"split_indices":[51,107,51,107,31,107,30,11,32,109,104,19,107,67,25,23,107,107,30,109,32,51,99,31,16,72,31,107,32,32,16,30,32,25,40,25,92,32,103,109,30,43,32,109,3,109,109,30,107,92,29,25,30,52,108,107,8,19,10,0,0,0,0,0,0,0,0,0,0,0,0,0,0,0,0,0,0,0,0,0,0,0,0,0,0,0,0,0,0,0,0,0,0,0,0,0,0,0,0,0,0,0,0,0,0,0,0,0,0,0,0,0,0,0,0,0,0,0,0],"split_type":[0,0,0,0,0,0,0,0,0,0,0,0,0,0,0,0,0,0,0,0,0,0,0,0,0,0,0,0,0,0,0,0,0,0,0,0,0,0,0,0,0,0,0,0,0,0,0,0,0,0,0,0,0,0,0,0,0,0,0,0,0,0,0,0,0,0,0,0,0,0,0,0,0,0,0,0,0,0,0,0,0,0,0,0,0,0,0,0,0,0,0,0,0,0,0,0,0,0,0,0,0,0,0,0,0,0,0,0,0,0,0,0,0,0,0,0,0,0,0],"sum_hessian":[2.9508E4,2.7026E4,2.482E3,1.7547E4,9.479E3,1.554E3,9.28E2,8.971E3,8.576E3,5.035E3,4.444E3,4.94E2,1.06E3,8.79E2,4.9E1,1.825E3,7.146E3,5.749E3,2.827E3,4.006E3,1.029E3,2.767E3,1.677E3,1.34E2,3.6E2,6.08E2,4.52E2,7E2,1.79E2,4.5E1,4E0,1.565E3,2.6E2,4.102E3,3.044E3,4.13E3,1.619E3,1.508E3,1.319E3,2.549E3,1.457E3,7.33E2,2.96E2,1.962E3,8.05E2,1.249E3,4.28E2,5.7E1,7.7E1,3.34E2,2.6E1,5.35E2,7.3E1,1.66E2,2.86E2,4.78E2,2.22E2,1.43E2,3.6E1,4.4E1,1E0,3E0,1E0,4.88E2,1.077E3,4.7E1,2.13E2,1.22E2,3.98E3,2.217E3,8.27E2,1.94E2,3.936E3,1.136E3,4.83E2,1.471E3,3.7E1,1.006E3,3.13E2,4.19E2,2.13E3,6.56E2,8.01E2,5.41E2,1.92E2,1.28E2,1.68E2,7.85E2,1.177E3,6.15E2,1.9E2,5.19E2,7.3E2,3.24E2,1.04E2,2E1,3.7E1,4.1E1,3.6E1,2.7E2,6.4E1,1.8E1,8E0,4.1E1,4.94E2,1.5E1,5.8E1,1.42E2,2.4E1,7.6E1,2.1E2,2.09E2,2.69E2,1.76E2,4.6E1,2.5E1,1.18E2,1.9E1,1.7E1],"tree_param":{"num_deleted":"0","num_feature":"110","num_nodes":"119","size_leaf_vector":"0"}},{"base_weights":[1.5774636E3,1.4352235E3,4.5749834E3,1.7190966E3,8.9334674E2,3.7595066E3,7.6725825E3,1.0376147E3,2.1380105E3,6.592212E2,1.3640996E3,7.600857E3,3.495205E3,1.3511285E4,6.74048E3,2.3846267E3,9.536778E2,2.5173064E3,1.3607753E3,4.8658252E2,8.366033E2,1.2325084E3,1.8373036E3,1.1304115E4,4.6522583E3,2.1680015E3,4.090335E3,1.5773605E4,3.3386738E3,7.6453384E3,4.0769036E3,2.1659575E3,4.2490137E3,7.0319604E2,1.4410023E3,2.337961E3,3.8648884E3,1.9477941E3,7.991545E2,7.327908E2,4.0661215E2,9.665856E2,5.675505E2,1.3354601E3,6.982798E2,2.1778115E3,1.3881083E3,3.227482E3,1.285227E4,1.9064127E3,6.687393E3,1.7055117E3,3.443059E3,5.175823E3,2.591124E3,1.2490277E3,5.116063E3,1.050793E4,6.896477E3,3.1568508E3,6.810615E3,1.9742556E3,3.1203186E3,2.4525806E3,4.6646294E3,4.8062488E2,8.2597034E2,1.335732E3,2.1403845E3,2.7047375E3,1.828443E3,8.147702E3,3.5205007E3,1.5777104E3,3.046545E3,7.588679E2,2.618108E3,6.9804156E2,1.0792605E3,5.1181958E2,3.542721E2,7.5200665E2,1.3437607E3,4.357803E2,8.035589E2,1.0340691E3,1.5997693E3,5.01592E2,1.193334E3,1.8875939E3,2.822327E3,1.5955779E3,1.01147424E3,3.6423313E3,5.7661755E2,1.3227993E4,2.1053071E3,2.205458E3,6.878033E2,8.097528E3,3.2074658E3,2.2067712E3,1.1477356E3,1.0800236E3,4.2001196E3,4.303746E3,6.72728E3,1.248429E3,3.3207285E3,6.238575E3,1.1745838E4,4.2279634E3,8.450608E3,2.2695684E3,3.986538E3,1.7918191E3,7.4449053E3],"categories":[],"categories_nodes":[],"categories_segments":[],"categories_sizes":[],"default_left":[1,1,0,1,0,0,0,0,1,0,0,0,1,1,1,1,1,1,1,1,0,0,0,0,0,0,1,0,0,0,0,0,0,1,1,1,0,0,0,0,1,0,0,0,0,1,0,0,0,1,0,0,0,0,0,0,0,1,1,0,0,0,0,0,0,0,0,0,0,0,0,0,0,0,0,0,0,0,0,0,0,0,0,0,0,0,0,0,0,0,0,0,0,0,0,0,0,0,0,0,0,0,0,0,0,0,0,0,0,0,0,0,0,0,0,0,0],"id":9,"left_children":[1,3,5,7,9,11,13,15,17,19,21,23,25,27,29,31,33,35,37,39,41,43,45,47,49,51,53,-1,55,57,59,61,63,65,67,69,71,73,75,77,79,81,83,85,87,89,91,93,95,97,99,101,103,105,107,-1,-1,109,111,113,115,-1,-1,-1,-1,-1,-1,-1,-1,-1,-1,-1,-1,-1,-1,-1,-1,-1,-1,-1,-1,-1,-1,-1,-1,-1,-1,-1,-1,-1,-1,-1,-1,-1,-1,-1,-1,-1,-1,-1,-1,-1,-1,-1,-1,-1,-1,-1,-1,-1,-1,-1,-1,-1,-1,-1,-1],"loss_changes":[1.2505604E10,4.308308E9,3.3282376E9,5.24637E9,1.0609152E9,1.0435328E9,1.4109921E9,7.892874E8,3.3528955E9,1.9668275E8,1.9693517E8,6.790121E8,7.715123E8,7.988444E8,5.472696E8,1.5794714E8,8.0364544E8,1.8398372E9,1.2301348E9,6.396813E7,1.1041766E8,1.3689702E8,1.031273E8,3.2113178E8,2.051895E8,1.7575578E8,1.0948321E9,0E0,2.3322816E7,3.091077E8,1.3695488E8,6.134925E7,1.9917888E7,1.1863526E8,1.6183808E8,1.2572385E9,1.2943452E9,7.376993E8,1.380503E8,8.866208E6,1.3397888E7,1.7202611E8,3.1868256E7,1.6563277E8,3.903147E7,6.818304E7,2.1984384E7,4.498024E6,6.90601E7,5.042628E6,8.198509E7,6.1213824E7,1.4036966E8,5.0412544E8,2.779895E8,0E0,0E0,1.1170022E8,5.6147046E8,2.7024448E7,3.441075E7,0E0,0E0,0E0,0E0,0E0,0E0,0E0,0E0,0E0,0E0,0E0,0E0,0E0,0E0,0E0,0E0,0E0,0E0,0E0,0E0,0E0,0E0,0E0,0E0,0E0,0E0,0E0,0E0,0E0,0E0,0E0,0E0,0E0,0E0,0E0,0E0,0E0,0E0,0E0,0E0,0E0,0E0,0E0,0E0,0E0,0E0,0E0,0E0,0E0,0E0,0E0,0E0,0E0,0E0,0E0,0E0],"parents":[2147483647,0,0,1,1,2,2,3,3,4,4,5,5,6,6,7,7,8,8,9,9,10,10,11,11,12,12,13,13,14,14,15,15,16,16,17,17,18,18,19,19,20,20,21,21,22,22,23,23,24,24,25,25,26,26,28,28,29,29,30,30,31,31,32,32,33,33,34,34,35,35,36,36,37,37,38,38,39,39,40,40,41,41,42,42,43,43,44,44,45,45,46,46,47,47,48,48,49,49,50,50,51,51,52,52,53,53,54,54,57,57,58,58,59,59,60,60],"right_children":[2,4,6,8,10,12,14,16,18,20,22,24,26,28,30,32,34,36,38,40,42,44,46,48,50,52,54,-1,56,58,60,62,64,66,68,70,72,74,76,78,80,82,84,86,88,90,92,94,96,98,100,102,104,106,108,-1,-1,110,112,114,116,-1,-1,-1,-1,-1,-1,-1,-1,-1,-1,-1,-1,-1,-1,-1,-1,-1,-1,-1,-1,-1,-1,-1,-1,-1,-1,-1,-1,-1,-1,-1,-1,-1,-1,-1,-1,-1,-1,-1,-1,-1,-1,-1,-1,-1,-1,-1,-1,-1,-1,-1,-1,-1,-1,-1,-1],"split_conditions":[1.3895E0,7.5E0,3.54E0,2.5E0,1.0092621E0,5.488721E-1,6.053459E-1,6.1492574E-1,5.4899807E-4,1.5507293E0,1.0809836E0,9.583334E-1,3.5E0,1.05E1,5.5E0,2.65E1,1.5E0,9.0282135E-2,3.5E0,8.5E0,4.4340004E1,9.585E0,1.725E0,8.3333336E-2,2.470002E-1,2.1464648E0,6.5E0,3.154721E2,1.0681818E0,4.24101E-2,4.5E0,1.0714285E0,2.453393E-1,1.5E0,4.5E0,5.5E0,7.112781E-1,2.3809524E-2,2.9674625E0,1.5E-2,9.5E0,4.5454547E-2,1.3950777E0,5.409357E-2,1.4974218E1,1.25E1,2.1785715E0,2.4875621E-3,2.5E0,6E0,5E-1,1.875E-1,8.9348996E-1,5E-1,8.6607146E-1,2.4980555E1,1.0232126E2,4.5E0,1.35E1,2.5E0,5E-1,3.948511E1,6.2406372E1,4.905161E1,9.329259E1,9.612497E0,1.6519407E1,2.671464E1,4.280769E1,5.409475E1,3.656886E1,1.6295404E2,7.041001E1,3.1554209E1,6.0930897E1,1.5177358E1,5.2362156E1,1.3960831E1,2.1585209E1,1.0236391E1,7.0854416E0,1.50401325E1,2.6875214E1,8.715606E0,1.6071178E1,2.0681381E1,3.1995384E1,1.003184E1,2.3866678E1,3.7751877E1,5.6446537E1,3.1911556E1,2.0229485E1,7.284663E1,1.1532351E1,2.6455984E2,4.210614E1,4.4109158E1,1.3756065E1,1.6195055E2,6.4149315E1,4.4135426E1,2.2954712E1,2.1600471E1,8.400239E1,8.607492E1,1.345456E2,2.4968578E1,6.6414566E1,1.247715E2,2.3491675E2,8.4559265E1,1.6901216E2,4.5391365E1,7.973076E1,3.583638E1,1.488981E2],"split_indices":[54,107,53,107,101,25,25,25,32,32,96,14,107,108,107,108,107,105,106,107,38,38,88,21,25,25,107,0,10,32,67,90,25,106,106,107,25,103,32,54,107,97,5,14,99,108,98,4,5,107,94,26,32,46,13,0,0,107,108,62,19,0,0,0,0,0,0,0,0,0,0,0,0,0,0,0,0,0,0,0,0,0,0,0,0,0,0,0,0,0,0,0,0,0,0,0,0,0,0,0,0,0,0,0,0,0,0,0,0,0,0,0,0,0,0,0,0],"split_type":[0,0,0,0,0,0,0,0,0,0,0,0,0,0,0,0,0,0,0,0,0,0,0,0,0,0,0,0,0,0,0,0,0,0,0,0,0,0,0,0,0,0,0,0,0,0,0,0,0,0,0,0,0,0,0,0,0,0,0,0,0,0,0,0,0,0,0,0,0,0,0,0,0,0,0,0,0,0,0,0,0,0,0,0,0,0,0,0,0,0,0,0,0,0,0,0,0,0,0,0,0,0,0,0,0,0,0,0,0,0,0,0,0,0,0,0,0],"sum_hessian":[2.9345E4,2.8017E4,1.328E3,1.8384E4,9.633E3,1.053E3,2.75E2,7E3,1.1384E4,6.435E3,3.198E3,6.6E1,9.87E2,3.6E1,2.39E2,4.09E2,6.591E3,7.649E3,3.735E3,3.263E3,3.172E3,2.505E3,6.93E2,2.8E1,3.8E1,3.07E2,6.8E2,2.9E1,7E0,1.77E2,6.2E1,3.68E2,4.1E1,4.355E3,2.236E3,6.753E3,8.96E2,1.825E3,1.91E3,7.98E2,2.465E3,2.137E3,1.035E3,2.099E3,4.06E2,3.92E2,3.01E2,5E0,2.3E1,1.7E1,2.1E1,2.27E2,8E1,3.93E2,2.87E2,4E0,3E0,3.4E1,1.43E2,4.8E1,1.4E1,3.09E2,5.9E1,9E0,3.2E1,1.55E3,2.805E3,1.946E3,2.9E2,3.924E3,2.829E3,6.5E1,8.31E2,1.367E3,4.58E2,1.87E3,4E1,7.28E2,7E1,8.16E2,1.649E3,1.364E3,7.73E2,6.66E2,3.69E2,9.83E2,1.116E3,2.92E2,1.14E2,2.73E2,1.19E2,1.92E2,1.09E2,4E0,1E0,2.2E1,1E0,1.3E1,4E0,1.4E1,7E0,1.18E2,1.09E2,2E1,6E1,2.54E2,1.39E2,1.02E2,1.85E2,9E0,2.5E1,5.4E1,8.9E1,2.5E1,2.3E1,2E0,1.2E1],"tree_param":{"num_deleted":"0","num_feature":"110","num_nodes":"117","size_leaf_vector":"0"}},{"base_weights":[1.5437898E3,1.3755393E3,3.107001E3,1.1602322E3,2.0655957E3,1.8973917E3,3.8062917E3,8.108888E2,1.4576317E3,2.397023E3,1.4244635E3,3.9639702E3,1.6883218E3,5.442233E3,1.9795037E3,7.315253E2,2.535023E3,1.3749656E3,3.1310378E3,5.2088257E3,2.2779229E3,1.117366E3,1.7126393E3,2.6679685E3,4.767075E3,1.573485E3,4.962242E3,1.0379044E4,4.9309473E3,9.0032904E2,2.7696633E3,6.371191E2,1.2903026E3,1.3562324E3,4.5139233E3,2.1937695E3,1.2508405E3,1.8966562E3,3.6956484E3,4.480782E3,1.1067367E4,2.158354E3,4.631477E3,1.2757281E3,5.833479E2,1.9353513E3,1.3964795E3,2.0249695E3,3.0727876E3,6.2006533E3,3.7187595E3,1.2490134E3,2.4519697E3,2.3637656E3,6.615739E3,3.3243564E3,1.1764124E4,3.9223535E3,6.355652E3,7.488911E2,1.6730599E3,2.3183174E3,3.6859055E3,7.4017554E2,4.923681E2,1.4149257E3,7.759365E2,7.4455304E2,1.8708417E3,7.064218E3,4.031704E3,1.6725795E3,3.3023857E3,8.446545E2,1.4213066E3,1.7557185E3,6.0273325E3,5.5926997E3,2.551025E3,5.8949385E3,2.647193E3,3.5167444E3,1.4549617E4,1.2903081E3,2.4068936E3,1.1579837E4,4.346611E3,7.041351E2,1.3781711E3,4.8505313E2,2.2775364E3,1.7147277E3,2.4172585E3,1.1990367E3,1.9462631E3,3.1438628E3,7.9010205E2,3.8133687E3,1.4069358E3,1.1796365E3,4.241458E3,3.6849104E3,2.154432E3,2.7688691E3,6.5879E2,7.1194316E3,1.556232E3,5.083605E2,6.0768076E3,9.680313E3,1.5032968E4,3.5915732E3,5.4753003E3,5.5887524E3,8.313279E3,6.4295184E2,1.2680576E3,7.8112354E2,2.1104343E3,2.865014E3,1.9834578E3,3.061703E3,5.396444E3],"categories":[],"categories_nodes":[],"categories_segments":[],"categories_sizes":[],"default_left":[1,1,1,1,1,0,1,1,1,0,0,0,1,0,0,1,1,0,1,0,0,0,0,0,0,0,0,0,0,0,0,1,1,0,0,1,1,1,1,0,0,1,0,0,0,0,1,0,0,0,0,0,0,0,0,0,0,0,0,0,0,1,0,0,0,0,0,0,0,0,0,0,0,0,0,0,0,0,0,0,0,0,0,0,0,0,0,0,0,0,0,0,0,0,0,0,0,0,0,0,0,0,0,0,0,0,0,0,0,0,0,0,0,0,0,0,0,0,0,0,0,0,0],"id":10,"left_children":[1,3,5,7,9,11,13,15,17,19,21,23,25,27,29,31,33,35,37,39,41,43,45,47,49,51,53,55,57,59,61,63,65,67,69,71,73,75,77,79,81,83,85,87,89,91,93,-1,95,-1,97,99,101,103,105,107,109,111,113,115,117,119,121,-1,-1,-1,-1,-1,-1,-1,-1,-1,-1,-1,-1,-1,-1,-1,-1,-1,-1,-1,-1,-1,-1,-1,-1,-1,-1,-1,-1,-1,-1,-1,-1,-1,-1,-1,-1,-1,-1,-1,-1,-1,-1,-1,-1,-1,-1,-1,-1,-1,-1,-1,-1,-1,-1,-1,-1,-1,-1,-1,-1],"loss_changes":[7.7632225E9,3.9593329E9,2.4195727E9,2.1105766E9,1.3437624E9,4.4826624E8,5.4193644E9,1.2773996E9,1.514326E9,1.3872906E9,1.8950758E8,8.72009E7,3.5236813E8,2.3669268E9,7.308457E8,4.707292E8,9.526213E8,1.06065306E9,3.526144E8,6.712402E8,1.118464E9,8.805261E7,7.573709E7,3.929312E6,6.410611E7,2.6117248E8,1.2185222E8,8.3053875E8,1.225218E9,4.145968E7,1.965719E8,1.1373952E8,8.16576E7,8.013402E7,1.5967872E8,7.895291E8,6.280622E8,8.489331E7,7.522401E8,3.7852826E8,4.2210995E8,8.206049E8,3.3168256E8,4.640115E7,3.9195496E7,6.506957E7,4.8033856E7,0E0,1.085376E6,0E0,2.508736E6,1.3596147E8,8.340582E7,7.845584E6,3.7340864E7,1.2092506E8,3.585372E8,2.4334131E8,4.9250714E8,1.6069744E7,2.1368E7,5.564467E7,1.5644877E8,0E0,0E0,0E0,0E0,0E0,0E0,0E0,0E0,0E0,0E0,0E0,0E0,0E0,0E0,0E0,0E0,0E0,0E0,0E0,0E0,0E0,0E0,0E0,0E0,0E0,0E0,0E0,0E0,0E0,0E0,0E0,0E0,0E0,0E0,0E0,0E0,0E0,0E0,0E0,0E0,0E0,0E0,0E0,0E0,0E0,0E0,0E0,0E0,0E0,0E0,0E0,0E0,0E0,0E0,0E0,0E0,0E0,0E0,0E0,0E0],"parents":[2147483647,0,0,1,1,2,2,3,3,4,4,5,5,6,6,7,7,8,8,9,9,10,10,11,11,12,12,13,13,14,14,15,15,16,16,17,17,18,18,19,19,20,20,21,21,22,22,23,23,24,24,25,25,26,26,27,27,28,28,29,29,30,30,31,31,32,32,33,33,34,34,35,35,36,36,37,37,38,38,39,39,40,40,41,41,42,42,43,43,44,44,45,45,46,46,48,48,50,50,51,51,52,52,53,53,54,54,55,55,56,56,57,57,58,58,59,59,60,60,61,61,62,62],"right_children":[2,4,6,8,10,12,14,16,18,20,22,24,26,28,30,32,34,36,38,40,42,44,46,48,50,52,54,56,58,60,62,64,66,68,70,72,74,76,78,80,82,84,86,88,90,92,94,-1,96,-1,98,100,102,104,106,108,110,112,114,116,118,120,122,-1,-1,-1,-1,-1,-1,-1,-1,-1,-1,-1,-1,-1,-1,-1,-1,-1,-1,-1,-1,-1,-1,-1,-1,-1,-1,-1,-1,-1,-1,-1,-1,-1,-1,-1,-1,-1,-1,-1,-1,-1,-1,-1,-1,-1,-1,-1,-1,-1,-1,-1,-1,-1,-1,-1,-1,-1,-1,-1,-1],"split_conditions":[6.1902404E-1,1.0061128E0,3.5E0,1.496558E-3,6.5E0,7.07308E-1,6.5E0,9.090909E-3,9.1633296E-1,6.780503E-1,1.0141988E0,2.602776E-1,7.8963413E0,7.028302E-1,1.18894E0,5.633013E-1,1.6686468E0,2E1,3.5E0,1.4642857E0,1.8315E0,4.0780783E0,2.4574313E0,4.3251306E-2,3.1469053E-1,1.1055555E0,2.7289157E0,1.8759077E0,5E-1,1.8767123E0,1.5458715E0,8.5E0,6.5E0,9.267677E-1,1.1764706E-1,4.5E0,1.5E0,6.314758E0,5.5E0,8.3333336E-2,1.3693241E0,2.5E0,1.0606296E0,5.356436E-1,1.2E0,4.600419E0,5E-2,4.049939E1,1.5E0,1.2401306E2,1.25E0,6.5E0,1.5625E-2,1.0277778E0,3.5E0,2E0,2.1666665E0,1.3541667E-1,1.1264999E0,9.6153843E-1,9.666667E-1,8.5E0,1.4846939E0,1.4803511E1,9.847362E0,2.8298513E1,1.551873E1,1.4891061E1,3.7416832E1,1.4128435E2,8.063408E1,3.3451588E1,6.6047714E1,1.689309E1,2.8426132E1,3.511437E1,1.20546646E2,1.1185399E2,5.1020496E1,1.17898766E2,5.2943863E1,7.0334885E1,2.9099234E2,2.5806162E1,4.813787E1,2.3159674E2,8.693221E1,1.4082701E1,2.7563423E1,9.701062E0,4.5550728E1,3.429455E1,4.834517E1,2.3980734E1,3.892526E1,6.2877254E1,1.5802041E1,7.626737E1,2.8138716E1,2.359273E1,8.4829155E1,7.3698204E1,4.308864E1,5.537738E1,1.3175799E1,1.4238863E2,3.112464E1,1.016721E1,1.2153615E2,1.9360626E2,3.0065936E2,7.183147E1,1.09506004E2,1.1177505E2,1.6626558E2,1.2859036E1,2.5361153E1,1.562247E1,4.2208687E1,5.7300278E1,3.9669155E1,6.1234055E1,1.0792887E2],"split_indices":[58,15,107,101,107,25,107,105,52,25,102,25,25,25,31,15,30,30,107,65,52,94,21,25,25,15,80,30,68,15,29,107,107,30,25,107,107,25,107,10,101,107,15,30,44,80,40,0,8,0,15,80,19,81,21,19,15,79,52,44,62,107,50,0,0,0,0,0,0,0,0,0,0,0,0,0,0,0,0,0,0,0,0,0,0,0,0,0,0,0,0,0,0,0,0,0,0,0,0,0,0,0,0,0,0,0,0,0,0,0,0,0,0,0,0,0,0,0,0,0,0,0,0],"split_type":[0,0,0,0,0,0,0,0,0,0,0,0,0,0,0,0,0,0,0,0,0,0,0,0,0,0,0,0,0,0,0,0,0,0,0,0,0,0,0,0,0,0,0,0,0,0,0,0,0,0,0,0,0,0,0,0,0,0,0,0,0,0,0,0,0,0,0,0,0,0,0,0,0,0,0,0,0,0,0,0,0,0,0,0,0,0,0,0,0,0,0,0,0,0,0,0,0,0,0,0,0,0,0,0,0,0,0,0,0,0,0,0,0,0,0,0,0,0,0,0,0,0,0],"sum_hessian":[2.9532E4,2.6664E4,2.868E3,2.0325E4,6.339E3,1.052E3,1.816E3,9.348E3,1.0977E4,4.177E3,2.162E3,9.5E1,9.57E2,9.57E2,8.59E2,8.938E3,4.1E2,1.0462E4,5.15E2,1.68E2,4.009E3,1.049E3,1.113E3,3.8E1,5.7E1,9.26E2,3.1E1,8.8E1,8.69E2,3.64E2,4.95E2,7.648E3,1.29E3,2.58E2,1.52E2,1.375E3,9.087E3,1.63E2,3.52E2,1.51E2,1.7E1,3.817E3,1.92E2,8.08E2,2.41E2,6.5E2,4.63E2,1.7E1,2.1E1,2.2E1,3.5E1,6.78E2,2.48E2,1.3E1,1.8E1,1.5E1,7.3E1,5.11E2,3.58E2,3.06E2,5.8E1,3.34E2,1.61E2,4.465E3,3.183E3,1.037E3,2.53E2,1.19E2,1.39E2,2.2E1,1.3E2,9.37E2,4.38E2,2.688E3,6.399E3,1.59E2,4E0,1.31E2,2.21E2,8.4E1,6.7E1,6E0,1.1E1,8.51E2,2.966E3,6E0,1.86E2,1.24E2,6.84E2,2.29E2,1.2E1,4.49E2,2.01E2,3.43E2,1.2E2,2E1,1E0,3.3E1,2E0,6.64E2,1.4E1,4.6E1,2.02E2,1E1,3E0,1.6E1,2E0,8E0,7E0,4.7E1,2.6E1,4.24E2,8.7E1,2.6E2,9.8E1,2.56E2,5E1,2E1,3.8E1,1.24E2,2.1E2,1.2E2,4.1E1],"tree_param":{"num_deleted":"0","num_feature":"110","num_nodes":"123","size_leaf_vector":"0"}},{"base_weights":[1.5107205E3,1.2638259E3,3.385859E3,1.0884957E3,1.8503672E3,2.6530745E3,4.879584E3,1.01935364E3,2.2064946E3,2.3406746E3,1.7124395E3,2.4034556E3,4.10946E3,4.604785E3,9.874489E3,9.2963574E2,1.4787953E3,1.7283903E3,4.500408E3,1.7745421E3,3.0572532E3,1.5088281E3,2.1378853E3,2.0189342E3,2.998044E3,3.8738584E3,9.665264E3,4.137196E3,6.8536934E3,5.4902563E3,1.101904E4,1.1078845E3,7.826038E2,1.4110265E3,2.8159385E3,1.6648978E3,5.4061035E3,5.0709824E3,2.2859492E3,1.7267266E3,7.3122935E3,3.5057754E3,2.385775E3,1.3489285E3,2.0045922E3,2.1071152E3,4.2265986E3,1.9039866E3,4.0980703E3,4.0982817E3,2.801197E3,3.204293E3,5.046835E3,1.1745693E4,2.0478752E3,2.9856238E3,4.652693E3,9.672406E3,6.1217515E3,7.743272E3,1.1956904E3,2.0324484E3,1.1389755E4,9.3485315E2,1.7087944E3,7.1754913E2,1.3251215E3,1.3276979E3,2.2876382E3,4.1857183E3,2.3546284E3,1.4564762E3,2.1848074E3,1.1020164E3,6.7489644E3,8.0709346E3,4.2813774E3,1.8937527E3,4.388869E3,1.9883785E3,1.0712334E3,1.938916E3,9.514254E3,2.8526501E3,4.260723E3,1.0430403E3,2.893038E3,1.2935742E3,2.3644907E3,1.7436744E3,2.6351248E3,2.0303201E3,2.9045723E3,4.8122046E3,1.9605493E3,1.7954968E3,3.2281353E3,6.269621E3,1.9997489E3,2.7513274E3,6.2896626E3,3.04438E3,2.3292097E3,2.9357246E3,5.2485547E3,7.6920996E3,4.3459E3,2.142457E3,4.44204E3,7.6788735E3,4.3644116E3,1.2798384E4,6.531704E3,5.3087476E3,8.503632E3,8.323378E3,1.5512128E3,4.708475E2,1.4404E3,1.1551041E4,2.307874E3],"categories":[],"categories_nodes":[],"categories_segments":[],"categories_sizes":[],"default_left":[1,1,0,1,0,0,1,1,1,0,0,0,1,0,0,0,1,0,0,0,0,0,0,1,0,0,0,0,0,0,1,0,1,0,0,1,1,1,0,0,0,0,0,0,0,0,0,0,0,0,0,0,0,0,0,0,0,0,0,0,0,0,0,0,0,0,0,0,0,0,0,0,0,0,0,0,0,0,0,0,0,0,0,0,0,0,0,0,0,0,0,0,0,0,0,0,0,0,0,0,0,0,0,0,0,0,0,0,0,0,0,0,0,0,0,0,0,0,0,0,0],"id":11,"left_children":[1,3,5,7,9,11,13,15,17,19,21,23,25,27,29,31,33,35,37,39,41,43,45,47,49,51,53,55,57,59,61,63,65,67,69,71,73,75,77,79,81,83,85,87,89,91,93,95,97,99,101,103,105,-1,-1,107,109,111,113,115,117,-1,119,-1,-1,-1,-1,-1,-1,-1,-1,-1,-1,-1,-1,-1,-1,-1,-1,-1,-1,-1,-1,-1,-1,-1,-1,-1,-1,-1,-1,-1,-1,-1,-1,-1,-1,-1,-1,-1,-1,-1,-1,-1,-1,-1,-1,-1,-1,-1,-1,-1,-1,-1,-1,-1,-1,-1,-1,-1,-1],"loss_changes":[1.3662335E10,2.6807296E9,3.7458412E9,1.5504118E9,4.0188928E8,8.284498E8,1.5041864E9,7.784284E8,1.2742989E9,5.28042E8,4.0287437E8,4.4458086E8,4.023675E8,1.098924E9,2.305454E8,4.1400934E8,2.759419E8,2.1726771E8,2.4237389E8,1.8252467E8,1.6601549E8,2.4890726E8,8.846234E7,2.7898778E8,1.5571814E8,2.38293E8,1.8196288E8,5.144412E8,3.1834112E8,1.2620154E8,1.2676659E8,7.42145E8,3.0532454E8,2.1186662E8,8.366426E7,1.0019379E8,8.503917E7,3.4208077E8,2.7153168E7,1.2341606E8,5.2544416E7,1.579566E8,1.570455E8,1.3202739E8,1.2241203E8,8.565811E7,1.8432672E7,1.5782886E8,2.6997222E8,3.221394E8,6.843341E7,9.933786E7,1.8165325E8,0E0,0E0,3.318674E8,5.0126234E8,2.6984448E8,2.4145562E8,1.9417152E7,3.86048E5,0E0,3.6327424E7,0E0,0E0,0E0,0E0,0E0,0E0,0E0,0E0,0E0,0E0,0E0,0E0,0E0,0E0,0E0,0E0,0E0,0E0,0E0,0E0,0E0,0E0,0E0,0E0,0E0,0E0,0E0,0E0,0E0,0E0,0E0,0E0,0E0,0E0,0E0,0E0,0E0,0E0,0E0,0E0,0E0,0E0,0E0,0E0,0E0,0E0,0E0,0E0,0E0,0E0,0E0,0E0,0E0,0E0,0E0,0E0,0E0,0E0],"parents":[2147483647,0,0,1,1,2,2,3,3,4,4,5,5,6,6,7,7,8,8,9,9,10,10,11,11,12,12,13,13,14,14,15,15,16,16,17,17,18,18,19,19,20,20,21,21,22,22,23,23,24,24,25,25,26,26,27,27,28,28,29,29,30,30,31,31,32,32,33,33,34,34,35,35,36,36,37,37,38,38,39,39,40,40,41,41,42,42,43,43,44,44,45,45,46,46,47,47,48,48,49,49,50,50,51,51,52,52,55,55,56,56,57,57,58,58,59,59,60,60,62,62],"right_children":[2,4,6,8,10,12,14,16,18,20,22,24,26,28,30,32,34,36,38,40,42,44,46,48,50,52,54,56,58,60,62,64,66,68,70,72,74,76,78,80,82,84,86,88,90,92,94,96,98,100,102,104,106,-1,-1,108,110,112,114,116,118,-1,120,-1,-1,-1,-1,-1,-1,-1,-1,-1,-1,-1,-1,-1,-1,-1,-1,-1,-1,-1,-1,-1,-1,-1,-1,-1,-1,-1,-1,-1,-1,-1,-1,-1,-1,-1,-1,-1,-1,-1,-1,-1,-1,-1,-1,-1,-1,-1,-1,-1,-1,-1,-1,-1,-1,-1,-1,-1,-1],"split_conditions":[4.855E-1,1.0061128E0,1.4245E0,4.173314E-2,9.6309745E-1,1.1685E0,1.8135314E0,6.994186E-2,1.6887789E0,2.000001E0,6.8773806E-2,1.0392308E0,1.6267006E0,3.5E0,2.5E-1,9.8173E-1,1.5544808E0,4.8658533E0,1.9825082E0,7.5E0,1.9842105E0,2.203125E0,3.9585E0,1.25E0,2.2727273E-2,1.1774476E0,5E-1,5E-1,9.4613826E-1,2.6020408E0,4.5E0,1.5E0,1.4930308E0,2.0941308E0,4.166667E-1,1.9065218E0,1.65E1,1.05E1,5.25E0,2.2275177E-1,1.3578432E0,9.75E-1,2.0163934E0,5.991803E0,2.993827E0,9.932432E-1,5.076389E0,2.1326532E0,1.9729373E0,2.3757765E-1,2.5355392E0,3.0945945E0,5.12766E-1,2.3491386E2,4.0957504E1,7.9583335E-1,7.916666E-1,7.5E-1,1.71E0,3E0,5E-1,4.0648968E1,1E1,1.8697063E1,3.4175888E1,1.4350983E1,2.6502428E1,2.6553957E1,4.575276E1,8.371436E1,4.7092567E1,2.9129522E1,4.3696148E1,2.2040327E1,1.3497928E2,1.6141869E2,8.562755E1,3.7875053E1,8.777738E1,3.976757E1,2.1424667E1,3.877832E1,1.9028508E2,5.7053E1,8.521446E1,2.0860806E1,5.786076E1,2.5871483E1,4.7289814E1,3.487349E1,5.2702496E1,4.06064E1,5.8091442E1,9.624409E1,3.9210987E1,3.5909935E1,6.4562706E1,1.2539242E2,3.9994976E1,5.5026546E1,1.2579325E2,6.0887596E1,4.6584194E1,5.871449E1,1.0497109E2,1.53842E2,8.6918E1,4.284914E1,8.88408E1,1.5357747E2,8.728823E1,2.5596767E2,1.3063408E2,1.0617495E2,1.7007263E2,1.6646756E2,3.1024254E1,9.41695E0,2.8808E1,2.3102081E2,4.615748E1],"split_indices":[51,15,51,105,11,55,30,51,30,43,51,15,30,67,65,11,52,72,30,70,23,93,55,105,19,23,8,31,14,30,108,43,86,13,103,19,108,108,94,43,15,23,23,89,13,50,17,77,30,22,17,19,19,0,0,10,14,50,55,2,4,0,2,0,0,0,0,0,0,0,0,0,0,0,0,0,0,0,0,0,0,0,0,0,0,0,0,0,0,0,0,0,0,0,0,0,0,0,0,0,0,0,0,0,0,0,0,0,0,0,0,0,0,0,0,0,0,0,0,0,0],"split_type":[0,0,0,0,0,0,0,0,0,0,0,0,0,0,0,0,0,0,0,0,0,0,0,0,0,0,0,0,0,0,0,0,0,0,0,0,0,0,0,0,0,0,0,0,0,0,0,0,0,0,0,0,0,0,0,0,0,0,0,0,0,0,0,0,0,0,0,0,0,0,0,0,0,0,0,0,0,0,0,0,0,0,0,0,0,0,0,0,0,0,0,0,0,0,0,0,0,0,0,0,0,0,0,0,0,0,0,0,0,0,0,0,0,0,0,0,0,0,0,0,0],"sum_hessian":[2.9519E4,2.6086E4,3.433E3,2.0085E4,6.001E3,2.305E3,1.128E3,1.8917E4,1.168E3,1.314E3,4.687E3,1.97E3,3.35E2,1.071E3,5.7E1,1.5829E4,3.088E3,9.68E2,2E2,7.36E2,5.78E2,3.173E3,1.514E3,1.199E3,7.71E2,3.23E2,1.2E1,8.89E2,1.82E2,1.3E1,4.4E1,7.152E3,8.677E3,2.941E3,1.47E2,9.53E2,1.5E1,1.58E2,4.2E1,7.31E2,5E0,3.44E2,2.34E2,2.402E3,7.71E2,1.494E3,2E1,1.138E3,6.1E1,1.14E2,6.57E2,2.08E2,1.15E2,9E0,3E0,2.77E2,6.12E2,3.5E1,1.47E2,8E0,5E0,2E0,4.2E1,5.555E3,1.597E3,7.75E3,9.27E2,2.688E3,2.53E2,3.5E1,1.12E2,6.83E2,2.7E2,4E0,1.1E1,3.1E1,1.27E2,3.7E1,5E0,5.21E2,2.1E2,2E0,3E0,1.87E2,1.57E2,6.5E1,1.69E2,2.28E3,1.22E2,5.48E2,2.23E2,1.366E3,1.28E2,1.5E1,5E0,1.054E3,8.4E1,2.9E1,3.2E1,7.2E1,4.2E1,4.3E2,2.27E2,1.86E2,2.2E1,2.2E1,9.3E1,1.77E2,1E2,5.1E1,5.61E2,1.6E1,1.9E1,1.12E2,3.5E1,7E0,1E0,2E0,3E0,4.1E1,1E0],"tree_param":{"num_deleted":"0","num_feature":"110","num_nodes":"121","size_leaf_vector":"0"}},{"base_weights":[1.4915068E3,1.3543418E3,4.9684146E3,1.1038414E3,2.0595627E3,8.8069E3,4.4845713E3,7.570604E2,1.345707E3,2.3865881E3,1.4396296E3,1.1010547E4,4.8309214E3,2.6561235E3,5.1019736E3,6.963127E2,2.2614414E3,1.6640211E3,1.0486625E3,1.500777E3,3.2125835E3,8.8442E2,1.8119663E3,2.9814543E3,1.2000267E4,1.5382529E3,5.947797E3,1.9623223E3,3.890871E3,6.616293E3,3.1598975E3,5.786174E2,1.2608273E3,9.1899994E2,3.2304714E3,2.127785E3,1.1556975E3,8.34107E2,1.4534695E3,9.4450836E2,1.7825942E3,7.064239E3,3.0249253E3,1.1134923E3,6.277743E2,1.5616194E3,2.2378047E3,1.2473644E4,1.071138E3,8.4429895E2,1.8664369E3,3.818208E3,6.5617207E3,2.5585645E3,1.2721249E3,9.65645E2,4.164483E3,3.8747292E3,7.426654E3,2.9427327E3,6.72441E3,4.7444876E2,9.225734E2,1.3977346E3,8.430628E2,4.0983118E2,1.3744658E3,5.291448E3,2.3058186E3,1.824885E3,2.6959258E3,1.0613275E3,2.559453E3,5.6426385E2,9.950312E2,9.142315E2,1.6439092E3,8.686659E2,3.4392205E3,1.247629E3,3.0623848E3,9.46344E3,3.468215E3,2.7707668E3,4.6726514E3,1.6439734E3,1.01713605E3,4.991932E2,1.1922705E3,1.2824564E3,1.9842941E3,1.7630867E3,2.6963992E3,1.2943106E4,5.5435854E3,9.155857E2,2.4393253E2,4.0069575E3,1.0597314E3,7.325863E3,4.6829214E3,1.9143756E3,4.2678564E3,7.2228107E2,2.0399541E3,1.279822E3,-8.931637E1,3.4083567E3,5.5785044E3,1.1392227E3,4.709559E3,3.9957427E3,8.139287E3,2.5215916E3,4.6204795E3,9.241576E3,2.4227556E3],"categories":[],"categories_nodes":[],"categories_segments":[],"categories_sizes":[],"default_left":[1,1,0,1,1,1,1,1,0,1,0,1,0,0,1,1,1,0,0,1,0,1,0,0,1,0,1,0,1,1,1,1,1,1,1,0,1,1,1,0,0,1,0,1,0,0,1,0,0,0,0,0,0,0,0,0,0,1,0,0,0,0,0,0,0,0,0,0,0,0,0,0,0,0,0,0,0,0,0,0,0,0,0,0,0,0,0,0,0,0,0,0,0,0,0,0,0,0,0,0,0,0,0,0,0,0,0,0,0,0,0,0,0,0,0,0,0],"id":12,"left_children":[1,3,5,7,9,11,13,15,17,19,21,23,25,27,29,31,33,35,37,39,41,43,45,-1,47,49,51,53,55,57,59,61,63,65,67,69,71,73,75,77,79,81,83,85,87,89,91,93,-1,95,-1,97,99,101,103,105,107,109,111,113,115,-1,-1,-1,-1,-1,-1,-1,-1,-1,-1,-1,-1,-1,-1,-1,-1,-1,-1,-1,-1,-1,-1,-1,-1,-1,-1,-1,-1,-1,-1,-1,-1,-1,-1,-1,-1,-1,-1,-1,-1,-1,-1,-1,-1,-1,-1,-1,-1,-1,-1,-1,-1,-1,-1,-1,-1],"loss_changes":[1.4033981E10,5.001568E9,2.0350259E9,1.7522094E9,1.5014584E9,1.03325286E9,1.108566E9,7.8353766E8,1.1624919E9,3.5496612E9,5.28853E8,5.91999E8,1.600158E8,2.091022E8,2.1612585E9,5.4800486E8,4.3021965E8,1.3983201E9,5.522186E8,3.6608973E8,1.7950147E9,5.9972736E7,1.6014797E8,0E0,3.487908E8,1.384848E6,1.939776E7,6.4235264E7,6.801242E7,8.954327E8,2.3333837E8,2.4449203E8,8.026752E7,3.213588E7,3.555964E8,5.2959232E8,3.7310746E8,1.8038733E8,2.2503629E8,1.466738E8,1.06148454E9,9.679785E8,9.912955E8,2.6134528E7,3.4898176E7,1.119104E8,1.1846579E8,1.4622618E8,0E0,3.3448E4,0E0,9.6032E5,1.585408E6,8.762598E7,3.1457088E7,3.09731E6,6.86592E7,2.1615206E8,7.498711E8,2.0738509E8,1.7251347E8,0E0,0E0,0E0,0E0,0E0,0E0,0E0,0E0,0E0,0E0,0E0,0E0,0E0,0E0,0E0,0E0,0E0,0E0,0E0,0E0,0E0,0E0,0E0,0E0,0E0,0E0,0E0,0E0,0E0,0E0,0E0,0E0,0E0,0E0,0E0,0E0,0E0,0E0,0E0,0E0,0E0,0E0,0E0,0E0,0E0,0E0,0E0,0E0,0E0,0E0,0E0,0E0,0E0,0E0,0E0,0E0],"parents":[2147483647,0,0,1,1,2,2,3,3,4,4,5,5,6,6,7,7,8,8,9,9,10,10,11,11,12,12,13,13,14,14,15,15,16,16,17,17,18,18,19,19,20,20,21,21,22,22,24,24,25,25,26,26,27,27,28,28,29,29,30,30,31,31,32,32,33,33,34,34,35,35,36,36,37,37,38,38,39,39,40,40,41,41,42,42,43,43,44,44,45,45,46,46,47,47,49,49,51,51,52,52,53,53,54,54,55,55,56,56,57,57,58,58,59,59,60,60],"right_children":[2,4,6,8,10,12,14,16,18,20,22,24,26,28,30,32,34,36,38,40,42,44,46,-1,48,50,52,54,56,58,60,62,64,66,68,70,72,74,76,78,80,82,84,86,88,90,92,94,-1,96,-1,98,100,102,104,106,108,110,112,114,116,-1,-1,-1,-1,-1,-1,-1,-1,-1,-1,-1,-1,-1,-1,-1,-1,-1,-1,-1,-1,-1,-1,-1,-1,-1,-1,-1,-1,-1,-1,-1,-1,-1,-1,-1,-1,-1,-1,-1,-1,-1,-1,-1,-1,-1,-1,-1,-1,-1,-1,-1,-1,-1,-1,-1,-1],"split_conditions":[1.4265E0,7.647072E-2,7.35849E-1,7.48279E-4,6.5E0,1.05E1,3.5E0,4.285714E-3,1.7482517E-3,3.5E0,1.15E1,3E0,1.0471034E0,1.901566E0,5.5E0,8.172089E-1,4.5E0,1.6067979E0,1.0467914E0,1.5E0,7.154088E-1,8.5E0,3.675E-1,5.9629086E1,7E0,1.0269442E0,1.55E1,4.2134833E-1,7.5E0,6.5E0,4.5E0,1.75E1,3.5E0,7.619048E-1,1.65E1,1.2812496E0,4.5E0,2.5E0,3.5E0,6.0636363E0,5E1,1.05E1,3.8194444E-2,2.5E0,1.4797297E0,1.1237373E0,1.25E1,5.4736843E0,2.1422758E1,1.483871E0,3.7328735E1,7.0833335E0,2.5E-1,1.2049191E0,1.0634921E0,3E0,2.5E0,4.5E0,1.423611E-1,2.0833335E0,1.8E0,9.488975E0,1.8451468E1,2.795469E1,1.6861256E1,8.196624E0,2.7489315E1,1.05828964E2,4.611637E1,3.64977E1,5.3918514E1,2.122655E1,5.1189056E1,1.1285276E1,1.9900623E1,1.828463E1,3.287818E1,1.7373318E1,6.878441E1,2.495258E1,6.1247692E1,1.892688E2,6.93643E1,5.5415337E1,9.3453026E1,3.2879467E1,2.034272E1,9.983864E0,2.384541E1,2.5649128E1,3.968588E1,3.5261734E1,5.3927982E1,2.5886212E2,1.10871704E2,1.8311714E1,4.87865E0,8.0139145E1,2.1194628E1,1.4651726E2,9.3658424E1,3.828751E1,8.5357124E1,1.44456215E1,4.079908E1,2.559644E1,-1.7863274E0,6.816713E1,1.1157008E2,2.2784452E1,9.419118E1,7.991485E1,1.6278574E2,5.043183E1,9.2409584E1,1.8483151E2,4.8455112E1],"split_indices":[51,51,25,101,107,108,107,105,69,107,49,107,101,25,107,15,106,101,15,106,25,107,51,0,107,101,108,99,108,108,106,109,106,15,108,101,106,107,107,10,31,108,79,108,93,96,108,13,0,0,0,17,89,101,15,87,62,107,101,8,25,0,0,0,0,0,0,0,0,0,0,0,0,0,0,0,0,0,0,0,0,0,0,0,0,0,0,0,0,0,0,0,0,0,0,0,0,0,0,0,0,0,0,0,0,0,0,0,0,0,0,0,0,0,0,0,0],"split_type":[0,0,0,0,0,0,0,0,0,0,0,0,0,0,0,0,0,0,0,0,0,0,0,0,0,0,0,0,0,0,0,0,0,0,0,0,0,0,0,0,0,0,0,0,0,0,0,0,0,0,0,0,0,0,0,0,0,0,0,0,0,0,0,0,0,0,0,0,0,0,0,0,0,0,0,0,0,0,0,0,0,0,0,0,0,0,0,0,0,0,0,0,0,0,0,0,0,0,0,0,0,0,0,0,0,0,0,0,0,0,0,0,0,0,0,0,0],"sum_hessian":[2.944E4,2.8324E4,1.116E3,2.0902E4,7.422E3,1.23E2,9.93E2,8.59E3,1.2312E4,4.857E3,2.565E3,7.8E1,4.5E1,2.52E2,7.41E2,8.258E3,3.32E2,5.941E3,6.371E3,2.345E3,2.512E3,1.031E3,1.534E3,9E0,6.9E1,1.2E1,3.3E1,1.63E2,8.9E1,4.15E2,3.26E2,6.835E3,1.423E3,1.4E2,1.92E2,3.105E3,2.836E3,4.166E3,2.205E3,7.9E2,1.555E3,1.15E2,2.397E3,5.43E2,4.88E2,9.69E2,5.65E2,6.6E1,3E0,5E0,7E0,9E0,2.4E1,8.6E1,7.7E1,8E0,8.1E1,9.6E1,3.19E2,3.09E2,1.7E1,5.248E3,1.587E3,1.07E3,3.53E2,6.7E1,7.3E1,5.8E1,1.34E2,2.028E3,1.077E3,2.659E3,1.77E2,1.558E3,2.608E3,5.77E2,1.628E3,7.68E2,2.2E1,1.098E3,4.57E2,6.8E1,4.7E1,2.079E3,3.18E2,8.1E1,4.62E2,3.99E2,8.9E1,5.86E2,3.83E2,2.8E2,2.85E2,6.1E1,5E0,4E0,1E0,8E0,1E0,1.5E1,9E0,6.4E1,2.2E1,4.6E1,3.1E1,6E0,2E0,5.5E1,2.6E1,2.3E1,7.3E1,5.6E1,2.63E2,2.49E2,6E1,1E1,7E0],"tree_param":{"num_deleted":"0","num_feature":"110","num_nodes":"117","size_leaf_vector":"0"}},{"base_weights":[1.4584784E3,1.2203728E3,3.3435742E3,1.4620474E3,7.7661194E2,2.8037427E3,5.3594663E3,1.0302275E3,1.9183293E3,5.150614E2,1.0421626E3,2.4543809E3,4.1598794E3,4.4668843E3,7.313256E3,7.328227E2,1.3489034E3,2.2544473E3,1.2338734E3,4.290579E2,7.1110406E2,1.2937454E3,5.935078E2,5.152812E3,2.290672E3,3.8733923E3,1.0960254E4,5.065254E3,2.3022256E3,1.276422E4,6.537014E3,1.9295392E3,5.952987E2,1.5919346E3,8.716466E2,2.5871277E3,1.4218453E3,7.911213E2,1.7151836E3,6.576272E2,3.561989E2,9.220981E2,5.9997064E2,9.5898065E2,1.4698691E3,1.1045731E3,4.2651263E2,3.8449707E3,1.1764985E4,1.2954495E3,2.539445E3,2.3190417E3,4.699469E3,1.9818452E3,1.2346553E4,2.7943804E3,6.144987E3,1.7866575E3,3.4386438E3,1.3849913E4,3.3304285E3,7.3115747E3,3.5966416E3,1.6810879E3,2.8896016E3,4.2362628E2,6.973627E2,1.2396875E3,2.7482607E3,5.7901086E2,1.1521652E3,2.3992866E3,3.941318E3,1.124261E3,2.111127E3,7.4408527E2,2.6811118E3,1.4202847E3,2.6766934E3,3.984174E2,7.126389E2,4.5392484E2,3.0862646E2,7.7679346E2,1.7910916E3,4.6481152E2,8.615467E2,8.118739E2,1.1745985E3,1.5770791E3,9.058162E2,9.9606335E2,1.4434633E3,3.727815E2,6.1785547E2,2.221925E3,6.668665E3,5.651446E3,1.4860263E4,8.060453E2,1.6372971E3,3.0568699E3,1.7420695E3,1.9023866E3,3.3080703E3,5.634161E3,2.1028142E3,7.0437783E3,1.3844253E4,1.619511E3,3.5769004E3,6.9121445E3,3.8079875E3,1.4927654E3,2.862708E3,2.3038767E3,4.1932476E3,1.4138258E4,3.753166E3,8.48404E2,5.388251E3,2.3032842E3,7.6127812E3,4.253403E3,7.15917E2],"categories":[],"categories_nodes":[],"categories_segments":[],"categories_sizes":[],"default_left":[1,1,0,1,0,0,0,1,1,0,0,0,1,1,0,0,0,1,0,1,0,0,1,0,1,1,1,1,0,0,1,0,1,0,0,1,0,0,0,0,1,0,0,0,0,0,0,1,0,1,1,0,1,0,0,0,1,0,0,1,0,1,0,0,0,0,0,0,0,0,0,0,0,0,0,0,0,0,0,0,0,0,0,0,0,0,0,0,0,0,0,0,0,0,0,0,0,0,0,0,0,0,0,0,0,0,0,0,0,0,0,0,0,0,0,0,0,0,0,0,0,0,0,0,0],"id":13,"left_children":[1,3,5,7,9,11,13,15,17,19,21,23,25,27,29,31,33,35,37,39,41,43,45,47,49,51,53,55,57,59,61,63,65,67,69,71,73,75,77,79,81,83,85,87,89,91,93,95,97,99,101,103,105,-1,107,109,111,113,115,117,119,121,123,-1,-1,-1,-1,-1,-1,-1,-1,-1,-1,-1,-1,-1,-1,-1,-1,-1,-1,-1,-1,-1,-1,-1,-1,-1,-1,-1,-1,-1,-1,-1,-1,-1,-1,-1,-1,-1,-1,-1,-1,-1,-1,-1,-1,-1,-1,-1,-1,-1,-1,-1,-1,-1,-1,-1,-1,-1,-1,-1,-1,-1,-1],"loss_changes":[1.3226275E10,2.8056986E9,3.581612E9,3.3363313E9,6.40533E8,1.2258877E9,1.1828408E9,8.2422374E8,1.8922045E9,7.812928E7,5.1608115E8,9.0572595E8,9.959465E8,6.113618E8,8.3474534E8,7.404362E8,4.85995E8,1.5261409E9,5.772129E8,5.365587E7,3.2673216E7,1.7152051E8,1.400928E8,9.75189E8,4.819753E8,6.478003E8,2.3691264E8,9.047583E8,5.596179E7,2.201705E8,4.109829E8,1.0581965E8,7.054426E7,1.1301437E9,1.1590029E8,9.940439E8,3.2151014E8,1.2388403E8,3.64811E8,1.08528E7,1.1278016E7,6.01016E7,3.2514496E7,3.120928E7,1.1467802E8,1.3455232E7,1.2549056E7,4.434812E8,2.7555712E8,6.459712E7,6.4119194E8,6.788192E7,7.9879424E8,0E0,4.5439744E7,1.0728832E8,4.2906112E8,1.9444864E7,1.7740896E7,1.3897728E7,1.5858848E7,2.1025382E8,7.641683E7,0E0,0E0,0E0,0E0,0E0,0E0,0E0,0E0,0E0,0E0,0E0,0E0,0E0,0E0,0E0,0E0,0E0,0E0,0E0,0E0,0E0,0E0,0E0,0E0,0E0,0E0,0E0,0E0,0E0,0E0,0E0,0E0,0E0,0E0,0E0,0E0,0E0,0E0,0E0,0E0,0E0,0E0,0E0,0E0,0E0,0E0,0E0,0E0,0E0,0E0,0E0,0E0,0E0,0E0,0E0,0E0,0E0,0E0,0E0,0E0,0E0,0E0],"parents":[2147483647,0,0,1,1,2,2,3,3,4,4,5,5,6,6,7,7,8,8,9,9,10,10,11,11,12,12,13,13,14,14,15,15,16,16,17,17,18,18,19,19,20,20,21,21,22,22,23,23,24,24,25,25,26,26,27,27,28,28,29,29,30,30,31,31,32,32,33,33,34,34,35,35,36,36,37,37,38,38,39,39,40,40,41,41,42,42,43,43,44,44,45,45,46,46,47,47,48,48,49,49,50,50,51,51,52,52,54,54,55,55,56,56,57,57,58,58,59,59,60,60,61,61,62,62],"right_children":[2,4,6,8,10,12,14,16,18,20,22,24,26,28,30,32,34,36,38,40,42,44,46,48,50,52,54,56,58,60,62,64,66,68,70,72,74,76,78,80,82,84,86,88,90,92,94,96,98,100,102,104,106,-1,108,110,112,114,116,118,120,122,124,-1,-1,-1,-1,-1,-1,-1,-1,-1,-1,-1,-1,-1,-1,-1,-1,-1,-1,-1,-1,-1,-1,-1,-1,-1,-1,-1,-1,-1,-1,-1,-1,-1,-1,-1,-1,-1,-1,-1,-1,-1,-1,-1,-1,-1,-1,-1,-1,-1,-1,-1,-1,-1,-1,-1,-1,-1,-1,-1,-1,-1,-1],"split_conditions":[4.925E-1,7.5E0,1.8464999E0,3.5E0,8E0,8.24E-1,3.7565E0,1.5E0,5.4899807E-4,1.550569E0,1.067E1,6.1159134E-1,1.6082509E0,6.5E0,6.037736E-1,9.761573E-1,2.7740002E0,6.5E0,2.25E1,8.5E0,1.8599133E0,2.2716293E-1,8.5E0,2.1666665E0,2.5E0,3.5E0,4E0,3.5E0,1.4051282E0,5E-1,8.9349434E-2,4.3076923E-1,1.5E0,1.3E1,4.166667E-1,9.9714285E-1,1.050906E0,2.966982E0,2.3809524E-2,7.4224424E-1,9.5E0,1.796602E0,2.2351336E0,2.7694235E0,5.462783E0,3.6495328E0,4.243487E0,5.5555556E-2,3.946541E-1,1.5E0,6.5E0,1.465368E0,7.5E0,3.96369E1,5E-1,3.5E0,2.9920395E-2,1.4166667E0,1.6495E0,7.5E0,1.3333333E0,2.5E0,2.018881E0,3.3621758E1,5.779203E1,8.472526E0,1.3947253E1,2.4793749E1,5.4965214E1,1.1580217E1,2.3043303E1,4.7985733E1,7.882636E1,2.248522E1,4.2222538E1,1.4881705E1,5.3622234E1,2.8405693E1,5.3533867E1,7.9683475E0,1.4252778E1,9.078497E0,6.172529E0,1.5535869E1,3.582183E1,9.29623E0,1.7230934E1,1.6237478E1,2.349197E1,3.1541582E1,1.8116323E1,1.9921267E1,2.8869265E1,7.45563E0,1.2357109E1,4.44385E1,1.3337329E2,1.13028915E2,2.9720526E2,1.6120905E1,3.274594E1,6.1137398E1,3.484139E1,3.804773E1,6.616141E1,1.1268322E2,4.2056282E1,1.4087556E2,2.7688504E2,3.239022E1,7.153801E1,1.3824289E2,7.615975E1,2.9855307E1,5.7254158E1,4.6077534E1,8.386495E1,2.8276514E2,7.506332E1,1.6968079E1,1.07765015E2,4.606568E1,1.5225562E2,8.5068054E1,1.4318339E1],"split_indices":[51,107,51,107,49,55,54,107,32,32,38,25,30,107,25,25,41,107,30,107,32,23,107,15,107,107,107,107,8,17,32,90,106,31,61,105,92,32,103,30,107,32,32,18,4,91,74,105,25,107,107,15,107,0,72,31,32,27,54,105,13,107,32,0,0,0,0,0,0,0,0,0,0,0,0,0,0,0,0,0,0,0,0,0,0,0,0,0,0,0,0,0,0,0,0,0,0,0,0,0,0,0,0,0,0,0,0,0,0,0,0,0,0,0,0,0,0,0,0,0,0,0,0,0,0],"split_type":[0,0,0,0,0,0,0,0,0,0,0,0,0,0,0,0,0,0,0,0,0,0,0,0,0,0,0,0,0,0,0,0,0,0,0,0,0,0,0,0,0,0,0,0,0,0,0,0,0,0,0,0,0,0,0,0,0,0,0,0,0,0,0,0,0,0,0,0,0,0,0,0,0,0,0,0,0,0,0,0,0,0,0,0,0,0,0,0,0,0,0,0,0,0,0,0,0,0,0,0,0,0,0,0,0,0,0,0,0,0,0,0,0,0,0,0,0,0,0,0,0,0,0,0,0],"sum_hessian":[2.9475E4,2.6171E4,3.304E3,1.6942E4,9.229E3,2.608E3,6.96E2,8.706E3,8.236E3,4.651E3,4.578E3,2.076E3,5.32E2,4.8E2,2.16E2,4.505E3,4.201E3,5.522E3,2.714E3,3.235E3,1.416E3,2.932E3,1.646E3,1.17E2,1.959E3,5.12E2,2E1,3.75E2,1.05E2,2.5E1,1.91E2,4.63E2,4.042E3,2.782E3,1.419E3,3.944E3,1.578E3,1.415E3,1.299E3,7.8E2,2.455E3,4.86E2,9.3E2,1.013E3,1.919E3,4.04E2,1.242E3,9.9E1,1.8E1,3.93E2,1.566E3,1.79E2,3.33E2,3E0,1.7E1,1.22E2,2.53E2,7.4E1,3.1E1,2.2E1,3E0,1.5E2,4.1E1,3.7E2,9.3E1,1.509E3,2.533E3,2.134E3,6.48E2,6.96E2,7.23E2,3.466E3,4.78E2,1.104E3,4.74E2,1.382E3,3.3E1,9.96E2,3.03E2,1.38E2,6.42E2,8.01E2,1.654E3,4.18E2,6.8E1,6.15E2,3.15E2,6.05E2,4.08E2,1.611E3,3.08E2,3.09E2,9.5E1,9.72E2,2.7E2,6.4E1,3.5E1,7E0,1.1E1,1.63E2,2.3E2,9.48E2,6.18E2,1.28E2,5.1E1,2.44E2,8.9E1,5E0,1.2E1,5E1,7.2E1,1.89E2,6.4E1,6E1,1.4E1,1.4E1,1.7E1,2.1E1,1E0,2E0,1E0,9E0,1.41E2,3.3E1,8E0],"tree_param":{"num_deleted":"0","num_feature":"110","num_nodes":"125","size_leaf_vector":"0"}},{"base_weights":[1.43686E3,1.3012517E3,4.5935073E3,1.0589817E3,1.9955063E3,4.0404656E3,7.236184E3,7.1695764E2,1.2984736E3,1.8926676E3,3.8891606E3,2.9396865E3,5.191305E3,6.1765034E3,1.009099E4,6.639938E2,2.0530415E3,1.6050183E3,1.0116776E3,1.2819827E3,2.145966E3,3.3732593E3,7.1853726E3,3.4513948E3,1.2900676E3,8.1258535E3,3.787563E3,3.9229382E3,7.5206436E3,2.2528098E3,1.0661576E4,5.0044815E2,9.040877E2,1.1477189E3,4.0006362E3,2.054826E3,1.1119734E3,7.437856E2,1.3959382E3,1.1559333E3,3.6879404E3,1.8926365E3,2.5534153E3,3.1039585E3,5.844519E3,3.8249224E3,1.0392826E4,2.7742366E3,4.7593955E3,2.8113264E3,9.158075E2,3.0012388E3,9.021298E3,3.1008152E3,6.117788E3,5.839029E3,2.8189172E3,6.541872E3,1.2005635E4,9.077128E3,1.3062114E4,4.5077368E2,1.2879366E3,6.7126056E2,1.4215074E3,7.705356E2,1.9276985E3,3.642659E3,7.3745454E3,1.6410747E3,2.4228645E3,1.0286521E3,2.393414E3,1.2239199E3,6.7630054E2,1.2177239E3,2.0104791E3,1.7611718E3,8.929432E2,2.1420723E3,6.6712075E3,2.3476455E3,1.6896045E3,2.69862E3,1.5926232E3,3.3649734E3,1.4391074E3,2.2169636E3,6.810182E3,2.736059E3,9.129655E3,1.1226775E4,3.2079E3,2.4060496E3,4.407303E3,3.6656714E3,6.197808E3,9.9236584E2,4.274111E3,2.8177884E2,1.3269447E3,1.4080245E3,4.9009634E3,6.1388906E3,1.0182547E4,2.9000073E3,8.378897E3,4.447425E3,9.280617E3,1.9380739E3,6.1476514E3,3.159573E3,1.4809924E3,2.5142002E3,7.3459497E3,9.580935E3,2.9033408E3],"categories":[],"categories_nodes":[],"categories_segments":[],"categories_sizes":[],"default_left":[1,1,1,1,1,0,0,1,0,0,1,1,0,0,1,1,1,0,0,1,0,0,1,0,0,1,0,0,0,0,0,1,0,1,0,0,1,0,0,1,1,0,1,1,0,0,0,1,0,0,0,0,0,0,0,0,0,0,0,0,0,0,0,0,0,0,0,0,0,0,0,0,0,0,0,0,0,0,0,0,0,0,0,0,0,0,0,0,0,0,0,0,0,0,0,0,0,0,0,0,0,0,0,0,0,0,0,0,0,0,0,0,0,0,0,0,0],"id":14,"left_children":[1,3,5,7,9,11,13,15,17,19,21,23,25,27,29,31,33,35,37,39,41,43,45,47,49,51,53,55,57,-1,59,61,63,65,67,69,71,73,75,77,79,81,83,85,87,89,91,93,95,97,99,101,103,105,107,109,111,113,-1,115,-1,-1,-1,-1,-1,-1,-1,-1,-1,-1,-1,-1,-1,-1,-1,-1,-1,-1,-1,-1,-1,-1,-1,-1,-1,-1,-1,-1,-1,-1,-1,-1,-1,-1,-1,-1,-1,-1,-1,-1,-1,-1,-1,-1,-1,-1,-1,-1,-1,-1,-1,-1,-1,-1,-1,-1,-1],"loss_changes":[1.2625002E10,4.756689E9,1.7464975E9,1.7172541E9,1.4177567E9,1.2604273E9,5.6993485E8,6.1010995E8,1.0829025E9,1.071231E9,6.1515776E8,4.3195955E8,1.9918234E9,4.400087E8,2.2196173E8,3.259684E8,5.755017E8,1.31972E9,6.553093E8,6.1380045E8,5.015593E8,1.9948134E8,4.991726E8,3.3577114E8,6.802434E7,6.979553E8,5.1552256E8,1.1046451E8,3.4287974E8,0E0,7.541299E7,1.9293645E8,4.046661E8,6.500275E7,9.87465E7,4.7051674E8,3.0140902E8,1.2097126E8,2.842752E8,3.06902E8,4.5149517E8,2.7585536E8,2.5770496E8,1.2421862E8,9.34951E7,1.2520006E8,1.1378227E8,1.4692966E8,1.8652006E8,5.961643E7,2.5954048E7,6.876603E7,3.860142E8,2.5126989E8,3.5495552E8,1.3367872E7,1.3551552E7,2.438546E8,0E0,7.793664E7,0E0,0E0,0E0,0E0,0E0,0E0,0E0,0E0,0E0,0E0,0E0,0E0,0E0,0E0,0E0,0E0,0E0,0E0,0E0,0E0,0E0,0E0,0E0,0E0,0E0,0E0,0E0,0E0,0E0,0E0,0E0,0E0,0E0,0E0,0E0,0E0,0E0,0E0,0E0,0E0,0E0,0E0,0E0,0E0,0E0,0E0,0E0,0E0,0E0,0E0,0E0,0E0,0E0,0E0,0E0,0E0,0E0],"parents":[2147483647,0,0,1,1,2,2,3,3,4,4,5,5,6,6,7,7,8,8,9,9,10,10,11,11,12,12,13,13,14,14,15,15,16,16,17,17,18,18,19,19,20,20,21,21,22,22,23,23,24,24,25,25,26,26,27,27,28,28,30,30,31,31,32,32,33,33,34,34,35,35,36,36,37,37,38,38,39,39,40,40,41,41,42,42,43,43,44,44,45,45,46,46,47,47,48,48,49,49,50,50,51,51,52,52,53,53,54,54,55,55,56,56,57,57,59,59],"right_children":[2,4,6,8,10,