{"learner":{"attributes":{"best_iteration":"499","best_ntree_limit":"500","best_score":"849.8711242395323"},"feature_names":["V_210254","V_210454","V_210554","V_210654","V_210754","V_210854","V_210954","V_211054","V_211154","V_211254","V_211354","V_211454","V_211554","V_211654","V_211754","V_211854","V_211954","V_212054","V_212154","V_212254","V_212354","V_212454","V_212554","V_212654","V_212754","V_212854","V_212954","V_213054","V_213154","V_213254","V_213354","V_213454","V_213554","V_213754","V_218193","V_220034","V_220254","V_228193","V_230034","V_230035","V_230254","V_238193","V_248193","V_1100254","V_1100454","V_1100554","V_1100754","V_1100854","V_1100954","V_1101054","V_1101154","V_1101254","V_1101354","V_1108193","V_1110034","V_1110035","V_1110036","V_1110037","V_1110038","V_1130654","V_1130754","V_1130854","V_1130954","V_1131054","V_1131154","V_1131254","V_1131354","V_1131454","V_1131554","V_1131654","V_1131754","V_1131854","V_1131954","V_1132054","V_1132154","V_1132254","V_1132354","V_1132454","V_1151354","V_1151454","V_1160754","V_1200254","V_1210654","V_1210754","V_1210854","V_1210954","V_1211054","V_1211254","V_1211354","V_1211454","V_1211554","V_1220654","V_1220754","V_1220854","V_1220954","V_1221054","V_1221154","V_1221254","V_1221354","V_1221554","V_1221654","V_1221754","V_1320254","V_1410254","V_1410354","V_1470254","V_1510254","V_1510454","V_1610254","year","month","day","hour"],"feature_types":["float","float","float","float","float","float","float","float","float","float","float","float","float","float","float","float","float","float","float","float","float","float","float","float","float","float","float","float","float","float","float","float","float","float","float","float","float","float","float","float","float","float","float","float","float","float","float","float","float","float","float","float","float","float","float","float","float","float","float","float","float","float","float","float","float","float","float","float","float","float","float","float","float","float","float","float","float","float","float","float","float","float","float","float","float","float","float","float","float","float","float","float","float","float","float","float","float","float","float","float","float","float","float","float","float","float","float","float","float","c","c","c","c"],"gradient_booster":{"model":{"gbtree_model_param":{"num_parallel_tree":"1","num_trees":"500","size_leaf_vector":"0"},"tree_info":[0,0,0,0,0,0,0,0,0,0,0,0,0,0,0,0,0,0,0,0,0,0,0,0,0,0,0,0,0,0,0,0,0,0,0,0,0,0,0,0,0,0,0,0,0,0,0,0,0,0,0,0,0,0,0,0,0,0,0,0,0,0,0,0,0,0,0,0,0,0,0,0,0,0,0,0,0,0,0,0,0,0,0,0,0,0,0,0,0,0,0,0,0,0,0,0,0,0,0,0,0,0,0,0,0,0,0,0,0,0,0,0,0,0,0,0,0,0,0,0,0,0,0,0,0,0,0,0,0,0,0,0,0,0,0,0,0,0,0,0,0,0,0,0,0,0,0,0,0,0,0,0,0,0,0,0,0,0,0,0,0,0,0,0,0,0,0,0,0,0,0,0,0,0,0,0,0,0,0,0,0,0,0,0,0,0,0,0,0,0,0,0,0,0,0,0,0,0,0,0,0,0,0,0,0,0,0,0,0,0,0,0,0,0,0,0,0,0,0,0,0,0,0,0,0,0,0,0,0,0,0,0,0,0,0,0,0,0,0,0,0,0,0,0,0,0,0,0,0,0,0,0,0,0,0,0,0,0,0,0,0,0,0,0,0,0,0,0,0,0,0,0,0,0,0,0,0,0,0,0,0,0,0,0,0,0,0,0,0,0,0,0,0,0,0,0,0,0,0,0,0,0,0,0,0,0,0,0,0,0,0,0,0,0,0,0,0,0,0,0,0,0,0,0,0,0,0,0,0,0,0,0,0,0,0,0,0,0,0,0,0,0,0,0,0,0,0,0,0,0,0,0,0,0,0,0,0,0,0,0,0,0,0,0,0,0,0,0,0,0,0,0,0,0,0,0,0,0,0,0,0,0,0,0,0,0,0,0,0,0,0,0,0,0,0,0,0,0,0,0,0,0,0,0,0,0,0,0,0,0,0,0,0,0,0,0,0,0,0,0,0,0,0,0,0,0,0,0,0,0,0,0,0,0,0,0,0,0,0,0,0,0,0,0,0,0,0,0,0,0,0,0,0,0,0,0,0,0,0,0,0,0,0,0,0,0,0,0,0,0,0,0,0,0,0,0,0,0,0,0,0,0,0,0,0,0,0,0,0,0,0,0,0,0,0,0,0,0,0,0],"trees":[{"base_weights":[1.8928427E3,1.6324474E3,4.7932134E3,1.3978347E3,2.4157302E3,9.292439E3,4.418981E3,9.929979E2,1.6903113E3,2.6995708E3,1.5422942E3,7.3515703E3,1.4719279E4,3.8262717E3,6.533352E3,8.5133496E2,1.6323997E3,2.0455266E3,1.3544386E3,1.8514641E3,3.3022705E3,1.0920396E3,2.083489E3,6.0706694E3,1.1803156E4,9.928125E3,1.7515963E4,3.4480369E3,5.9936797E3,7.379781E3,3.7017258E3,8.371772E2,5.631184E3,1.8155381E3,1.1769873E3,2.5645266E3,1.4587766E3,1.0302037E3,1.8332877E3,1.296273E3,2.227295E3,3.5545247E3,1.4249066E3,9.581859E2,1.7839554E3,2.3565325E3,1.2444233E3,8.351665E3,4.539E3,1.2943557E4,6.2070464E3,1.2360448E4,5.5819014E3,3.8137312E3,1.6476332E3,3.5183135E3,9.084199E3,8.167635E3,3.9289053E3,2.5796396E3,5.389868E3,7.385711E2,1.1656753E3,1.3620054E3,2.0564756E3,1.1280498E3,3.2565842E3,2.7617864E3,1.5968021E3,1.3376609E3,3.1804646E3,6.518566E2,1.2059222E3,1.7346332E3,3.1339663E3,3.5546604E3,1.0695785E3,2.6142185E3,1.5293951E3,7.3451875E3,3.413871E3,1.3099387E3,2.826587E3,7.216907E2,1.1939746E3,1.4359702E3,2.207869E3,2.0680422E3,3.2238625E3,7.894178E2,1.7397416E3,9.847383E3,5.4848394E3,2.7800232E3,6.67437E3,5.9675127E3,1.3655967E4,6.8636177E3,1.13381E3,2.1522432E3,4.1620215E3,3.393453E3,1.3544644E3,3.130888E3,6.947548E3,6.424319E3,1.2934361E4,4.0779905E3,9.297041E3,3.0158088E3,6.152166E3,1.426357E3,2.8135415E3,3.8859875E3,8.442318E3],"categories":[],"categories_nodes":[],"categories_segments":[],"categories_sizes":[],"default_left":[1,1,0,1,1,0,0,1,0,1,0,0,0,1,1,1,1,0,0,1,1,0,0,0,0,0,0,1,1,1,0,1,0,1,0,1,1,1,1,0,0,0,0,1,0,0,0,0,0,1,0,0,0,1,0,0,0,1,0,0,0,0,0,0,0,0,0,0,0,0,0,0,0,0,0,0,0,0,0,0,0,0,0,0,0,0,0,0,0,0,0,0,0,0,0,0,0,0,0,0,0,0,0,0,0,0,0,0,0,0,0,0,0,0,0],"id":0,"left_children":[1,3,5,7,9,11,13,15,17,19,21,23,25,27,29,31,33,35,37,39,41,43,45,47,49,51,-1,53,55,57,59,61,-1,63,65,67,69,71,73,75,77,79,81,83,85,87,89,91,93,95,97,-1,-1,99,101,103,105,107,109,111,113,-1,-1,-1,-1,-1,-1,-1,-1,-1,-1,-1,-1,-1,-1,-1,-1,-1,-1,-1,-1,-1,-1,-1,-1,-1,-1,-1,-1,-1,-1,-1,-1,-1,-1,-1,-1,-1,-1,-1,-1,-1,-1,-1,-1,-1,-1,-1,-1,-1,-1,-1,-1,-1,-1],"loss_changes":[2.2310347E10,4.9800397E9,4.0571986E9,2.4694374E9,1.5450685E9,1.8508882E9,2.793468E9,7.9172506E8,1.4426399E9,2.4039752E9,3.7176653E8,7.209308E8,4.6926848E8,1.4213407E9,1.1494953E9,4.804946E8,1.3022464E8,1.7886802E9,9.65377E8,4.0629043E8,1.2996301E9,7.608768E7,1.5652224E8,3.464023E8,1.111127E8,1.4243354E8,0E0,9.813115E8,1.9570842E9,9.928909E8,2.0393382E8,2.30741E8,0E0,1.2067763E8,4.293728E7,5.915566E8,5.723136E8,2.463296E8,3.171543E8,4.0269747E8,3.1140096E8,1.269461E9,4.9153984E7,3.8506944E7,1.674416E7,1.2444621E8,3.7616064E7,1.3037107E8,2.3685747E8,3.7783296E7,1.553456E7,0E0,0E0,7.120773E8,1.2591782E8,1.7221965E8,1.0946171E9,1.3754614E9,1.2761011E8,1.5139488E7,1.7376666E8,0E0,0E0,0E0,0E0,0E0,0E0,0E0,0E0,0E0,0E0,0E0,0E0,0E0,0E0,0E0,0E0,0E0,0E0,0E0,0E0,0E0,0E0,0E0,0E0,0E0,0E0,0E0,0E0,0E0,0E0,0E0,0E0,0E0,0E0,0E0,0E0,0E0,0E0,0E0,0E0,0E0,0E0,0E0,0E0,0E0,0E0,0E0,0E0,0E0,0E0,0E0,0E0,0E0,0E0],"parents":[2147483647,0,0,1,1,2,2,3,3,4,4,5,5,6,6,7,7,8,8,9,9,10,10,11,11,12,12,13,13,14,14,15,15,16,16,17,17,18,18,19,19,20,20,21,21,22,22,23,23,24,24,25,25,27,27,28,28,29,29,30,30,31,31,33,33,34,34,35,35,36,36,37,37,38,38,39,39,40,40,41,41,42,42,43,43,44,44,45,45,46,46,47,47,48,48,49,49,50,50,53,53,54,54,55,55,56,56,57,57,58,58,59,59,60,60],"right_children":[2,4,6,8,10,12,14,16,18,20,22,24,26,28,30,32,34,36,38,40,42,44,46,48,50,52,-1,54,56,58,60,62,-1,64,66,68,70,72,74,76,78,80,82,84,86,88,90,92,94,96,98,-1,-1,100,102,104,106,108,110,112,114,-1,-1,-1,-1,-1,-1,-1,-1,-1,-1,-1,-1,-1,-1,-1,-1,-1,-1,-1,-1,-1,-1,-1,-1,-1,-1,-1,-1,-1,-1,-1,-1,-1,-1,-1,-1,-1,-1,-1,-1,-1,-1,-1,-1,-1,-1,-1,-1,-1,-1,-1,-1,-1,-1],"split_conditions":[7.515E-1,7.488288E-2,6.607672E-1,1.496558E-3,7.5E0,2.1666665E0,2.1585002E0,7.6055807E-1,5.6799096E-3,3.5E0,1.0215054E0,2.4E0,3.9937106E-1,4.5E0,9.319243E-2,2.4219105E1,3.5E0,1.6129305E0,1.0045044E0,1.5E0,1.9127331E0,1.0409837E0,1.8E1,5.0400704E-1,4.811321E-1,6.666667E-1,3.5031924E2,3.5E0,4.5E0,6.5E0,7.878788E-1,1.75E1,1.1262368E2,1.3928161E0,2.967142E0,2.0587428E-2,4.5E0,1.5E0,4.815126E0,7.725578E-1,4.406001E0,7.124888E-1,2.958006E0,1.15E1,1.3071795E0,1.6312437E0,1.0903614E0,8.264462E-3,2.6099926E-1,2E0,5E-1,2.4720895E2,1.1163802E2,2.5E0,9.621191E-2,2.947802E0,3.4722222E-3,3.5E0,2.381579E0,8.7934786E-1,5E-1,1.4771421E1,2.3313505E1,2.7240107E1,4.112951E1,2.2560995E1,6.513168E1,5.5235725E1,3.193604E1,2.6753218E1,6.360929E1,1.3037132E1,2.4118444E1,3.469266E1,6.2679325E1,7.109321E1,2.139157E1,5.228437E1,3.0587902E1,1.4690375E2,6.827742E1,2.6198774E1,5.653174E1,1.4433813E1,2.3879492E1,2.8719404E1,4.4157375E1,4.1360844E1,6.447725E1,1.5788356E1,3.479483E1,1.9694765E2,1.09696785E2,5.5600464E1,1.334874E2,1.1935025E2,2.7311932E2,1.3727235E2,2.26762E1,4.304486E1,8.3240425E1,6.786906E1,2.7089287E1,6.2617756E1,1.3895096E2,1.2848637E2,2.5868723E2,8.155981E1,1.8594081E2,6.0316174E1,1.2304332E2,2.852714E1,5.627083E1,7.771975E1,1.6884636E2],"split_indices":[53,53,26,103,110,16,53,16,71,110,103,53,26,109,33,21,109,103,88,110,33,14,107,33,26,14,0,109,110,110,11,112,0,33,33,33,109,110,100,26,42,26,33,112,100,4,95,26,26,110,4,0,0,110,33,103,81,110,21,33,81,0,0,0,0,0,0,0,0,0,0,0,0,0,0,0,0,0,0,0,0,0,0,0,0,0,0,0,0,0,0,0,0,0,0,0,0,0,0,0,0,0,0,0,0,0,0,0,0,0,0,0,0,0,0],"split_type":[0,0,0,0,0,0,0,0,0,0,0,0,0,0,0,0,0,0,0,0,0,0,0,0,0,0,0,0,0,0,0,0,0,0,0,0,0,0,0,0,0,0,0,0,0,0,0,0,0,0,0,0,0,0,0,0,0,0,0,0,0,0,0,0,0,0,0,0,0,0,0,0,0,0,0,0,0,0,0,0,0,0,0,0,0,0,0,0,0,0,0,0,0,0,0,0,0,0,0,0,0,0,0,0,0,0,0,0,0,0,0,0,0,0,0],"sum_hessian":[2.955E4,2.7117E4,2.433E3,2.0869E4,6.248E3,1.85E2,2.248E3,8.755E3,1.2114E4,4.714E3,1.534E3,1.38E2,4.7E1,1.758E3,4.9E2,7.169E3,1.586E3,5.885E3,6.229E3,1.96E3,2.754E3,8.39E2,6.95E2,1.09E2,2.9E1,1.9E1,2.8E1,1.499E3,2.59E2,3.76E2,1.14E2,7.149E3,2E1,1.129E3,4.57E2,3.121E3,2.764E3,3.716E3,2.513E3,7.93E2,1.167E3,2.427E3,3.27E2,7.05E2,1.34E2,5.23E2,1.72E2,4.2E1,6.7E1,2.3E1,6E0,1.1E1,8E0,1.245E3,2.54E2,1.45E2,1.14E2,3.05E2,7.1E1,7E1,4.4E1,5.501E3,1.648E3,3.94E2,7.35E2,4.48E2,9E0,2.591E3,5.3E2,2.584E3,1.8E2,1.18E3,2.536E3,2.338E3,1.75E2,7.1E1,7.22E2,7.49E2,4.18E2,8.5E1,2.342E3,3.04E2,2.3E1,3.54E2,3.51E2,7.6E1,5.8E1,3.95E2,1.28E2,9.1E1,8.1E1,2.6E1,1.6E1,3.8E1,2.9E1,3E0,2E1,5E0,1E0,2.17E2,1.028E3,3.5E1,2.19E2,1.32E2,1.3E1,6.9E1,4.5E1,6.7E1,2.38E2,5.2E1,1.9E1,1.3E1,5.7E1,3.1E1,1.3E1],"tree_param":{"num_deleted":"0","num_feature":"113","num_nodes":"115","size_leaf_vector":"0"}},{"base_weights":[1.8473788E3,1.5522976E3,4.1453755E3,1.067069E3,1.8701539E3,3.6267576E3,7.0883823E3,9.7711597E2,2.9368203E3,1.6661156E3,2.5484888E3,3.288727E3,5.535055E3,1.2748918E4,6.3278394E3,7.960431E2,1.7109889E3,1.7056722E3,5.0867544E3,2.0409226E3,1.3752429E3,2.4222078E3,3.679373E3,3.6916494E3,1.4088993E3,4.1180405E3,9.102317E3,9.788428E3,1.682843E4,4.9524087E3,7.6623745E3,6.174512E2,9.8854016E2,1.9625267E3,1.1422678E3,9.401021E2,2.201072E3,8.210694E3,4.520868E3,2.5432493E3,1.4314086E3,1.076487E3,1.8081637E3,2.3729224E3,5.2014272E3,7.0191753E3,3.3117742E3,3.0611602E3,4.2954126E3,1.1852855E3,2.0197794E3,3.1360337E3,6.403704E3,7.0803857E3,1.2201069E4,1.0933567E4,3.4823362E3,2.9053774E3,5.6008086E3,6.4741646E3,9.099761E3,9.7986414E2,5.4965497E2,9.0479016E2,1.4023044E3,1.7187461E3,2.8736353E3,1.0968785E3,2.3969072E3,6.762792E2,1.3968019E3,6.396225E2,2.337492E3,3.6515193E3,5.9086606E3,2.2568625E3,3.0899958E3,1.2837582E3,3.1771187E3,1.003782E3,1.8106262E3,1.5880107E3,2.423802E3,2.0750977E3,2.7472053E3,5.788744E3,1.491134E3,9.5453E3,4.647317E3,2.805722E3,4.4375156E3,2.9619783E3,6.707633E3,1.0022864E4,4.0429917E3,1.1335714E3,1.694919E3,1.6485461E3,3.1985776E3,2.6440774E3,6.481799E3,8.799735E3,4.3519194E3,3.9165107E3,8.492474E3,1.3403511E4,1.9508727E3,1.1414313E4,2.8020852E3,3.7760867E3,8.599164E2,2.1313052E3,4.2598667E3,4.441294E3,6.485186E3,6.196961E3,1.3310337E4,1.0274672E4,6.4741885E3],"categories":[],"categories_nodes":[],"categories_segments":[],"categories_sizes":[],"default_left":[1,1,0,1,1,1,0,1,1,0,1,1,0,0,0,1,1,0,0,0,0,1,0,0,0,0,0,0,0,0,0,1,1,0,0,0,1,0,0,0,1,1,0,0,1,0,0,0,0,0,0,0,0,0,0,0,0,0,0,0,0,0,0,0,0,0,0,0,0,0,0,0,0,0,0,0,0,0,0,0,0,0,0,0,0,0,0,0,0,0,0,0,0,0,0,0,0,0,0,0,0,0,0,0,0,0,0,0,0,0,0,0,0,0,0,0,0,0,0],"id":1,"left_children":[1,3,5,7,9,11,13,15,17,19,21,23,25,27,29,31,33,35,37,39,41,43,45,47,49,51,53,55,-1,57,59,61,63,65,67,69,71,-1,73,75,77,79,81,83,85,87,89,91,93,95,97,99,101,103,105,107,109,111,113,115,117,-1,-1,-1,-1,-1,-1,-1,-1,-1,-1,-1,-1,-1,-1,-1,-1,-1,-1,-1,-1,-1,-1,-1,-1,-1,-1,-1,-1,-1,-1,-1,-1,-1,-1,-1,-1,-1,-1,-1,-1,-1,-1,-1,-1,-1,-1,-1,-1,-1,-1,-1,-1,-1,-1,-1,-1,-1,-1],"loss_changes":[1.9846169E10,3.9998833E9,5.058388E9,1.7247764E9,2.1654118E9,1.8099036E9,2.0632576E9,1.3011702E9,1.2380073E9,1.3113344E9,5.0848563E8,1.8201907E9,2.1108337E9,5.3576294E8,7.7153485E8,2.6974157E8,2.7514214E8,1.1208902E8,2.651735E8,1.6083722E9,8.762552E8,4.344709E8,4.21184E8,7.420928E8,5.5934656E7,6.6674586E8,6.654679E8,2.218944E8,0E0,2.7573248E8,3.202427E8,9.975693E7,1.2982272E8,2.9335552E8,3.1368384E7,1.3513912E7,3.727315E7,0E0,1.5577626E8,4.4476416E8,6.096353E8,2.127529E8,3.7171712E8,3.5178496E8,1.1339878E8,1.6534643E8,1.7440589E8,3.3239347E8,1.4211092E9,6.380576E6,4.41768E7,3.383909E8,4.0907315E8,3.0181427E8,5.408128E8,8.529152E7,2.14524E6,4.858691E7,1.4142157E8,1.5439309E8,2.3579136E8,0E0,0E0,0E0,0E0,0E0,0E0,0E0,0E0,0E0,0E0,0E0,0E0,0E0,0E0,0E0,0E0,0E0,0E0,0E0,0E0,0E0,0E0,0E0,0E0,0E0,0E0,0E0,0E0,0E0,0E0,0E0,0E0,0E0,0E0,0E0,0E0,0E0,0E0,0E0,0E0,0E0,0E0,0E0,0E0,0E0,0E0,0E0,0E0,0E0,0E0,0E0,0E0,0E0,0E0,0E0,0E0,0E0,0E0],"parents":[2147483647,0,0,1,1,2,2,3,3,4,4,5,5,6,6,7,7,8,8,9,9,10,10,11,11,12,12,13,13,14,14,15,15,16,16,17,17,18,18,19,19,20,20,21,21,22,22,23,23,24,24,25,25,26,26,27,27,29,29,30,30,31,31,32,32,33,33,34,34,35,35,36,36,38,38,39,39,40,40,41,41,42,42,43,43,44,44,45,45,46,46,47,47,48,48,49,49,50,50,51,51,52,52,53,53,54,54,55,55,56,56,57,57,58,58,59,59,60,60],"right_children":[2,4,6,8,10,12,14,16,18,20,22,24,26,28,30,32,34,36,38,40,42,44,46,48,50,52,54,56,-1,58,60,62,64,66,68,70,72,-1,74,76,78,80,82,84,86,88,90,92,94,96,98,100,102,104,106,108,110,112,114,116,118,-1,-1,-1,-1,-1,-1,-1,-1,-1,-1,-1,-1,-1,-1,-1,-1,-1,-1,-1,-1,-1,-1,-1,-1,-1,-1,-1,-1,-1,-1,-1,-1,-1,-1,-1,-1,-1,-1,-1,-1,-1,-1,-1,-1,-1,-1,-1,-1,-1,-1,-1,-1,-1,-1,-1,-1,-1,-1],"split_conditions":[4.995E-1,1.3282172E-3,2.2085E0,4.285714E-3,7.658333E-2,4.5E0,6.006289E-1,7.6055807E-1,1.6689768E0,7.0028016E-3,4.5E0,3.5E0,5.3999996E-1,4.1000004E0,2.79E0,1.15E1,3.5E0,8.1380916E-1,2.5E-1,1.6131916E0,1.0045044E0,3.9185E0,3.6666667E-1,1.0358729E0,8.5E-1,1.6887789E0,6.265432E-1,2.25E0,3.3656857E2,1.7516561E-1,3.5E0,1.5E0,1.0586836E0,2.0833334E-2,1.5E0,3.5E-2,2.0256412E-1,1.6421388E2,6.160919E0,1.2813663E0,4.5E0,2.0551472E0,1.8333334E-1,1.1006329E0,2.5E0,7.8280336E-1,1.25E-1,3.792E0,7.2169816E-1,3.037037E0,5E-1,2.5943224E0,1.9630363E0,4.7727275E-1,6.304697E-1,1.125E0,2.0434783E0,1.5E0,1.2736263E0,1.3382154E1,1.0794098E0,1.9597282E1,1.0993099E1,1.8095802E1,2.804609E1,3.437492E1,5.7472702E1,2.193757E1,4.7938145E1,1.3525583E1,2.7936037E1,1.279245E1,4.6749836E1,7.303039E1,1.1817321E2,4.513725E1,6.1799915E1,2.5675163E1,6.354237E1,2.007564E1,3.6212524E1,3.1760214E1,4.847604E1,4.1501953E1,5.4944107E1,1.1577488E2,2.982268E1,1.9090599E2,9.2946335E1,5.6114437E1,8.875031E1,5.9239563E1,1.3415265E2,2.0045728E2,8.085983E1,2.2671427E1,3.3898376E1,3.297092E1,6.397155E1,5.2881546E1,1.2963597E2,1.759947E2,8.703838E1,7.8330215E1,1.6984947E2,2.6807022E2,3.9017452E1,2.2828627E2,5.6041702E1,7.552173E1,1.7198328E1,4.2626102E1,8.5197334E1,8.8825874E1,1.2970372E2,1.2393922E2,2.6620673E2,2.0549344E2,1.2948376E2],"split_indices":[53,103,53,108,53,109,26,16,31,93,109,109,57,56,55,112,109,31,26,103,88,57,106,16,28,31,31,52,0,103,69,112,31,106,4,53,21,0,20,103,109,26,38,16,109,103,57,57,26,95,69,103,31,17,103,88,10,48,21,21,2,0,0,0,0,0,0,0,0,0,0,0,0,0,0,0,0,0,0,0,0,0,0,0,0,0,0,0,0,0,0,0,0,0,0,0,0,0,0,0,0,0,0,0,0,0,0,0,0,0,0,0,0,0,0,0,0,0,0],"split_type":[0,0,0,0,0,0,0,0,0,0,0,0,0,0,0,0,0,0,0,0,0,0,0,0,0,0,0,0,0,0,0,0,0,0,0,0,0,0,0,0,0,0,0,0,0,0,0,0,0,0,0,0,0,0,0,0,0,0,0,0,0,0,0,0,0,0,0,0,0,0,0,0,0,0,0,0,0,0,0,0,0,0,0,0,0,0,0,0,0,0,0,0,0,0,0,0,0,0,0,0,0,0,0,0,0,0,0,0,0,0,0,0,0,0,0,0,0,0,0],"sum_hessian":[2.9276E4,2.5946E4,3.33E3,1.0271E4,1.5675E4,2.833E3,4.97E2,9.801E3,4.7E2,1.2053E4,3.622E3,2.409E3,4.24E2,5.7E1,4.4E2,7.863E3,1.938E3,3E2,1.7E2,5.264E3,6.789E3,3.261E3,3.61E2,1.983E3,4.26E2,3.05E2,1.19E2,3.5E1,2.2E1,2.19E2,2.21E2,4.081E3,3.782E3,1.342E3,5.96E2,1.19E2,1.81E2,2.4E1,1.46E2,2.884E3,2.38E3,4.019E3,2.77E3,3.206E3,5.5E1,3.4E1,3.27E2,9.73E2,1.01E3,3.14E2,1.12E2,2.15E2,9E1,7.4E1,4.5E1,2.9E1,6E0,5.4E1,1.65E2,1.24E2,9.7E1,6.41E2,3.44E3,3.148E3,6.34E2,1.061E3,2.81E2,5.77E2,1.9E1,7.7E1,4.2E1,1.5E1,1.66E2,9.2E1,5.4E1,1.896E3,9.88E2,2.196E3,1.84E2,3.659E3,3.6E2,2.043E3,7.27E2,1.789E3,1.417E3,4.7E1,8E0,1.5E1,1.9E1,2.28E2,9.9E1,9.49E2,2.4E1,4.1E1,9.69E2,2.88E2,2.6E1,8.7E1,2.5E1,1.89E2,2.6E1,4E1,5E1,2.4E1,5E1,4E1,5E0,2.7E1,2E0,5E0,1E0,3.6E1,1.8E1,7.4E1,9.1E1,1.21E2,3E0,6.5E1,3.2E1],"tree_param":{"num_deleted":"0","num_feature":"113","num_nodes":"119","size_leaf_vector":"0"}},{"base_weights":[1.8343184E3,1.5459695E3,4.239415E3,1.8415267E3,9.9948474E2,3.679214E3,7.1340776E3,9.6231067E2,2.1536147E3,6.766651E2,1.328785E3,3.4532617E3,7.148096E3,1.2923333E4,6.421729E3,2.2921592E3,7.9921063E2,2.5105325E3,1.4530107E3,5.7403357E2,9.104261E2,1.5951593E3,8.3485016E2,2.4350178E3,3.9496533E3,1.1191621E4,4.3648257E3,8.817921E3,1.6299981E4,5.7010957E3,9.647783E3,2.1475652E3,4.511665E3,7.770754E2,1.6194703E3,2.2036873E3,3.110093E3,9.1309357E2,1.9508525E3,8.5866E2,4.850141E2,1.1199889E3,7.922674E2,1.4590763E3,2.1712947E3,6.428956E2,1.4610767E3,2.108943E3,3.2254844E3,5.3694033E3,2.6581472E3,6.4907085E3,1.4573644E4,6.1977124E3,1.2250715E3,1.099625E4,5.1786553E3,3.5907449E3,6.333457E3,1.1370721E4,6.880969E3,6.948764E2,2.276424E3,3.1309685E3,4.9764297E3,7.429692E2,1.2465189E3,5.37833E2,2.1603323E3,2.5309463E3,1.804322E3,2.9576768E3,5.3218936E3,8.325057E2,1.5189087E3,1.709809E3,2.4401829E3,8.2510565E2,1.5426033E3,5.7765686E2,4.397621E2,9.4483887E2,1.7963469E3,6.837653E2,1.099323E3,1.1752888E3,1.6371609E3,1.5664376E3,2.3305242E3,5.4577893E2,7.560349E2,1.2664071E3,1.7427603E3,4.0319597E3,1.9126622E3,1.8437859E3,3.5485962E3,6.175497E3,3.7059548E3,1.5168192E3,3.2579827E3,6.8468667E3,1.1217166E3,1.5047172E4,6.905245E3,2.2486536E3,8.528757E3,6.362444E2,1.4822588E3,1.6276647E3,1.1512312E4,2.317079E3,6.3198086E3,1.3789207E3,4.1713984E3,7.4797407E3,3.599173E3,5.183666E3,1.2633216E4,7.692854E3,4.1631597E3],"categories":[],"categories_nodes":[],"categories_segments":[],"categories_sizes":[],"default_left":[1,1,0,1,0,1,0,0,1,0,0,1,0,0,0,1,1,0,0,1,0,0,0,0,1,0,0,0,0,1,0,0,0,1,1,0,1,0,0,1,1,0,0,0,0,0,0,0,1,1,0,0,0,1,0,0,0,0,1,0,0,0,0,0,0,0,0,0,0,0,0,0,0,0,0,0,0,0,0,0,0,0,0,0,0,0,0,0,0,0,0,0,0,0,0,0,0,0,0,0,0,0,0,0,0,0,0,0,0,0,0,0,0,0,0,0,0,0,0,0,0],"id":2,"left_children":[1,3,5,7,9,11,13,15,17,19,21,23,25,27,29,31,33,35,37,39,41,43,45,47,49,51,53,55,-1,57,59,61,63,65,67,69,71,73,75,77,79,81,83,85,87,89,91,93,95,97,99,101,103,105,107,109,111,113,115,117,119,-1,-1,-1,-1,-1,-1,-1,-1,-1,-1,-1,-1,-1,-1,-1,-1,-1,-1,-1,-1,-1,-1,-1,-1,-1,-1,-1,-1,-1,-1,-1,-1,-1,-1,-1,-1,-1,-1,-1,-1,-1,-1,-1,-1,-1,-1,-1,-1,-1,-1,-1,-1,-1,-1,-1,-1,-1,-1,-1,-1],"loss_changes":[2.045467E10,4.2536632E9,5.094744E9,4.689494E9,9.824184E8,2.0508221E9,2.0243558E9,9.700895E8,3.1515853E9,1.1158835E8,6.010035E8,1.2479365E9,1.7630802E9,6.1870694E8,1.0074337E9,1.4724403E8,7.124096E7,1.5307899E9,1.1435469E9,8.192966E7,3.437325E7,2.2992128E8,1.9211328E8,2.0403763E8,3.0497014E9,9.38815E8,5.5062426E8,1.5709709E8,0E0,4.7903232E8,3.126569E8,8.471373E7,3.028224E6,6.135629E7,5.967981E7,7.184425E8,9.372836E8,9.8624E7,2.5720422E8,1.6467008E7,1.01344E7,5.883789E7,2.9699328E7,1.1977216E8,5.086131E7,1.3113216E7,1.8410944E7,2.1196493E8,9.9264E7,1.0431263E9,5.954606E8,4.7773824E7,3.0449664E7,5.4235315E8,4.66016E6,5.8617984E7,2.4542464E7,1.0855091E8,8.757463E8,3.1725875E8,4.2996096E7,0E0,0E0,0E0,0E0,0E0,0E0,0E0,0E0,0E0,0E0,0E0,0E0,0E0,0E0,0E0,0E0,0E0,0E0,0E0,0E0,0E0,0E0,0E0,0E0,0E0,0E0,0E0,0E0,0E0,0E0,0E0,0E0,0E0,0E0,0E0,0E0,0E0,0E0,0E0,0E0,0E0,0E0,0E0,0E0,0E0,0E0,0E0,0E0,0E0,0E0,0E0,0E0,0E0,0E0,0E0,0E0,0E0,0E0,0E0,0E0],"parents":[2147483647,0,0,1,1,2,2,3,3,4,4,5,5,6,6,7,7,8,8,9,9,10,10,11,11,12,12,13,13,14,14,15,15,16,16,17,17,18,18,19,19,20,20,21,21,22,22,23,23,24,24,25,25,26,26,27,27,29,29,30,30,31,31,32,32,33,33,34,34,35,35,36,36,37,37,38,38,39,39,40,40,41,41,42,42,43,43,44,44,45,45,46,46,47,47,48,48,49,49,50,50,51,51,52,52,53,53,54,54,55,55,56,56,57,57,58,58,59,59,60,60],"right_children":[2,4,6,8,10,12,14,16,18,20,22,24,26,28,30,32,34,36,38,40,42,44,46,48,50,52,54,56,-1,58,60,62,64,66,68,70,72,74,76,78,80,82,84,86,88,90,92,94,96,98,100,102,104,106,108,110,112,114,116,118,120,-1,-1,-1,-1,-1,-1,-1,-1,-1,-1,-1,-1,-1,-1,-1,-1,-1,-1,-1,-1,-1,-1,-1,-1,-1,-1,-1,-1,-1,-1,-1,-1,-1,-1,-1,-1,-1,-1,-1,-1,-1,-1,-1,-1,-1,-1,-1,-1,-1,-1,-1,-1,-1,-1,-1,-1,-1,-1,-1,-1],"split_conditions":[5.495E-1,7.5E0,2.2295E0,1.5E0,8E0,1.6288409E0,5.95912E-1,9.996271E-1,2.7449903E-4,1.5428755E0,1.4415E1,3.5E0,1.9650165E0,3.04E0,5.25E0,2.65E1,2.6961539E0,4.9967214E-2,9.994062E-1,8.5E0,1.8599133E0,7.38E-2,3.9160714E0,1.1507937E0,5.5E0,1.8795379E0,9.332967E-2,7.01087E-1,3.2599963E2,3.5E0,1.281169E0,1E-6,1.4246576E0,3.0071917E0,9.981731E-1,2.534E0,1.6957096E0,2.8219266E0,2.4999999E-2,3.05E-1,9.5E0,1.7816958E0,4.708489E-2,1.8198529E-1,3.923077E-1,1.002584E0,2.6917969E1,6.308725E-1,7.5E0,1.6881691E-2,2.6E1,9.763584E-1,4.5E0,4.5E0,4.368421E-1,2.31E0,1.625E0,9.152511E-1,6.5E0,3.125E-2,2.5E0,1.3897528E1,4.552848E1,6.261937E1,9.9528595E1,1.4859384E1,2.4930378E1,1.07566595E1,4.3206646E1,5.0618923E1,3.608644E1,5.9153534E1,1.0643787E2,1.6650114E1,3.0378174E1,3.419618E1,4.8803658E1,1.6502113E1,3.0852064E1,1.1553137E1,8.795241E0,1.8896776E1,3.5926937E1,1.3675306E1,2.198646E1,2.3505775E1,3.2743217E1,3.1328753E1,4.661048E1,1.0915579E1,1.5120698E1,2.5328142E1,3.4855206E1,8.063919E1,3.8253242E1,3.6875717E1,7.0971924E1,1.2350994E2,7.4119095E1,3.0336384E1,6.515965E1,1.3693733E2,2.243433E1,3.0094342E2,1.381049E2,4.4973072E1,1.7057513E2,1.2724888E1,2.9645176E1,3.255329E1,2.3024623E2,4.634158E1,1.2639617E2,2.7578413E1,8.342796E1,1.4959482E2,7.198346E1,1.0367332E2,2.526643E2,1.5385707E2,8.326319E1],"split_indices":[53,110,53,110,51,31,26,26,33,33,39,110,31,56,65,111,46,53,31,110,33,53,101,16,110,31,33,25,0,110,25,32,25,25,33,42,31,33,53,41,110,33,48,25,8,80,101,26,111,33,51,33,94,110,8,53,25,33,110,8,94,0,0,0,0,0,0,0,0,0,0,0,0,0,0,0,0,0,0,0,0,0,0,0,0,0,0,0,0,0,0,0,0,0,0,0,0,0,0,0,0,0,0,0,0,0,0,0,0,0,0,0,0,0,0,0,0,0,0,0,0],"split_type":[0,0,0,0,0,0,0,0,0,0,0,0,0,0,0,0,0,0,0,0,0,0,0,0,0,0,0,0,0,0,0,0,0,0,0,0,0,0,0,0,0,0,0,0,0,0,0,0,0,0,0,0,0,0,0,0,0,0,0,0,0,0,0,0,0,0,0,0,0,0,0,0,0,0,0,0,0,0,0,0,0,0,0,0,0,0,0,0,0,0,0,0,0,0,0,0,0,0,0,0,0,0,0,0,0,0,0,0,0,0,0,0,0,0,0,0,0,0,0,0,0],"sum_hessian":[2.9503E4,2.6346E4,3.157E3,1.7097E4,9.249E3,2.647E3,5.1E2,4.48E3,1.2617E4,4.672E3,4.577E3,2.487E3,1.6E2,5.4E1,4.56E2,4.88E2,3.992E3,8.357E3,4.26E3,3.249E3,1.423E3,2.972E3,1.605E3,8.17E2,1.67E3,6.4E1,9.6E1,2.6E1,2.8E1,3.75E2,8.1E1,4.6E2,2.8E1,3.889E3,1.03E2,5.531E3,2.826E3,2.045E3,2.215E3,7.72E2,2.477E3,5.1E2,9.13E2,2.407E3,5.65E2,1.23E3,3.75E2,5.81E2,2.36E2,7.94E2,8.76E2,2.8E1,3.6E1,6E1,3.6E1,1.5E1,1.1E1,8.8E1,2.87E2,4.8E1,3.3E1,3.8E1,4.22E2,9E0,1.9E1,3.628E3,2.61E2,3.5E1,6.8E1,3.037E3,2.494E3,2.646E3,1.8E2,1.807E3,2.38E2,1.487E3,7.28E2,7.38E2,3.4E1,8.09E2,1.668E3,4.07E2,1.03E2,6.77E2,2.36E2,9.31E2,1.476E3,1.2E2,4.45E2,6.65E2,5.65E2,2.25E2,1.5E2,5.2E1,5.29E2,4.6E1,1.9E2,5.33E2,2.61E2,3.03E2,5.73E2,2.6E1,2E0,3.3E1,3E0,2.3E1,3.7E1,1.2E1,2.4E1,1E0,1.4E1,4E0,7E0,1.9E1,6.9E1,2.01E2,8.6E1,9E0,3.9E1,2.4E1,9E0],"tree_param":{"num_deleted":"0","num_feature":"113","num_nodes":"121","size_leaf_vector":"0"}},{"base_weights":[1.7928779E3,1.5308291E3,3.518558E3,1.316904E3,2.2811526E3,3.075512E3,6.2747847E3,1.2417855E3,2.5594531E3,2.181974E3,3.7351255E3,2.8118992E3,5.1329043E3,1.304868E4,5.578909E3,1.1939973E3,2.4746008E3,1.9931407E3,5.1931772E3,2.1003948E3,3.2924163E3,3.600391E3,9.995986E3,5.415637E3,2.6716592E3,9.291638E3,4.7202344E3,1.0540825E4,1.7149299E4,4.399339E3,7.4252524E3,1.0310592E3,1.4350817E3,2.3984795E3,9.624468E3,1.7068993E3,3.0034563E3,9.597579E3,4.1279897E3,3.7561416E3,2.0436741E3,3.4214165E3,1.6406512E3,3.336989E3,5.8982466E3,4.1253535E3,1.0890253E4,1.9342306E3,2.9197114E3,1.1729503E4,5.1452847E3,4.410879E3,8.859436E3,4.6314395E3,1.3697072E4,4.00658E3,8.207628E3,5.9375083E3,8.675093E3,9.1585315E2,1.588833E3,2.0015156E3,1.1130897E3,2.06578E3,3.3961714E3,1.2450604E4,4.3922144E3,1.6445525E3,4.5566616E3,2.779486E3,4.7299604E3,7.112649E3,1.2933628E4,4.727122E3,2.6498445E3,4.7814976E3,2.3746084E3,2.0940955E3,1.2667827E3,3.9464514E3,2.894786E3,9.0189844E2,1.9431184E3,2.9314153E3,5.0745776E3,4.5897036E3,8.336003E3,2.629961E3,1.08710205E4,1.2514946E4,2.8472202E3,1.3901613E3,3.2835356E3,3.394724E3,2.3035708E3,1.2419043E4,5.866583E3,5.943453E3,1.664E3,3.8999702E3,6.201734E3,2.503255E3,9.345583E3,5.986853E3,1.2654072E3,4.6258096E3,2.853611E3,1.0390917E4,5.0570933E3,5.078716E3,9.275998E3,6.5585E3,1.02876045E4],"categories":[],"categories_nodes":[],"categories_segments":[],"categories_sizes":[],"default_left":[1,1,0,1,0,0,0,1,1,0,0,0,0,0,0,0,0,1,0,0,1,0,0,0,0,0,0,1,0,0,0,0,0,0,0,0,0,0,0,0,0,0,0,0,0,1,0,1,0,0,0,0,0,0,0,0,1,1,0,0,0,0,0,0,0,0,0,0,0,0,0,0,0,0,0,0,0,0,0,0,0,0,0,0,0,0,0,0,0,0,0,0,0,0,0,0,0,0,0,0,0,0,0,0,0,0,0,0,0,0,0,0,0],"id":3,"left_children":[1,3,5,7,9,11,13,15,17,19,21,23,25,27,29,31,33,35,37,39,41,43,-1,45,47,49,51,53,-1,55,57,59,61,63,65,67,69,71,73,75,77,79,81,83,85,87,89,91,93,95,97,99,101,103,-1,105,107,109,111,-1,-1,-1,-1,-1,-1,-1,-1,-1,-1,-1,-1,-1,-1,-1,-1,-1,-1,-1,-1,-1,-1,-1,-1,-1,-1,-1,-1,-1,-1,-1,-1,-1,-1,-1,-1,-1,-1,-1,-1,-1,-1,-1,-1,-1,-1,-1,-1,-1,-1,-1,-1,-1,-1],"loss_changes":[1.3248053E10,4.081406E9,4.697952E9,1.845203E9,8.057303E8,1.7916109E9,2.4443658E9,1.0973266E9,1.6720737E9,4.7193907E8,2.6684518E8,1.0641756E9,6.031432E8,3.231355E8,1.0257889E9,7.048458E8,3.5571814E8,2.6382413E8,8.9399296E8,4.5504512E8,7.109478E7,1.9397478E8,0E0,1.01464474E9,5.0744525E8,2.732206E8,4.0268954E8,5.5206195E8,0E0,4.1434163E8,2.9806694E8,6.882376E8,1.3198971E9,2.2201728E8,4.882368E7,1.2167514E8,6.573709E7,2.2302182E8,1.3094195E8,2.181289E8,1.8403942E8,8.064998E7,4.504056E6,2.0992998E8,7.338701E7,1.2121624E9,3.3025613E8,5.1592346E8,6.059192E8,7.996928E6,2.9011264E7,2.7134618E8,4.7676544E7,5.173491E7,0E0,1.817088E8,1.3317235E8,2.0805914E8,2.7383194E8,0E0,0E0,0E0,0E0,0E0,0E0,0E0,0E0,0E0,0E0,0E0,0E0,0E0,0E0,0E0,0E0,0E0,0E0,0E0,0E0,0E0,0E0,0E0,0E0,0E0,0E0,0E0,0E0,0E0,0E0,0E0,0E0,0E0,0E0,0E0,0E0,0E0,0E0,0E0,0E0,0E0,0E0,0E0,0E0,0E0,0E0,0E0,0E0,0E0,0E0,0E0,0E0,0E0,0E0],"parents":[2147483647,0,0,1,1,2,2,3,3,4,4,5,5,6,6,7,7,8,8,9,9,10,10,11,11,12,12,13,13,14,14,15,15,16,16,17,17,18,18,19,19,20,20,21,21,23,23,24,24,25,25,26,26,27,27,29,29,30,30,31,31,32,32,33,33,34,34,35,35,36,36,37,37,38,38,39,39,40,40,41,41,42,42,43,43,44,44,45,45,46,46,47,47,48,48,49,49,50,50,51,51,52,52,53,53,55,55,56,56,57,57,58,58],"right_children":[2,4,6,8,10,12,14,16,18,20,22,24,26,28,30,32,34,36,38,40,42,44,-1,46,48,50,52,54,-1,56,58,60,62,64,66,68,70,72,74,76,78,80,82,84,86,88,90,92,94,96,98,100,102,104,-1,106,108,110,112,-1,-1,-1,-1,-1,-1,-1,-1,-1,-1,-1,-1,-1,-1,-1,-1,-1,-1,-1,-1,-1,-1,-1,-1,-1,-1,-1,-1,-1,-1,-1,-1,-1,-1,-1,-1,-1,-1,-1,-1,-1,-1,-1,-1,-1,-1,-1,-1,-1,-1,-1,-1,-1,-1],"split_conditions":[4.985E-1,1.0175655E0,2.9004784E0,3.496527E-2,8.939394E-1,1.575144E0,5.738474E-1,1.1805555E-1,1.6887789E0,4.4897962E-1,1.3118422E1,6.12294E-1,8.325131E-1,4.0726614E-1,2.5757575E-1,7.619048E-1,6.560606E0,4.5E0,9E-1,7.184906E-1,2.4409449E-1,4.29E0,1.9991972E2,1.8194444E0,9.571341E-1,7.0000005E-1,7.5E0,9.475247E-1,3.4298596E2,6.8315E0,2.4642859E0,4.2403847E-1,2.534E0,1.54E0,5E-1,4.8536587E0,3.4722224E-2,1.9151815E0,1.8728836E0,2.8333333E-1,8.444445E0,1.0121951E0,9.9927473E-1,2.5E-1,1.9423077E0,1.8646865E0,5E-1,4.5E0,1.3717105E0,3.75E-1,1.5E0,1.9185E0,2E-1,4.5E0,2.7394144E2,1.4703138E0,1.35E1,4.5E0,2.5E0,1.8317062E1,3.1776659E1,4.003031E1,2.2261793E1,4.13156E1,6.792342E1,2.4901207E2,8.7844284E1,3.289105E1,9.113323E1,5.558972E1,9.4599205E1,1.4225298E2,2.5867255E2,9.454244E1,5.2996887E1,9.562995E1,4.749217E1,4.188191E1,2.5335653E1,7.892902E1,5.7895718E1,1.8037968E1,3.8862366E1,5.8628304E1,1.01491554E2,9.179407E1,1.6672006E2,5.2599216E1,2.1742041E2,2.5029892E2,5.6944405E1,2.7803225E1,6.567071E1,6.789448E1,4.6071415E1,2.4838086E2,1.1733166E2,1.1886906E2,3.328E1,7.7999405E1,1.24034676E2,5.0065098E1,1.8691165E2,1.1973706E2,2.5308144E1,9.251619E1,5.707222E1,2.0781833E2,1.0114186E2,1.0157432E2,1.8551996E2,1.3117E2,2.0575209E2],"split_indices":[55,16,55,108,81,57,26,81,31,52,100,26,26,26,74,32,11,109,26,26,44,54,0,16,16,8,74,31,0,55,86,16,42,54,18,74,81,31,31,11,99,18,44,61,5,31,83,109,96,11,93,55,88,93,0,36,112,109,66,0,0,0,0,0,0,0,0,0,0,0,0,0,0,0,0,0,0,0,0,0,0,0,0,0,0,0,0,0,0,0,0,0,0,0,0,0,0,0,0,0,0,0,0,0,0,0,0,0,0,0,0,0,0],"split_type":[0,0,0,0,0,0,0,0,0,0,0,0,0,0,0,0,0,0,0,0,0,0,0,0,0,0,0,0,0,0,0,0,0,0,0,0,0,0,0,0,0,0,0,0,0,0,0,0,0,0,0,0,0,0,0,0,0,0,0,0,0,0,0,0,0,0,0,0,0,0,0,0,0,0,0,0,0,0,0,0,0,0,0,0,0,0,0,0,0,0,0,0,0,0,0,0,0,0,0,0,0,0,0,0,0,0,0,0,0,0,0,0,0],"sum_hessian":[2.9307E4,2.5445E4,3.862E3,1.9802E4,5.643E3,3.329E3,5.33E2,1.8675E4,1.127E3,5.285E3,3.58E2,2.953E3,3.76E2,4.8E1,4.85E2,1.798E4,6.95E2,9.29E2,1.98E2,4.926E3,3.59E2,3.52E2,6E0,1.49E2,2.804E3,3.2E1,3.44E2,3.2E1,1.6E1,2.98E2,1.87E2,1.0732E4,7.248E3,6.89E2,6E0,7.26E2,2.03E2,3.7E1,1.61E2,1.61E2,4.765E3,3.32E2,2.7E1,3.18E2,3.4E1,1.22E2,2.7E1,7.08E2,2.096E3,1.9E1,1.3E1,3.22E2,2.2E1,1.2E1,2E1,2.72E2,2.6E1,8.8E1,9.9E1,8.897E3,1.835E3,2.625E3,4.623E3,5.19E2,1.7E2,3E0,3E0,7.12E2,1.4E1,1.82E2,2.1E1,2.3E1,1.4E1,1.13E2,4.8E1,9.1E1,7E1,4.473E3,2.92E2,1.63E2,1.69E2,9E0,1.8E1,2.6E2,5.8E1,2.4E1,1E1,1.01E2,2.1E1,2.2E1,5E0,5.06E2,2.02E2,1.181E3,9.15E2,1.6E1,3E0,1E1,3E0,2.53E2,6.9E1,2E0,2E1,8E0,4E0,1.75E2,9.7E1,1.4E1,1.2E1,7.2E1,1.6E1,4.5E1,5.4E1],"tree_param":{"num_deleted":"0","num_feature":"113","num_nodes":"113","size_leaf_vector":"0"}},{"base_weights":[1.7461868E3,1.510447E3,4.4383125E3,1.01805273E3,1.823841E3,3.7602212E3,6.8930234E3,9.2751184E2,2.8221665E3,1.580908E3,2.5233838E3,3.5193628E3,7.6733584E3,6.3385127E3,1.2793648E4,8.1432214E2,1.3084149E3,1.6556957E3,5.018219E3,1.9262399E3,1.2829124E3,2.4352908E3,4.5678237E3,3.267586E3,5.5040605E3,1.2482775E4,4.952913E3,5.50232E3,1.0171097E4,1.3220584E4,2.6943237E3,6.7179926E2,9.878791E2,1.7231279E3,1.0472648E3,8.730207E2,2.2278086E3,3.914817E3,6.004564E3,2.4421306E3,1.3162798E3,9.5493536E2,1.7268973E3,2.3194011E3,3.424013E3,8.573874E3,3.9955989E3,2.3134849E3,3.6037803E3,3.725312E3,7.515525E3,6.45347E3,1.4131405E4,2.2227732E3,7.06603E3,4.170062E3,6.883003E3,1.1130347E4,6.0887847E3,8.667382E3,1.3903085E4,6.138254E2,8.922979E2,1.2498506E3,5.7526025E2,2.7712944E3,1.01052545E3,9.246798E2,1.3177511E3,6.898103E2,1.7374292E3,2.0800586E3,4.679305E3,3.511437E3,4.444039E3,1.4901906E3,6.679978E3,2.1362363E3,3.0317837E3,1.1834308E3,2.9457751E3,9.037136E2,2.0769575E3,1.5118141E3,2.3209006E3,1.470955E3,2.4771843E3,3.2512566E3,8.675536E3,1.2141081E4,4.2272246E3,2.4822908E3,4.735499E3,1.763644E3,3.0171343E3,8.834812E3,3.503466E3,3.3233665E3,6.8945356E3,1.212234E4,5.684392E3,7.8349004E3,6.185008E2,3.8858296E3,1.4358539E4,1.5325903E3,3.1136106E3,1.6763274E3,9.123544E3,3.7648582E3,8.916587E3,9.914345E3,5.4652E3,8.8842295E3,1.4943339E4,1.3200613E3,6.602371E3,9.42908E3,1.6677463E3],"categories":[],"categories_nodes":[],"categories_segments":[],"categories_sizes":[],"default_left":[1,1,0,1,1,1,1,1,1,0,0,0,0,0,0,0,1,0,0,0,0,1,0,0,0,0,0,0,0,0,0,0,0,0,0,0,1,0,1,0,1,0,0,0,0,0,0,0,0,0,0,0,0,0,1,0,0,0,0,0,0,0,0,0,0,0,0,0,0,0,0,0,0,0,0,0,0,0,0,0,0,0,0,0,0,0,0,0,0,0,0,0,0,0,0,0,0,0,0,0,0,0,0,0,0,0,0,0,0,0,0,0,0,0,0,0,0,0,0],"id":4,"left_children":[1,3,5,7,9,11,13,15,17,19,21,23,25,27,29,31,33,35,37,39,41,43,45,47,49,51,53,55,57,59,-1,61,63,65,67,69,71,73,75,77,79,81,83,85,87,89,91,93,95,97,99,101,103,105,107,109,111,113,115,117,-1,-1,-1,-1,-1,-1,-1,-1,-1,-1,-1,-1,-1,-1,-1,-1,-1,-1,-1,-1,-1,-1,-1,-1,-1,-1,-1,-1,-1,-1,-1,-1,-1,-1,-1,-1,-1,-1,-1,-1,-1,-1,-1,-1,-1,-1,-1,-1,-1,-1,-1,-1,-1,-1,-1,-1,-1,-1,-1],"loss_changes":[1.8686018E10,4.1775677E9,3.9206543E9,1.7183969E9,2.8083814E9,1.7260667E9,1.5941509E9,4.315433E8,1.2801923E9,1.2618465E9,7.5682406E8,8.584909E8,1.338136E9,1.450281E9,1.4978406E8,1.9074253E8,2.4696627E8,1.4582202E8,1.6586342E8,1.7869599E9,9.5913165E8,4.6070374E8,3.6690534E8,4.91733E8,6.732682E8,2.8652698E8,3.881312E8,6.8499456E8,2.5725491E8,6.90688E6,0E0,5.3806336E7,3.7620634E8,6.58976E8,4.56E7,2.1131472E7,5.9086464E7,2.540544E6,2.6446182E8,5.49247E8,5.61302E8,2.163438E8,3.54475E8,4.8685466E8,3.5918182E8,2.7429018E8,1.6179814E8,1.5291904E8,5.730314E8,1.1211546E8,6.987392E8,7.57601E7,1.1691008E7,1.4903008E7,4.1719194E8,3.5109274E8,7.581092E8,4.3249203E8,3.5369216E7,2.6927616E7,0E0,0E0,0E0,0E0,0E0,0E0,0E0,0E0,0E0,0E0,0E0,0E0,0E0,0E0,0E0,0E0,0E0,0E0,0E0,0E0,0E0,0E0,0E0,0E0,0E0,0E0,0E0,0E0,0E0,0E0,0E0,0E0,0E0,0E0,0E0,0E0,0E0,0E0,0E0,0E0,0E0,0E0,0E0,0E0,0E0,0E0,0E0,0E0,0E0,0E0,0E0,0E0,0E0,0E0,0E0,0E0,0E0,0E0,0E0],"parents":[2147483647,0,0,1,1,2,2,3,3,4,4,5,5,6,6,7,7,8,8,9,9,10,10,11,11,12,12,13,13,14,14,15,15,16,16,17,17,18,18,19,19,20,20,21,21,22,22,23,23,24,24,25,25,26,26,27,27,28,28,29,29,31,31,32,32,33,33,34,34,35,35,36,36,37,37,38,38,39,39,40,40,41,41,42,42,43,43,44,44,45,45,46,46,47,47,48,48,49,49,50,50,51,51,52,52,53,53,54,54,55,55,56,56,57,57,58,58,59,59],"right_children":[2,4,6,8,10,12,14,16,18,20,22,24,26,28,30,32,34,36,38,40,42,44,46,48,50,52,54,56,58,60,-1,62,64,66,68,70,72,74,76,78,80,82,84,86,88,90,92,94,96,98,100,102,104,106,108,110,112,114,116,118,-1,-1,-1,-1,-1,-1,-1,-1,-1,-1,-1,-1,-1,-1,-1,-1,-1,-1,-1,-1,-1,-1,-1,-1,-1,-1,-1,-1,-1,-1,-1,-1,-1,-1,-1,-1,-1,-1,-1,-1,-1,-1,-1,-1,-1,-1,-1,-1,-1,-1,-1,-1,-1,-1,-1,-1,-1,-1,-1],"split_conditions":[7.5750005E-1,8.6805556E-4,2.213E0,5.5714287E-2,7.986232E-2,1.8125911E0,1.8478549E0,4.4949494E-2,1.6689768E0,1.06085E3,3.9444444E0,2.801282E0,1.9643564E0,4.5E0,1.5E0,9.9821854E-1,3.5E0,7.3593074E-1,1.7821782E0,1.6129305E0,1.0045044E0,4.5E0,5E-1,4.233303E-1,1.3235569E0,2.5E-1,8.095238E-1,1.2815762E0,2.6190476E0,1.085E0,5.3886475E1,2.4999999E-2,3.4718192E-1,1.2743473E-1,9.7913355E-1,1.2566137E0,6.05E-1,2.2727273E-2,4.5E0,1.2813663E0,4.5E0,2.6578946E0,1.8333334E-1,1.5E0,4.25E0,3.541667E-1,4.9983335E-1,1.4212964E0,5.8410096E-1,3.5815E0,1.532098E0,1.5E0,1.8184819E0,1.29E0,4.5E0,4.4840426E0,1.512538E0,1.2649632E0,8.5E-2,4.6589665E0,2.780617E2,1.2276507E1,1.7845959E1,2.4997011E1,1.1505205E1,5.5425888E1,2.0210508E1,1.8493595E1,2.635502E1,1.37962055E1,3.4748585E1,4.160117E1,9.35861E1,7.022874E1,8.8880775E1,2.980381E1,1.3359956E2,4.2724724E1,6.0635674E1,2.3668615E1,5.89155E1,1.8074272E1,4.153915E1,3.023628E1,4.641801E1,2.9419098E1,4.9543686E1,6.502513E1,1.7351071E2,2.4282161E2,8.454449E1,4.9645813E1,9.470998E1,3.527288E1,6.0342686E1,1.7669623E2,7.006932E1,6.646733E1,1.3789072E2,2.424468E2,1.13687836E2,1.56698E2,1.2370015E1,7.771659E1,2.8717078E2,3.0651806E1,6.227221E1,3.3526546E1,1.8247087E2,7.5297165E1,1.7833174E2,1.982869E2,1.09304E2,1.7768459E2,2.9886676E2,2.6401224E1,1.3204742E2,1.885816E2,3.3354927E1],"split_indices":[53,103,53,108,53,31,31,17,31,42,74,74,31,66,44,31,109,31,31,103,88,109,51,103,103,92,14,103,43,55,0,53,44,44,15,15,53,15,109,103,109,13,38,44,101,15,57,31,103,55,103,66,31,53,109,22,103,72,39,31,0,0,0,0,0,0,0,0,0,0,0,0,0,0,0,0,0,0,0,0,0,0,0,0,0,0,0,0,0,0,0,0,0,0,0,0,0,0,0,0,0,0,0,0,0,0,0,0,0,0,0,0,0,0,0,0,0,0,0],"split_type":[0,0,0,0,0,0,0,0,0,0,0,0,0,0,0,0,0,0,0,0,0,0,0,0,0,0,0,0,0,0,0,0,0,0,0,0,0,0,0,0,0,0,0,0,0,0,0,0,0,0,0,0,0,0,0,0,0,0,0,0,0,0,0,0,0,0,0,0,0,0,0,0,0,0,0,0,0,0,0,0,0,0,0,0,0,0,0,0,0,0,0,0,0,0,0,0,0,0,0,0,0,0,0,0,0,0,0,0,0,0,0,0,0,0,0,0,0,0,0],"sum_hessian":[2.9453E4,2.7083E4,2.37E3,1.0535E4,1.6548E4,1.859E3,5.11E2,1.0033E4,5.02E2,1.2285E4,4.263E3,1.753E3,1.06E2,4.69E2,4.2E1,7.737E3,2.296E3,3.29E2,1.73E2,5.688E3,6.597E3,4.089E3,1.74E2,1.558E3,1.95E2,3.7E1,6.9E1,3.87E2,8.2E1,4E1,2E0,4.251E3,3.486E3,8.85E2,1.411E3,1.4E2,1.89E2,8.4E1,8.9E1,3.08E3,2.608E3,3.796E3,2.801E3,3.663E3,4.26E2,2E1,1.54E2,4.08E2,1.15E3,1.05E2,9E1,9E0,2.8E1,3.1E1,3.8E1,1.99E2,1.88E2,6.5E1,1.7E1,7E0,3.3E1,3.369E3,8.82E2,2.131E3,1.355E3,3.57E2,5.28E2,9.74E2,4.37E2,1.17E2,2.3E1,1.8E2,9E0,5.2E1,3.2E1,1.2E1,7.7E1,2.031E3,1.049E3,2.413E3,1.95E2,3.632E3,1.64E2,2.059E3,7.42E2,5.76E2,3.087E3,4.14E2,1.2E1,1E1,1E1,5.2E1,1.02E2,2.31E2,1.77E2,2E1,1.13E3,9.5E1,1E1,2.4E1,6.6E1,7E0,2E0,1E0,2.7E1,1.9E1,1.2E1,1.1E1,2.7E1,1.85E2,1.4E1,5.8E1,1.3E2,4.3E1,2.2E1,2E0,1.5E1,6E0,1E0],"tree_param":{"num_deleted":"0","num_feature":"113","num_nodes":"119","size_leaf_vector":"0"}},{"base_weights":[1.7136138E3,1.4395922E3,3.8379136E3,1.2438895E3,2.1021953E3,3.336482E3,6.6385737E3,1.1157178E3,1.8677019E3,1.8994987E3,2.5612412E3,3.1440461E3,6.1349033E3,1.19697705E4,5.9781016E3,1.01333093E3,1.7373973E3,1.7705634E3,3.3511675E3,2.448819E3,1.7216083E3,6.125815E3,2.4937175E3,3.4148384E3,1.684992E3,5.37789E3,1.273336E4,7.624895E3,1.4854371E4,6.730306E3,3.102897E3,8.3098334E2,1.2105894E3,1.2610729E3,2.8268499E3,1.6289099E3,2.7821418E3,3.0398362E3,6.9166104E3,1.762002E3,3.4519338E3,1.576015E3,2.2180698E3,4.247865E3,1.2494218E4,2.4430684E3,5.0228467E3,3.2749077E3,6.0517783E3,1.2402332E3,2.1798965E3,6.1345244E3,3.015973E3,1.4748001E4,1.9951147E3,8.571495E3,2.3135134E3,1.5307288E4,4.069781E2,5.7557285E3,8.774304E3,2.2845713E3,4.463848E3,7.858671E2,2.0436221E3,8.576494E2,1.5341162E3,1.06713E3,1.8004755E3,2.4345256E3,3.675942E3,1.5166202E3,2.606682E3,1.9874058E3,3.4794434E3,2.8301086E3,7.5622427E3,7.6183633E3,1.3362263E3,2.0627927E3,1.2005387E3,4.0233796E3,2.933049E3,1.4846431E3,2.2061953E3,2.0056956E3,3.2646138E3,2.8586086E3,6.7087554E3,2.3077454E3,3.1349592E3,5.8538994E3,2.0639329E3,2.2212942E3,3.6683281E3,1.1031771E4,3.7395793E3,1.1260586E3,2.5575217E3,2.3366257E3,7.550903E2,6.408154E3,2.7410457E3,2.4408674E3,5.542805E3,1.5667344E4,9.386061E2,9.831357E3,5.9392915E3,5.213188E3,8.266803E3,1.0393918E4,6.059921E3,2.0301881E3,3.7478843E3,2.4291719E3,5.704624E3],"categories":[],"categories_nodes":[],"categories_segments":[],"categories_sizes":[],"default_left":[1,1,0,1,0,0,0,1,0,0,0,1,1,0,1,0,1,0,0,0,0,0,0,1,0,1,0,1,1,0,0,0,1,0,0,1,1,0,0,0,0,0,0,0,0,0,0,0,0,0,0,0,0,0,0,0,0,0,0,1,0,1,0,0,0,0,0,0,0,0,0,0,0,0,0,0,0,0,0,0,0,0,0,0,0,0,0,0,0,0,0,0,0,0,0,0,0,0,0,0,0,0,0,0,0,0,0,0,0,0,0,0,0,0,0,0,0],"id":5,"left_children":[1,3,5,7,9,11,13,15,17,19,21,23,25,27,29,31,33,35,37,39,41,43,45,47,49,51,53,55,57,59,61,63,65,67,69,71,73,75,77,79,81,83,85,87,-1,89,91,93,95,97,99,101,103,105,-1,107,-1,-1,-1,109,111,113,115,-1,-1,-1,-1,-1,-1,-1,-1,-1,-1,-1,-1,-1,-1,-1,-1,-1,-1,-1,-1,-1,-1,-1,-1,-1,-1,-1,-1,-1,-1,-1,-1,-1,-1,-1,-1,-1,-1,-1,-1,-1,-1,-1,-1,-1,-1,-1,-1,-1,-1,-1,-1,-1,-1],"loss_changes":[1.7075143E10,3.36785E9,4.6851973E9,1.6024576E9,5.464392E8,1.512792E9,1.7171681E9,1.05804186E9,4.8675123E8,3.977984E8,4.208599E8,1.04679424E9,8.406323E8,5.76065E8,9.610025E8,5.132882E8,1.2174843E9,4.5558374E8,2.109719E8,6.8562995E8,2.2137242E8,3.415909E8,2.1574349E8,8.089293E8,8.952384E7,2.7637094E8,3.5998285E8,1.0083584E8,2.0316058E8,6.646364E8,9.671731E7,4.0505088E8,7.826821E8,1.6953958E8,2.2923162E8,3.0555494E8,2.1087386E8,1.6260198E8,5.247699E7,9.851546E7,1.088809E8,1.3543629E8,1.497001E8,7.313014E7,0E0,1.563351E8,7.152448E7,8.7683686E8,1.2483963E9,3.0659456E7,4.222739E7,9.757594E7,4.750496E7,1.7572813E8,0E0,7.933056E6,0E0,0E0,0E0,2.9204378E8,4.38187E8,1.5470112E7,7.450278E7,0E0,0E0,0E0,0E0,0E0,0E0,0E0,0E0,0E0,0E0,0E0,0E0,0E0,0E0,0E0,0E0,0E0,0E0,0E0,0E0,0E0,0E0,0E0,0E0,0E0,0E0,0E0,0E0,0E0,0E0,0E0,0E0,0E0,0E0,0E0,0E0,0E0,0E0,0E0,0E0,0E0,0E0,0E0,0E0,0E0,0E0,0E0,0E0,0E0,0E0,0E0,0E0,0E0,0E0],"parents":[2147483647,0,0,1,1,2,2,3,3,4,4,5,5,6,6,7,7,8,8,9,9,10,10,11,11,12,12,13,13,14,14,15,15,16,16,17,17,18,18,19,19,20,20,21,21,22,22,23,23,24,24,25,25,26,26,27,27,28,28,29,29,30,30,31,31,32,32,33,33,34,34,35,35,36,36,37,37,38,38,39,39,40,40,41,41,42,42,43,43,45,45,46,46,47,47,48,48,49,49,50,50,51,51,52,52,53,53,55,55,59,59,60,60,61,61,62,62],"right_children":[2,4,6,8,10,12,14,16,18,20,22,24,26,28,30,32,34,36,38,40,42,44,46,48,50,52,54,56,58,60,62,64,66,68,70,72,74,76,78,80,82,84,86,88,-1,90,92,94,96,98,100,102,104,106,-1,108,-1,-1,-1,110,112,114,116,-1,-1,-1,-1,-1,-1,-1,-1,-1,-1,-1,-1,-1,-1,-1,-1,-1,-1,-1,-1,-1,-1,-1,-1,-1,-1,-1,-1,-1,-1,-1,-1,-1,-1,-1,-1,-1,-1,-1,-1,-1,-1,-1,-1,-1,-1,-1,-1,-1,-1,-1,-1,-1,-1],"split_conditions":[4.905E-1,1.0539087E0,2.1585002E0,7.59E-2,6.8262264E-2,2.71E0,6.053459E-1,1.5291687E0,3.066544E0,8.693182E-1,7.216981E-1,1.8008423E0,1.5811331E0,2.58E0,9.044743E-2,9.830508E-1,4.5E0,2.8655367E0,8.12234E0,5.3691006E0,2.1844292E0,7.8999996E-1,4.0415E0,1.8116009E0,4.4E1,8.8525936E-2,4E0,5.041673E-1,1.6576876E-1,3.5E0,7.878788E-1,8.426966E-3,1.5E0,1.0222223E0,1.6689769E0,1.9895983E0,4.5E0,2.5E0,1.3462026E1,2.2699958E-1,1.1712939E0,3.990566E0,4.881421E0,2.3484848E0,2.4988435E2,2.5E-1,1.5836121E0,9.736842E-1,1.9653466E0,2.965379E0,2.850564E0,3.0714285E0,3.5E0,1.1E1,3.9902294E1,1.326087E0,4.6270267E1,3.0614575E2,8.139562E0,4.5E0,1.0833333E0,4.5E0,1.6499999E-1,1.5717342E1,4.087244E1,1.7152988E1,3.0682323E1,2.13426E1,3.600951E1,4.869051E1,7.351884E1,3.0332403E1,5.2133636E1,3.9748116E1,6.958887E1,5.6602173E1,1.5124484E2,1.5236726E2,2.6724525E1,4.125585E1,2.4010773E1,8.046759E1,5.866098E1,2.9692862E1,4.4123905E1,4.011391E1,6.5292274E1,5.7172173E1,1.3417511E2,4.6154907E1,6.2699184E1,1.1707799E2,4.1278656E1,4.4425884E1,7.336656E1,2.2063542E2,7.479159E1,2.2521172E1,5.1150433E1,4.6732513E1,1.5101805E1,1.2816307E2,5.482091E1,4.881735E1,1.108561E2,3.1334686E2,1.8772121E1,1.9662715E2,1.1878583E2,1.04263756E2,1.6533604E2,2.0787836E2,1.2119842E2,4.060376E1,7.495769E1,4.8583435E1,1.14092476E2],"split_indices":[53,16,53,53,53,54,26,20,102,12,26,33,31,55,33,51,109,20,26,33,95,57,54,31,31,33,81,33,44,69,11,101,109,3,31,98,109,69,0,44,26,29,102,98,0,52,68,16,31,33,33,91,73,31,0,25,0,0,0,109,12,109,54,0,0,0,0,0,0,0,0,0,0,0,0,0,0,0,0,0,0,0,0,0,0,0,0,0,0,0,0,0,0,0,0,0,0,0,0,0,0,0,0,0,0,0,0,0,0,0,0,0,0,0,0,0,0],"split_type":[0,0,0,0,0,0,0,0,0,0,0,0,0,0,0,0,0,0,0,0,0,0,0,0,0,0,0,0,0,0,0,0,0,0,0,0,0,0,0,0,0,0,0,0,0,0,0,0,0,0,0,0,0,0,0,0,0,0,0,0,0,0,0,0,0,0,0,0,0,0,0,0,0,0,0,0,0,0,0,0,0,0,0,0,0,0,0,0,0,0,0,0,0,0,0,0,0,0,0,0,0,0,0,0,0,0,0,0,0,0,0,0,0,0,0,0,0],"sum_hessian":[2.9342E4,2.5991E4,3.351E3,2.0067E4,5.924E3,2.844E3,5.07E2,1.6649E4,3.418E3,4.113E3,1.811E3,2.663E3,1.81E2,5.4E1,4.53E2,1.4297E4,2.352E3,3.21E3,2.08E2,1.003E3,3.11E3,3.2E1,1.779E3,2.245E3,4.18E2,1.64E2,1.7E1,2.3E1,3.1E1,3.58E2,9.5E1,7.432E3,6.865E3,1.638E3,7.14E2,2.818E3,3.92E2,1.93E2,1.5E1,5.97E2,4.06E2,2.408E3,7.02E2,2.6E1,6E0,1.746E3,3.3E1,2.134E3,1.11E2,2.22E2,1.96E2,1.23E2,4.1E1,1.4E1,3E0,1.9E1,4E0,3E1,1E0,2.45E2,1.13E2,6.1E1,3.4E1,7.167E3,2.65E2,3.285E3,3.58E3,1.207E3,4.31E2,4.91E2,2.23E2,2.53E3,2.88E2,1.85E2,2.07E2,1.86E2,7E0,1.3E1,2E0,3.87E2,2.1E2,1.9E2,2.16E2,2.106E3,3.02E2,5.86E2,1.16E2,1.8E1,8E0,1.464E3,2.82E2,2.5E1,8E0,5.82E2,1.552E3,3.4E1,7.7E1,2.06E2,1.6E1,1.76E2,2E1,1.13E2,1E1,3.5E1,6E0,1.3E1,1E0,1.1E1,8E0,2.04E2,4.1E1,6.9E1,4.4E1,5.4E1,7E0,1.4E1,2E1],"tree_param":{"num_deleted":"0","num_feature":"113","num_nodes":"117","size_leaf_vector":"0"}},{"base_weights":[1.684606E3,1.5517318E3,5.1739194E3,1.3131339E3,2.287414E3,4.768708E3,1.1211155E4,9.3566473E2,1.6330125E3,2.1379082E3,3.5815374E3,4.2151343E3,7.463368E3,2.7038389E3,1.2003615E4,8.4684174E2,2.6480298E3,1.4540127E3,2.9628953E3,2.0372266E3,3.233959E3,3.363905E3,6.9939263E3,3.8850615E3,6.2244297E3,5.1189844E3,9.199095E3,2.9403506E3,6.423848E2,1.3280919E4,7.916422E3,7.3669885E2,1.6560674E3,1.5826415E3,4.768976E3,1.3833115E3,2.7884207E3,2.808536E3,7.2514766E3,2.0101373E3,4.937231E3,3.0723167E3,4.959372E3,4.430724E3,2.918128E3,4.569679E3,1.029019E4,3.5340737E3,5.660617E3,9.252114E3,4.4693354E3,2.3528848E3,6.374543E3,7.4800757E3,1.1461694E4,1.4495561E4,8.732689E3,8.840136E3,6.5904663E2,6.6132495E2,1.1039696E3,1.8686135E3,9.960949E2,8.914491E2,2.3353691E3,4.38834E3,1.0709907E4,1.5689716E3,9.5417786E2,2.548446E3,4.3178364E3,2.6307913E3,5.1082485E3,5.1760586E3,1.1773815E4,2.0867988E3,1.1775696E3,3.934941E3,9.288734E3,3.2203503E3,9.74032E2,2.9303115E3,7.6147163E3,3.5533467E3,6.006824E3,2.7861035E3,6.144636E3,3.1852192E3,7.286562E3,1.2523434E4,6.212363E3,3.2388381E3,5.4149404E3,4.355961E3,8.191692E3,1.2077095E4,2.0212272E3,5.431433E3,1.8609387E3,8.0521747E2,3.1731213E3,1.1662785E4,5.5461953E3,6.735486E3,1.4025628E4,1.3867087E4,6.5282354E3,1.4529724E3,9.264006E3],"categories":[],"categories_nodes":[],"categories_segments":[],"categories_sizes":[],"default_left":[1,1,1,1,0,0,1,1,1,0,0,0,0,0,1,1,1,1,0,0,1,0,0,0,0,0,0,0,0,0,0,1,1,1,0,0,0,0,0,1,1,1,0,0,0,0,0,0,0,1,0,0,0,1,0,0,0,0,0,0,0,0,0,0,0,0,0,0,0,0,0,0,0,0,0,0,0,0,0,0,0,0,0,0,0,0,0,0,0,0,0,0,0,0,0,0,0,0,0,0,0,0,0,0,0,0,0,0,0],"id":6,"left_children":[1,3,5,7,9,11,13,15,17,19,21,23,25,27,29,31,33,35,37,39,41,43,45,47,49,51,53,-1,-1,55,57,59,61,63,65,67,69,71,73,75,77,79,81,83,85,87,89,91,93,95,97,99,101,103,105,-1,-1,107,-1,-1,-1,-1,-1,-1,-1,-1,-1,-1,-1,-1,-1,-1,-1,-1,-1,-1,-1,-1,-1,-1,-1,-1,-1,-1,-1,-1,-1,-1,-1,-1,-1,-1,-1,-1,-1,-1,-1,-1,-1,-1,-1,-1,-1,-1,-1,-1,-1,-1,-1],"loss_changes":[1.3609533E10,4.963672E9,2.5812644E9,2.5785385E9,1.3327647E9,1.4766428E9,4.192384E8,1.48892E9,2.7487273E9,6.7902874E8,5.0820813E8,5.335808E8,6.4874496E8,1.524064E6,2.1331763E8,8.29654E8,1.0838546E9,9.579807E8,8.8721306E8,4.3730944E8,1.3007002E8,3.0807552E8,2.8859763E8,4.3181363E8,5.80372E8,2.4547674E8,2.9154304E8,0E0,0E0,1.2201677E8,1.0813747E8,2.2646118E8,1.5468493E8,1.6596845E8,3.1707597E8,7.7005824E8,1.7691085E8,5.28171E8,3.8018816E8,3.5765043E8,1.9024576E8,1.4564864E8,2.0936422E8,2.5107405E8,1.8692378E8,7.458746E7,7.701517E7,3.2008346E8,3.5397504E8,8.335286E8,1.8061696E8,2.918128E7,1.5872154E8,1.8820787E8,3.8414848E8,0E0,0E0,3.3507712E7,0E0,0E0,0E0,0E0,0E0,0E0,0E0,0E0,0E0,0E0,0E0,0E0,0E0,0E0,0E0,0E0,0E0,0E0,0E0,0E0,0E0,0E0,0E0,0E0,0E0,0E0,0E0,0E0,0E0,0E0,0E0,0E0,0E0,0E0,0E0,0E0,0E0,0E0,0E0,0E0,0E0,0E0,0E0,0E0,0E0,0E0,0E0,0E0,0E0,0E0,0E0],"parents":[2147483647,0,0,1,1,2,2,3,3,4,4,5,5,6,6,7,7,8,8,9,9,10,10,11,11,12,12,13,13,14,14,15,15,16,16,17,17,18,18,19,19,20,20,21,21,22,22,23,23,24,24,25,25,26,26,29,29,30,30,31,31,32,32,33,33,34,34,35,35,36,36,37,37,38,38,39,39,40,40,41,41,42,42,43,43,44,44,45,45,46,46,47,47,48,48,49,49,50,50,51,51,52,52,53,53,54,54,57,57],"right_children":[2,4,6,8,10,12,14,16,18,20,22,24,26,28,30,32,34,36,38,40,42,44,46,48,50,52,54,-1,-1,56,58,60,62,64,66,68,70,72,74,76,78,80,82,84,86,88,90,92,94,96,98,100,102,104,106,-1,-1,108,-1,-1,-1,-1,-1,-1,-1,-1,-1,-1,-1,-1,-1,-1,-1,-1,-1,-1,-1,-1,-1,-1,-1,-1,-1,-1,-1,-1,-1,-1,-1,-1,-1,-1,-1,-1,-1,-1,-1,-1,-1,-1,-1,-1,-1,-1,-1,-1,-1,-1,-1],"split_conditions":[1.6395E0,1.0047832E0,1.8141913E0,8.6805556E-4,9.44584E-1,4.3605003E0,4.5E0,4.094305E0,4.5E0,4.4897962E-1,8.491936E0,4.238928E0,2.79E0,4.7069807E0,9.5E0,9.564394E-1,1.6689768E0,9.1633296E-1,1.5E0,3.79E0,4.5E0,5.421348E-1,2.4166665E0,2.9811199E0,9.090909E-2,4.2404872E-1,1.8277779E0,5.880701E1,1.2847696E1,1.5E0,2.7272728E-1,9.940594E-1,3.5E0,4.5E0,3E0,1.175E1,3.5E0,1.1153846E0,9.347826E-1,2.112595E0,5E-1,3.5E0,1.8333333E0,3.6E-1,5.167E0,3.5835E0,2.368421E0,2.04E0,1.1E0,7.493824E-2,2.869318E0,8.0133486E-1,4E0,1.4E1,2.4666667E0,2.899112E2,1.7465378E2,1.1527356E0,1.3180932E1,1.3226499E1,2.2079391E1,3.737227E1,1.9921898E1,1.7828981E1,4.6707382E1,8.776679E1,2.1419814E2,3.137943E1,1.9083557E1,5.096892E1,8.635673E1,5.2615826E1,1.0216497E2,1.0352117E2,2.354763E2,4.1735977E1,2.3551392E1,7.8698814E1,1.8577469E2,6.4407005E1,1.9480639E1,5.8606228E1,1.5229433E2,7.106693E1,1.2013648E2,5.572207E1,1.2289272E2,6.3704384E1,1.4573123E2,2.5046867E2,1.2424725E2,6.4776764E1,1.08298805E2,8.711922E1,1.6383383E2,2.4154189E2,4.042454E1,1.0862866E2,3.7218773E1,1.610435E1,6.3462425E1,2.3325569E2,1.10923904E2,1.3470972E2,2.8051254E2,2.7734174E2,1.305647E2,2.9059448E1,1.852801E2],"split_indices":[56,16,31,103,74,56,111,20,109,52,92,21,55,20,111,16,31,54,69,54,109,101,14,103,27,103,98,0,0,94,23,31,109,109,107,104,74,101,98,33,107,109,84,56,54,55,25,54,74,33,96,33,51,107,10,0,0,20,0,0,0,0,0,0,0,0,0,0,0,0,0,0,0,0,0,0,0,0,0,0,0,0,0,0,0,0,0,0,0,0,0,0,0,0,0,0,0,0,0,0,0,0,0,0,0,0,0,0,0],"split_type":[0,0,0,0,0,0,0,0,0,0,0,0,0,0,0,0,0,0,0,0,0,0,0,0,0,0,0,0,0,0,0,0,0,0,0,0,0,0,0,0,0,0,0,0,0,0,0,0,0,0,0,0,0,0,0,0,0,0,0,0,0,0,0,0,0,0,0,0,0,0,0,0,0,0,0,0,0,0,0,0,0,0,0,0,0,0,0,0,0,0,0,0,0,0,0,0,0,0,0,0,0,0,0,0,0,0,0,0,0],"sum_hessian":[2.937E4,2.8294E4,1.076E3,2.1367E4,6.927E3,1.01E3,6.6E1,9.803E3,1.1564E4,6.212E3,7.15E2,8.4E2,1.7E2,6E0,6E1,9.321E3,4.82E2,1.0194E4,1.37E3,5.692E3,5.2E2,6.74E2,4.1E1,7.24E2,1.16E2,7.4E1,9.6E1,5E0,1E0,4.4E1,1.6E1,8.206E3,1.115E3,3.22E2,1.6E2,9.683E3,5.11E2,1.324E3,4.6E1,5.641E3,5.1E1,4.78E2,4.2E1,1.96E2,4.78E2,2.5E1,1.6E1,6.07E2,1.17E2,4.1E1,7.5E1,2.4E1,5E1,5.7E1,3.9E1,3.3E1,1.1E1,1.4E1,2E0,6.811E3,1.395E3,8.42E2,2.73E2,1.69E2,1.53E2,1.52E2,8E0,6.757E3,2.926E3,4.44E2,6.7E1,1.231E3,9.3E1,3.3E1,1.3E1,5.164E3,4.77E2,4.3E1,8E0,4.46E2,3.2E1,2.5E1,1.7E1,1.28E2,6.8E1,4.61E2,1.7E1,1.8E1,7E0,9E0,7E0,5.27E2,8E1,7.9E1,3.8E1,2.9E1,1.2E1,5.4E1,2.1E1,9E0,1.5E1,5E0,4.5E1,5.3E1,4E0,2.5E1,1.4E1,1E0,1.3E1],"tree_param":{"num_deleted":"0","num_feature":"113","num_nodes":"109","size_leaf_vector":"0"}},{"base_weights":[1.6363751E3,1.3904548E3,3.888235E3,1.6587822E3,8.900034E2,3.3445532E3,6.4803447E3,8.242364E2,1.9580902E3,6.0315094E2,1.2078054E3,2.1900918E3,3.8842732E3,3.3149517E3,7.2733013E3,1.9982646E3,6.755352E2,2.2899233E3,1.3180242E3,4.9211444E2,9.5520233E2,1.4841512E3,7.1466675E2,2.5157861E3,1.1998374E3,4.967899E3,2.1775037E3,2.2473037E3,4.3803594E3,8.463223E3,3.3223525E3,1.8272573E3,3.049507E3,4.8760645E2,8.6869366E2,1.987503E3,2.8510288E3,8.251415E2,1.6488939E3,7.0387933E2,4.2349747E2,8.2959033E2,1.2509896E3,1.176673E3,1.7098964E3,1.2716953E3,5.285434E2,1.8867664E3,3.2170278E3,1.0068649E3,2.7994084E3,5.746679E3,3.0914648E3,1.2291865E3,2.7443477E3,1.9516711E3,4.6950435E3,2.8200676E3,5.1698965E3,9.199772E3,4.6885396E3,2.626262E3,5.24319E3,1.8039822E3,3.500705E3,3.1256755E3,1.0113082E3,4.655352E2,2.256757E3,8.351335E2,2.2390312E3,2.2739626E3,1.6134609E3,1.60171E3,3.083801E3,2.1989888E3,7.2668335E2,1.4939019E3,2.1663232E3,6.819594E2,1.8764414E3,3.4522015E2,6.171524E2,1.2077783E3,7.243592E2,1.6194509E3,1.0093154E3,1.0526213E3,1.7830541E3,1.64554E3,3.0111208E3,1.140697E3,1.6776395E3,3.2070117E2,7.002323E2,1.3766215E3,2.2629294E3,2.6672651E3,4.185689E3,2.5088599E3,7.9272833E2,3.3077075E3,1.0620924E3,7.132285E3,4.3565693E3,9.408243E2,3.6858132E3,1.0653229E3,1.8428348E3,2.439191E3,3.659839E3,2.312042E3,3.150206E2,1.6090208E3,4.2841294E3,6.580767E3,3.1321914E3,1.1941353E4,8.055865E3,2.1817864E3,6.065707E3,2.1024558E3,3.5059668E3,6.923997E3,2.1976597E3],"categories":[],"categories_nodes":[],"categories_segments":[],"categories_sizes":[],"default_left":[1,1,0,1,0,1,1,0,1,1,0,0,1,0,1,0,1,0,0,1,0,1,1,0,0,1,0,1,0,1,0,0,0,1,1,0,1,0,0,0,0,1,0,0,0,0,1,0,1,0,0,0,1,0,0,0,0,0,0,0,0,0,0,0,0,0,0,0,0,0,0,0,0,0,0,0,0,0,0,0,0,0,0,0,0,0,0,0,0,0,0,0,0,0,0,0,0,0,0,0,0,0,0,0,0,0,0,0,0,0,0,0,0,0,0,0,0,0,0,0,0,0,0,0,0],"id":7,"left_children":[1,3,5,7,9,11,13,15,17,19,21,23,25,27,29,31,33,35,37,39,41,43,45,47,49,51,53,55,57,59,61,63,65,67,69,71,73,75,77,79,81,83,85,87,89,91,93,95,97,99,101,103,105,107,109,111,-1,113,115,117,119,121,123,-1,-1,-1,-1,-1,-1,-1,-1,-1,-1,-1,-1,-1,-1,-1,-1,-1,-1,-1,-1,-1,-1,-1,-1,-1,-1,-1,-1,-1,-1,-1,-1,-1,-1,-1,-1,-1,-1,-1,-1,-1,-1,-1,-1,-1,-1,-1,-1,-1,-1,-1,-1,-1,-1,-1,-1,-1,-1,-1,-1,-1,-1],"loss_changes":[1.6252969E10,3.5530424E9,4.051153E9,4.3021967E9,8.417024E8,1.4812897E9,1.2308972E9,7.929864E8,2.6903675E9,1.8947098E8,5.962404E8,2.4338688E8,3.0001684E9,1.0617907E8,1.8477076E9,8.62903E7,1.462286E8,1.411244E9,7.0510234E8,5.340723E7,4.2209984E7,1.92896E8,1.6272122E8,2.4711885E8,5.613792E7,1.4362563E9,3.3743206E8,2.9189296E7,4.7015936E7,8.0762266E8,1.119152E8,1.090048E7,7.706176E6,7.899654E7,8.969382E7,5.780398E8,8.447959E8,2.3403622E8,2.0455526E8,2.1929632E7,4.214061E7,3.1758848E7,2.9086912E7,8.778842E7,1.3045606E8,1.9038464E7,4.1989856E7,5.541363E7,1.3261978E8,5.333187E7,1.4148432E7,1.3210788E9,3.7233152E8,2.2069376E7,1.0170266E8,2.8171904E7,0E0,2.6794624E7,7.138579E7,7.035085E8,1.6628134E8,2.534528E7,1.0763827E8,0E0,0E0,0E0,0E0,0E0,0E0,0E0,0E0,0E0,0E0,0E0,0E0,0E0,0E0,0E0,0E0,0E0,0E0,0E0,0E0,0E0,0E0,0E0,0E0,0E0,0E0,0E0,0E0,0E0,0E0,0E0,0E0,0E0,0E0,0E0,0E0,0E0,0E0,0E0,0E0,0E0,0E0,0E0,0E0,0E0,0E0,0E0,0E0,0E0,0E0,0E0,0E0,0E0,0E0,0E0,0E0,0E0,0E0,0E0,0E0,0E0,0E0],"parents":[2147483647,0,0,1,1,2,2,3,3,4,4,5,5,6,6,7,7,8,8,9,9,10,10,11,11,12,12,13,13,14,14,15,15,16,16,17,17,18,18,19,19,20,20,21,21,22,22,23,23,24,24,25,25,26,26,27,27,28,28,29,29,30,30,31,31,32,32,33,33,34,34,35,35,36,36,37,37,38,38,39,39,40,40,41,41,42,42,43,43,44,44,45,45,46,46,47,47,48,48,49,49,50,50,51,51,52,52,53,53,54,54,55,55,57,57,58,58,59,59,60,60,61,61,62,62],"right_children":[2,4,6,8,10,12,14,16,18,20,22,24,26,28,30,32,34,36,38,40,42,44,46,48,50,52,54,56,58,60,62,64,66,68,70,72,74,76,78,80,82,84,86,88,90,92,94,96,98,100,102,104,106,108,110,112,-1,114,116,118,120,122,124,-1,-1,-1,-1,-1,-1,-1,-1,-1,-1,-1,-1,-1,-1,-1,-1,-1,-1,-1,-1,-1,-1,-1,-1,-1,-1,-1,-1,-1,-1,-1,-1,-1,-1,-1,-1,-1,-1,-1,-1,-1,-1,-1,-1,-1,-1,-1,-1,-1,-1,-1,-1,-1,-1,-1,-1,-1,-1,-1,-1,-1,-1],"split_conditions":[6.005E-1,7.5E0,2.203E0,1.5E0,1E-6,3.5E0,3.5E0,1.996883E-2,4.1174854E-4,1.75E1,2.4E1,1.0053476E0,6.5E0,3.726143E-1,6.5E0,9.2857146E-1,1.15E1,4.9967214E-2,4.564394E-1,8.5E0,1.532938E0,9.5E0,8.5E0,6.000001E0,4.6371684E0,1.6881691E-2,1E-6,5E-1,5.65646E0,3.0194893E-2,1.7867347E0,2.232143E0,1.45E0,1.71E0,2.515E-1,7.5E-1,2.5E0,5.239478E-1,1.14999995E-1,7.520721E-1,1.5515307E0,8.5E0,1.8677673E0,1.187353E-1,7.8330004E-1,7.5035973E0,1.05E1,9.708138E-1,2.5E0,3.6900002E-1,5.6625E0,1.1880001E1,4.5E0,1.0376712E0,7.3008955E-1,2.2125834E-1,9.390086E1,2.5E0,1.182122E0,5E-1,7.878788E-1,3.2395E0,1.1666667E0,3.6079643E1,7.00141E1,6.2513508E1,2.0226164E1,9.310703E0,4.513514E1,1.670267E1,4.4780624E1,4.547925E1,3.226922E1,3.20342E1,6.1676018E1,4.3979774E1,1.4533667E1,2.9878036E1,4.3326466E1,1.3639188E1,3.7528828E1,6.9044027E0,1.2343048E1,2.4155565E1,1.4487184E1,3.238902E1,2.0186308E1,2.1052425E1,3.566108E1,3.29108E1,6.0222416E1,2.281394E1,3.355279E1,6.4140234E0,1.4004645E1,2.7532429E1,4.5258587E1,5.3345303E1,8.3713776E1,5.0177197E1,1.5854567E1,6.615415E1,2.1241848E1,1.426457E2,8.7131386E1,1.8816484E1,7.371626E1,2.1306458E1,3.6856697E1,4.8783817E1,7.319678E1,4.6240837E1,6.3004117E0,3.2180416E1,8.568259E1,1.3161534E2,6.2643826E1,2.3882704E2,1.611173E2,4.3635727E1,1.2131414E2,4.2049114E1,7.011933E1,1.3847993E2,4.3953194E1],"split_indices":[53,110,53,110,45,110,110,21,33,112,104,96,110,54,110,92,112,53,16,110,33,112,110,33,9,33,45,108,33,33,9,22,9,54,42,71,110,21,53,44,33,110,33,53,54,95,112,33,110,42,21,42,110,16,54,58,0,71,16,89,11,53,96,0,0,0,0,0,0,0,0,0,0,0,0,0,0,0,0,0,0,0,0,0,0,0,0,0,0,0,0,0,0,0,0,0,0,0,0,0,0,0,0,0,0,0,0,0,0,0,0,0,0,0,0,0,0,0,0,0,0,0,0,0,0],"split_type":[0,0,0,0,0,0,0,0,0,0,0,0,0,0,0,0,0,0,0,0,0,0,0,0,0,0,0,0,0,0,0,0,0,0,0,0,0,0,0,0,0,0,0,0,0,0,0,0,0,0,0,0,0,0,0,0,0,0,0,0,0,0,0,0,0,0,0,0,0,0,0,0,0,0,0,0,0,0,0,0,0,0,0,0,0,0,0,0,0,0,0,0,0,0,0,0,0,0,0,0,0,0,0,0,0,0,0,0,0,0,0,0,0,0,0,0,0,0,0,0,0,0,0,0,0],"sum_hessian":[2.9358E4,2.6469E4,2.889E3,1.7229E4,9.24E3,2.39E3,4.99E2,4.549E3,1.268E4,4.858E3,4.382E3,7.63E2,1.627E3,1.01E2,3.98E2,5.1E2,4.039E3,8.349E3,4.331E3,3.695E3,1.163E3,2.807E3,1.575E3,5.73E2,1.9E2,9.94E2,6.33E2,5.2E1,4.9E1,3.05E2,9.3E1,4.41E2,6.9E1,2.049E3,1.99E3,5.428E3,2.921E3,1.741E3,2.59E3,9.02E2,2.793E3,8.19E2,3.44E2,1.191E3,1.616E3,3.93E2,1.182E3,3.04E2,2.69E2,1.71E2,1.9E1,7.01E2,2.93E2,2.38E2,3.95E2,4.8E1,4E0,1.8E1,3.1E1,2.54E2,5.1E1,7E1,2.3E1,4.37E2,4E0,6.6E1,3E0,2.025E3,2.4E1,1.944E3,4.6E1,3.071E3,2.357E3,4.6E2,2.461E3,1.15E2,1.626E3,1.996E3,5.94E2,8.87E2,1.5E1,1.991E3,8.02E2,1.76E2,6.43E2,1.34E2,2.1E2,9.91E2,2E2,1.542E3,7.4E1,3E2,9.3E1,5.36E2,6.46E2,1.31E2,1.73E2,1.74E2,9.5E1,2E1,1.51E2,1.4E1,5E0,3.49E2,3.52E2,6.4E1,2.29E2,1.9E2,4.8E1,2.99E2,9.6E1,3.9E1,9E0,1.1E1,7E0,1.7E1,1.4E1,7.2E1,1.82E2,1.9E1,3.2E1,4.6E1,2.4E1,1.4E1,9E0],"tree_param":{"num_deleted":"0","num_feature":"113","num_nodes":"125","size_leaf_vector":"0"}},{"base_weights":[1.6186641E3,1.4929701E3,5.185806E3,1.7926721E3,9.052385E2,4.7944424E3,1.0955311E4,1.218622E3,2.3744302E3,6.7524994E2,1.3868812E3,2.779853E3,5.5025015E3,1.4052633E3,1.1754362E4,8.463436E2,1.5838931E3,2.1829883E3,4.358454E3,5.0270633E2,8.634086E2,1.3142319E3,2.727423E3,2.5119495E3,6.048627E3,7.2640303E3,3.15307E3,3.3045877E2,1.5541324E3,1.2197563E4,2.7217544E3,2.626259E3,7.2550006E2,9.315016E2,1.7568151E3,2.5684177E3,1.4210225E3,4.0759211E3,8.160404E3,7.651778E2,4.24753E2,1.0124399E3,5.6609E2,1.1147053E3,1.6557241E3,2.3407212E3,4.6155234E3,1.0493761E3,2.786902E3,3.976609E3,7.005674E3,1.3206024E4,6.7947334E3,2.839284E3,5.1802207E3,1.2357646E4,1.7765255E3,2.0173481E3,3.8545625E3,1.637415E3,6.535289E2,5.8093176E2,2.0433502E3,1.1189379E3,2.228922E3,2.9587346E3,1.6479387E3,8.926888E2,2.019687E3,3.7103452E3,5.66399E3,1.1906142E4,4.9790337E3,5.559015E2,8.703609E2,3.9876303E2,5.856801E2,7.704918E2,1.3962992E3,4.293588E2,7.6548486E2,1.4333057E3,7.780748E2,1.5118467E3,2.2980547E3,2.0560955E3,3.149543E3,5.4875737E3,1.9674626E3,1.4042551E3,2.5889664E2,3.1898367E3,1.3908098E3,1.5508126E4,5.512254E3,5.7748184E3,9.183937E3,2.4270269E3,4.0267893E3,5.846261E3,5.4262006E2,1.2514604E4,2.0194734E3],"categories":[],"categories_nodes":[],"categories_segments":[],"categories_sizes":[],"default_left":[1,1,1,1,0,1,1,1,0,0,1,0,1,0,0,0,0,1,1,1,0,1,0,0,0,0,0,0,0,0,0,0,0,0,1,1,0,0,0,0,1,0,0,1,0,0,0,0,0,0,0,0,0,1,1,0,0,0,0,0,0,0,0,0,0,0,0,0,0,0,0,0,0,0,0,0,0,0,0,0,0,0,0,0,0,0,0,0,0,0,0,0,0,0,0,0,0,0,0,0,0,0,0],"id":8,"left_children":[1,3,5,7,9,11,13,15,17,19,21,23,25,27,29,31,33,35,37,39,41,43,45,47,49,51,53,-1,-1,55,-1,57,59,61,63,65,67,69,71,73,75,77,79,81,83,85,87,89,91,-1,-1,93,95,97,99,101,-1,-1,-1,-1,-1,-1,-1,-1,-1,-1,-1,-1,-1,-1,-1,-1,-1,-1,-1,-1,-1,-1,-1,-1,-1,-1,-1,-1,-1,-1,-1,-1,-1,-1,-1,-1,-1,-1,-1,-1,-1,-1,-1,-1,-1,-1,-1],"loss_changes":[1.3223141E10,5.0195456E9,2.214482E9,6.301569E9,1.0656896E9,1.3284188E9,4.64234E8,1.2910367E9,3.5513467E9,2.1120922E8,2.9939354E8,2.0110784E8,2.857556E9,4.46454E5,1.9899034E8,1.0109599E9,5.394145E8,2.5079357E9,8.5185946E8,6.930214E7,1.3754035E8,1.9936205E8,1.052873E8,8.956723E7,7.83552E6,1.0173256E9,1.761193E8,0E0,0E0,6.979942E7,0E0,2.158542E8,2.884306E8,3.9132205E8,1.1388518E9,2.0351099E9,9.075446E8,4.2543514E8,6.0804736E8,1.6641792E7,1.0749664E7,1.9163763E8,2.8107136E7,1.9912166E8,9.698304E7,2.4372608E7,4.9243776E7,1.029638E7,1.0413274E8,0E0,0E0,4.1044685E8,8.4857446E8,1.1849101E8,1.172921E8,6.2349824E7,0E0,0E0,0E0,0E0,0E0,0E0,0E0,0E0,0E0,0E0,0E0,0E0,0E0,0E0,0E0,0E0,0E0,0E0,0E0,0E0,0E0,0E0,0E0,0E0,0E0,0E0,0E0,0E0,0E0,0E0,0E0,0E0,0E0,0E0,0E0,0E0,0E0,0E0,0E0,0E0,0E0,0E0,0E0,0E0,0E0,0E0,0E0],"parents":[2147483647,0,0,1,1,2,2,3,3,4,4,5,5,6,6,7,7,8,8,9,9,10,10,11,11,12,12,13,13,14,14,15,15,16,16,17,17,18,18,19,19,20,20,21,21,22,22,23,23,24,24,25,25,26,26,29,29,31,31,32,32,33,33,34,34,35,35,36,36,37,37,38,38,39,39,40,40,41,41,42,42,43,43,44,44,45,45,46,46,47,47,48,48,51,51,52,52,53,53,54,54,55,55],"right_children":[2,4,6,8,10,12,14,16,18,20,22,24,26,28,30,32,34,36,38,40,42,44,46,48,50,52,54,-1,-1,56,-1,58,60,62,64,66,68,70,72,74,76,78,80,82,84,86,88,90,92,-1,-1,94,96,98,100,102,-1,-1,-1,-1,-1,-1,-1,-1,-1,-1,-1,-1,-1,-1,-1,-1,-1,-1,-1,-1,-1,-1,-1,-1,-1,-1,-1,-1,-1,-1,-1,-1,-1,-1,-1,-1,-1,-1,-1,-1,-1,-1,-1,-1,-1,-1,-1],"split_conditions":[1.779E0,7.5E0,1.8158416E0,3.5E0,1.023823E0,3.5E0,4.5E0,1.5E0,8.712122E-2,1.6044238E0,8.875E-1,7.637851E0,5.5E0,2.3809524E-2,2.7E0,5.535823E-1,1.496558E-3,8.2349713E-4,1.7683167E0,8.5E0,4.4340004E1,2.8316325E-1,2.5E0,8.702118E-1,2.8012047E0,5.7227504E-1,4.6156716E0,6.609175E0,3.1082647E1,1.85E1,5.4435085E1,4.3309957E-1,5.7471264E-3,8.710123E-1,1.5E0,6.5E0,2.7E1,3.9473684E0,1.9613862E0,9.009901E-1,3.768977E-1,9.861111E-1,1.085022E0,9.5E0,2.1055555E0,1.8333333E0,5E-1,4.0909094E-1,1.0608696E0,7.953217E1,1.4011348E2,1.3871347E0,1.9583333E0,5E-1,7.5E0,1.85E1,3.553051E1,4.0346962E1,7.709125E1,3.27483E1,1.3070577E1,1.1618635E1,4.0867004E1,2.2378757E1,4.457844E1,5.917469E1,3.2958775E1,1.7853775E1,4.0393738E1,7.42069E1,1.132798E2,2.3812283E2,9.958067E1,1.111803E1,1.7407217E1,7.9752603E0,1.1713602E1,1.5409836E1,2.7925983E1,8.587175E0,1.5309697E1,2.8666113E1,1.5561496E1,3.0236933E1,4.5961094E1,4.112191E1,6.2990856E1,1.0975147E2,3.934925E1,2.8085102E1,5.1779327E0,6.3796734E1,2.7816196E1,3.101625E2,1.1024508E2,1.1549637E2,1.8367873E2,4.8540535E1,8.053578E1,1.16925224E2,1.0852401E1,2.5029207E2,4.0389465E1],"split_indices":[56,110,31,110,103,110,110,110,74,33,104,26,110,25,26,26,103,33,31,110,39,7,74,33,82,26,30,0,0,91,0,60,21,33,109,110,31,11,31,31,31,46,80,110,13,87,1,25,96,0,0,103,74,104,110,59,0,0,0,0,0,0,0,0,0,0,0,0,0,0,0,0,0,0,0,0,0,0,0,0,0,0,0,0,0,0,0,0,0,0,0,0,0,0,0,0,0,0,0,0,0,0,0],"split_type":[0,0,0,0,0,0,0,0,0,0,0,0,0,0,0,0,0,0,0,0,0,0,0,0,0,0,0,0,0,0,0,0,0,0,0,0,0,0,0,0,0,0,0,0,0,0,0,0,0,0,0,0,0,0,0,0,0,0,0,0,0,0,0,0,0,0,0,0,0,0,0,0,0,0,0,0,0,0,0,0,0,0,0,0,0,0,0,0,0,0,0,0,0,0,0,0,0,0,0,0,0,0,0],"sum_hessian":[2.9508E4,2.8505E4,1.003E3,1.8877E4,9.628E3,9.41E2,6.2E1,9.503E3,9.374E3,6.518E3,3.11E3,2.46E2,6.95E2,5E0,5.7E1,4.708E3,4.795E3,8.551E3,8.23E2,3.402E3,3.116E3,2.952E3,1.58E2,2.29E2,1.7E1,3.96E2,2.99E2,1E0,4E0,5.4E1,3E0,2.98E2,4.41E3,1.006E3,3.789E3,5.677E3,2.874E3,7.68E2,5.5E1,7.77E2,2.625E3,2.074E3,1.042E3,1.866E3,1.086E3,1.33E2,2.5E1,3.7E1,1.92E2,7E0,1E1,2.7E1,3.69E2,2.61E2,3.8E1,5.3E1,1E0,2.01E2,9.7E1,3.21E2,4.089E3,7.66E2,2.4E2,1.613E3,2.176E3,3.985E3,1.692E3,1.528E3,1.346E3,6.27E2,1.41E2,2.4E1,3.1E1,2.62E2,5.15E2,2.263E3,3.62E2,1.274E3,8E2,6.2E2,4.22E2,9.57E2,9.09E2,8.9E2,1.96E2,1.01E2,3.2E1,1.8E1,7E0,2.5E1,1.2E1,1.48E2,4.4E1,2E1,7E0,2.61E2,1.08E2,1.96E2,6.5E1,3.3E1,5E0,5.2E1,1E0],"tree_param":{"num_deleted":"0","num_feature":"113","num_nodes":"103","size_leaf_vector":"0"}},{"base_weights":[1.582477E3,1.4169877E3,4.1661567E3,1.7018848E3,8.7648596E2,3.6703464E3,7.597962E3,1.1702745E3,2.2445483E3,5.8944855E2,1.1918694E3,2.271686E3,4.3859453E3,1.2822141E4,6.650615E3,1.8973591E3,9.7855194E2,2.0839663E3,4.145659E3,4.7422482E2,9.4025287E2,1.4810875E3,6.668441E2,2.146426E3,5.175716E3,5.688093E3,2.2380142E3,1.3712187E4,2.9412612E3,7.47679E3,4.1877905E3,1.6728837E3,3.2725225E3,7.0485846E2,1.3529999E3,2.3450518E3,1.4031138E3,7.9990986E3,3.9106062E3,6.7915E2,4.08557E2,1.2632587E3,8.3992206E2,1.41535E3,3.13428E3,4.9799866E2,1.2229312E3,4.1587783E3,1.9643768E3,3.0716006E3,6.2342793E3,5.050315E3,9.21634E3,1.1667278E3,2.6810906E3,1.5050781E4,9.529919E3,3.730403E2,5.322962E3,3.820003E3,8.270324E3,2.4708633E3,5.4485596E3,1.2011918E3,1.8993186E3,1.6874625E3,3.716151E3,2.3961675E3,6.4861395E2,1.1366776E3,1.9808185E3,2.1919148E3,3.516358E3,1.1568772E3,2.2968083E3,1.1745352E4,3.437498E3,3.2113125E3,4.7845015E3,6.1884424E2,9.879562E2,3.8540512E2,1.0825117E3,1.3502483E3,9.4136743E2,7.82988E2,1.3841907E3,1.1359424E3,1.6155496E3,2.4918342E3,4.4581104E3,2.9596506E2,6.685786E2,1.0916995E3,1.6323757E3,2.8282058E3,6.522868E3,2.2455244E3,1.1555314E3,7.6746875E2,3.2636833E3,1.0161582E4,4.6321494E3,9.927993E3,5.3252485E3,9.6006354E2,1.8723167E3,1.9559971E3,3.4521387E3,6.1609985E2,-5.6539368E1,1.7974893E3,5.569659E3,5.083112E3,9.099183E3,2.7827039E3,7.91696E2,6.3296543E3,2.454616E3],"categories":[],"categories_nodes":[],"categories_segments":[],"categories_sizes":[],"default_left":[1,1,0,1,0,1,0,0,0,1,0,0,1,1,1,0,1,1,0,1,1,0,0,0,0,0,0,1,0,1,0,0,0,0,1,1,0,1,0,1,0,0,1,1,1,1,1,1,0,0,0,0,0,0,1,0,0,0,0,0,1,0,0,0,0,0,0,0,0,0,0,0,0,0,0,0,0,0,0,0,0,0,0,0,0,0,0,0,0,0,0,0,0,0,0,0,0,0,0,0,0,0,0,0,0,0,0,0,0,0,0,0,0,0,0,0,0,0,0],"id":9,"left_children":[1,3,5,7,9,11,13,15,17,19,21,23,25,27,29,31,33,35,37,39,41,43,45,47,49,51,53,55,57,59,61,63,65,67,69,71,73,75,77,79,81,83,85,87,89,91,93,95,97,99,-1,101,103,105,107,-1,-1,109,-1,111,113,115,117,-1,-1,-1,-1,-1,-1,-1,-1,-1,-1,-1,-1,-1,-1,-1,-1,-1,-1,-1,-1,-1,-1,-1,-1,-1,-1,-1,-1,-1,-1,-1,-1,-1,-1,-1,-1,-1,-1,-1,-1,-1,-1,-1,-1,-1,-1,-1,-1,-1,-1,-1,-1,-1,-1,-1,-1],"loss_changes":[1.2541608E10,4.245631E9,2.9770015E9,5.207425E9,8.612936E8,1.5363973E9,1.0134282E9,1.2701542E9,2.7193795E9,2.011337E8,6.877896E8,1.798638E8,2.8429292E9,2.4988518E8,3.5528653E8,5.8196326E8,7.3928755E8,1.4618132E9,5.9822285E8,5.026701E7,3.8864896E7,3.133353E8,1.5084E8,1.768361E8,2.7624832E7,1.382355E9,1.8056589E8,2.4517632E7,2.2481256E7,3.7755904E8,9.476979E7,1.7266893E8,1.8077466E8,3.956004E8,4.1183693E8,1.06062234E9,5.006203E8,6.2609306E8,3.8613504E8,1.633536E7,4.400544E7,6.849248E6,2.813728E7,1.5557222E8,8.329549E7,4.25016E7,1.8367488E7,1.1052128E8,1.0314867E8,1.478488E6,0E0,1.1071017E9,2.1296538E8,1.497176E7,1.45877E8,0E0,0E0,3.480742E5,0E0,8.55336E7,2.575488E8,9.840496E6,5.832576E7,0E0,0E0,0E0,0E0,0E0,0E0,0E0,0E0,0E0,0E0,0E0,0E0,0E0,0E0,0E0,0E0,0E0,0E0,0E0,0E0,0E0,0E0,0E0,0E0,0E0,0E0,0E0,0E0,0E0,0E0,0E0,0E0,0E0,0E0,0E0,0E0,0E0,0E0,0E0,0E0,0E0,0E0,0E0,0E0,0E0,0E0,0E0,0E0,0E0,0E0,0E0,0E0,0E0,0E0,0E0,0E0],"parents":[2147483647,0,0,1,1,2,2,3,3,4,4,5,5,6,6,7,7,8,8,9,9,10,10,11,11,12,12,13,13,14,14,15,15,16,16,17,17,18,18,19,19,20,20,21,21,22,22,23,23,24,24,25,25,26,26,27,27,28,28,29,29,30,30,31,31,32,32,33,33,34,34,35,35,36,36,37,37,38,38,39,39,40,40,41,41,42,42,43,43,44,44,45,45,46,46,47,47,48,48,49,49,51,51,52,52,53,53,54,54,57,57,59,59,60,60,61,61,62,62],"right_children":[2,4,6,8,10,12,14,16,18,20,22,24,26,28,30,32,34,36,38,40,42,44,46,48,50,52,54,56,58,60,62,64,66,68,70,72,74,76,78,80,82,84,86,88,90,92,94,96,98,100,-1,102,104,106,108,-1,-1,110,-1,112,114,116,118,-1,-1,-1,-1,-1,-1,-1,-1,-1,-1,-1,-1,-1,-1,-1,-1,-1,-1,-1,-1,-1,-1,-1,-1,-1,-1,-1,-1,-1,-1,-1,-1,-1,-1,-1,-1,-1,-1,-1,-1,-1,-1,-1,-1,-1,-1,-1,-1,-1,-1,-1,-1,-1,-1,-1,-1],"split_conditions":[1.058E0,7.5E0,4.0699997E0,3.5E0,1E-6,3.5E0,7.232704E-1,2.9705882E-1,3.846154E-2,1.75E1,2.85E1,8.67561E0,6.5E0,1.05E1,5.5E0,9.7619045E-1,1.5E0,6.5E0,6.75321E-1,8.5E0,8.5E0,1.1685E0,3.9160714E0,6.2938106E-1,1.8855422E0,2.6666665E0,1E-6,1.9326732E0,5E0,3.5E0,1.5E0,1.0882318E0,6.000001E0,5.535823E-1,4.5E-2,5.1576354E-2,1.0081967E0,1.05E1,5.3487504E-1,1.45E1,1.2769784E0,4.0258064E0,1.710243E0,9.5E0,4.6938777E-1,1.05E1,1.75E1,2.75E1,1.0565217E0,3.5714287E-2,1.24685585E2,5.3786576E-1,2.2040815E0,2.8333335E0,1.25E1,3.0101562E2,1.9059837E2,1E0,1.06459236E2,1.9304357E0,6.5E0,1.35E1,1.9540817E0,2.4023834E1,3.798637E1,3.374925E1,7.432301E1,4.7923347E1,1.2972279E1,2.2733551E1,3.9616367E1,4.3838295E1,7.0327156E1,2.3137543E1,4.5936165E1,2.3490703E2,6.874996E1,6.422625E1,9.5690025E1,1.2376884E1,1.9759123E1,7.708102E0,2.1650234E1,2.7004965E1,1.8827349E1,1.56597595E1,2.7683813E1,2.2718847E1,3.231099E1,4.9836685E1,8.916221E1,5.919301E0,1.3371572E1,2.1833988E1,3.2647514E1,5.6564114E1,1.3045737E2,4.491049E1,2.3110626E1,1.5349375E1,6.527367E1,2.0323164E2,9.264298E1,1.9855986E2,1.0650497E2,1.9201271E1,3.744633E1,3.911994E1,6.904277E1,1.2321997E1,-1.1307874E0,3.5949783E1,1.1139318E2,1.0166223E2,1.8198364E2,5.5654076E1,1.583392E1,1.2659309E2,4.909232E1],"split_indices":[56,110,56,110,45,110,26,12,74,112,107,26,110,111,110,24,110,110,26,110,110,54,101,26,82,74,45,31,8,110,59,31,32,26,34,108,94,111,54,112,65,26,31,112,49,112,112,111,96,7,0,26,91,21,111,0,0,0,0,26,111,62,26,0,0,0,0,0,0,0,0,0,0,0,0,0,0,0,0,0,0,0,0,0,0,0,0,0,0,0,0,0,0,0,0,0,0,0,0,0,0,0,0,0,0,0,0,0,0,0,0,0,0,0,0,0,0,0,0],"split_type":[0,0,0,0,0,0,0,0,0,0,0,0,0,0,0,0,0,0,0,0,0,0,0,0,0,0,0,0,0,0,0,0,0,0,0,0,0,0,0,0,0,0,0,0,0,0,0,0,0,0,0,0,0,0,0,0,0,0,0,0,0,0,0,0,0,0,0,0,0,0,0,0,0,0,0,0,0,0,0,0,0,0,0,0,0,0,0,0,0,0,0,0,0,0,0,0,0,0,0,0,0,0,0,0,0,0,0,0,0,0,0,0,0,0,0,0,0,0,0],"sum_hessian":[2.9345E4,2.758E4,1.765E3,1.8059E4,9.521E3,1.544E3,2.21E2,9.124E3,8.935E3,4.986E3,4.535E3,5.24E2,1.02E3,3.2E1,1.89E2,1.902E3,7.222E3,8.241E3,6.94E2,3.755E3,1.231E3,2.923E3,1.612E3,5.04E2,2E1,6.34E2,3.86E2,2.9E1,3E0,1.4E2,4.9E1,1.637E3,2.65E2,4.174E3,3.048E3,5.955E3,2.286E3,3.8E1,6.56E2,9.09E2,2.846E3,2.89E2,9.42E2,2.813E3,1.1E2,1.238E3,3.74E2,4E1,4.64E2,8E0,1.2E1,5.39E2,9.5E1,1.14E2,2.72E2,2E1,9E0,2E0,1E0,2.6E1,1.14E2,2.2E1,2.7E1,5.33E2,1.104E3,5.9E1,2.06E2,1.33E2,4.041E3,2.269E3,7.79E2,5.269E3,6.86E2,1.794E3,4.92E2,2E1,1.8E1,3.67E2,2.89E2,7.63E2,1.46E2,2.753E3,9.3E1,2.25E2,6.4E1,8.55E2,8.7E1,1.177E3,1.636E3,7.6E1,3.4E1,5.68E2,6.7E2,2.86E2,8.8E1,2.7E1,1.3E1,3.43E2,1.21E2,1E0,7E0,3.9E1,5E2,7.9E1,1.6E1,9E1,2.4E1,1.42E2,1.3E2,1E0,1E0,1.3E1,1.3E1,2.5E1,8.9E1,1.8E1,4E0,2E1,7E0],"tree_param":{"num_deleted":"0","num_feature":"113","num_nodes":"119","size_leaf_vector":"0"}},{"base_weights":[1.5550837E3,1.3952897E3,3.5926826E3,9.169499E2,1.7003115E3,3.326646E3,9.005183E3,6.6883826E2,1.1904648E3,1.597164E3,3.031999E3,2.795764E3,5.277344E3,1.1279047E4,6.30685E3,5.9357135E2,1.0650116E3,1.57204E3,5.918168E2,1.5252885E3,2.7482588E3,2.828895E3,5.061295E3,2.240791E3,3.635128E3,4.912933E3,1.0848885E4,6.307859E3,1.2288442E4,9.356144E3,2.2778604E3,5.802977E2,2.6422568E3,7.706127E2,1.4000195E3,1.8394548E3,7.0554333E2,5.521284E2,2.2089812E3,1.395764E3,1.9460157E3,2.458078E3,4.442144E3,2.551726E3,3.7126184E3,1.0787475E4,4.5576245E3,2.1808838E3,6.856618E3,3.1557263E3,5.0536094E3,4.1852573E3,6.9480347E3,6.069931E3,1.3948789E4,6.5937993E3,1.7242278E3,1.3479389E4,9.166717E3,2.6551238E3,1.1144286E4,2.369149E3,1.8040085E2,5.559189E2,1.0555446E3,6.298991E2,9.992907E2,1.9127083E3,1.0414886E3,1.6730132E3,4.5352617E3,1.9414263E3,6.7698035E2,8.1464795E2,4.1060547E2,3.5897708E3,9.5566016E2,1.8119211E3,1.172451E3,1.8267699E3,2.6299617E3,4.802223E3,2.2736223E3,5.693209E3,3.5307556E3,2.424343E3,5.092749E3,7.348414E3,3.4268457E3,4.1466816E3,1.0373106E4,2.0067456E3,3.3523901E3,1.0611086E4,4.426119E3,2.945849E3,7.4006294E3,6.018321E3,3.345451E3,3.8219434E3,8.294952E3,7.5770127E3,3.1724436E3,1.7092559E3,7.3335728E3,1.4912301E4,2.2981017E2,2.886114E3,6.3459106E2,7.755521E3,1.2633103E4,2.4571365E3,3.0469894E2],"categories":[],"categories_nodes":[],"categories_segments":[],"categories_sizes":[],"default_left":[1,1,1,0,0,0,0,0,0,0,0,0,0,0,0,0,0,1,1,1,0,0,0,0,1,0,0,0,0,0,0,0,0,0,0,1,0,0,0,0,0,0,0,1,0,0,0,0,0,0,0,0,0,0,0,0,0,0,0,0,0,0,0,0,0,0,0,0,0,0,0,0,0,0,0,0,0,0,0,0,0,0,0,0,0,0,0,0,0,0,0,0,0,0,0,0,0,0,0,0,0,0,0,0,0,0,0,0,0,0,0,0,0],"id":10,"left_children":[1,3,5,7,9,11,13,15,17,19,21,23,25,27,29,31,33,35,37,39,41,43,45,47,49,51,53,55,57,59,61,63,-1,65,67,69,71,73,75,77,79,81,83,85,87,-1,89,91,93,95,97,99,101,103,105,-1,-1,-1,-1,107,109,111,-1,-1,-1,-1,-1,-1,-1,-1,-1,-1,-1,-1,-1,-1,-1,-1,-1,-1,-1,-1,-1,-1,-1,-1,-1,-1,-1,-1,-1,-1,-1,-1,-1,-1,-1,-1,-1,-1,-1,-1,-1,-1,-1,-1,-1,-1,-1,-1,-1,-1,-1],"loss_changes":[9.610822E9,3.9943168E9,3.0615552E9,7.2302285E8,2.292097E9,2.1061366E9,5.424292E8,1.6620365E8,1.1576632E9,1.2800287E9,4.8068506E8,7.427625E8,8.339548E8,1.8843546E8,5.683954E8,1.2638477E8,8.689549E7,7.1631974E8,1.2560525E8,7.9355904E8,4.3686707E8,2.584914E8,2.623186E8,2.541015E8,4.1926554E8,5.810483E8,3.005038E8,3.047872E6,3.630387E7,2.9393485E8,3.785024E6,5.35776E7,0E0,1.4719488E7,7.447488E7,1.0540242E9,2.4525696E7,7.136986E7,7.79063E7,1.0364969E9,2.7550925E8,3.2634624E8,1.3040614E8,2.582528E8,2.4392192E8,0E0,1.9835891E8,1.8952448E8,6.253683E7,4.0672666E8,2.4352691E8,4.2518938E8,2.3006157E8,5.3589024E7,1.9484902E8,0E0,0E0,0E0,0E0,1.435564E6,7.973888E6,3.065864E6,0E0,0E0,0E0,0E0,0E0,0E0,0E0,0E0,0E0,0E0,0E0,0E0,0E0,0E0,0E0,0E0,0E0,0E0,0E0,0E0,0E0,0E0,0E0,0E0,0E0,0E0,0E0,0E0,0E0,0E0,0E0,0E0,0E0,0E0,0E0,0E0,0E0,0E0,0E0,0E0,0E0,0E0,0E0,0E0,0E0,0E0,0E0,0E0,0E0,0E0,0E0],"parents":[2147483647,0,0,1,1,2,2,3,3,4,4,5,5,6,6,7,7,8,8,9,9,10,10,11,11,12,12,13,13,14,14,15,15,16,16,17,17,18,18,19,19,20,20,21,21,22,22,23,23,24,24,25,25,26,26,27,27,28,28,29,29,30,30,31,31,33,33,34,34,35,35,36,36,37,37,38,38,39,39,40,40,41,41,42,42,43,43,44,44,46,46,47,47,48,48,49,49,50,50,51,51,52,52,53,53,54,54,59,59,60,60,61,61],"right_children":[2,4,6,8,10,12,14,16,18,20,22,24,26,28,30,32,34,36,38,40,42,44,46,48,50,52,54,56,58,60,62,64,-1,66,68,70,72,74,76,78,80,82,84,86,88,-1,90,92,94,96,98,100,102,104,106,-1,-1,-1,-1,108,110,112,-1,-1,-1,-1,-1,-1,-1,-1,-1,-1,-1,-1,-1,-1,-1,-1,-1,-1,-1,-1,-1,-1,-1,-1,-1,-1,-1,-1,-1,-1,-1,-1,-1,-1,-1,-1,-1,-1,-1,-1,-1,-1,-1,-1,-1,-1,-1,-1,-1,-1,-1],"split_conditions":[8.71858E-1,1.496558E-3,1.8092409E0,1.2174919E0,8.009901E-1,2.9594593E0,1.9617162E0,5.5514432E-2,2.76523E-1,5.050505E-2,2.5E0,1.3825517E0,1.0472222E1,1.8702971E0,5.823728E-1,2.9668217E0,9.3095237E-1,1.9223287E0,1.3948884E0,2E-2,4.583333E0,1.931713E0,4.828036E-1,6.78125E0,8.5E-2,3.25E0,1.3525357E0,5E-1,1.5E0,2.717014E-1,1.5E0,2.8140726E0,5.2845135E1,5.8559746E-2,1.1912165E0,1.7846313E0,2.3991217E-1,5.3532946E-1,1.9567119E0,9.6915805E-1,2.9346685E0,5.431701E-1,2.5561798E-1,1.684694E0,4.5833334E-1,2.1574948E2,8E0,1.8800654E0,5E-1,5.5E0,1.823077E0,3.2253966E0,3.689394E0,2.5E0,1.5165178E1,1.3187598E2,3.4484554E1,2.6958777E2,1.8333434E2,1.8E1,5.3571427E-1,4.75E0,3.608017E0,1.1118378E1,2.1110891E1,1.2597981E1,1.9985813E1,3.8254166E1,2.0829773E1,3.3460262E1,9.070523E1,3.8828526E1,1.3539607E1,1.629296E1,8.21211E0,7.179541E1,1.9113203E1,3.6238422E1,2.344902E1,3.6535397E1,5.259923E1,9.6044464E1,4.5472446E1,1.13864174E2,7.061511E1,4.848686E1,1.0185498E2,1.4696828E2,6.853691E1,8.293363E1,2.0746213E2,4.013491E1,6.70478E1,2.1222171E2,8.8522385E1,5.891698E1,1.4801259E2,1.2036642E2,6.690902E1,7.6438866E1,1.6589903E2,1.5154025E2,6.344887E1,3.4185116E1,1.4667145E2,2.98246E2,4.5962033E0,5.772228E1,1.2691821E1,1.5511041E2,2.5266205E2,4.9142727E1,6.093979E0],"split_indices":[69,103,31,31,60,66,31,46,44,81,70,21,97,31,103,33,15,31,33,37,87,14,103,30,39,71,103,2,94,103,5,33,0,15,33,31,33,44,33,12,102,103,27,31,19,0,48,24,27,70,85,13,76,69,4,0,0,0,0,5,12,15,0,0,0,0,0,0,0,0,0,0,0,0,0,0,0,0,0,0,0,0,0,0,0,0,0,0,0,0,0,0,0,0,0,0,0,0,0,0,0,0,0,0,0,0,0,0,0,0,0,0,0],"split_type":[0,0,0,0,0,0,0,0,0,0,0,0,0,0,0,0,0,0,0,0,0,0,0,0,0,0,0,0,0,0,0,0,0,0,0,0,0,0,0,0,0,0,0,0,0,0,0,0,0,0,0,0,0,0,0,0,0,0,0,0,0,0,0,0,0,0,0,0,0,0,0,0,0,0,0,0,0,0,0,0,0,0,0,0,0,0,0,0,0,0,0,0,0,0,0,0,0,0,0,0,0,0,0,0,0,0,0,0,0,0,0,0,0],"sum_hessian":[2.9532E4,2.7386E4,2.146E3,1.0665E4,1.6721E4,2.047E3,9.9E1,5.594E3,5.071E3,1.5521E4,1.2E3,1.611E3,4.36E2,5.2E1,4.7E1,4.703E3,8.91E2,3.096E3,1.975E3,1.4611E4,9.1E2,1.093E3,1.07E2,9.72E2,6.39E2,4.11E2,2.5E1,1E1,4.2E1,2.6E1,2.1E1,4.674E3,2.9E1,4.76E2,4.15E2,2.365E3,7.31E2,1.929E3,4.6E1,1.1175E4,3.436E3,7.79E2,1.31E2,8.35E2,2.58E2,7E0,1E2,9.61E2,1.1E1,4.8E2,1.59E2,3.05E2,1.06E2,1.1E1,1.4E1,9E0,1E0,2.8E1,1.4E1,6E0,2E1,2E1,1E0,4.448E3,2.26E2,2.97E2,1.79E2,1.69E2,2.46E2,2.229E3,1.36E2,1.5E1,7.16E2,6.74E2,1.255E3,2.1E1,2.5E1,3.9E3,7.275E3,2.929E3,5.07E2,5.5E1,7.24E2,5.3E1,7.8E1,7.97E2,3.8E1,1.7E1,2.41E2,9.5E1,5E0,8.39E2,1.22E2,3E0,8E0,4.59E2,2.1E1,1E2,5.9E1,2.82E2,2.3E1,9E1,1.6E1,3E0,8E0,1.3E1,1E0,5E0,1E0,8E0,1.2E1,1.9E1,1E0],"tree_param":{"num_deleted":"0","num_feature":"113","num_nodes":"113","size_leaf_vector":"0"}},{"base_weights":[1.516989E3,1.3627465E3,3.7054534E3,1.2705221E3,2.4668003E3,3.182938E3,6.259121E3,1.012505E3,1.5719321E3,2.0397461E3,3.9911477E3,2.8729233E3,6.1265234E3,5.684222E3,1.2740282E4,8.68803E2,1.6139968E3,2.2893604E3,1.2930905E3,1.8376984E3,3.056551E3,3.1230486E3,6.061835E3,2.5340112E3,4.194935E3,4.796505E3,1.1005767E4,4.7148145E3,8.126405E3,1.312495E4,1.5617874E3,6.2184656E2,1.0400437E3,1.4052571E3,2.6678774E3,1.5739749E3,2.9942725E3,1.1272931E3,2.0762693E3,1.7265626E3,2.674643E3,2.8483027E3,5.5588887E3,2.9615046E3,7.980151E3,8.365735E3,4.4898774E3,2.098954E3,3.447255E3,6.167846E3,3.7210596E3,4.0261597E3,9.023711E3,1.2299016E4,1.5624205E3,3.9904595E3,7.689689E3,9.748717E3,5.5302817E3,6.154136E2,7.7582E3,9.796345E2,1.5448799E3,1.3925569E3,1.0279987E4,2.162043E3,4.510234E3,2.2485852E3,1.4325995E3,2.7912637E3,4.7721104E3,9.905909E2,1.6704705E3,1.7085813E3,2.7714475E3,1.6316003E3,2.5826501E3,2.496831E3,5.1099243E3,3.717605E3,2.4584448E3,3.3358328E3,7.9053096E3,2.735032E3,4.218782E3,1.0034609E4,4.938077E3,1.2243367E4,6.5604062E3,5.328359E3,2.3314656E3,1.646971E3,2.7248428E3,3.09707E3,6.7605605E3,5.294119E3,1.1527632E4,3.1559512E3,5.7755645E3,3.53508E3,5.9364937E3,1.0094823E4,4.219856E3,1.0154754E4,1.5143211E4,5.2079297E3,2.9310408E3,2.7721382E3,8.946835E3,3.4334897E3,1.0843794E4,1.1971626E3,5.8991006E3],"categories":[],"categories_nodes":[],"categories_segments":[],"categories_sizes":[],"default_left":[1,1,0,0,1,1,1,0,0,1,1,0,1,0,0,1,0,0,1,1,0,0,0,0,0,0,0,0,0,0,0,0,0,0,0,0,0,1,0,1,0,0,0,0,0,0,0,0,0,1,0,0,0,0,0,0,1,0,1,0,0,0,0,0,0,0,0,0,0,0,0,0,0,0,0,0,0,0,0,0,0,0,0,0,0,0,0,0,0,0,0,0,0,0,0,0,0,0,0,0,0,0,0,0,0,0,0,0,0,0,0,0,0],"id":11,"left_children":[1,3,5,7,9,11,13,15,17,19,21,23,25,27,29,31,33,35,37,39,41,43,45,47,49,51,53,55,57,-1,-1,59,61,63,65,67,69,71,73,75,77,79,81,83,85,87,89,91,93,95,97,99,101,103,-1,105,107,109,111,-1,-1,-1,-1,-1,-1,-1,-1,-1,-1,-1,-1,-1,-1,-1,-1,-1,-1,-1,-1,-1,-1,-1,-1,-1,-1,-1,-1,-1,-1,-1,-1,-1,-1,-1,-1,-1,-1,-1,-1,-1,-1,-1,-1,-1,-1,-1,-1,-1,-1,-1,-1,-1,-1],"loss_changes":[9.959563E9,2.8048753E9,2.5726812E9,1.977942E9,1.375189E9,1.4561751E9,1.1534397E9,1.1842355E9,2.345214E9,3.3583E8,8.151373E8,6.448609E8,9.401016E8,6.8139725E8,9.130214E7,4.6766182E8,5.778954E8,1.6513556E9,1.0955325E9,1.2457933E8,1.2695014E8,2.3451187E8,4.549806E8,4.5642957E8,2.5471846E8,3.609508E8,3.7158707E8,4.4338483E8,3.0408346E8,0E0,0E0,2.0351104E8,1.9787469E8,2.3466394E8,3.965691E8,1.5242803E8,5.832755E8,5.1663462E8,3.7254298E8,9.56992E7,5.695808E7,7.728102E7,7.795373E7,7.957811E7,1.294656E7,2.977001E8,1.377897E8,2.198446E8,4.1416294E8,2.0121882E8,2.6273894E8,7.751718E7,5.001971E7,1.6987904E7,0E0,2.156114E8,2.348457E8,3.1546726E8,4.887245E7,0E0,0E0,0E0,0E0,0E0,0E0,0E0,0E0,0E0,0E0,0E0,0E0,0E0,0E0,0E0,0E0,0E0,0E0,0E0,0E0,0E0,0E0,0E0,0E0,0E0,0E0,0E0,0E0,0E0,0E0,0E0,0E0,0E0,0E0,0E0,0E0,0E0,0E0,0E0,0E0,0E0,0E0,0E0,0E0,0E0,0E0,0E0,0E0,0E0,0E0,0E0,0E0,0E0,0E0],"parents":[2147483647,0,0,1,1,2,2,3,3,4,4,5,5,6,6,7,7,8,8,9,9,10,10,11,11,12,12,13,13,14,14,15,15,16,16,17,17,18,18,19,19,20,20,21,21,22,22,23,23,24,24,25,25,26,26,27,27,28,28,31,31,32,32,33,33,34,34,35,35,36,36,37,37,38,38,39,39,40,40,41,41,42,42,43,43,44,44,45,45,46,46,47,47,48,48,49,49,50,50,51,51,52,52,53,53,55,55,56,56,57,57,58,58],"right_children":[2,4,6,8,10,12,14,16,18,20,22,24,26,28,30,32,34,36,38,40,42,44,46,48,50,52,54,56,58,-1,-1,60,62,64,66,68,70,72,74,76,78,80,82,84,86,88,90,92,94,96,98,100,102,104,-1,106,108,110,112,-1,-1,-1,-1,-1,-1,-1,-1,-1,-1,-1,-1,-1,-1,-1,-1,-1,-1,-1,-1,-1,-1,-1,-1,-1,-1,-1,-1,-1,-1,-1,-1,-1,-1,-1,-1,-1,-1,-1,-1,-1,-1,-1,-1,-1,-1,-1,-1,-1,-1,-1,-1,-1,-1],"split_conditions":[1.1668334E0,3.750334E-2,3.6255002E0,9.986532E-1,1.225E0,1.2366947E0,1.8514851E0,4.6862745E-1,2.029E0,7.4160004E-1,1.7838284E0,9.1242105E-1,1.819802E0,1.6442308E0,2.1666665E0,9.5E0,2.361111E-1,9.915254E-1,2.992579E0,2.8436067E0,4.841463E0,1.6122448E0,9.166666E-1,9.255319E-1,8.2685906E-1,2.25E0,1.9745874E0,3.5E0,1.0338984E0,2.62499E2,3.1235746E1,7E0,5.2277434E-1,1.95E1,1.8452381E0,6.308725E-1,7.1000004E-1,1.9981413E0,3.6E0,4.5E0,1.5E0,6.850895E-1,1.5E0,7.8999996E-1,4.7916666E-1,4.1875E-1,1.9719472E0,1.0200438E0,4.614469E0,6.5E-2,3.5815E0,1.8735001E0,6.8421054E-1,9.0625E-1,3.124841E1,1.0089285E0,6.5E0,3.809524E-1,3.5E0,1.2308271E1,1.55164E2,1.959269E1,3.0897596E1,2.7851137E1,2.0559975E2,4.324086E1,9.020467E1,4.4971703E1,2.8651989E1,5.582527E1,9.544221E1,1.9811817E1,3.340941E1,3.4171627E1,5.5428947E1,3.2632008E1,5.1653E1,4.993662E1,1.0219849E2,7.43521E1,4.9168896E1,6.671665E1,1.5810619E2,5.4700638E1,8.437564E1,2.0069218E2,9.876154E1,2.4486734E2,1.3120811E2,1.0656718E2,4.662931E1,3.293942E1,5.4496853E1,6.19414E1,1.3521121E2,1.0588238E2,2.3055263E2,6.3119022E1,1.15511284E2,7.07016E1,1.1872987E2,2.0189645E2,8.439712E1,2.0309508E2,3.028642E2,1.0415859E2,5.8620815E1,5.5442764E1,1.7893669E2,6.866979E1,2.1687587E2,2.394325E1,1.1798201E2],"split_indices":[55,108,55,44,104,104,31,14,42,57,31,57,31,74,26,112,86,21,6,15,74,52,26,70,12,52,31,70,2,0,0,70,8,65,17,26,57,26,38,108,70,27,3,57,14,21,31,86,21,35,57,57,1,12,0,12,111,10,112,0,0,0,0,0,0,0,0,0,0,0,0,0,0,0,0,0,0,0,0,0,0,0,0,0,0,0,0,0,0,0,0,0,0,0,0,0,0,0,0,0,0,0,0,0,0,0,0,0,0,0,0,0,0],"split_type":[0,0,0,0,0,0,0,0,0,0,0,0,0,0,0,0,0,0,0,0,0,0,0,0,0,0,0,0,0,0,0,0,0,0,0,0,0,0,0,0,0,0,0,0,0,0,0,0,0,0,0,0,0,0,0,0,0,0,0,0,0,0,0,0,0,0,0,0,0,0,0,0,0,0,0,0,0,0,0,0,0,0,0,0,0,0,0,0,0,0,0,0,0,0,0,0,0,0,0,0,0,0,0,0,0,0,0,0,0,0,0,0,0],"sum_hessian":[2.9519E4,2.7577E4,1.942E3,2.5453E4,2.124E3,1.614E3,3.28E2,1.3716E4,1.1737E4,1.661E3,4.63E2,1.462E3,1.52E2,3.03E2,2.5E1,1.1073E4,2.643E3,3.283E3,8.454E3,1.388E3,2.73E2,3.28E2,1.35E2,1.166E3,2.96E2,1.21E2,3.1E1,2.19E2,8.4E1,2.4E1,1E0,4.536E3,6.537E3,2.208E3,4.35E2,1.631E3,1.652E3,6.979E3,1.475E3,1.228E3,1.6E2,2.54E2,1.9E1,3.19E2,9E0,5.3E1,8.2E1,7.92E2,3.74E2,5.5E1,2.41E2,1.04E2,1.7E1,2.7E1,4E0,1.78E2,4.1E1,5E1,3.4E1,4.533E3,3E0,5.841E3,6.96E2,2.206E3,2E0,3.43E2,9.2E1,2.8E2,1.351E3,1.485E3,1.67E2,5.578E3,1.401E3,9.67E2,5.08E2,1.108E3,1.2E2,1.51E2,9E0,7.6E1,1.78E2,1.1E1,8E0,2.73E2,4.6E1,4E0,5E0,1.5E1,3.8E1,5.8E1,2.4E1,4.62E2,3.3E2,3.4E2,3.4E1,4.9E1,6E0,1.91E2,5E1,8.5E1,1.9E1,1.3E1,4E0,1.8E1,9E0,8.1E1,9.7E1,9E0,3.2E1,8E0,4.2E1,3E0,3.1E1],"tree_param":{"num_deleted":"0","num_feature":"113","num_nodes":"113","size_leaf_vector":"0"}},{"base_weights":[1.497048E3,1.254556E3,3.5811375E3,1.5030519E3,7.945203E2,3.0983286E3,6.102717E3,7.307998E2,1.7813752E3,5.25126E2,1.0674353E3,2.8924814E3,5.942054E3,1.1147244E4,5.4553384E3,1.8943131E3,5.9110126E2,2.088378E3,1.1825613E3,4.3907977E2,7.1386633E2,1.3162151E3,6.123656E2,2.7690293E3,6.4922324E3,7.5043223E3,1.7173069E3,1.3800114E4,7.657501E3,4.5876567E3,7.769495E3,1.6655795E3,2.77163E3,1.4503274E3,5.613522E2,1.8073435E3,2.634288E3,7.020459E2,1.6238705E3,6.9572516E2,3.579534E2,9.1564545E2,6.0257983E2,9.348898E2,1.5069834E3,4.5828766E2,1.1305255E3,3.0062322E3,1.4068741E3,1.400402E3,7.295317E3,9.207513E3,4.903484E3,-2.0144773E1,2.175061E3,1.423216E4,6.3538477E2,4.815934E3,8.878569E3,4.062631E3,7.717534E3,8.698473E3,4.1477876E3,5.3844604E2,1.7864155E3,3.1211924E3,1.3246272E3,5.617543E1,1.4603123E3,5.1092572E2,8.907143E2,2.2891428E3,1.518635E3,2.180583E3,3.2380513E3,6.752433E2,2.9309167E3,1.4191566E3,2.3473047E3,4.8894998E2,7.8212476E2,4.4135538E2,3.1867593E2,7.668829E2,1.5193047E3,4.733805E2,8.487131E2,1.1207131E3,7.9097375E2,1.6196246E3,9.747283E2,4.1715817E2,6.9847876E2,9.7513074E2,1.3114131E3,2.0674646E3,3.5030374E3,1.8098324E3,1.0141227E3,5.1955402E1,2.0681309E3,8.31152E3,2.3566511E3,5.7479907E3,1.1788852E4,3.911008E3,7.8858184E3,3.1428903E2,-2.5614822E2,1.5737002E3,3.508065E3,1.4907636E4,8.008353E3,1.8989723E3,5.307803E3,2.453026E3,9.571773E3,2.4596882E3,4.7836646E3,4.1821333E3,9.919574E3,1.1200297E4,6.119673E3,2.3130583E3,5.8045894E3],"categories":[],"categories_nodes":[],"categories_segments":[],"categories_sizes":[],"default_left":[1,1,0,1,0,1,0,0,1,0,0,0,1,0,0,0,0,0,0,1,0,0,0,1,1,0,0,0,1,1,1,0,0,0,1,0,1,1,0,0,1,0,0,1,0,0,0,1,1,0,1,0,0,0,0,1,0,0,0,0,1,0,0,0,0,0,0,0,0,0,0,0,0,0,0,0,0,0,0,0,0,0,0,0,0,0,0,0,0,0,0,0,0,0,0,0,0,0,0,0,0,0,0,0,0,0,0,0,0,0,0,0,0,0,0,0,0,0,0,0,0,0,0,0,0],"id":12,"left_children":[1,3,5,7,9,11,13,15,17,19,21,23,25,27,29,31,33,35,37,39,41,43,45,47,49,51,53,55,57,59,61,63,65,67,69,71,73,75,77,79,81,83,85,87,89,91,93,95,97,99,101,103,105,107,109,111,-1,113,115,117,119,121,123,-1,-1,-1,-1,-1,-1,-1,-1,-1,-1,-1,-1,-1,-1,-1,-1,-1,-1,-1,-1,-1,-1,-1,-1,-1,-1,-1,-1,-1,-1,-1,-1,-1,-1,-1,-1,-1,-1,-1,-1,-1,-1,-1,-1,-1,-1,-1,-1,-1,-1,-1,-1,-1,-1,-1,-1,-1,-1,-1,-1,-1,-1],"loss_changes":[1.4874247E10,3.013804E9,3.7161984E9,3.6790436E9,6.796631E8,1.4913188E9,1.5459226E9,7.36492E8,2.3113073E9,7.533427E7,5.1940403E8,1.0507981E9,1.1289457E9,4.0350618E8,8.4383846E8,9.291021E7,1.0278541E8,1.2715377E9,9.03914E8,6.641888E7,3.2165568E7,2.1464371E8,1.2929683E8,7.476408E8,3.128279E8,5.1299584E8,3.8219456E7,1.6159027E8,4.7454976E7,4.9613466E8,3.609303E8,5.188301E7,4.5941504E7,1.797216E6,6.463373E7,7.60875E8,7.667917E8,1.2018848E8,3.26037E8,1.3338112E7,7.835968E6,4.517267E7,2.955408E7,2.5669312E7,1.1700941E8,1.2106672E7,9.17776E6,9.166643E8,5.3081664E7,1.069731E7,3.216832E8,6.020024E8,1.2307302E8,9.4870744E5,2.4940784E7,2.531328E6,0E0,4.268272E6,5.224179E7,3.0838374E8,3.088443E8,5.3146624E8,6.5608E7,0E0,0E0,0E0,0E0,0E0,0E0,0E0,0E0,0E0,0E0,0E0,0E0,0E0,0E0,0E0,0E0,0E0,0E0,0E0,0E0,0E0,0E0,0E0,0E0,0E0,0E0,0E0,0E0,0E0,0E0,0E0,0E0,0E0,0E0,0E0,0E0,0E0,0E0,0E0,0E0,0E0,0E0,0E0,0E0,0E0,0E0,0E0,0E0,0E0,0E0,0E0,0E0,0E0,0E0,0E0,0E0,0E0,0E0,0E0,0E0,0E0,0E0],"parents":[2147483647,0,0,1,1,2,2,3,3,4,4,5,5,6,6,7,7,8,8,9,9,10,10,11,11,12,12,13,13,14,14,15,15,16,16,17,17,18,18,19,19,20,20,21,21,22,22,23,23,24,24,25,25,26,26,27,27,28,28,29,29,30,30,31,31,32,32,33,33,34,34,35,35,36,36,37,37,38,38,39,39,40,40,41,41,42,42,43,43,44,44,45,45,46,46,47,47,48,48,49,49,50,50,51,51,52,52,53,53,54,54,55,55,57,57,58,58,59,59,60,60,61,61,62,62],"right_children":[2,4,6,8,10,12,14,16,18,20,22,24,26,28,30,32,34,36,38,40,42,44,46,48,50,52,54,56,58,60,62,64,66,68,70,72,74,76,78,80,82,84,86,88,90,92,94,96,98,100,102,104,106,108,110,112,-1,114,116,118,120,122,124,-1,-1,-1,-1,-1,-1,-1,-1,-1,-1,-1,-1,-1,-1,-1,-1,-1,-1,-1,-1,-1,-1,-1,-1,-1,-1,-1,-1,-1,-1,-1,-1,-1,-1,-1,-1,-1,-1,-1,-1,-1,-1,-1,-1,-1,-1,-1,-1,-1,-1,-1,-1,-1,-1,-1,-1,-1,-1,-1,-1,-1,-1],"split_conditions":[5.5850005E-1,7.5E0,2.218E0,1.5E0,8.2E1,3.1904762E0,6.006289E-1,9.996271E-1,2.7449903E-4,1.5428755E0,2.8E1,6.208333E0,6.5E0,9.6153843E-1,3.5E0,4.3076923E-1,5.7471264E-3,4.9967214E-2,9.994062E-1,8.5E0,1.85799E0,8.272947E-2,3.9160714E0,1.8003118E0,3.5E0,1.9650165E0,5.7029706E-1,2.65E1,3E0,4.5E0,4.3508098E-2,1E-6,5.5406415E-1,1.0003729E0,1.0927198E0,9.878049E-1,1.5E0,4.5E0,2.9411765E-2,8.531353E-1,9.5E0,1.7816958E0,2.2348132E0,9.5E0,3.003891E0,8.064767E0,5.923358E0,3.5E0,5.5E0,1.265E-1,4.542959E-2,4.166667E-1,3.0454545E0,1.15384616E-1,1.665E-1,1.9316832E0,1.2707695E1,1.3721104E-1,4.15E-1,5.9839725E0,4.5E0,1.0666666E0,1E0,1.0768921E1,3.572831E1,6.2423847E1,2.6492544E1,1.1235086E0,2.9206244E1,1.0218514E1,1.7814285E1,4.5782856E1,3.03727E1,4.361166E1,6.4761024E1,1.3504866E1,5.8618332E1,2.8383131E1,4.6946095E1,9.778999E0,1.5642495E1,8.827107E0,6.3735185E0,1.5337657E1,3.0386093E1,9.467609E0,1.697426E1,2.2414263E1,1.5819475E1,3.239249E1,1.9494564E1,8.3431635E0,1.3969575E1,1.9502615E1,2.6228262E1,4.1349293E1,7.0060745E1,3.6196648E1,2.0282454E1,1.039108E0,4.1362617E1,1.662304E2,4.7133022E1,1.1495981E2,2.3577702E2,7.822016E1,1.5771637E2,6.2857804E0,-5.1229644E0,3.1474003E1,7.01613E1,2.981527E2,1.6016705E2,3.7979446E1,1.0615606E2,4.9060516E1,1.9143547E2,4.9193764E1,9.567329E1,8.364266E1,1.9839148E2,2.2400594E2,1.22393456E2,4.6261166E1,1.1609178E2],"split_indices":[53,110,53,110,51,104,26,26,33,33,107,74,110,15,69,92,21,53,31,110,33,24,101,33,110,31,31,97,110,109,33,33,26,26,15,106,109,109,106,31,110,33,33,110,99,46,13,110,110,54,33,93,22,24,54,31,0,26,55,33,110,43,54,0,0,0,0,0,0,0,0,0,0,0,0,0,0,0,0,0,0,0,0,0,0,0,0,0,0,0,0,0,0,0,0,0,0,0,0,0,0,0,0,0,0,0,0,0,0,0,0,0,0,0,0,0,0,0,0,0,0,0,0,0,0],"split_type":[0,0,0,0,0,0,0,0,0,0,0,0,0,0,0,0,0,0,0,0,0,0,0,0,0,0,0,0,0,0,0,0,0,0,0,0,0,0,0,0,0,0,0,0,0,0,0,0,0,0,0,0,0,0,0,0,0,0,0,0,0,0,0,0,0,0,0,0,0,0,0,0,0,0,0,0,0,0,0,0,0,0,0,0,0,0,0,0,0,0,0,0,0,0,0,0,0,0,0,0,0,0,0,0,0,0,0,0,0,0,0,0,0,0,0,0,0,0,0,0,0,0,0,0,0],"sum_hessian":[2.944E4,2.6373E4,3.067E3,1.7122E4,9.251E3,2.576E3,4.91E2,4.537E3,1.2585E4,4.657E3,4.594E3,2.404E3,1.72E2,5.4E1,4.37E2,4.85E2,4.052E3,8.318E3,4.267E3,3.201E3,1.456E3,2.969E3,1.625E3,2.326E3,7.8E1,1.25E2,4.7E1,2.9E1,2.5E1,3.2E2,1.17E2,3.87E2,9.8E1,1.34E2,3.918E3,5.494E3,2.824E3,2.044E3,2.223E3,7.67E2,2.434E3,5.15E2,9.41E2,9.92E2,1.977E3,1.254E3,3.71E2,1.98E3,3.46E2,1.1E1,6.7E1,7.4E1,5.1E1,1E1,3.7E1,2.8E1,1E0,9E0,1.6E1,2.76E2,4.4E1,9.2E1,2.5E1,3.8E1,3.49E2,7.8E1,2E1,1E0,1.33E2,3.4E3,5.18E2,2.056E3,3.438E3,1.615E3,1.209E3,2.021E3,2.3E1,1.735E3,4.88E2,2.28E2,5.39E2,7.76E2,1.658E3,4.15E2,1E2,6.19E2,3.22E2,4.3E2,5.62E2,1.63E3,3.47E2,1.073E3,1.81E2,2.03E2,1.68E2,6.87E2,1.293E3,1.69E2,1.77E2,4E0,7E0,5.5E1,1.2E1,3.3E1,4.1E1,4E1,1.1E1,4E0,6E0,2.7E1,1E1,2.4E1,4E0,2E0,7E0,2E0,1.4E1,8.7E1,1.89E2,1.8E1,2.6E1,4.5E1,4.7E1,1.3E1,1.2E1],"tree_param":{"num_deleted":"0","num_feature":"113","num_nodes":"125","size_leaf_vector":"0"}},{"base_weights":[1.466345E3,1.3422754E3,4.6239033E3,8.862241E2,1.6235878E3,9.055606E3,4.173106E3,6.269361E2,1.1540161E3,1.5365815E3,3.0357366E3,6.9628228E3,1.2698964E4,3.55166E3,6.0356807E3,5.402601E2,9.182479E2,9.4728656E2,2.4575535E3,1.3526191E3,2.0031492E3,2.6949905E3,4.364135E3,4.610602E3,1.0276831E4,1.4665632E4,6.896024E3,3.0951323E3,5.4729185E3,5.744655E3,1.1377481E4,6.169978E2,3.8876938E2,7.074694E2,1.2934727E3,1.2440571E3,5.198122E2,1.823381E3,6.245055E3,1.6758894E3,1.0800782E3,1.7894215E3,2.5079019E3,3.362985E3,2.1528416E3,9.370692E3,4.167085E3,1.7377769E3,6.2011636E3,7.803995E3,1.2015608E4,1.53285625E4,7.187377E3,8.208502E3,6.599159E2,2.8945671E3,5.2225425E3,4.8918755E3,8.670891E3,4.8692617E3,7.2939727E3,1.2370337E4,2.280361E2,5.5477856E2,8.500916E2,3.268597E2,6.851607E2,8.209721E2,3.1471722E2,1.134184E3,2.4969587E3,9.678766E2,1.9521317E3,4.8447128E2,1.8915597E3,1.3271757E3,2.8262104E3,5.192272E3,9.537987E3,2.1484502E3,1.0981017E3,7.751132E2,1.4764629E3,1.7494597E3,3.9826467E3,5.056149E3,2.400879E3,3.1312705E3,5.8229185E3,2.057739E3,5.1987783E3,1.278141E3,1.2352085E4,6.996483E3,3.883026E3,2.0139474E3,4.057784E2,7.5431094E3,2.828254E3,2.6798157E3,5.1101064E3,2.0791245E3,8.0561094E3,5.5648716E3,3.204625E3,1.5130908E3,9.779797E3,4.3069297E3,7.1062354E3,8.458861E3,5.202061E3],"categories":[],"categories_nodes":[],"categories_segments":[],"categories_sizes":[],"default_left":[1,1,0,0,1,0,0,0,1,1,0,1,0,0,1,0,0,0,1,0,0,0,0,0,0,0,0,0,0,0,0,0,0,0,0,0,1,0,0,0,0,1,0,0,0,0,0,0,0,0,0,0,0,0,0,1,0,0,0,0,0,0,0,0,0,0,0,0,0,0,0,0,0,0,0,0,0,0,0,0,0,0,0,0,0,0,0,0,0,0,0,0,0,0,0,0,0,0,0,0,0,0,0,0,0,0,0,0,0,0,0],"id":13,"left_children":[1,3,5,7,9,11,13,15,17,19,21,23,25,27,29,31,33,35,37,39,41,43,45,47,49,51,53,55,57,59,61,63,65,67,69,71,73,75,77,79,81,83,85,87,89,91,93,95,97,-1,-1,-1,-1,-1,-1,99,101,103,105,107,109,-1,-1,-1,-1,-1,-1,-1,-1,-1,-1,-1,-1,-1,-1,-1,-1,-1,-1,-1,-1,-1,-1,-1,-1,-1,-1,-1,-1,-1,-1,-1,-1,-1,-1,-1,-1,-1,-1,-1,-1,-1,-1,-1,-1,-1,-1,-1,-1,-1,-1],"loss_changes":[1.1541225E10,3.637334E9,2.1877596E9,7.5077376E8,2.150527E9,6.8930406E8,1.1510989E9,1.3840282E8,1.4321132E9,1.4156472E9,4.485806E8,4.7490125E8,3.0971443E8,6.514176E8,3.264E8,4.9073664E7,9.873741E7,5.8241024E8,1.737217E9,1.0426675E9,4.994171E8,2.8682752E8,1.6417971E8,1.765694E8,2.2322432E7,1.8724352E7,8.461542E7,2.4857446E8,2.2701568E8,2.9134336E8,1.3001664E8,4.0339584E7,2.5997472E7,3.580557E7,8.381722E7,5.2845952E8,9.046618E7,3.0725466E8,3.1101773E8,1.4777907E9,7.7674086E8,2.809467E8,3.6612506E8,1.8810778E8,1.1994624E8,1.5310182E8,1.3357568E8,5.068524E6,9.634893E7,0E0,0E0,0E0,0E0,0E0,0E0,2.5607885E8,4.464187E8,1.2410598E8,1.5188608E8,1.6688742E8,1.631278E8,0E0,0E0,0E0,0E0,0E0,0E0,0E0,0E0,0E0,0E0,0E0,0E0,0E0,0E0,0E0,0E0,0E0,0E0,0E0,0E0,0E0,0E0,0E0,0E0,0E0,0E0,0E0,0E0,0E0,0E0,0E0,0E0,0E0,0E0,0E0,0E0,0E0,0E0,0E0,0E0,0E0,0E0,0E0,0E0,0E0,0E0,0E0,0E0,0E0,0E0],"parents":[2147483647,0,0,1,1,2,2,3,3,4,4,5,5,6,6,7,7,8,8,9,9,10,10,11,11,12,12,13,13,14,14,15,15,16,16,17,17,18,18,19,19,20,20,21,21,22,22,23,23,24,24,25,25,26,26,27,27,28,28,29,29,30,30,31,31,32,32,33,33,34,34,35,35,36,36,37,37,38,38,39,39,40,40,41,41,42,42,43,43,44,44,45,45,46,46,47,47,48,48,55,55,56,56,57,57,58,58,59,59,60,60],"right_children":[2,4,6,8,10,12,14,16,18,20,22,24,26,28,30,32,34,36,38,40,42,44,46,48,50,52,54,56,58,60,62,64,66,68,70,72,74,76,78,80,82,84,86,88,90,92,94,96,98,-1,-1,-1,-1,-1,-1,100,102,104,106,108,110,-1,-1,-1,-1,-1,-1,-1,-1,-1,-1,-1,-1,-1,-1,-1,-1,-1,-1,-1,-1,-1,-1,-1,-1,-1,-1,-1,-1,-1,-1,-1,-1,-1,-1,-1,-1,-1,-1,-1,-1,-1,-1,-1,-1,-1,-1,-1,-1,-1,-1],"split_conditions":[1.6395E0,8.8547816E-4,6.72956E-1,1.1361686E0,1.2157683E0,4.0872765E-1,9.185E-1,9.393382E-1,3.25E-1,1.5E-2,3.6441817E0,1.3048905E0,2E0,3.54E0,1.5996516E0,3E0,4.356061E-2,3.1185246E-1,1.7762376E0,1.3419306E-1,2.4970832E-1,9.350649E-2,5.580227E-1,1.051697E0,3.205E0,6.132076E-1,3.3333334E-1,2.1666665E0,5.6654997E0,3.04E0,4.5E0,4.586835E-2,7.742574E-1,3E0,1.21E0,3.1081642E-4,9.986532E-1,1.6145215E0,1.8742573E0,1.6067979E0,1.0033784E0,9.074074E0,5.657158E-1,2.25E0,8.836538E0,5E-1,7.6824534E-1,3.8495E0,9E-1,1.560799E2,2.4031216E2,3.0657123E2,1.4374754E2,1.6417003E2,1.3198318E1,1.3529412E0,1.8351135E0,1.0023696E0,7.5E-1,3.79E0,1.030303E0,2.4740674E2,4.560722E0,1.1095571E1,1.7001831E1,6.5371943E0,1.3703214E1,1.6419441E1,6.2943444E0,2.268368E1,4.9939175E1,1.935753E1,3.9042633E1,9.689425E0,3.7831192E1,2.6543512E1,5.6524208E1,1.03845436E2,1.9075974E2,4.2969E1,2.1962032E1,1.5502264E1,2.9529257E1,3.4989193E1,7.965293E1,1.0112298E2,4.801758E1,6.262541E1,1.1645837E2,4.1154778E1,1.0397556E2,2.5562819E1,2.4704169E2,1.3992966E2,7.7660515E1,4.0278946E1,8.115568E0,1.5086218E2,5.656508E1,5.3596313E1,1.02202126E2,4.158249E1,1.6112218E2,1.1129743E2,6.40925E1,3.0261816E1,1.9559593E2,8.6138596E1,1.4212471E2,1.6917722E2,1.0404122E2],"split_indices":[56,103,26,31,54,26,57,15,104,41,54,31,15,55,31,104,17,44,31,27,55,1,103,103,55,26,8,74,56,55,15,15,31,104,54,44,44,31,31,103,88,87,103,76,92,3,26,56,22,0,0,0,0,0,0,104,26,4,52,56,2,0,0,0,0,0,0,0,0,0,0,0,0,0,0,0,0,0,0,0,0,0,0,0,0,0,0,0,0,0,0,0,0,0,0,0,0,0,0,0,0,0,0,0,0,0,0,0,0,0,0],"split_type":[0,0,0,0,0,0,0,0,0,0,0,0,0,0,0,0,0,0,0,0,0,0,0,0,0,0,0,0,0,0,0,0,0,0,0,0,0,0,0,0,0,0,0,0,0,0,0,0,0,0,0,0,0,0,0,0,0,0,0,0,0,0,0,0,0,0,0,0,0,0,0,0,0,0,0,0,0,0,0,0,0,0,0,0,0,0,0,0,0,0,0,0,0,0,0,0,0,0,0,0,0,0,0,0,0,0,0,0,0,0,0],"sum_hessian":[2.9475E4,2.8362E4,1.113E3,1.0822E4,1.754E4,1.01E2,1.012E3,5.5E3,5.322E3,1.6524E4,1.016E3,6.6E1,3.5E1,7.61E2,2.51E2,4.241E3,1.259E3,4.595E3,7.27E2,1.1854E4,4.67E3,8.11E2,2.05E2,4E1,2.6E1,2.5E1,1E1,6.17E2,1.44E2,2.4E2,1.1E1,2.813E3,1.428E3,8.08E2,4.51E2,2.711E3,1.884E3,6.24E2,1.03E2,5.42E3,6.434E3,3.284E3,1.386E3,3.61E2,4.5E2,6E0,1.99E2,1.5E1,2.5E1,1.3E1,1.3E1,2.2E1,3E0,8E0,2E0,5.66E2,5.1E1,1.24E2,2E1,1.56E2,8.4E1,1E1,1E0,2.223E3,5.9E2,1.183E3,2.45E2,6.26E2,1.82E2,4E2,5.1E1,1.952E3,7.59E2,1.838E3,4.6E1,4.19E2,2.05E2,8E1,2.3E1,2.98E3,2.44E3,3.638E3,2.796E3,3.227E3,5.7E1,5.4E1,1.332E3,3.32E2,2.9E1,4.38E2,1.2E1,2E0,4E0,1.6E1,1.83E2,1.2E1,3E0,1.7E1,8E0,5.18E2,4.8E1,2.5E1,2.6E1,8.7E1,3.7E1,3E0,1.7E1,1.27E2,2.9E1,5.2E1,3.2E1],"tree_param":{"num_deleted":"0","num_feature":"113","num_nodes":"111","size_leaf_vector":"0"}},{"base_weights":[1.4343175E3,1.193397E3,3.34723E3,1.0176312E3,1.7816412E3,2.9064783E3,5.8271504E3,9.4799097E2,2.1341917E3,1.5741646E3,2.2424873E3,3.35684E3,1.8548573E3,4.920869E3,8.664574E3,8.634837E2,1.3948099E3,1.7019719E3,4.4006294E3,2.1000388E3,1.4062059E3,5.0852456E3,2.1838816E3,3.156883E3,6.793885E3,1.130577E3,2.6734573E3,5.524044E3,2.7032322E3,9.638065E3,3.66266E3,6.8549066E2,1.0269661E3,1.121876E3,1.7772412E3,1.4812712E3,2.4782417E3,8.593009E3,3.4255723E3,1.485837E3,3.0487478E3,1.211852E3,1.7395839E3,7.6355396E3,2.267307E3,2.2596309E3,1.1485425E3,5.4778335E3,2.9832344E3,9.968271E3,4.9012036E3,3.6542993E2,1.4312238E3,3.7449514E3,1.6921383E3,5.195494E3,9.394758E3,1.7278179E3,3.9915767E3,3.9056372E3,1.0536282E4,1.7026232E3,4.7378657E3,1.0005787E3,5.727019E2,9.3609924E2,1.3696688E3,1.00603656E3,1.6320383E3,2.5588962E3,1.3912598E3,1.9311073E3,1.2342687E3,2.2990977E3,6.4028135E3,1.2385661E4,5.788911E3,4.0797834E3,1.9701332E3,1.7480835E3,9.5665454E2,2.206404E3,3.455181E3,1.1365096E3,1.956962E3,1.6066625E3,2.6517456E3,1.992167E3,9.007628E3,1.1831204E3,3.3405005E3,2.8509963E3,2.0404984E3,9.78778E2,1.5841105E3,1.0646634E4,3.1771555E3,4.623838E3,2.8025383E3,6.658206E3,1.2223404E4,3.9031777E3,1.2023255E4,1.3505583E2,5.731577E2,3.774718E3,1.0069082E3,2.1081501E3,5.620914E3,2.4914258E3,1.4561914E3,4.6734053E3,7.639856E3,9.990425E3,2.2920642E3,5.7619525E2,2.26872E3,4.8727373E3,1.8966238E3,4.83121E3,1.5250941E2,6.168869E3,1.1617544E4,1.8759979E3,1.578125E2,5.307633E3,2.1289805E3],"categories":[],"categories_nodes":[],"categories_segments":[],"categories_sizes":[],"default_left":[1,1,0,1,0,1,0,1,1,0,0,1,0,1,1,1,0,0,0,0,0,1,1,0,0,0,0,1,0,1,0,1,1,0,0,0,0,0,0,0,1,0,0,1,0,0,0,1,0,0,0,1,0,0,0,0,0,0,0,0,0,0,0,0,0,0,0,0,0,0,0,0,0,0,0,0,0,0,0,0,0,0,0,0,0,0,0,0,0,0,0,0,0,0,0,0,0,0,0,0,0,0,0,0,0,0,0,0,0,0,0,0,0,0,0,0,0,0,0,0,0,0,0,0,0,0,0],"id":14,"left_children":[1,3,5,7,9,11,13,15,17,19,21,23,25,27,29,31,33,35,37,39,41,43,45,47,49,51,53,55,57,59,61,63,65,67,69,71,73,75,77,79,81,83,85,87,89,91,93,95,97,99,101,103,105,107,109,111,113,115,117,119,121,123,125,-1,-1,-1,-1,-1,-1,-1,-1,-1,-1,-1,-1,-1,-1,-1,-1,-1,-1,-1,-1,-1,-1,-1,-1,-1,-1,-1,-1,-1,-1,-1,-1,-1,-1,-1,-1,-1,-1,-1,-1,-1,-1,-1,-1,-1,-1,-1,-1,-1,-1,-1,-1,-1,-1,-1,-1,-1,-1,-1,-1,-1,-1,-1,-1],"loss_changes":[1.3594595E10,2.7079148E9,3.590062E9,1.5672013E9,5.7283584E8,1.3217792E9,1.2354007E9,7.1614976E8,1.1523553E9,3.644795E8,3.0027366E8,1.3269586E9,4.9678822E8,4.9202586E8,5.4414746E8,4.642652E8,3.1322982E8,1.6696704E8,7.4316006E8,5.810821E8,2.0237926E8,2.4859117E8,1.4115942E8,7.316828E8,5.940106E8,1.0276448E8,4.0899686E8,3.288914E8,9.740685E7,4.685957E8,3.6189504E7,2.7140224E8,2.580224E8,1.0266394E8,3.7538074E8,8.406067E7,1.392503E8,3.0052454E8,1.395479E8,8.325875E7,1.2726502E8,1.0988442E8,1.3638451E8,1.2917606E8,1.8155088E7,2.1538816E8,7.840384E6,1.4883177E9,4.9960346E8,2.0973517E8,4.4352243E8,6.048042E6,3.1638982E8,5.6541926E8,3.559859E7,3.1652045E8,7.017971E7,2.92156E7,5.5367936E7,5.137008E7,3.2973107E8,2.114426E6,8.024096E6,0E0,0E0,0E0,0E0,0E0,0E0,0E0,0E0,0E0,0E0,0E0,0E0,0E0,0E0,0E0,0E0,0E0,0E0,0E0,0E0,0E0,0E0,0E0,0E0,0E0,0E0,0E0,0E0,0E0,0E0,0E0,0E0,0E0,0E0,0E0,0E0,0E0,0E0,0E0,0E0,0E0,0E0,0E0,0E0,0E0,0E0,0E0,0E0,0E0,0E0,0E0,0E0,0E0,0E0,0E0,0E0,0E0,0E0,0E0,0E0,0E0,0E0,0E0,0E0],"parents":[2147483647,0,0,1,1,2,2,3,3,4,4,5,5,6,6,7,7,8,8,9,9,10,10,11,11,12,12,13,13,14,14,15,15,16,16,17,17,18,18,19,19,20,20,21,21,22,22,23,23,24,24,25,25,26,26,27,27,28,28,29,29,30,30,31,31,32,32,33,33,34,34,35,35,36,36,37,37,38,38,39,39,40,40,41,41,42,42,43,43,44,44,45,45,46,46,47,47,48,48,49,49,50,50,51,51,52,52,53,53,54,54,55,55,56,56,57,57,58,58,59,59,60,60,61,61,62,62],"right_children":[2,4,6,8,10,12,14,16,18,20,22,24,26,28,30,32,34,36,38,40,42,44,46,48,50,52,54,56,58,60,62,64,66,68,70,72,74,76,78,80,82,84,86,88,90,92,94,96,98,100,102,104,106,108,110,112,114,116,118,120,122,124,126,-1,-1,-1,-1,-1,-1,-1,-1,-1,-1,-1,-1,-1,-1,-1,-1,-1,-1,-1,-1,-1,-1,-1,-1,-1,-1,-1,-1,-1,-1,-1,-1,-1,-1,-1,-1,-1,-1,-1,-1,-1,-1,-1,-1,-1,-1,-1,-1,-1,-1,-1,-1,-1,-1,-1,-1,-1,-1,-1,-1,-1,-1,-1,-1],"split_conditions":[5.185E-1,1.0184745E0,2.218E0,4.252679E-2,6.859012E-2,9.621191E-2,5.04E0,7.9500005E-2,1.6943893E0,8.535714E-1,7.216981E-1,1.811931E0,3E1,9.044743E-2,2.35E1,1.05E1,2E1,1.3925001E-1,9E-1,5.3691006E0,1E-1,1.25E-1,2.2284136E0,7.138365E-1,1.9630363E0,9.6884435E-1,1.7660604E0,1.8465347E0,5.5E-1,5.5E0,2E0,2.5E0,1.0057286E0,9.782609E-1,1.894E0,9.5399916E-1,6.9285717E0,4.21875E-1,1.8728836E0,2.2264816E-1,9.5E0,3.9363298E0,5.345145E0,5.5E0,1.5E0,2.515E-1,2.0351796E0,1.05E1,7.408037E-1,5.833334E-1,2.5E0,1.15E1,1.1067479E0,1.5880728E0,1.9995395E0,3.5E0,4.754711E0,4.669078E-1,1.7524753E0,1.9914005E0,1.5E0,2.173913E0,6.314292E0,2.0011574E1,1.1454038E1,1.8721985E1,2.7393375E1,2.0120731E1,3.2640766E1,5.1177925E1,2.7825195E1,3.8622147E1,2.4685373E1,4.5981953E1,1.2805626E2,2.4771321E2,1.1577822E2,8.1595665E1,3.9402664E1,3.496167E1,1.9133091E1,4.412808E1,6.9103615E1,2.2730192E1,3.913924E1,3.2133247E1,5.3034912E1,3.9843338E1,1.8015256E2,2.3662407E1,6.6810005E1,5.7019924E1,4.0809967E1,1.957556E1,3.1682209E1,2.1293268E2,6.354311E1,9.247675E1,5.6050766E1,1.3316412E2,2.4446808E2,7.806355E1,2.4046509E2,2.7011166E0,1.1463154E1,7.549436E1,2.0138165E1,4.2163002E1,1.1241828E2,4.9828514E1,2.9123827E1,9.34681E1,1.5279712E2,1.9980849E2,4.584128E1,1.1523905E1,4.5374397E1,9.745474E1,3.7932476E1,9.66242E1,3.0501883E0,1.2337738E2,2.3235088E2,3.751996E1,3.15625E0,1.0615266E2,4.257961E1],"split_indices":[53,16,53,108,53,33,55,53,31,12,26,31,31,33,111,112,44,53,26,33,38,37,33,26,31,33,33,31,46,111,63,112,19,16,42,12,30,21,31,44,111,91,17,111,23,42,101,111,31,98,10,112,33,33,33,66,31,31,33,26,69,10,1,0,0,0,0,0,0,0,0,0,0,0,0,0,0,0,0,0,0,0,0,0,0,0,0,0,0,0,0,0,0,0,0,0,0,0,0,0,0,0,0,0,0,0,0,0,0,0,0,0,0,0,0,0,0,0,0,0,0,0,0,0,0,0,0],"split_type":[0,0,0,0,0,0,0,0,0,0,0,0,0,0,0,0,0,0,0,0,0,0,0,0,0,0,0,0,0,0,0,0,0,0,0,0,0,0,0,0,0,0,0,0,0,0,0,0,0,0,0,0,0,0,0,0,0,0,0,0,0,0,0,0,0,0,0,0,0,0,0,0,0,0,0,0,0,0,0,0,0,0,0,0,0,0,0,0,0,0,0,0,0,0,0,0,0,0,0,0,0,0,0,0,0,0,0,0,0,0,0,0,0,0,0,0,0,0,0,0,0,0,0,0,0,0,0],"sum_hessian":[2.9506E4,2.6207E4,3.299E3,2.018E4,6.027E3,2.803E3,4.96E2,1.8997E4,1.183E3,4.159E3,1.868E3,1.961E3,8.42E2,3.78E2,1.18E2,1.5978E4,3.019E3,9.95E2,1.88E2,1.004E3,3.155E3,3.6E1,1.832E3,1.855E3,1.06E2,4.48E2,3.94E2,2.96E2,8.2E1,9.8E1,2E1,7.652E3,8.326E3,1.764E3,1.255E3,7.77E2,2.18E2,3.4E1,1.54E2,6.11E2,3.93E2,1.996E3,1.159E3,1.8E1,1.8E1,1.706E3,1.26E2,1.27E2,1.728E3,3.8E1,6.8E1,1.27E2,3.21E2,1.87E2,2.07E2,2.75E2,2.1E1,4.8E1,3.4E1,1.4E1,8.4E1,8E0,1.2E1,